{"learner":{"attributes":{"scikit_learn":"{\"_estimator_type\": \"classifier\"}"},"feature_names":["dim_1","dim_2","dim_3","dim_4","dim_5","dim_6","dim_7","dim_8","dim_9","dim_10","dim_11","dim_12","dim_13","dim_14","dim_15","dim_16","dim_17","dim_18","dim_19","dim_20","dim_21","dim_22","dim_23","dim_24","dim_25","dim_26","dim_27","dim_28","dim_29","dim_30","dim_31","dim_32","dim_33","dim_34","dim_35","dim_36","dim_37","dim_38","dim_39","dim_40","dim_41","dim_42","dim_43","dim_44","dim_45","dim_46","dim_47","dim_48","dim_49","dim_50","dim_51","dim_52","dim_53","dim_54","dim_55","dim_56","dim_57","dim_58","dim_59","dim_60","dim_61","dim_62","dim_63","dim_64","dim_65","dim_66","dim_67","dim_68","dim_69","dim_70","dim_71","dim_72","dim_73","dim_74","dim_75","dim_76","dim_77","dim_78","dim_79","dim_80","dim_81","dim_82","dim_83","dim_84","dim_85","dim_86","dim_87","dim_88","dim_89","dim_90","dim_91","dim_92","dim_93","dim_94","dim_95","dim_96","dim_97","dim_98","dim_99","dim_100","dim_101","dim_102","dim_103","dim_104","dim_105","dim_106","dim_107","dim_108","dim_109","dim_110","dim_111","dim_112","dim_113","dim_114","dim_115","dim_116","dim_117","dim_118","dim_119","dim_120","dim_121","dim_122","dim_123","dim_124","dim_125","dim_126","dim_127","dim_128"],"feature_types":["float","float","float","float","float","float","float","float","float","float","float","float","float","float","float","float","float","float","float","float","float","float","float","float","float","float","float","float","float","float","float","float","float","float","float","float","float","float","float","float","float","float","float","float","float","float","float","float","float","float","float","float","float","float","float","float","float","float","float","float","float","float","float","float","float","float","float","float","float","float","float","float","float","float","float","float","float","float","float","float","float","float","float","float","float","float","float","float","float","float","float","float","float","float","float","float","float","float","float","float","float","float","float","float","float","float","float","float","float","float","float","float","float","float","float","float","float","float","float","float","float","float","float","float","float","float","float","float"],"gradient_booster":{"model":{"gbtree_model_param":{"num_parallel_tree":"1","num_trees":"600"},"iteration_indptr":[0,6,12,18,24,30,36,42,48,54,60,66,72,78,84,90,96,102,108,114,120,126,132,138,144,150,156,162,168,174,180,186,192,198,204,210,216,222,228,234,240,246,252,258,264,270,276,282,288,294,300,306,312,318,324,330,336,342,348,354,360,366,372,378,384,390,396,402,408,414,420,426,432,438,444,450,456,462,468,474,480,486,492,498,504,510,516,522,528,534,540,546,552,558,564,570,576,582,588,594,600],"tree_info":[0,1,2,3,4,5,0,1,2,3,4,5,0,1,2,3,4,5,0,1,2,3,4,5,0,1,2,3,4,5,0,1,2,3,4,5,0,1,2,3,4,5,0,1,2,3,4,5,0,1,2,3,4,5,0,1,2,3,4,5,0,1,2,3,4,5,0,1,2,3,4,5,0,1,2,3,4,5,0,1,2,3,4,5,0,1,2,3,4,5,0,1,2,3,4,5,0,1,2,3,4,5,0,1,2,3,4,5,0,1,2,3,4,5,0,1,2,3,4,5,0,1,2,3,4,5,0,1,2,3,4,5,0,1,2,3,4,5,0,1,2,3,4,5,0,1,2,3,4,5,0,1,2,3,4,5,0,1,2,3,4,5,0,1,2,3,4,5,0,1,2,3,4,5,0,1,2,3,4,5,0,1,2,3,4,5,0,1,2,3,4,5,0,1,2,3,4,5,0,1,2,3,4,5,0,1,2,3,4,5,0,1,2,3,4,5,0,1,2,3,4,5,0,1,2,3,4,5,0,1,2,3,4,5,0,1,2,3,4,5,0,1,2,3,4,5,0,1,2,3,4,5,0,1,2,3,4,5,0,1,2,3,4,5,0,1,2,3,4,5,0,1,2,3,4,5,0,1,2,3,4,5,0,1,2,3,4,5,0,1,2,3,4,5,0,1,2,3,4,5,0,1,2,3,4,5,0,1,2,3,4,5,0,1,2,3,4,5,0,1,2,3,4,5,0,1,2,3,4,5,0,1,2,3,4,5,0,1,2,3,4,5,0,1,2,3,4,5,0,1,2,3,4,5,0,1,2,3,4,5,0,1,2,3,4,5,0,1,2,3,4,5,0,1,2,3,4,5,0,1,2,3,4,5,0,1,2,3,4,5,0,1,2,3,4,5,0,1,2,3,4,5,0,1,2,3,4,5,0,1,2,3,4,5,0,1,2,3,4,5,0,1,2,3,4,5,0,1,2,3,4,5,0,1,2,3,4,5,0,1,2,3,4,5,0,1,2,3,4,5,0,1,2,3,4,5,0,1,2,3,4,5,0,1,2,3,4,5,0,1,2,3,4,5,0,1,2,3,4,5,0,1,2,3,4,5,0,1,2,3,4,5,0,1,2,3,4,5,0,1,2,3,4,5,0,1,2,3,4,5,0,1,2,3,4,5,0,1,2,3,4,5,0,1,2,3,4,5,0,1,2,3,4,5,0,1,2,3,4,5,0,1,2,3,4,5,0,1,2,3,4,5,0,1,2,3,4,5,0,1,2,3,4,5,0,1,2,3,4,5,0,1,2,3,4,5,0,1,2,3,4,5,0,1,2,3,4,5,0,1,2,3,4,5,0,1,2,3,4,5],"trees":[{"base_weights":[2.5711697E-2,-7.463323E-2,4.9492612E-2,1.0312499E0,-7.962148E-2,3.508271E-1,4.49822E-2,-1.12500004E-1,1.5306121E0,-8.7243475E-2,3.065693E-1,6.862348E-1,-8.045979E-2,2.8165933E-1,3.9298993E-2,-9.4736844E-2,6.230769E-1,-7.343776E-2,-3.6801243E-1,-1.5463942E-2,9.7752804E-1,4.4223103E-1,1.3636363E0,3.9622638E-1,-3.9130434E-1,2.7447126E-3,4.6084872E-1,2.953214E-2,1.465021E-1,8.709677E-1,-7.673543E-2,1.518987E-1,-4.337979E-1,-3.5361218E-1,6.083915E-1,-6.8181835E-2,1.6666665E0,-1.5810812E-1,6.59711E-1,1.7019229E0,-1.4285715E-1,8.719211E-1,-3.8345864E-1,-4.8803827E-1,1.8072286E-1,-1.6276596E-1,1.1375944E-1,5.9201765E-1,-8.875742E-2,-2.5037938E-1,3.3083316E-2,9.551841E-2,4.8171696E-1,-1.12500004E-1,4.7142854E-1,1.4030416E-1,-2.4657542E-2,-1.06779665E-1,3.413793E-1,1.5517241E-1,-1.429603E-1,5.421686E-2,-1.6363637E-1,-1.3561645E-1,4.090909E-1,1.8947369E-1,-1.3235295E-1,6.545454E-1,-9.4736844E-2,2.6926228E-1,-5.2941184E-2,-1.12500004E-1,6.2696624E-1,4.736842E-2,-1.0465116E-1,-8.1818186E-2,4.5338342E-1,-1.5132743E-1,4.736842E-2,6.206896E-2,-1.7142856E-1,2.7209303E-1,-1.2413794E-1,-1.1208049E-3,2.3478259E-1,2.3035713E-1,2.2314042E-2,1.2857142E-1,-1.17040366E-1,-1.04651175E-1,8.2568794E-2,2.0190112E-1,9.4354125E-3,3.7024215E-2,-9.36803E-2,-1.556391E-1,1.7716534E-1],"categories":[],"categories_nodes":[],"categories_segments":[],"categories_sizes":[],"default_left":[0,0,0,0,0,0,0,0,0,0,0,0,0,0,0,0,0,0,0,0,0,0,0,0,0,0,0,0,0,0,0,0,0,0,0,0,0,0,0,0,0,0,0,0,0,0,0,0,0,0,0,0,0,0,0,0,0,0,0,0,0,0,0,0,0,0,0,0,0,0,0,0,0,0,0,0,0,0,0,0,0,0,0,0,0,0,0,0,0,0,0,0,0,0,0,0,0],"id":0,"left_children":[1,3,5,7,9,11,13,-1,15,17,19,21,23,25,27,-1,-1,29,31,33,35,37,39,41,43,45,47,49,51,53,55,57,59,61,63,65,67,-1,69,71,73,75,77,79,81,-1,83,85,87,89,91,93,95,-1,-1,-1,-1,-1,-1,-1,-1,-1,-1,-1,-1,-1,-1,-1,-1,-1,-1,-1,-1,-1,-1,-1,-1,-1,-1,-1,-1,-1,-1,-1,-1,-1,-1,-1,-1,-1,-1,-1,-1,-1,-1,-1,-1],"loss_changes":[1.9524643E1,8.730015E0,8.9732895E0,5.567602E0,4.623254E0,1.414319E1,8.75537E0,0E0,6.147729E0,5.911768E0,6.593279E0,8.469461E0,6.600671E0,7.628792E0,6.66082E0,0E0,0E0,4.6186147E0,2.51328E0,4.7624006E0,7.239957E0,9.165911E0,7.4062195E0,6.886771E0,1.5730071E0,3.7376075E0,6.753027E0,5.808801E0,9.033789E0,5.098502E0,4.3676653E0,4.8003907E0,2.838667E0,1.5963337E0,6.9791155E0,1.554672E0,6.8165836E0,0E0,7.0414677E0,1.0094856E1,2.7190065E-1,8.665685E0,5.6351066E-1,1.4639735E0,2.366238E0,0E0,4.0326777E0,6.7846375E0,3.094864E0,3.885282E0,5.9974413E0,5.2984195E0,7.916584E0,0E0,0E0,0E0,0E0,0E0,0E0,0E0,0E0,0E0,0E0,0E0,0E0,0E0,0E0,0E0,0E0,0E0,0E0,0E0,0E0,0E0,0E0,0E0,0E0,0E0,0E0,0E0,0E0,0E0,0E0,0E0,0E0,0E0,0E0,0E0,0E0,0E0,0E0,0E0,0E0,0E0,0E0,0E0,0E0],"parents":[2147483647,0,0,1,1,2,2,3,3,4,4,5,5,6,6,8,8,9,9,10,10,11,11,12,12,13,13,14,14,17,17,18,18,19,19,20,20,21,21,22,22,23,23,24,24,25,25,26,26,27,27,28,28,29,29,30,30,31,31,32,32,33,33,34,34,35,35,36,36,38,38,39,39,40,40,41,41,42,42,43,43,44,44,46,46,47,47,48,48,49,49,50,50,51,51,52,52],"right_children":[2,4,6,8,10,12,14,-1,16,18,20,22,24,26,28,-1,-1,30,32,34,36,38,40,42,44,46,48,50,52,54,56,58,60,62,64,66,68,-1,70,72,74,76,78,80,82,-1,84,86,88,90,92,94,96,-1,-1,-1,-1,-1,-1,-1,-1,-1,-1,-1,-1,-1,-1,-1,-1,-1,-1,-1,-1,-1,-1,-1,-1,-1,-1,-1,-1,-1,-1,-1,-1,-1,-1,-1,-1,-1,-1,-1,-1,-1,-1,-1,-1],"split_conditions":[-3.5960127E-2,-5.468785E-3,-3.8570914E-2,-3.3987384E-2,2.9540546E-2,-7.0952126E-3,-3.5917737E-2,-1.12500004E-1,-7.738185E-3,8.482424E-3,-6.599883E-2,2.6952615E-3,4.6232656E-2,2.6620156E-3,3.5090085E-2,-9.4736844E-2,6.230769E-1,-1.2127542E-2,1.615734E-2,3.6520142E-2,2.9526444E-2,-4.119949E-3,-4.0307585E-2,-2.650328E-2,-3.972573E-2,-2.2343693E-2,3.5044607E-2,-4.0166922E-2,-2.2822262E-4,8.8872726E-4,-2.3983417E-2,1.9299392E-2,-3.71428E-2,1.1309106E-2,-5.0573807E-2,-3.346112E-3,-4.506602E-2,-1.5810812E-1,5.94156E-2,-2.119566E-2,9.89239E-3,-7.828811E-3,2.4338985E-2,-1.4141784E-4,-6.3454576E-2,-1.6276596E-1,4.93177E-2,-2.1068763E-2,-6.327665E-2,-2.2014154E-2,-4.137106E-2,-7.871851E-3,-1.2506451E-2,-1.12500004E-1,4.7142854E-1,1.4030416E-1,-2.4657542E-2,-1.06779665E-1,3.413793E-1,1.5517241E-1,-1.429603E-1,5.421686E-2,-1.6363637E-1,-1.3561645E-1,4.090909E-1,1.8947369E-1,-1.3235295E-1,6.545454E-1,-9.4736844E-2,2.6926228E-1,-5.2941184E-2,-1.12500004E-1,6.2696624E-1,4.736842E-2,-1.0465116E-1,-8.1818186E-2,4.5338342E-1,-1.5132743E-1,4.736842E-2,6.206896E-2,-1.7142856E-1,2.7209303E-1,-1.2413794E-1,-1.1208049E-3,2.3478259E-1,2.3035713E-1,2.2314042E-2,1.2857142E-1,-1.17040366E-1,-1.04651175E-1,8.2568794E-2,2.0190112E-1,9.4354125E-3,3.7024215E-2,-9.36803E-2,-1.556391E-1,1.7716534E-1],"split_indices":[50,48,48,29,81,125,84,0,19,10,62,115,66,48,3,0,0,5,127,76,74,57,124,95,27,65,38,111,39,11,126,12,68,106,37,14,34,0,43,103,0,57,0,91,3,0,23,96,31,57,87,35,0,0,0,0,0,0,0,0,0,0,0,0,0,0,0,0,0,0,0,0,0,0,0,0,0,0,0,0,0,0,0,0,0,0,0,0,0,0,0,0,0,0,0,0,0],"split_type":[0,0,0,0,0,0,0,0,0,0,0,0,0,0,0,0,0,0,0,0,0,0,0,0,0,0,0,0,0,0,0,0,0,0,0,0,0,0,0,0,0,0,0,0,0,0,0,0,0,0,0,0,0,0,0,0,0,0,0,0,0,0,0,0,0,0,0,0,0,0,0,0,0,0,0,0,0,0,0,0,0,0,0,0,0,0,0,0,0,0,0,0,0,0,0,0,0],"sum_hessian":[8.179445E3,1.5666667E3,6.6127783E3,6.1111116E0,1.5605557E3,9.638889E1,6.516389E3,1.6666667E0,4.4444447E0,1.5311112E3,2.9444447E1,5.3888893E1,4.2500004E1,1.5166667E2,6.3647227E3,1.1111112E0,3.3333335E0,1.4605557E3,7.055556E1,2.0555557E1,8.888889E0,4.0833336E1,1.3055556E1,1.6666668E1,2.5833334E1,5.9722225E1,9.194445E1,5.834445E3,5.3027783E2,4.166667E0,1.4563889E3,7.777778E0,6.2777782E1,1.3611112E1,6.9444447E0,3.888889E0,5E0,7.2222223E0,3.3611115E1,1.0555556E1,2.5E0,1.0277779E1,6.3888893E0,2.2222223E1,3.6111112E0,9.444445E0,5.027778E1,7.416667E1,1.7777779E1,7.222223E1,5.7622227E3,4.6138892E2,6.888889E1,1.6666667E0,2.5E0,1.3611112E1,1.4427778E3,5.555556E0,2.2222223E0,2.2222223E0,6.0555557E1,3.6111112E0,1E1,3.0555558E0,3.888889E0,1.1111112E0,2.777778E0,3.888889E0,1.1111112E0,2.6111113E1,7.5000005E0,1.6666667E0,8.888889E0,1.1111112E0,1.388889E0,3.888889E0,6.3888893E0,5.277778E0,1.1111112E0,2.2222223E0,2E1,1.388889E0,2.2222223E0,4.3611115E1,6.666667E0,5.5000004E1,1.9166668E1,6.3888893E0,1.1388889E1,6.1111115E1,1.1111112E1,1.3611112E1,5.7486113E3,4.3250003E2,2.888889E1,6.3888893E0,6.2500004E1],"tree_param":{"num_deleted":"0","num_feature":"128","num_nodes":"97","size_leaf_vector":"1"}},{"base_weights":[2.0223022E-1,3.277287E-1,3.0049248E-2,4.28141E-1,2.5465155E-1,8.0437586E-2,-2.6008922E-1,1.8394947E-1,4.440085E-1,2.1255895E-1,3.5446325E-1,1.1286134E-1,-6.29285E-2,-8.7840185E-2,-3.3861762E-1,5.397923E-1,5.7901055E-2,5.0109774E-1,3.797396E-1,2.3085392E-1,-7.6332234E-2,3.7138057E-1,-4.0243903E-1,5.003623E-2,1.873575E-1,-1.4257719E-1,7.0338026E-2,7.342657E-1,-1.2958965E-1,-3.461722E-1,2.7209303E-1,9.4565207E-1,-1.5789475E-1,4.193548E-1,-1.2343472E-1,4.912749E-1,1.3723403E0,2.7934635E-1,4.8881277E-1,2.2151777E-1,7.9732305E-1,-1.2071537E-1,9.545454E-1,9.8130834E-1,3.521025E-1,1.8947369E-1,-5.064935E-1,1.2622555E-1,-4.3966524E-2,-1.6853935E-1,2.075108E-1,-1.822481E-1,2.0062205E-1,6.4217246E-1,1.6898876E-2,-1.1886793E-1,1.1666666E0,-4.1935483E-1,-5.630029E-2,-3.1398514E-1,-5.6345177E-1,6.923076E-2,3.888889E-1,2.3424657E-1,-1.6127169E-1,3.9374998E-1,4.419642E-2,-5.5617984E-2,2.6470587E-1,1.5061478E-1,-5.6250006E-2,-9.4736844E-2,4.8214284E-1,5.1240332E-2,1.3014899E-1,3.0841114E-2,1.6300915E-1,6.444081E-2,2.8939927E-1,2.6011553E-2,3.277174E-1,9.999999E-2,-6.696915E-2,-3.1034486E-2,5.625E-1,5.181818E-1,9.435483E-2,1.20280795E-1,3.3445936E-2,-1.6875E-1,4.736842E-2,3.2531828E-2,2.4146341E-1,2.8215637E-2,-3.3024047E-2,-7.1261E-2,2.9999998E-1,6.795541E-2,-2.8049875E-2,5.2554738E-2,-6.6304356E-2,1.0975609E-1,-1.5468751E-1,-1.03539824E-1,3.302752E-1,2.3045814E-2,-1.212766E-1,-9.4736844E-2,4.7045454E-1,-1.6192469E-1,7.346938E-2,5.3846143E-2,-7.8553624E-2,-1.0242046E-1,1.3235286E-2,-1.756393E-1,-4.2857148E-2],"categories":[],"categories_nodes":[],"categories_segments":[],"categories_sizes":[],"default_left":[0,0,0,0,0,0,0,0,0,0,0,0,0,0,0,0,0,0,0,0,0,0,0,0,0,0,0,0,0,0,0,0,0,0,0,0,0,0,0,0,0,0,0,0,0,0,0,0,0,0,0,0,0,0,0,0,0,0,0,0,0,0,0,0,0,0,0,0,0,0,0,0,0,0,0,0,0,0,0,0,0,0,0,0,0,0,0,0,0,0,0,0,0,0,0,0,0,0,0,0,0,0,0,0,0,0,0,0,0,0,0,0,0,0,0,0,0],"id":1,"left_children":[1,3,5,7,9,11,13,15,17,19,21,23,25,27,29,31,33,35,37,39,41,43,45,47,49,51,53,55,57,59,-1,61,63,65,67,69,71,73,75,77,79,81,83,85,87,-1,89,91,93,95,97,99,101,103,105,-1,107,109,111,113,115,-1,-1,-1,-1,-1,-1,-1,-1,-1,-1,-1,-1,-1,-1,-1,-1,-1,-1,-1,-1,-1,-1,-1,-1,-1,-1,-1,-1,-1,-1,-1,-1,-1,-1,-1,-1,-1,-1,-1,-1,-1,-1,-1,-1,-1,-1,-1,-1,-1,-1,-1,-1,-1,-1,-1,-1],"loss_changes":[1.767569E2,3.461032E1,5.04569E1,7.635071E0,1.1440506E1,1.367437E1,6.8785133E0,5.4956837E0,6.668396E0,1.0220512E1,1.0541222E1,1.1214863E1,5.773114E0,5.630607E0,3.6116295E0,9.241998E0,6.089139E0,7.7712097E0,9.537949E0,9.426086E0,5.4099345E0,8.994438E0,2.2804961E0,9.333267E0,7.9020042E0,4.667942E0,6.21626E0,4.3457136E0,3.2539215E0,2.2642403E0,0E0,4.825651E0,4.9342694E0,7.338565E0,4.034169E0,7.2421417E0,4.647455E0,7.679455E0,8.832634E0,8.71373E0,5.997673E0,5.279901E0,4.954937E0,1.128389E1,9.021179E0,0E0,7.2552156E-1,8.598858E0,5.3372755E0,5.0213513E0,5.962826E0,4.2710476E0,4.416248E0,8.25576E0,4.7599573E0,0E0,4.0665865E0,2.611319E0,6.0728073E0,3.0220623E0,3.216734E-1,0E0,0E0,0E0,0E0,0E0,0E0,0E0,0E0,0E0,0E0,0E0,0E0,0E0,0E0,0E0,0E0,0E0,0E0,0E0,0E0,0E0,0E0,0E0,0E0,0E0,0E0,0E0,0E0,0E0,0E0,0E0,0E0,0E0,0E0,0E0,0E0,0E0,0E0,0E0,0E0,0E0,0E0,0E0,0E0,0E0,0E0,0E0,0E0,0E0,0E0,0E0,0E0,0E0,0E0,0E0,0E0],"parents":[2147483647,0,0,1,1,2,2,3,3,4,4,5,5,6,6,7,7,8,8,9,9,10,10,11,11,12,12,13,13,14,14,15,15,16,16,17,17,18,18,19,19,20,20,21,21,22,22,23,23,24,24,25,25,26,26,27,27,28,28,29,29,31,31,32,32,33,33,34,34,35,35,36,36,37,37,38,38,39,39,40,40,41,41,42,42,43,43,44,44,46,46,47,47,48,48,49,49,50,50,51,51,52,52,53,53,54,54,56,56,57,57,58,58,59,59,60,60],"right_children":[2,4,6,8,10,12,14,16,18,20,22,24,26,28,30,32,34,36,38,40,42,44,46,48,50,52,54,56,58,60,-1,62,64,66,68,70,72,74,76,78,80,82,84,86,88,-1,90,92,94,96,98,100,102,104,106,-1,108,110,112,114,116,-1,-1,-1,-1,-1,-1,-1,-1,-1,-1,-1,-1,-1,-1,-1,-1,-1,-1,-1,-1,-1,-1,-1,-1,-1,-1,-1,-1,-1,-1,-1,-1,-1,-1,-1,-1,-1,-1,-1,-1,-1,-1,-1,-1,-1,-1,-1,-1,-1,-1,-1,-1,-1,-1,-1,-1],"split_conditions":[-8.316433E-3,-4.754755E-3,4.139755E-2,-7.2434423E-3,1.7248461E-3,2.0747628E-2,2.7883885E-2,-1.8578218E-2,2.7860325E-2,3.2026127E-2,5.341835E-3,-8.488001E-3,1.3097933E-2,-1.7278928E-2,-1.552026E-3,2.167829E-2,-1.8362414E-2,5.13456E-2,1.387788E-2,3.2409932E-2,2.8095976E-2,-2.9299632E-2,-3.132231E-2,6.28559E-3,-3.0199619E-2,-2.1441033E-2,-3.3772904E-2,1.5412764E-2,-9.447663E-3,7.363585E-3,2.7209303E-1,2.211651E-2,2.4984222E-2,1.0083368E-2,1.3367941E-2,1.1034619E-2,-2.05113E-2,7.5038755E-3,-2.2369765E-2,3.397694E-2,7.3171407E-3,9.985534E-3,-1.3020188E-2,3.667547E-2,-1.4791224E-2,1.8947369E-1,3.404881E-4,3.2417092E-2,-2.0371328E-5,4.521605E-2,3.3332918E-2,-1.9178971E-3,-5.5582616E-3,-4.395086E-2,-2.5056638E-3,-1.1886793E-1,1.2150812E-2,-2.9928654E-2,3.028405E-3,3.0402497E-3,3.0003648E-2,6.923076E-2,3.888889E-1,2.3424657E-1,-1.6127169E-1,3.9374998E-1,4.419642E-2,-5.5617984E-2,2.6470587E-1,1.5061478E-1,-5.6250006E-2,-9.4736844E-2,4.8214284E-1,5.1240332E-2,1.3014899E-1,3.0841114E-2,1.6300915E-1,6.444081E-2,2.8939927E-1,2.6011553E-2,3.277174E-1,9.999999E-2,-6.696915E-2,-3.1034486E-2,5.625E-1,5.181818E-1,9.435483E-2,1.20280795E-1,3.3445936E-2,-1.6875E-1,4.736842E-2,3.2531828E-2,2.4146341E-1,2.8215637E-2,-3.3024047E-2,-7.1261E-2,2.9999998E-1,6.795541E-2,-2.8049875E-2,5.2554738E-2,-6.6304356E-2,1.0975609E-1,-1.5468751E-1,-1.03539824E-1,3.302752E-1,2.3045814E-2,-1.212766E-1,-9.4736844E-2,4.7045454E-1,-1.6192469E-1,7.346938E-2,5.3846143E-2,-7.8553624E-2,-1.0242046E-1,1.3235286E-2,-1.756393E-1,-4.2857148E-2],"split_indices":[34,108,33,83,118,121,63,117,24,110,92,24,109,67,27,12,91,59,110,115,18,34,122,14,124,122,76,18,56,115,0,29,96,72,85,58,38,117,97,9,5,68,125,77,31,0,0,28,105,18,113,108,72,102,15,0,43,24,56,115,99,0,0,0,0,0,0,0,0,0,0,0,0,0,0,0,0,0,0,0,0,0,0,0,0,0,0,0,0,0,0,0,0,0,0,0,0,0,0,0,0,0,0,0,0,0,0,0,0,0,0,0,0,0,0,0,0],"split_type":[0,0,0,0,0,0,0,0,0,0,0,0,0,0,0,0,0,0,0,0,0,0,0,0,0,0,0,0,0,0,0,0,0,0,0,0,0,0,0,0,0,0,0,0,0,0,0,0,0,0,0,0,0,0,0,0,0,0,0,0,0,0,0,0,0,0,0,0,0,0,0,0,0,0,0,0,0,0,0,0,0,0,0,0,0,0,0,0,0,0,0,0,0,0,0,0,0,0,0,0,0,0,0,0,0,0,0,0,0,0,0,0,0,0,0,0,0],"sum_hessian":[8.179445E3,4.7305557E3,3.4488892E3,1.9905557E3,2.7400002E3,2.9391667E3,5.0972226E2,1.2222223E2,1.8683334E3,1.9294446E3,8.105556E2,2.3972224E3,5.4194446E2,1.6027779E2,3.4944446E2,3.1111113E1,9.1111115E1,9.858334E2,8.8250006E2,1.8147223E3,1.1472223E2,7.933334E2,1.7222223E1,1.3013889E3,1.0958334E3,3.391667E2,2.0277779E2,6.9444447E0,1.5333334E2,3.4805557E2,1.388889E0,1.9444445E1,1.1666667E1,3.0000002E1,6.1111115E1,9.763889E2,9.444445E0,4.6138892E2,4.2111115E2,1.7866667E3,2.8055557E1,1.10833336E2,3.888889E0,2.2777779E1,7.705556E2,1.1111112E0,1.6111113E1,7.1861115E2,5.8277783E2,5.8333336E1,1.0375E3,3.0444446E2,3.4722225E1,1.638889E1,1.863889E2,1.9444445E0,5E0,3.0000002E1,1.23333336E2,3.052778E2,4.277778E1,6.9444447E0,1.2500001E1,3.0555558E0,8.611112E0,6.1111116E0,2.388889E1,5.8333336E1,2.777778E0,9.613889E2,1.5000001E1,1.1111112E0,8.333334E0,2.7222223E2,1.8916667E2,5.2500004E1,3.686111E2,1.7719446E3,1.4722223E1,8.611112E0,1.9444445E1,2E1,9.0833336E1,2.2222223E0,1.6666667E0,1E1,1.2777779E1,6.4E2,1.3055556E2,1.5000001E1,1.1111112E0,7.013889E2,1.7222223E1,1.8861111E2,3.941667E2,5.5833336E1,2.5E0,9.7611115E2,6.1388893E1,2.9444447E1,2.75E2,2.8611113E1,6.1111116E0,5.277778E0,1.1111112E1,1.638889E2,2.2500002E1,1.1111112E0,3.888889E0,2.5555557E1,4.4444447E0,5.7500004E1,6.5833336E1,2.836111E2,2.1666668E1,4.027778E1,2.5E0],"tree_param":{"num_deleted":"0","num_feature":"128","num_nodes":"117","size_leaf_vector":"1"}},{"base_weights":[-5.1386774E-1,-4.405643E-1,-5.183742E-1,-4.488743E-1,1.3043475E-1,-5.1904666E-1,-2.7659574E-1,1.8947369E-1,-4.5275036E-1,-2.0338984E-1,3.3157894E-1,-5.05302E-1,-5.290047E-1,6.17647E-1,-4.2627347E-1,-4.6237075E-1,-2.8846176E-2,-1.4693879E-1,1.8947369E-1,1.5544016E-2,-5.0687045E-1,-1.8987343E-1,-5.2955806E-1,3.976744E-1,-1.0465116E-1,8.4905654E-2,-5.147929E-1,-4.746336E-1,-1.6147311E-1,-4.33526E-1,3.9056602E-1,6.144578E-1,-3.75E-1,-5.1387817E-1,-4.319341E-1,-1.5254238E-1,5.1724136E-1,-5.299442E-1,-9.677421E-2,-1.6981132E-1,4.736842E-2,1.125E-1,-1.4360619E-1,-1.3038869E-1,2.25E-1,4.736842E-2,-1.5882352E-1,-1.2413794E-1,5.232558E-1,4.736842E-2,-1.5E-1,-1.5434955E-1,8.4905654E-2,-1.3150847E-1,1.8947369E-1,-9.4736844E-2,3.3157894E-1,-1.2986578E-1,-1.5961583E-1,-1.3561645E-1,1.8947369E-1],"categories":[],"categories_nodes":[],"categories_segments":[],"categories_sizes":[],"default_left":[0,0,0,0,0,0,0,0,0,0,0,0,0,0,0,0,0,0,0,0,0,0,0,0,0,0,0,0,0,0,0,0,0,0,0,0,0,0,0,0,0,0,0,0,0,0,0,0,0,0,0,0,0,0,0,0,0,0,0,0,0],"id":2,"left_children":[1,3,5,7,9,11,13,-1,15,17,-1,19,21,23,25,27,29,-1,-1,31,33,35,37,-1,-1,-1,39,41,43,45,-1,47,49,51,53,-1,55,57,59,-1,-1,-1,-1,-1,-1,-1,-1,-1,-1,-1,-1,-1,-1,-1,-1,-1,-1,-1,-1,-1,-1],"loss_changes":[2.473877E0,2.3382568E0,1.1086426E0,2.2700806E0,2.719699E0,7.836914E-1,3.408719E0,0E0,1.9142532E0,1.8770412E0,0E0,2.661377E0,7.3083496E-1,3.0471957E0,1.4467645E0,1.6284866E0,6.787308E0,0E0,0E0,2.7383728E0,1.4786987E0,2.2405286E0,6.879883E-1,0E0,0E0,0E0,7.3667765E-1,1.7069931E0,5.2086325E0,6.286262E-1,0E0,6.0782022E0,5.5263174E-1,1.6069336E0,2.212883E0,0E0,1.9274044E0,6.7419434E-1,1.6224852E0,0E0,0E0,0E0,0E0,0E0,0E0,0E0,0E0,0E0,0E0,0E0,0E0,0E0,0E0,0E0,0E0,0E0,0E0,0E0,0E0,0E0,0E0],"parents":[2147483647,0,0,1,1,2,2,3,3,4,4,5,5,6,6,8,8,9,9,11,11,12,12,13,13,14,14,15,15,16,16,19,19,20,20,21,21,22,22,26,26,27,27,28,28,29,29,31,31,32,32,33,33,34,34,36,36,37,37,38,38],"right_children":[2,4,6,8,10,12,14,-1,16,18,-1,20,22,24,26,28,30,-1,-1,32,34,36,38,-1,-1,-1,40,42,44,46,-1,48,50,52,54,-1,56,58,60,-1,-1,-1,-1,-1,-1,-1,-1,-1,-1,-1,-1,-1,-1,-1,-1,-1,-1,-1,-1,-1,-1],"split_conditions":[-3.387462E-2,4.817405E-3,3.9780382E-2,-3.1613737E-2,5.06376E-2,-1.1208118E-2,-1.4639357E-2,1.8947369E-1,3.641429E-2,4.6978E-3,3.3157894E-1,-4.147086E-2,-6.708401E-2,-9.591042E-3,-5.68044E-3,-7.166216E-3,-5.327258E-3,-1.4693879E-1,1.8947369E-1,-1.1593438E-2,1.4936349E-2,-3.204767E-3,2.9540546E-2,3.976744E-1,-1.0465116E-1,8.4905654E-2,1.7441548E-2,-5.43885E-2,2.1174544E-2,-1.6442277E-2,3.9056602E-1,-1.2716899E-2,-1.793426E-2,1.5643656E-2,5.6726497E-2,-1.5254238E-1,-5.523466E-2,-3.9171036E-2,-2.4701944E-2,-1.6981132E-1,4.736842E-2,1.125E-1,-1.4360619E-1,-1.3038869E-1,2.25E-1,4.736842E-2,-1.5882352E-1,-1.2413794E-1,5.232558E-1,4.736842E-2,-1.5E-1,-1.5434955E-1,8.4905654E-2,-1.3150847E-1,1.8947369E-1,-9.4736844E-2,3.3157894E-1,-1.2986578E-1,-1.5961583E-1,-1.3561645E-1,1.8947369E-1],"split_indices":[69,113,97,82,118,126,114,0,8,90,0,12,28,11,8,74,117,0,0,48,119,65,81,0,0,0,0,28,4,30,0,21,0,65,46,0,1,76,38,0,0,0,0,0,0,0,0,0,0,0,0,0,0,0,0,0,0,0,0,0,0],"split_type":[0,0,0,0,0,0,0,0,0,0,0,0,0,0,0,0,0,0,0,0,0,0,0,0,0,0,0,0,0,0,0,0,0,0,0,0,0,0,0,0,0,0,0,0,0,0,0,0,0,0,0,0,0,0,0,0,0,0,0,0,0],"sum_hessian":[8.179445E3,4.7944446E2,7.7000005E3,4.727778E2,6.666667E0,7.6775005E3,2.2500002E1,1.1111112E0,4.716667E2,5.555556E0,1.1111112E0,3.2472224E3,4.430278E3,2.777778E0,1.9722223E1,4.6111115E2,1.0555556E1,4.4444447E0,1.1111112E0,9.722222E0,3.2375002E3,7.777778E0,4.4225E3,1.388889E0,1.388889E0,1.9444445E0,1.7777779E1,4.4250003E2,1.8611113E1,8.611112E0,1.9444445E0,3.6111112E0,6.1111116E0,2.9552778E3,2.8222223E2,5.555556E0,2.2222223E0,4.4183335E3,4.166667E0,1.6666668E1,1.1111112E0,1.6666667E0,4.4083334E2,1.4722223E1,3.888889E0,1.1111112E0,7.5000005E0,2.2222223E0,1.388889E0,1.1111112E0,5E0,2.9533335E3,1.9444445E0,2.811111E2,1.1111112E0,1.1111112E0,1.1111112E0,9.8333336E1,4.32E3,3.0555558E0,1.1111112E0],"tree_param":{"num_deleted":"0","num_feature":"128","num_nodes":"61","size_leaf_vector":"1"}},{"base_weights":[-1.6804305E-1,-1.5818954E-1,-3.6720556E-1,-5.064935E-1,-1.5644088E-1,-4.0304306E-1,-7.031252E-2,-1.7414105E-1,-1.8987343E-1,8.709677E-1,-1.571052E-1,-4.2240494E-1,-6.7039125E-2,9.545454E-1,-1.9770776E-1,-1.5468751E-1,2.25E-1,8.823527E-2,5.232558E-1,-1.6620976E-1,-9.871247E-2,-2.738017E-1,-4.7288254E-1,-4.5454544E-1,3.7078646E-1,4.924528E-1,-1.6981138E-2,-2.630015E-1,2.7209303E-1,-1.12500004E-1,1.8947369E-1,-1.5266412E-1,-2.0922983E-1,-1.6742697E-1,-1.606896E-2,2.8867924E-1,-3.1451613E-1,1.4651163E-1,-4.8050138E-1,-1.6179776E-1,4.736842E-2,8.644067E-1,-1.3846155E-1,5.454545E-1,-3.7313434E-1,-3.038467E-2,-5.1707007E-2,-7.935894E-9,-6.570559E-2,-3.0517887E-2,-8.3355084E-2,2.7391303E-1,-9.352866E-3,-3.9823014E-2,-1.3695653E-1,-1.4734231E-1,2.903225E-2,-1.12500004E-1,4.090909E-1,-1.1886793E-1,3.9056602E-1,1.2857142E-1,-1.3548388E-1],"categories":[],"categories_nodes":[],"categories_segments":[],"categories_sizes":[],"default_left":[0,0,0,0,0,0,0,0,0,0,0,0,0,0,0,0,0,0,0,0,0,0,0,0,0,0,0,0,0,0,0,0,0,0,0,0,0,0,0,0,0,0,0,0,0,0,0,0,0,0,0,0,0,0,0,0,0,0,0,0,0,0,0],"id":3,"left_children":[1,3,5,7,9,11,13,-1,15,17,19,21,23,25,27,-1,-1,29,-1,31,33,35,37,39,41,-1,-1,43,-1,-1,-1,45,47,49,51,-1,53,-1,55,-1,-1,57,-1,59,61,-1,-1,-1,-1,-1,-1,-1,-1,-1,-1,-1,-1,-1,-1,-1,-1,-1,-1],"loss_changes":[1.5995636E1,4.6693573E0,4.0668488E0,7.915497E-1,5.432724E0,2.2045708E0,5.759367E0,0E0,3.0741692E0,3.3774993E0,4.1063843E0,2.3033943E0,3.5428925E0,3.48885E0,3.0355387E0,0E0,0E0,1.1876935E0,0E0,3.8766632E0,5.95154E0,4.560762E0,1.9976311E0,6.5630865E-1,4.461831E0,0E0,0E0,3.5325427E0,0E0,0E0,0E0,5.147896E0,3.2841492E0,4.1243515E0,6.7253594E0,0E0,2.0732527E0,0E0,1.5175133E0,0E0,0E0,4.5676036E0,0E0,3.9982843E0,2.3012586E0,0E0,0E0,0E0,0E0,0E0,0E0,0E0,0E0,0E0,0E0,0E0,0E0,0E0,0E0,0E0,0E0,0E0,0E0],"parents":[2147483647,0,0,1,1,2,2,3,3,4,4,5,5,6,6,8,8,9,9,10,10,11,11,12,12,13,13,14,14,17,17,19,19,20,20,21,21,22,22,23,23,24,24,27,27,31,31,32,32,33,33,34,34,36,36,38,38,41,41,43,43,44,44],"right_children":[2,4,6,8,10,12,14,-1,16,18,20,22,24,26,28,-1,-1,30,-1,32,34,36,38,40,42,-1,-1,44,-1,-1,-1,46,48,50,52,-1,54,-1,56,-1,-1,58,-1,60,62,-1,-1,-1,-1,-1,-1,-1,-1,-1,-1,-1,-1,-1,-1,-1,-1,-1,-1],"split_conditions":[5.4332003E-2,-4.1769415E-2,-1.8426077E-2,3.8113315E-2,-7.069551E-2,3.443778E-3,1.795656E-2,-1.7414105E-1,2.933435E-2,-6.0845623E-3,1.2988335E-2,4.2211134E-2,7.6216934E-3,1.4351254E-3,3.9745536E-2,-1.5468751E-1,2.25E-1,-4.9072694E-2,5.232558E-1,3.607366E-2,3.6506031E-3,-3.1448346E-2,-3.1065771E-2,-7.6393457E-3,2.3004588E-2,4.924528E-1,-1.6981138E-2,3.374233E-2,2.7209303E-1,-1.12500004E-1,1.8947369E-1,-1.4033914E-2,-4.464615E-2,-3.1431103E-3,-4.2115856E-2,2.8867924E-1,-3.9251678E-2,1.4651163E-1,3.0800542E-2,-1.6179776E-1,4.736842E-2,-3.1172177E-3,-1.3846155E-1,-1.3467934E-2,-2.3453305E-3,-3.038467E-2,-5.1707007E-2,-7.935894E-9,-6.570559E-2,-3.0517887E-2,-8.3355084E-2,2.7391303E-1,-9.352866E-3,-3.9823014E-2,-1.3695653E-1,-1.4734231E-1,2.903225E-2,-1.12500004E-1,4.090909E-1,-1.1886793E-1,3.9056602E-1,1.2857142E-1,-1.3548388E-1],"split_indices":[25,74,95,10,32,80,66,0,18,91,52,123,23,108,91,0,0,6,0,90,12,103,108,1,23,0,0,104,0,0,0,88,22,95,127,0,51,0,12,0,0,82,0,72,91,0,0,0,0,0,0,0,0,0,0,0,0,0,0,0,0,0,0],"split_type":[0,0,0,0,0,0,0,0,0,0,0,0,0,0,0,0,0,0,0,0,0,0,0,0,0,0,0,0,0,0,0,0,0,0,0,0,0,0,0,0,0,0,0,0,0,0,0,0,0,0,0,0,0,0,0,0,0,0,0,0,0,0,0],"sum_hessian":[8.179445E3,7.795556E3,3.8388892E2,3.75E1,7.758056E3,3.4222223E2,4.1666668E1,2.9722223E1,7.777778E0,4.166667E0,7.753889E3,3.2333334E2,1.888889E1,3.888889E0,3.777778E1,6.1111116E0,1.6666667E0,2.777778E0,1.388889E0,6.706389E3,1.0475E3,8.3611115E1,2.3972223E2,1E1,8.888889E0,1.9444445E0,1.9444445E0,3.638889E1,1.388889E0,1.6666667E0,1.1111112E0,5.103889E3,1.6025001E3,5.713889E2,4.7611115E2,1.9444445E0,8.166667E1,1.388889E0,2.3833334E2,8.888889E0,1.1111112E0,5.555556E0,3.3333335E0,3.888889E0,3.25E1,1.4158334E3,3.6880557E3,7.166667E1,1.5308334E3,3.5944446E2,2.1194446E2,6.666667E0,4.6944446E2,3.6666668E1,4.5000004E1,2.3416667E2,4.166667E0,1.6666667E0,3.888889E0,1.9444445E0,1.9444445E0,2.5E0,3.0000002E1],"tree_param":{"num_deleted":"0","num_feature":"128","num_nodes":"63","size_leaf_vector":"1"}},{"base_weights":[1.4294249E-1,-1.8625471E-1,1.5085217E-1,-2.9625428E-1,1.6467777E-1,-7.3573254E-2,1.5785395E-1,-3.2085562E-1,3.976744E-1,-9.316772E-2,4.9061656E-1,4.9061656E-1,-1.2574852E-1,7.1209794E-1,1.5522641E-1,-3.4701934E-1,3.7864074E-1,3.976744E-1,-2.2270744E-1,-2.2543354E-1,1.0183486E0,-2.1428573E-1,9.820627E-1,-4.303281E-2,-3.442623E-1,4.337349E-1,1.4393063E0,8.412185E-2,1.6934791E-1,-3.976234E-1,-2.4793413E-2,1.137931E0,-1.2857144E-1,-3.1914893E-1,1.8679243E-1,5.1724136E-1,-1.556391E-1,1.5652173E0,6.1224464E-2,-1.5810812E-1,3.3157894E-1,-1.1886793E-1,1.2765956E0,3.8059697E-1,-8.513819E-2,4.285714E-1,-3.846154E-1,2.3702027E-1,1.5205479E0,-5.029142E-9,1.7412586E0,4.17657E-1,6.6093765E-2,2.1811396E-1,1.3735741E-1,-8.873241E-2,-1.5905173E-1,-5.6756765E-2,3.3749998E-1,4.7368422E-1,4.736842E-2,-1.6744186E-1,1.475409E-2,-9.4736844E-2,3.3157894E-1,-5.029142E-9,5.9999996E-1,-1.3846155E-1,3.3157894E-1,5.345864E-1,1.2328761E-2,-1.4318182E-1,2.1818182E-1,-1.3012049E-1,-1.6378606E-3,-1.0465116E-1,3.3157894E-1,1.8947369E-1,-1.2458858E-1,3.0508474E-1,-1.3119541E-2,4.736842E-2,5.943396E-1,4.736842E-2,5.926829E-1,2.1458616E-2,2.7391303E-1,-7.5064495E-2,2.5133835E-2,7.092529E-2,-2.345794E-3,2.2089247E-1,3.992201E-2],"categories":[],"categories_nodes":[],"categories_segments":[],"categories_sizes":[],"default_left":[0,0,0,0,0,0,0,0,0,0,0,0,0,0,0,0,0,0,0,0,0,0,0,0,0,0,0,0,0,0,0,0,0,0,0,0,0,0,0,0,0,0,0,0,0,0,0,0,0,0,0,0,0,0,0,0,0,0,0,0,0,0,0,0,0,0,0,0,0,0,0,0,0,0,0,0,0,0,0,0,0,0,0,0,0,0,0,0,0,0,0,0,0],"id":4,"left_children":[1,3,5,7,9,11,13,15,-1,17,19,21,23,25,27,29,31,-1,33,35,37,39,41,43,45,47,49,51,53,55,57,59,-1,61,-1,63,-1,65,67,-1,-1,-1,69,71,73,75,77,79,81,-1,83,85,87,89,91,-1,-1,-1,-1,-1,-1,-1,-1,-1,-1,-1,-1,-1,-1,-1,-1,-1,-1,-1,-1,-1,-1,-1,-1,-1,-1,-1,-1,-1,-1,-1,-1,-1,-1,-1,-1,-1,-1],"loss_changes":[2.1328735E1,7.475463E0,1.256543E1,6.2838755E0,3.958325E0,7.1968374E0,1.1172363E1,2.7932396E0,0E0,5.226764E0,8.060136E0,7.3890657E0,4.0097795E0,6.7193584E0,7.729782E0,2.2847462E0,3.994882E0,0E0,2.2731175E0,2.3623514E0,6.2433834E0,4.4341593E0,5.5351124E0,2.9339035E0,2.0671945E0,5.5545106E0,4.1770077E0,7.6683702E0,1.0006622E1,1.4841843E0,4.024765E0,1.1433754E0,0E0,2.0960894E0,0E0,1.9274044E0,0E0,5.217394E0,3.481616E0,0E0,0E0,0E0,6.447975E0,4.7751007E0,4.130042E0,2.2267876E0,2.0861282E0,5.433486E0,2.232522E0,0E0,2.63595E0,1.1156271E1,6.820327E0,1.053405E1,9.877548E0,0E0,0E0,0E0,0E0,0E0,0E0,0E0,0E0,0E0,0E0,0E0,0E0,0E0,0E0,0E0,0E0,0E0,0E0,0E0,0E0,0E0,0E0,0E0,0E0,0E0,0E0,0E0,0E0,0E0,0E0,0E0,0E0,0E0,0E0,0E0,0E0,0E0,0E0],"parents":[2147483647,0,0,1,1,2,2,3,3,4,4,5,5,6,6,7,7,9,9,10,10,11,11,12,12,13,13,14,14,15,15,16,16,18,18,19,19,20,20,21,21,22,22,23,23,24,24,25,25,26,26,27,27,28,28,29,29,30,30,31,31,33,33,35,35,37,37,38,38,42,42,43,43,44,44,45,45,46,46,47,47,48,48,50,50,51,51,52,52,53,53,54,54],"right_children":[2,4,6,8,10,12,14,16,-1,18,20,22,24,26,28,30,32,-1,34,36,38,40,42,44,46,48,50,52,54,56,58,60,-1,62,-1,64,-1,66,68,-1,-1,-1,70,72,74,76,78,80,82,-1,84,86,88,90,92,-1,-1,-1,-1,-1,-1,-1,-1,-1,-1,-1,-1,-1,-1,-1,-1,-1,-1,-1,-1,-1,-1,-1,-1,-1,-1,-1,-1,-1,-1,-1,-1,-1,-1,-1,-1,-1,-1],"split_conditions":[-3.5029497E-2,-2.7362185E-3,-6.7009166E-2,2.39959E-2,-5.3099855E-3,-2.534631E-2,-4.1306216E-2,1.2999041E-2,3.976744E-1,-2.271523E-2,-2.3878908E-2,1.49432635E-2,-9.102048E-3,3.506497E-3,-2.5969861E-2,1.3116264E-3,1.7767465E-2,3.976744E-1,1.5283976E-2,-1.541885E-2,1.5332261E-2,-6.1304364E-3,-3.2557555E-2,-5.8298267E-2,-3.392152E-2,1.9140666E-2,2.7585017E-2,-2.9927777E-2,-4.5429077E-3,1.309912E-2,2.3792345E-2,-5.1634446E-2,-1.2857144E-1,-6.2524015E-3,1.8679243E-1,1.2522946E-2,-1.556391E-1,-6.95142E-2,1.2494897E-2,-1.5810812E-1,3.3157894E-1,-1.1886793E-1,-3.913924E-2,-1.5975399E-2,-6.33746E-2,-4.382438E-3,1.1305628E-2,-3.5731275E-2,-2.2341881E-2,-5.029142E-9,-4.607896E-3,1.2968078E-2,-2.2959476E-2,1.4942779E-2,-2.3878908E-2,-8.873241E-2,-1.5905173E-1,-5.6756765E-2,3.3749998E-1,4.7368422E-1,4.736842E-2,-1.6744186E-1,1.475409E-2,-9.4736844E-2,3.3157894E-1,-5.029142E-9,5.9999996E-1,-1.3846155E-1,3.3157894E-1,5.345864E-1,1.2328761E-2,-1.4318182E-1,2.1818182E-1,-1.3012049E-1,-1.6378606E-3,-1.0465116E-1,3.3157894E-1,1.8947369E-1,-1.2458858E-1,3.0508474E-1,-1.3119541E-2,4.736842E-2,5.943396E-1,4.736842E-2,5.926829E-1,2.1458616E-2,2.7391303E-1,-7.5064495E-2,2.5133835E-2,7.092529E-2,-2.345794E-3,2.2089247E-1,3.992201E-2],"split_indices":[84,24,32,64,17,36,61,8,0,41,0,121,76,84,57,74,8,0,33,72,44,106,101,99,104,93,42,62,103,99,25,1,0,12,0,18,0,19,83,0,0,0,116,84,61,0,50,27,51,0,112,68,62,97,0,0,0,0,0,0,0,0,0,0,0,0,0,0,0,0,0,0,0,0,0,0,0,0,0,0,0,0,0,0,0,0,0,0,0,0,0,0,0],"split_type":[0,0,0,0,0,0,0,0,0,0,0,0,0,0,0,0,0,0,0,0,0,0,0,0,0,0,0,0,0,0,0,0,0,0,0,0,0,0,0,0,0,0,0,0,0,0,0,0,0,0,0,0,0,0,0,0,0,0,0,0,0,0,0,0,0,0,0,0,0,0,0,0,0,0,0,0,0,0,0,0,0,0,0,0,0,0,0,0,0,0,0,0,0],"sum_hessian":[8.179445E3,1.913889E2,7.988056E3,1.4583334E2,4.5555557E1,2.413889E2,7.746667E3,1.4444446E2,1.388889E0,2.5833334E1,1.9722223E1,1.9722223E1,2.2166667E2,3.527778E1,7.711389E3,1.3972223E2,4.7222223E0,1.388889E0,2.4444447E1,8.611112E0,1.1111112E1,8.333334E0,1.1388889E1,1.6166667E2,6.0000004E1,2.6666668E1,8.611112E0,1.2788889E3,6.4325005E3,1.20555565E2,1.9166668E1,2.2222223E0,2.5E0,2.2500002E1,1.9444445E0,2.2222223E0,6.3888893E0,6.666667E0,4.4444447E0,7.2222223E0,1.1111112E0,1.9444445E0,9.444445E0,1.3888889E1,1.4777779E2,2.5E0,5.7500004E1,2.3611113E1,3.0555558E0,1.6666667E0,6.9444447E0,6.444445E1,1.2144445E3,2.5458335E3,3.8866667E3,7E1,5.0555557E1,1.75E1,1.6666667E0,1.1111112E0,1.1111112E0,1.3333334E1,9.166667E0,1.1111112E0,1.1111112E0,1.6666667E0,5E0,3.3333335E0,1.1111112E0,6.3888893E0,3.0555558E0,3.888889E0,1E1,2.6666668E1,1.21111115E2,1.388889E0,1.1111112E0,1.1111112E0,5.6388893E1,5.555556E0,1.8055557E1,1.1111112E0,1.9444445E0,1.1111112E0,5.8333335E0,3.8611115E1,2.5833334E1,6.3611115E1,1.1508334E3,2.355E3,1.9083334E2,2.638889E1,3.860278E3],"tree_param":{"num_deleted":"0","num_feature":"128","num_nodes":"93","size_leaf_vector":"1"}},{"base_weights":[3.1102625E-1,2.5414652E-1,7.7301174E-1,1.922974E-1,3.8953355E-1,6.356915E-1,1.1235058E0,4.3228596E-1,1.7653318E-1,6.7135715E-1,3.7340042E-1,1.295345E0,5.973884E-1,1.948905E0,1.0050149E0,1.7874393E-1,5.580828E-1,1.6782212E-1,4.332247E-1,4.9802366E-1,1.0284494E0,3.660479E-1,9.0057355E-1,1.7474226E0,5.098814E-1,6.266974E-1,1.2217191E-1,2.0113635E0,4.736842E-2,1.4283764E0,9.0467453E-1,2.3520999E-2,6.27615E-1,1.6466165E0,5.148127E-1,1.6236131E-1,5.3117204E-1,5.974776E-1,6.83371E-2,8.060288E-1,1.8240617E-1,-1.3846155E-1,1.1804043E0,-2.099323E-1,3.725913E-1,-3.0612245E-1,1.1309254E0,-9.4736844E-2,1.8749999E0,1.4819276E0,3.1914867E-2,5.1840484E-1,7.6439434E-1,1.1632652E0,-5.6603797E-2,2.1247356E0,7.8082186E-1,-1.0465116E-1,1.4999999E0,1.120023E0,6.5468544E-1,2.8636363E-1,-1.1477876E-2,3.8426965E-1,6.792452E-2,-9.4736844E-2,6.1327434E-1,1.2778904E-1,2.736677E-1,5.8510084E-2,3.6285214E-2,4.3373484E-2,2.3526971E-1,2.0164491E-1,-9.113925E-2,2.1549295E-1,-4.08492E-2,1.6492146E-1,4.326923E-1,1.867219E-2,4.2352942E-1,1.8106508E-1,5.1547986E-1,-1.4892086E-1,7.3770486E-2,1.2147763E-1,8.295749E-2,4.736842E-2,-1.3846155E-1,1.3278687E-1,4.532374E-1,6.0087466E-1,2.0930227E-2,-9.4736844E-2,6.4285713E-1,-6.4285725E-2,3.3157894E-1,6.382971E-3,1.6655682E-1,5.716216E-1,2.1687485E-1,-5.029142E-9,5.029412E-1,1.1201716E-1,-9.782609E-2,6.615894E-1,4.736842E-2,-1.12500004E-1,5.232558E-1,4.8333332E-1,6.9230765E-2,3.9823E-2,3.5274723E-1,-1.7786568E-2,2.3469387E-1],"categories":[],"categories_nodes":[],"categories_segments":[],"categories_sizes":[],"default_left":[0,0,0,0,0,0,0,0,0,0,0,0,0,0,0,0,0,0,0,0,0,0,0,0,0,0,0,0,0,0,0,0,0,0,0,0,0,0,0,0,0,0,0,0,0,0,0,0,0,0,0,0,0,0,0,0,0,0,0,0,0,0,0,0,0,0,0,0,0,0,0,0,0,0,0,0,0,0,0,0,0,0,0,0,0,0,0,0,0,0,0,0,0,0,0,0,0,0,0,0,0,0,0,0,0,0,0,0,0,0,0,0,0,0,0],"id":5,"left_children":[1,3,5,7,9,11,13,15,17,19,21,23,25,27,29,31,33,35,37,39,41,43,45,47,49,51,53,55,-1,57,59,61,63,65,67,69,71,73,75,77,79,-1,81,83,85,87,89,-1,91,93,95,97,99,101,103,105,107,-1,109,111,113,-1,-1,-1,-1,-1,-1,-1,-1,-1,-1,-1,-1,-1,-1,-1,-1,-1,-1,-1,-1,-1,-1,-1,-1,-1,-1,-1,-1,-1,-1,-1,-1,-1,-1,-1,-1,-1,-1,-1,-1,-1,-1,-1,-1,-1,-1,-1,-1,-1,-1,-1,-1,-1,-1],"loss_changes":[2.1476611E2,6.0927948E1,4.2423584E1,1.884996E1,1.0131683E1,1.5555542E1,2.2589691E1,9.713207E0,1.0427811E1,7.063198E0,8.050812E0,1.1399105E1,8.456726E0,3.0880508E0,8.119522E0,7.1966085E0,8.815849E0,8.928894E0,9.159014E0,8.05117E0,9.387402E0,8.121185E0,8.422621E0,6.265938E0,6.4829946E0,8.205215E0,6.9213457E0,2.4332275E0,0E0,5.706787E0,9.05571E0,4.5198255E0,6.670128E0,6.4112053E0,6.630234E0,6.034607E0,6.425024E0,7.319313E0,6.5813565E0,6.119564E0,6.256164E0,0E0,1.0046402E1,3.335859E0,6.4435425E0,4.655044E-1,5.766176E0,0E0,4.58123E0,6.155448E0,2.9968803E0,5.9496307E0,1.0541107E1,3.2503004E0,3.8748603E0,3.81559E0,5.1698394E0,0E0,5.1752167E0,5.1479645E0,7.9335556E0,0E0,0E0,0E0,0E0,0E0,0E0,0E0,0E0,0E0,0E0,0E0,0E0,0E0,0E0,0E0,0E0,0E0,0E0,0E0,0E0,0E0,0E0,0E0,0E0,0E0,0E0,0E0,0E0,0E0,0E0,0E0,0E0,0E0,0E0,0E0,0E0,0E0,0E0,0E0,0E0,0E0,0E0,0E0,0E0,0E0,0E0,0E0,0E0,0E0,0E0,0E0,0E0,0E0,0E0],"parents":[2147483647,0,0,1,1,2,2,3,3,4,4,5,5,6,6,7,7,8,8,9,9,10,10,11,11,12,12,13,13,14,14,15,15,16,16,17,17,18,18,19,19,20,20,21,21,22,22,23,23,24,24,25,25,26,26,27,27,29,29,30,30,31,31,32,32,33,33,34,34,35,35,36,36,37,37,38,38,39,39,40,40,42,42,43,43,44,44,45,45,46,46,48,48,49,49,50,50,51,51,52,52,53,53,54,54,55,55,56,56,58,58,59,59,60,60],"right_children":[2,4,6,8,10,12,14,16,18,20,22,24,26,28,30,32,34,36,38,40,42,44,46,48,50,52,54,56,-1,58,60,62,64,66,68,70,72,74,76,78,80,-1,82,84,86,88,90,-1,92,94,96,98,100,102,104,106,108,-1,110,112,114,-1,-1,-1,-1,-1,-1,-1,-1,-1,-1,-1,-1,-1,-1,-1,-1,-1,-1,-1,-1,-1,-1,-1,-1,-1,-1,-1,-1,-1,-1,-1,-1,-1,-1,-1,-1,-1,-1,-1,-1,-1,-1,-1,-1,-1,-1,-1,-1,-1,-1,-1,-1,-1,-1],"split_conditions":[3.141115E-2,4.7515807E-4,6.889252E-2,8.588257E-4,-5.025284E-2,-2.0644713E-2,-2.003471E-2,8.163888E-3,5.2696977E-2,-3.4708563E-2,2.9643651E-2,-3.4975767E-2,5.7024237E-2,-2.7258277E-2,-1.0905014E-2,6.304746E-3,-1.3545782E-2,1.5379041E-2,-1.4258751E-2,3.1674427E-3,-2.0282085E-3,-3.8485248E-2,1.7900636E-2,-3.0087974E-2,3.159012E-2,4.0285543E-2,-7.258277E-2,6.922551E-3,4.736842E-2,-8.907134E-3,-2.67431E-2,-1.5920915E-2,-6.581182E-5,-2.6687825E-2,-2.7401748E-3,1.1215575E-2,-3.7758395E-2,5.152598E-2,-3.700264E-2,4.3312747E-2,6.332058E-2,-1.3846155E-1,1.8284286E-3,3.2331499E-3,3.0803243E-3,2.0836329E-3,-2.0308942E-2,-9.4736844E-2,4.2691296E-3,-8.667E-4,4.535025E-3,4.237819E-3,-2.271523E-2,8.097873E-3,1.890786E-2,-1.0362103E-2,-1.0889532E-2,-1.0465116E-1,-1.1690321E-2,-1.6230922E-2,-4.1482598E-2,2.8636363E-1,-1.1477876E-2,3.8426965E-1,6.792452E-2,-9.4736844E-2,6.1327434E-1,1.2778904E-1,2.736677E-1,5.8510084E-2,3.6285214E-2,4.3373484E-2,2.3526971E-1,2.0164491E-1,-9.113925E-2,2.1549295E-1,-4.08492E-2,1.6492146E-1,4.326923E-1,1.867219E-2,4.2352942E-1,1.8106508E-1,5.1547986E-1,-1.4892086E-1,7.3770486E-2,1.2147763E-1,8.295749E-2,4.736842E-2,-1.3846155E-1,1.3278687E-1,4.532374E-1,6.0087466E-1,2.0930227E-2,-9.4736844E-2,6.4285713E-1,-6.4285725E-2,3.3157894E-1,6.382971E-3,1.6655682E-1,5.716216E-1,2.1687485E-1,-5.029142E-9,5.029412E-1,1.1201716E-1,-9.782609E-2,6.615894E-1,4.736842E-2,-1.12500004E-1,5.232558E-1,4.8333332E-1,6.9230765E-2,3.9823E-2,3.5274723E-1,-1.7786568E-2,2.3469387E-1],"split_indices":[33,82,25,61,31,8,88,33,90,22,11,51,34,16,8,26,18,17,17,67,109,83,119,52,25,33,21,79,0,23,92,71,120,52,27,76,49,74,55,100,108,0,4,26,98,23,12,0,73,42,41,121,41,43,78,9,29,0,73,43,106,0,0,0,0,0,0,0,0,0,0,0,0,0,0,0,0,0,0,0,0,0,0,0,0,0,0,0,0,0,0,0,0,0,0,0,0,0,0,0,0,0,0,0,0,0,0,0,0,0,0,0,0,0,0],"split_type":[0,0,0,0,0,0,0,0,0,0,0,0,0,0,0,0,0,0,0,0,0,0,0,0,0,0,0,0,0,0,0,0,0,0,0,0,0,0,0,0,0,0,0,0,0,0,0,0,0,0,0,0,0,0,0,0,0,0,0,0,0,0,0,0,0,0,0,0,0,0,0,0,0,0,0,0,0,0,0,0,0,0,0,0,0,0,0,0,0,0,0,0,0,0,0,0,0,0,0,0,0,0,0,0,0,0,0,0,0,0,0,0,0,0,0],"sum_hessian":[8.179445E3,7.284167E3,8.9527783E2,5.001667E3,2.2825E3,6.4527783E2,2.5000002E2,3.066667E2,4.695E3,1.2138889E2,2.1611113E3,3.3611115E1,6.116667E2,2.9444447E1,2.2055557E2,1.0250001E2,2.0416667E2,4.5425E3,1.525E2,8.3333336E1,3.8055557E1,2.1330557E3,2.8055557E1,2.0555557E1,1.3055556E1,5.758334E2,3.5833336E1,2.8333334E1,1.1111112E0,3.9722225E1,1.8083334E2,7.694445E1,2.5555557E1,6.3888893E0,1.9777779E2,4.476667E3,6.5833336E1,1.0472223E2,4.777778E1,4.138889E1,4.1944447E1,3.3333335E0,3.4722225E1,2.3611113E1,2.1094446E3,4.4444447E0,2.3611113E1,1.1111112E0,1.9444445E1,3.6111112E0,9.444445E0,3.2500003E2,2.5083334E2,4.4444447E0,3.1388891E1,2.5277779E1,3.0555558E0,1.388889E0,3.8333336E1,9.527778E1,8.555556E1,3.888889E0,7.305556E1,8.888889E0,1.6666668E1,1.1111112E0,5.277778E0,1.6333334E2,3.4444447E1,2.5002778E3,1.976389E3,2.6666668E1,3.9166668E1,9.694445E1,7.777778E0,1.0833334E1,3.6944447E1,3.0833334E1,1.0555556E1,3.9166668E1,2.777778E0,1.7777779E1,1.6944445E1,1.4444445E1,9.166667E0,1.5758334E3,5.3361115E2,1.1111112E0,3.3333335E0,9.166667E0,1.4444445E1,1.8055557E1,1.388889E0,1.1111112E0,2.5E0,8.333334E0,1.1111112E0,2.2500002E1,3.025E2,7.2222223E0,2.4361113E2,1.6666667E0,2.777778E0,1.1944445E1,1.9444445E1,2.4166668E1,1.1111112E0,1.6666667E0,1.388889E0,3.5E1,3.3333335E0,5.277778E0,9.000001E1,1.3055556E1,7.25E1],"tree_param":{"num_deleted":"0","num_feature":"128","num_nodes":"115","size_leaf_vector":"1"}},{"base_weights":[2.3172736E-2,-6.1367895E-2,4.2643752E-2,7.590042E-1,-6.575961E-2,2.447325E-1,3.7827205E-2,1.0591254E0,-1.05766416E-1,-5.717779E-2,-3.6789542E-1,5.2775806E-1,5.3850878E-2,5.444392E-2,-9.11007E-3,1.2245021E0,4.028722E-2,-6.015324E-2,1.1045747E0,-4.4539353E-1,2.083559E-1,2.2987139E-1,9.885802E-1,-3.100806E-1,1.9170772E-1,3.959158E-1,4.9176253E-2,-5.5317562E-2,5.850428E-2,4.494943E-2,4.3137625E-1,-7.899741E-2,1.0869051E-1,1.4555699E-2,5.115789E-1,-5.2051306E-1,4.3918902E-1,-1.3142565E-1,3.064157E-1,9.072192E-1,-1.1090584E-2,1.7084271E0,6.460458E-1,6.9994974E-1,-4.4820994E-1,4.1848627E-1,-1.345752E-1,7.1019995E-1,-4.0808927E-2,-3.8632588E-3,6.998688E-2,3.0999917E-1,-6.525131E-2,1.2062357E-1,-1.1577536E-1,-1.7813705E-2,-7.832934E-2,5.028736E-1,2.4597347E-2,-1.7282191E-1,-1.1622462E-2,3.3452857E-1,-1.03617884E-1,-1.1944428E-1,3.786558E-1,-6.300083E-2,2.3109068E-1,1.5525679E-2,6.3438153E-1,-1.346559E-1,2.6478595E-1,4.680778E-1,-1.0568332E-1,-1.5833524E-1,1.1117398E-1,2.792505E-1,1.1497515E-2,2.1325563E-1,-7.258524E-2,2.953338E-1,2.2064634E-2,1.9415033E-1,-5.9399378E-2,-3.1610176E-3,1.6406244E-1,1.2114919E-1,1.8918587E-2,-5.6541618E-2,1.8723804E-1,-1.1569661E-2,-7.88585E-2,2.6619494E-1,3.1305145E-2,2.014906E-1,-4.033743E-2],"categories":[],"categories_nodes":[],"categories_segments":[],"categories_sizes":[],"default_left":[0,0,0,0,0,0,0,0,0,0,0,0,0,0,0,0,0,0,0,0,0,0,0,0,0,0,0,0,0,0,0,0,0,0,0,0,0,0,0,0,0,0,0,0,0,0,0,0,0,0,0,0,0,0,0,0,0,0,0,0,0,0,0,0,0,0,0,0,0,0,0,0,0,0,0,0,0,0,0,0,0,0,0,0,0,0,0,0,0,0,0,0,0,0,0],"id":6,"left_children":[1,3,5,7,9,11,13,15,-1,17,19,21,23,25,27,29,-1,31,33,35,37,39,41,43,45,47,49,51,53,-1,-1,55,57,-1,-1,59,61,-1,-1,63,65,67,69,71,73,75,77,79,81,83,85,87,89,91,93,-1,-1,-1,-1,-1,-1,-1,-1,-1,-1,-1,-1,-1,-1,-1,-1,-1,-1,-1,-1,-1,-1,-1,-1,-1,-1,-1,-1,-1,-1,-1,-1,-1,-1,-1,-1,-1,-1,-1,-1],"loss_changes":[1.3504797E1,5.5836253E0,6.480818E0,3.1283817E0,3.942625E0,8.347141E0,5.080737E0,8.6830187E-1,0E0,5.2088103E0,1.9701037E0,8.329103E0,4.760517E0,8.633833E0,5.326686E0,1.0700579E0,0E0,4.7327623E0,2.3608236E0,2.7119799E0,3.424592E0,6.4017887E0,4.855833E0,3.9585369E0,5.1306114E0,1.0040742E1,5.230852E0,3.6952357E0,7.507847E0,0E0,0E0,4.758416E0,6.1193686E0,0E0,0E0,9.1198444E-1,2.2240546E0,0E0,0E0,5.2695637E0,4.8049545E0,4.725172E0,5.054703E0,3.7481608E0,1.7326837E0,7.8918533E0,2.7933214E0,7.3431015E0,3.5314639E0,4.9171457E0,7.8428E0,4.34258E0,5.193142E0,6.280395E0,2.773631E0,0E0,0E0,0E0,0E0,0E0,0E0,0E0,0E0,0E0,0E0,0E0,0E0,0E0,0E0,0E0,0E0,0E0,0E0,0E0,0E0,0E0,0E0,0E0,0E0,0E0,0E0,0E0,0E0,0E0,0E0,0E0,0E0,0E0,0E0,0E0,0E0,0E0,0E0,0E0,0E0],"parents":[2147483647,0,0,1,1,2,2,3,3,4,4,5,5,6,6,7,7,9,9,10,10,11,11,12,12,13,13,14,14,15,15,17,17,18,18,19,19,20,20,21,21,22,22,23,23,24,24,25,25,26,26,27,27,28,28,31,31,32,32,35,35,36,36,39,39,40,40,41,41,42,42,43,43,44,44,45,45,46,46,47,47,48,48,49,49,50,50,51,51,52,52,53,53,54,54],"right_children":[2,4,6,8,10,12,14,16,-1,18,20,22,24,26,28,30,-1,32,34,36,38,40,42,44,46,48,50,52,54,-1,-1,56,58,-1,-1,60,62,-1,-1,64,66,68,70,72,74,76,78,80,82,84,86,88,90,92,94,-1,-1,-1,-1,-1,-1,-1,-1,-1,-1,-1,-1,-1,-1,-1,-1,-1,-1,-1,-1,-1,-1,-1,-1,-1,-1,-1,-1,-1,-1,-1,-1,-1,-1,-1,-1,-1,-1,-1,-1],"split_conditions":[-3.5960127E-2,-5.468785E-3,-2.772458E-2,1.9403683E-2,-2.253269E-2,1.1551349E-2,1.3227158E-2,3.037689E-4,-1.05766416E-1,3.3379055E-3,2.7030878E-2,-5.3378358E-3,-1.5406353E-2,-6.35E-2,2.368326E-2,3.0763801E-3,4.028722E-2,2.1170452E-4,1.6628072E-2,-2.8260753E-3,-1.971384E-2,-6.2490147E-2,1.2999207E-2,-1.4762053E-2,2.6234321E-2,-5.0568786E-3,-9.705408E-3,-2.3693606E-2,2.9340437E-2,4.494943E-2,4.3137625E-1,3.5809085E-2,-3.9559018E-2,1.4555699E-2,5.115789E-1,-1.3351218E-2,-3.4467079E-4,-1.3142565E-1,3.064157E-1,-2.7022922E-2,-1.4861798E-2,-3.0037133E-2,-7.6073257E-4,3.202476E-2,2.6317306E-2,-6.94209E-3,2.5892623E-3,8.984229E-3,-5.0410908E-2,6.130989E-2,-2.5620451E-2,-7.5871556E-4,8.313613E-3,-1.5193737E-2,-1.2387418E-2,-1.7813705E-2,-7.832934E-2,5.028736E-1,2.4597347E-2,-1.7282191E-1,-1.1622462E-2,3.3452857E-1,-1.03617884E-1,-1.1944428E-1,3.786558E-1,-6.300083E-2,2.3109068E-1,1.5525679E-2,6.3438153E-1,-1.346559E-1,2.6478595E-1,4.680778E-1,-1.0568332E-1,-1.5833524E-1,1.1117398E-1,2.792505E-1,1.1497515E-2,2.1325563E-1,-7.258524E-2,2.953338E-1,2.2064634E-2,1.9415033E-1,-5.9399378E-2,-3.1610176E-3,1.6406244E-1,1.2114919E-1,1.8918587E-2,-5.6541618E-2,1.8723804E-1,-1.1569661E-2,-7.88585E-2,2.6619494E-1,3.1305145E-2,2.014906E-1,-4.033743E-2],"split_indices":[50,48,100,56,60,67,105,23,0,108,81,30,84,107,105,30,0,104,5,121,57,49,87,4,41,92,52,17,111,0,0,80,44,0,0,78,4,0,0,64,26,93,104,59,4,80,28,81,54,62,88,91,64,91,66,0,0,0,0,0,0,0,0,0,0,0,0,0,0,0,0,0,0,0,0,0,0,0,0,0,0,0,0,0,0,0,0,0,0,0,0,0,0,0,0],"split_type":[0,0,0,0,0,0,0,0,0,0,0,0,0,0,0,0,0,0,0,0,0,0,0,0,0,0,0,0,0,0,0,0,0,0,0,0,0,0,0,0,0,0,0,0,0,0,0,0,0,0,0,0,0,0,0,0,0,0,0,0,0,0,0,0,0,0,0,0,0,0,0,0,0,0,0,0,0,0,0,0,0,0,0,0,0,0,0,0,0,0,0,0,0,0,0],"sum_hessian":[8.201567E3,1.5349335E3,6.666634E3,7.258279E0,1.5276752E3,1.5403302E2,6.512601E3,5.7523212E0,1.5059576E0,1.4866382E3,4.1036964E1,6.133099E1,9.2702034E1,4.8097095E3,1.7028912E3,4.6048675E0,1.1474535E0,1.4837861E3,2.8520086E0,3.637244E1,4.664523E0,3.816138E1,2.3169611E1,2.5124908E1,6.7577126E1,7.194242E1,4.737767E3,1.0116879E3,6.9120337E2,1.0449702E0,3.5598974E0,1.3352903E3,1.4849586E2,1.4259146E0,1.4260939E0,3.390479E1,2.4676511E0,2.855377E0,1.8091459E0,9.287916E0,2.8873463E1,6.184688E0,1.6984924E1,2.5333295E0,2.2591578E1,3.9700935E1,2.787619E1,4.1471622E1,3.0470795E1,1.3353103E3,3.4024568E3,2.5982077E1,9.857059E2,5.0980066E2,1.8140271E2,1.2066222E3,1.2866814E2,1.4522138E0,1.4704366E2,3.0223541E1,3.6812494E0,1.0993322E0,1.368319E0,1.9596791E0,7.3282375E0,2.3597664E1,5.2757998E0,1.43976E0,4.7449284E0,2.8584225E0,1.4126501E1,1.1281387E0,1.405191E0,2.091442E1,1.6771593E0,1.6293468E1,2.3407467E1,2.508122E0,2.5368067E1,2.8603846E1,1.2867777E1,5.087399E0,2.5383396E1,1.3202927E3,1.5017536E1,6.79783E1,3.3344785E3,1.0198566E1,1.578351E1,8.694838E2,1.1622202E2,9.48316E0,5.003175E2,3.39433E0,1.7800839E2],"tree_param":{"num_deleted":"0","num_feature":"128","num_nodes":"95","size_leaf_vector":"1"}},{"base_weights":[1.5872316E-1,-4.110587E-2,2.1940853E-1,2.4683552E-2,-2.100941E-1,1.6943923E-1,3.133616E-1,-8.052235E-2,8.773671E-2,-1.434681E-1,-3.586075E-1,6.241762E-2,1.9233263E-1,-2.7411023E-1,3.1844607E-1,1.0352674E0,-9.005027E-2,1.0646524E-1,-3.012858E-1,-1.5509336E-1,9.166432E-1,2.2069319E-1,-3.7372127E-1,1.07129246E-1,-1.480919E-1,2.235443E-1,9.4769955E-2,3.2726544E-1,-4.60937E-1,1.2284495E0,3.1487837E-1,4.622093E-1,-9.389901E-2,-1.06925406E-1,4.3056673E-1,1.7574969E-1,7.955634E-3,1.8640715E-1,-4.5851892E-1,-3.8833693E-1,-1.056374E-1,4.8652762E-1,-1.04332715E-1,3.4966838E-1,-3.9738828E-1,8.154002E-2,4.630679E-1,3.9639828E-1,-1.7964454E-1,1.0581043E-2,2.3861626E-1,8.17326E-2,5.7900417E-1,2.2937056E-2,-1.6860002E-1,1.633472E0,-1.11948214E-1,3.1931052E-1,-2.817501E-1,4.9994115E-2,-3.9302178E-2,-7.243424E-2,3.5959005E-1,3.231804E-1,4.7540598E-2,6.342607E-2,-2.0715848E-2,2.6556432E-1,-7.695487E-2,-1.6457221E-1,1.2079876E-1,-1.2802772E-1,1.2324579E-1,-5.742953E-4,-7.335566E-2,-6.655178E-2,3.4849414E-1,6.181898E-2,-1.264531E-1,-1.47976205E-2,4.2735767E-2,2.1195775E-1,3.154432E-3,-6.883534E-2,1.9906901E-1,2.8277235E-2,-1.1792879E-1,8.4856175E-2,4.8902113E-2,3.1787213E-2,-4.594317E-2,2.414279E-1,-5.174582E-2,1.7110899E-1,-1.185893E-1,5.695029E-1,4.417383E-2,7.680197E-2,1.0778261E-1,2.5507665E-1,-1.3274503E-1],"categories":[],"categories_nodes":[],"categories_segments":[],"categories_sizes":[],"default_left":[0,0,0,0,0,0,0,0,0,0,0,0,0,0,0,0,0,0,0,0,0,0,0,0,0,0,0,0,0,0,0,0,0,0,0,0,0,0,0,0,0,0,0,0,0,0,0,0,0,0,0,0,0,0,0,0,0,0,0,0,0,0,0,0,0,0,0,0,0,0,0,0,0,0,0,0,0,0,0,0,0,0,0,0,0,0,0,0,0,0,0,0,0,0,0,0,0,0,0,0,0],"id":7,"left_children":[1,3,5,7,9,11,13,15,17,19,21,23,25,27,29,31,33,35,37,39,41,-1,43,45,47,49,51,-1,53,55,57,-1,-1,59,61,63,65,67,69,71,73,-1,-1,75,77,79,81,-1,83,85,87,89,91,93,-1,95,-1,97,99,-1,-1,-1,-1,-1,-1,-1,-1,-1,-1,-1,-1,-1,-1,-1,-1,-1,-1,-1,-1,-1,-1,-1,-1,-1,-1,-1,-1,-1,-1,-1,-1,-1,-1,-1,-1,-1,-1,-1,-1,-1,-1],"loss_changes":[1.0379306E2,2.2178783E1,3.0767365E1,9.535925E0,5.479685E0,1.0493332E1,6.891983E0,5.8214936E0,6.579425E0,4.918298E0,3.126873E0,7.1414666E0,1.0733124E1,5.6248603E0,6.947464E0,3.6456308E0,4.7478247E0,5.8553295E0,3.2705836E0,4.3907957E0,4.4409294E0,0E0,3.062437E0,5.6549644E0,6.4059734E0,8.583481E0,5.3676248E0,0E0,9.112117E-1,6.1087313E0,6.0438843E0,0E0,0E0,3.4422274E0,9.064697E0,7.6770554E0,5.582725E0,3.581527E0,2.6792865E0,2.2276087E0,4.5855503E0,0E0,0E0,3.0149357E0,2.5005836E0,4.6647243E0,4.5876427E0,0E0,5.6593876E0,6.0444136E0,8.309494E0,4.7752247E0,3.926032E0,1.1721057E0,0E0,2.4572906E0,0E0,5.5634613E0,3.4937701E0,0E0,0E0,0E0,0E0,0E0,0E0,0E0,0E0,0E0,0E0,0E0,0E0,0E0,0E0,0E0,0E0,0E0,0E0,0E0,0E0,0E0,0E0,0E0,0E0,0E0,0E0,0E0,0E0,0E0,0E0,0E0,0E0,0E0,0E0,0E0,0E0,0E0,0E0,0E0,0E0,0E0,0E0],"parents":[2147483647,0,0,1,1,2,2,3,3,4,4,5,5,6,6,7,7,8,8,9,9,10,10,11,11,12,12,13,13,14,14,15,15,16,16,17,17,18,18,19,19,20,20,22,22,23,23,24,24,25,25,26,26,28,28,29,29,30,30,33,33,34,34,35,35,36,36,37,37,38,38,39,39,40,40,43,43,44,44,45,45,46,46,48,48,49,49,50,50,51,51,52,52,53,53,55,55,57,57,58,58],"right_children":[2,4,6,8,10,12,14,16,18,20,22,24,26,28,30,32,34,36,38,40,42,-1,44,46,48,50,52,-1,54,56,58,-1,-1,60,62,64,66,68,70,72,74,-1,-1,76,78,80,82,-1,84,86,88,90,92,94,-1,96,-1,98,100,-1,-1,-1,-1,-1,-1,-1,-1,-1,-1,-1,-1,-1,-1,-1,-1,-1,-1,-1,-1,-1,-1,-1,-1,-1,-1,-1,-1,-1,-1,-1,-1,-1,-1,-1,-1,-1,-1,-1,-1,-1,-1],"split_conditions":[-2.4654437E-2,3.8266793E-2,3.3906724E-2,-1.4488385E-2,7.793694E-2,-2.0504141E-2,-4.7280297E-2,-5.516036E-2,5.6837383E-3,3.4087237E-2,-1.365815E-2,1.1747008E-2,-5.4818983E-3,-1.355087E-3,1.8081735E-3,1.7102357E-2,2.6204376E-2,3.31788E-2,-4.2860042E-2,-3.2815382E-2,9.372074E-3,2.2069319E-1,1.0392345E-3,6.1507504E-2,-1.8644396E-2,3.8263493E-3,3.4007803E-2,3.2726544E-1,-2.002443E-2,-3.1941313E-2,-1.4141784E-4,4.622093E-1,-9.389901E-2,-3.312841E-2,-9.038904E-3,-4.3260437E-2,-3.989915E-2,1.0733386E-2,3.840156E-2,3.1849984E-2,-1.3544082E-2,4.8652762E-1,-1.04332715E-1,-7.6849693E-3,-1.5202691E-2,-4.218906E-2,-3.4008928E-2,3.9639828E-1,9.961986E-3,1.3107959E-2,1.8498754E-2,7.837424E-3,-3.910134E-4,-1.6912155E-2,-1.6860002E-1,3.2682512E-2,-1.11948214E-1,-2.1220392E-2,-2.2906145E-2,4.9994115E-2,-3.9302178E-2,-7.243424E-2,3.5959005E-1,3.231804E-1,4.7540598E-2,6.342607E-2,-2.0715848E-2,2.6556432E-1,-7.695487E-2,-1.6457221E-1,1.2079876E-1,-1.2802772E-1,1.2324579E-1,-5.742953E-4,-7.335566E-2,-6.655178E-2,3.4849414E-1,6.181898E-2,-1.264531E-1,-1.47976205E-2,4.2735767E-2,2.1195775E-1,3.154432E-3,-6.883534E-2,1.9906901E-1,2.8277235E-2,-1.1792879E-1,8.4856175E-2,4.8902113E-2,3.1787213E-2,-4.594317E-2,2.414279E-1,-5.174582E-2,1.7110899E-1,-1.185893E-1,5.695029E-1,4.417383E-2,7.680197E-2,1.0778261E-1,2.5507665E-1,-1.3274503E-1],"split_indices":[71,33,124,96,25,84,45,21,127,77,4,64,19,18,74,11,48,50,3,54,88,0,50,123,10,77,13,0,95,98,91,0,0,72,111,49,95,91,43,14,86,0,0,70,22,1,126,0,104,122,70,17,105,25,0,69,0,35,42,0,0,0,0,0,0,0,0,0,0,0,0,0,0,0,0,0,0,0,0,0,0,0,0,0,0,0,0,0,0,0,0,0,0,0,0,0,0,0,0,0,0],"split_type":[0,0,0,0,0,0,0,0,0,0,0,0,0,0,0,0,0,0,0,0,0,0,0,0,0,0,0,0,0,0,0,0,0,0,0,0,0,0,0,0,0,0,0,0,0,0,0,0,0,0,0,0,0,0,0,0,0,0,0,0,0,0,0,0,0,0,0,0,0,0,0,0,0,0,0,0,0,0,0,0,0,0,0,0,0,0,0,0,0,0,0,0,0,0,0,0,0,0,0,0,0],"sum_hessian":[8.557309E3,1.9934521E3,6.5638564E3,1.4354614E3,5.579908E2,4.2867407E3,2.277116E3,5.37819E2,8.9764246E2,3.8654514E2,1.7144563E2,7.5605835E2,3.5306824E3,1.908501E1,2.258031E3,3.6421323E0,5.341768E2,8.571056E2,4.0536915E1,3.831967E2,3.3484626E0,1.6862413E0,1.697594E2,6.240112E2,1.3204712E2,2.6739548E3,8.567274E2,1.7151017E0,1.736991E1,7.477393E0,2.2505535E3,2.5452538E0,1.0968785E0,5.181754E2,1.6001377E1,5.0273474E2,3.5437085E2,9.837672E0,3.0699242E1,6.583837E1,3.173583E2,1.9682417E0,1.3802209E0,4.941655E0,1.6481775E2,5.833052E2,4.0706028E1,1.9165314E0,1.301306E2,1.7684709E2,2.4971077E3,8.354041E2,2.1323345E1,3.1346648E0,1.4235244E1,5.952264E0,1.5251297E0,2.2344194E3,1.613399E1,4.144425E1,4.7673117E2,8.900017E0,7.1013603E0,8.30191E0,4.9443283E2,9.681907E1,2.5755176E2,3.4290438E0,6.408629E0,2.8121529E1,2.5777142E0,6.326279E1,2.575581E0,1.8225537E2,1.3510294E2,3.3268547E0,1.6148003E0,6.045191E0,1.5877255E2,1.8532986E2,3.979753E2,2.6102556E1,1.4603471E1,1.23560036E2,6.570559E0,1.4711813E2,2.972896E1,1.5736509E3,9.234568E2,7.577952E2,7.760887E1,1.6342888E1,4.980458E0,1.2001076E0,1.9345572E0,4.816577E0,1.135687E0,8.67582E2,1.3668375E3,1.4726461E0,1.4661344E1],"tree_param":{"num_deleted":"0","num_feature":"128","num_nodes":"101","size_leaf_vector":"1"}},{"base_weights":[-4.8496127E-1,-4.055145E-1,-4.89907E-1,-1.4056139E-2,-4.1869503E-1,-4.90638E-1,-2.386033E-1,-4.3473494E-1,7.9512537E-1,1.7073937E-1,-4.2297748E-1,-4.75702E-1,-5.0151914E-1,5.272413E-1,-3.918978E-1,-1.5688594E-1,5.428314E-2,-1.04732774E-1,1.3087386E0,1.7098618E-1,-4.3076774E-1,-4.7873986E-1,-1.7787237E-1,-1.525084E-1,-5.021257E-1,-1.04109354E-1,3.312154E-1,-4.88298E-1,2.5280184E-1,5.642311E-1,2.7427528E-2,-1.328615E-1,2.8223348E-1,-4.385819E-1,1.268837E-1,-4.7937176E-1,1.1364955E-1,-3.3417606E-1,6.1386204E-1,-1.4464508E-1,4.697489E-1,-3.9749354E-1,-5.044415E-1,6.1292313E-2,-1.6395602E-1,1.994008E-1,-8.857682E-2,-1.3565844E-1,-4.145737E-2,-8.709726E-2,3.4161824E-1,-1.4415084E-1,-1.8871704E-2,-1.4959063E-1,9.380297E-3,3.2513356E-1,-1.0597825E-1,-1.02423705E-1,3.5360095E-1,2.5611278E-1,-1.2861742E-1,-1.5146361E-1,-1.882206E-2],"categories":[],"categories_nodes":[],"categories_segments":[],"categories_sizes":[],"default_left":[0,0,0,0,0,0,0,0,0,0,0,0,0,0,0,0,0,0,0,0,0,0,0,0,0,0,0,0,0,0,0,0,0,0,0,0,0,0,0,0,0,0,0,0,0,0,0,0,0,0,0,0,0,0,0,0,0,0,0,0,0,0,0],"id":8,"left_children":[1,3,5,7,9,11,13,15,17,-1,19,21,23,25,27,-1,-1,-1,29,31,33,35,37,39,41,-1,-1,43,45,-1,-1,-1,-1,47,49,51,-1,53,55,-1,57,59,61,-1,-1,-1,-1,-1,-1,-1,-1,-1,-1,-1,-1,-1,-1,-1,-1,-1,-1,-1,-1],"loss_changes":[2.6246338E0,2.1968231E0,1.1248779E0,5.43159E0,1.987709E0,8.565674E-1,2.7368393E0,6.636592E-1,3.668074E0,0E0,1.9789505E0,2.5022583E0,7.4487305E-1,2.4108117E0,1.275146E0,0E0,0E0,0E0,2.6007571E0,3.2738764E0,1.8279343E0,1.7153931E0,3.9753783E0,1.9018605E0,7.3791504E-1,0E0,0E0,7.7548313E-1,8.890902E-1,0E0,0E0,0E0,0E0,1.5785828E0,3.0306687E0,1.302124E0,0E0,1.5836668E0,2.8258426E0,0E0,2.3201864E0,3.8276758E0,6.992798E-1,0E0,0E0,0E0,0E0,0E0,0E0,0E0,0E0,0E0,0E0,0E0,0E0,0E0,0E0,0E0,0E0,0E0,0E0,0E0,0E0],"parents":[2147483647,0,0,1,1,2,2,3,3,4,4,5,5,6,6,7,7,8,8,10,10,11,11,12,12,13,13,14,14,18,18,19,19,20,20,21,21,22,22,23,23,24,24,27,27,28,28,33,33,34,34,35,35,37,37,38,38,40,40,41,41,42,42],"right_children":[2,4,6,8,10,12,14,16,18,-1,20,22,24,26,28,-1,-1,-1,30,32,34,36,38,40,42,-1,-1,44,46,-1,-1,-1,-1,48,50,52,-1,54,56,-1,58,60,62,-1,-1,-1,-1,-1,-1,-1,-1,-1,-1,-1,-1,-1,-1,-1,-1,-1,-1,-1,-1],"split_conditions":[-3.387462E-2,-6.2286213E-2,3.9780382E-2,-5.2154258E-2,-3.1613737E-2,-1.1208118E-2,-1.4639357E-2,-2.834713E-6,-2.7548458E-2,1.7073937E-1,-3.5781488E-2,1.5643656E-2,-6.708401E-2,2.3329185E-2,2.2160083E-2,-1.5688594E-1,5.428314E-2,-1.04732774E-1,1.6819807E-2,-5.422079E-2,6.3794632E-3,5.7520594E-2,2.7325666E-2,-3.204767E-3,-3.9171036E-2,-1.04109354E-1,3.312154E-1,3.5833465E-3,9.023144E-3,5.642311E-1,2.7427528E-2,-1.328615E-1,2.8223348E-1,-7.166216E-3,4.3288264E-2,3.4894355E-2,1.1364955E-1,8.953437E-4,-1.0449857E-2,-1.4464508E-1,-4.5420557E-2,-3.412648E-2,2.9540546E-2,6.1292313E-2,-1.6395602E-1,1.994008E-1,-8.857682E-2,-1.3565844E-1,-4.145737E-2,-8.709726E-2,3.4161824E-1,-1.4415084E-1,-1.8871704E-2,-1.4959063E-1,9.380297E-3,3.2513356E-1,-1.0597825E-1,-1.02423705E-1,3.5360095E-1,2.5611278E-1,-1.2861742E-1,-1.5146361E-1,-1.882206E-2],"split_indices":[69,126,97,57,82,126,114,93,72,0,108,65,28,34,92,0,0,0,76,110,86,62,99,65,76,0,0,52,33,0,0,0,0,74,50,43,0,13,7,0,1,82,81,0,0,0,0,0,0,0,0,0,0,0,0,0,0,0,0,0,0,0,0],"split_type":[0,0,0,0,0,0,0,0,0,0,0,0,0,0,0,0,0,0,0,0,0,0,0,0,0,0,0,0,0,0,0,0,0,0,0,0,0,0,0,0,0,0,0,0,0,0,0,0,0,0,0,0,0,0,0,0,0,0,0,0,0,0,0],"sum_hessian":[7.184639E3,4.259113E2,6.758728E3,1.3940773E1,4.1197052E2,6.738176E3,2.0552128E1,9.476737E0,4.464036E0,1.2089248E0,4.107616E2,2.8587903E3,3.8793855E3,3.02085E0,1.7531279E1,8.420766E0,1.0559709E0,1.482218E0,2.9818182E0,5.0465035E0,4.057151E2,2.829324E3,2.9466335E1,7.1676784E0,3.8722178E3,1.3591478E0,1.6617022E0,1.5461899E1,2.06938E0,1.6577857E0,1.3240325E0,3.0438907E0,2.002613E0,4.003191E2,5.3960056E0,2.8276814E3,1.6425707E0,2.5090837E1,4.375498E0,4.8327045E0,2.334974E0,8.758701E1,3.7846309E3,1.0044084E0,1.445749E1,1.0600082E0,1.0093719E0,3.824807E2,1.7838358E1,4.3255496E0,1.0704559E0,2.8198696E3,7.8118205E0,1.705236E1,8.038479E0,2.8635182E0,1.5119795E0,1.3307309E0,1.0042431E0,1.4916673E0,8.6095345E1,3.7807458E3,3.88504E0],"tree_param":{"num_deleted":"0","num_feature":"128","num_nodes":"63","size_leaf_vector":"1"}},{"base_weights":[-1.4243153E-1,-1.3249926E-1,-3.087596E-1,-1.3738197E-1,4.4779337E-4,3.2264173E-1,-3.1667975E-1,-3.4774786E-1,-1.3459674E-1,-3.193707E-2,7.739115E-1,4.8110033E-3,-3.432598E-1,8.6316325E-2,-4.1159216E-1,-1.326262E-1,-4.035678E-1,1.719406E-1,-1.12813234E-1,1.449819E0,-2.823483E-1,1.0287389E0,-1.5094718E-1,-3.5269082E-1,3.7978202E-1,5.076957E-1,-1.4673333E-1,2.8515285E-1,-4.5380488E-1,-1.0302633E-1,-1.5041032E-1,3.2344285E-1,-4.5467165E-1,3.3776596E-2,5.3187954E-1,-1.4968136E-1,4.9019232E-1,1.9811815E0,-1.0348939E-1,4.5056403E-2,-1.3438897E-1,-9.885237E-2,4.8991153E-1,2.140612E-1,-1.644937E-1,-1.8076086E-2,-3.6785993E-1,1.0975056E0,-1.2689935E-1,2.9119775E-1,-1.23592064E-1,3.0444333E-1,-1.2513416E-1,2.2703368E-2,-1.4612141E-1,-3.165183E-2,2.9414257E-1,1.594031E-1,-4.588991E-2,3.162474E-1,-1.1164888E-1,-1.4811157E-1,1.5609819E-1,-5.9659988E-2,9.0716235E-2,-6.1572272E-2,2.4935205E-1,1.04985826E-1,-5.7126254E-2,3.940843E-2,4.6852943E-1,1.8664871E-1,6.599783E-1,2.2080623E-1,-9.141572E-2,1.7309394E-1,-1.35151E-1,-1.1220245E-1,9.731861E-2,4.3183848E-1,5.5903412E-2],"categories":[],"categories_nodes":[],"categories_segments":[],"categories_sizes":[],"default_left":[0,0,0,0,0,0,0,0,0,0,0,0,0,0,0,0,0,0,0,0,0,0,0,0,0,0,0,0,0,0,0,0,0,0,0,0,0,0,0,0,0,0,0,0,0,0,0,0,0,0,0,0,0,0,0,0,0,0,0,0,0,0,0,0,0,0,0,0,0,0,0,0,0,0,0,0,0,0,0,0,0],"id":9,"left_children":[1,3,5,7,9,-1,11,13,15,17,19,21,23,25,27,29,31,33,35,37,39,41,43,45,47,49,-1,51,53,55,57,59,61,63,65,67,69,71,-1,-1,-1,-1,-1,73,-1,75,77,79,-1,-1,-1,-1,-1,-1,-1,-1,-1,-1,-1,-1,-1,-1,-1,-1,-1,-1,-1,-1,-1,-1,-1,-1,-1,-1,-1,-1,-1,-1,-1,-1,-1],"loss_changes":[1.2889877E1,4.7958984E0,5.1679E0,4.128586E0,6.605466E0,0E0,3.7494507E0,2.5985699E0,3.6750107E0,4.1930947E0,7.975368E0,5.6540284E0,2.8963661E0,3.3242764E0,2.5058851E0,3.6615143E0,2.0297384E0,3.5769794E0,4.115852E0,7.0019054E0,4.2346624E-1,4.379568E0,4.5843434E0,2.0257378E0,3.7469795E0,3.7267907E0,0E0,3.1031427E0,1.3855886E0,7.1558304E0,7.6811905E0,2.3809464E0,2.0745678E0,3.391178E0,4.5792794E0,3.5701795E0,3.9132931E0,1.9504547E-1,0E0,0E0,0E0,0E0,0E0,4.7657623E0,0E0,4.998753E0,1.7513885E0,7.5569654E-1,0E0,0E0,0E0,0E0,0E0,0E0,0E0,0E0,0E0,0E0,0E0,0E0,0E0,0E0,0E0,0E0,0E0,0E0,0E0,0E0,0E0,0E0,0E0,0E0,0E0,0E0,0E0,0E0,0E0,0E0,0E0,0E0,0E0],"parents":[2147483647,0,0,1,1,2,2,3,3,4,4,6,6,7,7,8,8,9,9,10,10,11,11,12,12,13,13,14,14,15,15,16,16,17,17,18,18,19,19,20,20,21,21,22,22,23,23,24,24,25,25,27,27,28,28,29,29,30,30,31,31,32,32,33,33,34,34,35,35,36,36,37,37,43,43,45,45,46,46,47,47],"right_children":[2,4,6,8,10,-1,12,14,16,18,20,22,24,26,28,30,32,34,36,38,40,42,44,46,48,50,-1,52,54,56,58,60,62,64,66,68,70,72,-1,-1,-1,-1,-1,74,-1,76,78,80,-1,-1,-1,-1,-1,-1,-1,-1,-1,-1,-1,-1,-1,-1,-1,-1,-1,-1,-1,-1,-1,-1,-1,-1,-1,-1,-1,-1,-1,-1,-1,-1,-1],"split_conditions":[4.5503657E-2,2.732587E-2,-6.1602015E-3,-4.4067793E-2,3.2361664E-2,3.2264173E-1,-2.4058709E-2,-5.7508912E-2,6.034746E-2,-9.392693E-3,3.157702E-2,-3.2370552E-2,2.659069E-2,3.5196673E-2,-2.9990908E-2,-6.8732793E-3,-7.00286E-3,-1.6966228E-3,4.240798E-2,-3.9100146E-4,-4.710047E-3,6.2594945E-3,2.6051814E-2,9.913074E-3,3.0070327E-2,1.0726878E-2,-1.4673333E-1,-4.7044154E-2,-3.5787653E-2,3.416467E-2,-3.6689736E-2,-7.7554244E-3,4.071834E-2,5.993856E-3,-1.4137342E-2,5.0433283E-3,-1.0655223E-2,-4.0160842E-2,-1.0348939E-1,4.5056403E-2,-1.3438897E-1,-9.885237E-2,4.8991153E-1,3.5652635E-3,-1.644937E-1,-7.3045073E-3,3.0937761E-2,-2.2540009E-2,-1.2689935E-1,2.9119775E-1,-1.23592064E-1,3.0444333E-1,-1.2513416E-1,2.2703368E-2,-1.4612141E-1,-3.165183E-2,2.9414257E-1,1.594031E-1,-4.588991E-2,3.162474E-1,-1.1164888E-1,-1.4811157E-1,1.5609819E-1,-5.9659988E-2,9.0716235E-2,-6.1572272E-2,2.4935205E-1,1.04985826E-1,-5.7126254E-2,3.940843E-2,4.6852943E-1,1.8664871E-1,6.599783E-1,2.2080623E-1,-9.141572E-2,1.7309394E-1,-1.35151E-1,-1.1220245E-1,9.731861E-2,4.3183848E-1,5.5903412E-2],"split_indices":[62,126,121,106,68,0,39,45,50,104,39,77,14,60,35,103,43,9,62,102,5,22,88,63,23,78,0,95,24,127,106,12,35,0,7,19,11,51,0,0,0,0,0,77,0,7,103,22,0,0,0,0,0,0,0,0,0,0,0,0,0,0,0,0,0,0,0,0,0,0,0,0,0,0,0,0,0,0,0,0,0],"split_type":[0,0,0,0,0,0,0,0,0,0,0,0,0,0,0,0,0,0,0,0,0,0,0,0,0,0,0,0,0,0,0,0,0,0,0,0,0,0,0,0,0,0,0,0,0,0,0,0,0,0,0,0,0,0,0,0,0,0,0,0,0,0,0,0,0,0,0,0,0,0,0,0,0,0,0,0,0,0,0,0,0],"sum_hessian":[7.826279E3,7.3869634E3,4.3931537E2,7.125243E3,2.6172015E2,1.7324929E0,4.375829E2,9.148682E1,7.0337563E3,2.5212251E2,9.597641E0,3.347809E1,4.041048E2,1.1685759E1,7.9801056E1,6.984083E3,4.967359E1,7.128837E1,1.8083414E2,5.6253476E0,3.9722931E0,3.680221E0,2.9797867E1,3.9940732E2,4.697475E0,6.813796E0,4.871963E0,4.229849E0,7.5571205E1,2.6238093E3,4.3602734E3,2.9123905E0,4.67612E1,5.2304802E1,1.8983568E1,1.7112334E2,9.710811E0,4.2602153E0,1.3651323E0,1.1256315E0,2.8466618E0,1.2732171E0,2.4070039E0,1.5771713E1,1.4026154E1,1.7416182E1,3.8199115E2,2.2862906E0,2.4111845E0,4.4953723E0,2.3184237E0,1.8561991E0,2.3736496E0,4.391966E0,7.117924E1,2.6187185E3,5.090704E0,1.5513816E1,4.34476E3,1.1689678E0,1.7434226E0,4.5435837E1,1.3253628E0,2.8168114E1,2.4136688E1,5.5727906E0,1.3410777E1,1.2328992E1,1.5879434E2,8.115732E0,1.5950782E0,1.123623E0,3.1365921E0,7.6530304E0,8.118683E0,7.1890993E0,1.0227081E1,3.7908408E2,2.907075E0,1.2408082E0,1.0454824E0],"tree_param":{"num_deleted":"0","num_feature":"128","num_nodes":"81","size_leaf_vector":"1"}},{"base_weights":[1.1550278E-1,-1.5477593E-1,1.21412516E-1,-2.603686E-1,1.5483025E-1,1.3025497E-1,9.299937E-3,-2.8524637E-1,3.119068E-1,-1.4959061E-1,2.4955937E-1,1.2450344E-1,2.971686E-1,-2.500574E-4,1.2301964E0,-5.3735137E-1,-2.0467785E-1,7.081113E-1,9.486184E-2,-2.1363375E-1,1.280113E-1,3.8637188E-1,-3.91987E-2,2.0645063E-1,-4.3354176E-2,1.8227248E-2,5.1494706E-1,-1.7027539E-1,4.81783E-2,1.5187365E-1,-2.9977134E-1,-9.756972E-2,1.2646728E0,4.6957418E-1,-1.3708054E-1,-2.7967292E-1,4.960179E-1,8.7637174E-1,1.2637906E-1,4.651762E-1,-5.0156787E-2,5.342156E-1,-2.280941E-1,4.1133332E-1,-5.5650875E-2,-2.6470095E-1,9.876846E-3,-5.5514455E-2,2.710009E-1,-1.0394587E-1,1.2639762E-1,1.7231385E-1,-1.3365912E-1,4.759151E-1,2.32408E-2,2.9269856E-1,-5.7478596E-2,9.221983E-2,-1.6155455E-1,8.63203E-2,-1.0243193E-1,3.3705586E-1,-1.2856466E-1,-1.2620111E-1,3.42311E-1,7.8282684E-2,3.585195E-2,-1.09079005E-2,1.6303349E-1,-5.613177E-2,2.2165309E-1,3.6938393E-1,7.06284E-3,-9.788448E-2,2.0481001E-1,1.0115878E-1,5.344339E-1,-6.5419726E-2,1.7156221E-1,-9.6404836E-2,1.7469405E-1,-1.2712817E-1,9.707677E-3],"categories":[],"categories_nodes":[],"categories_segments":[],"categories_sizes":[],"default_left":[0,0,0,0,0,0,0,0,0,0,0,0,0,0,0,0,0,0,0,0,0,0,0,0,0,0,0,0,0,0,0,0,0,0,0,0,0,0,0,0,0,0,0,0,0,0,0,0,0,0,0,0,0,0,0,0,0,0,0,0,0,0,0,0,0,0,0,0,0,0,0,0,0,0,0,0,0,0,0,0,0,0,0],"id":10,"left_children":[1,3,5,7,9,11,13,15,-1,-1,17,19,21,23,25,27,29,31,33,35,37,39,41,43,45,-1,-1,-1,-1,47,49,51,53,55,57,59,61,63,65,67,69,71,73,75,77,79,81,-1,-1,-1,-1,-1,-1,-1,-1,-1,-1,-1,-1,-1,-1,-1,-1,-1,-1,-1,-1,-1,-1,-1,-1,-1,-1,-1,-1,-1,-1,-1,-1,-1,-1,-1,-1],"loss_changes":[1.34895935E1,5.9542484E0,8.181137E0,4.671386E0,3.0111072E0,7.307312E0,7.0481367E0,2.6018343E0,0E0,0E0,2.8692565E0,8.801376E0,7.6397705E0,5.3616586E0,2.5638514E0,7.604561E-1,3.530734E0,4.736449E0,2.8548791E0,3.7156918E0,8.832878E0,6.9357243E0,5.98949E0,5.5990105E0,5.869577E0,0E0,0E0,0E0,0E0,5.8147674E0,2.8908777E0,1.4557068E0,2.2283297E0,4.370088E0,3.842229E0,2.5678868E0,4.460601E0,5.8922815E0,6.7263336E0,6.7051773E0,3.5559762E0,4.8558846E0,3.929495E0,5.3313627E0,4.857677E0,4.8206987E0,3.9364395E0,0E0,0E0,0E0,0E0,0E0,0E0,0E0,0E0,0E0,0E0,0E0,0E0,0E0,0E0,0E0,0E0,0E0,0E0,0E0,0E0,0E0,0E0,0E0,0E0,0E0,0E0,0E0,0E0,0E0,0E0,0E0,0E0,0E0,0E0,0E0,0E0],"parents":[2147483647,0,0,1,1,2,2,3,3,4,4,5,5,6,6,7,7,10,10,11,11,12,12,13,13,14,14,15,15,16,16,17,17,18,18,19,19,20,20,21,21,22,22,23,23,24,24,29,29,30,30,31,31,32,32,33,33,34,34,35,35,36,36,37,37,38,38,39,39,40,40,41,41,42,42,43,43,44,44,45,45,46,46],"right_children":[2,4,6,8,10,12,14,16,-1,-1,18,20,22,24,26,28,30,32,34,36,38,40,42,44,46,-1,-1,-1,-1,48,50,52,54,56,58,60,62,64,66,68,70,72,74,76,78,80,82,-1,-1,-1,-1,-1,-1,-1,-1,-1,-1,-1,-1,-1,-1,-1,-1,-1,-1,-1,-1,-1,-1,-1,-1,-1,-1,-1,-1,-1,-1,-1,-1,-1,-1,-1,-1],"split_conditions":[-3.5029497E-2,-2.7362185E-3,2.447901E-2,2.39959E-2,-4.364006E-2,2.9334532E-2,4.5357253E-2,-2.6035152E-2,3.119068E-1,-1.4959061E-1,1.2995668E-5,-4.5303293E-2,2.519506E-2,-2.5557807E-2,-3.1353123E-2,5.2869532E-2,9.446747E-3,-1.962898E-2,4.5039817E-3,2.098275E-2,-4.703032E-2,4.4455733E-3,6.281784E-3,-1.7305056E-2,-2.8940106E-2,1.8227248E-2,5.1494706E-1,-1.7027539E-1,4.81783E-2,-2.0489779E-3,1.2999041E-2,-5.7522472E-2,-3.2745626E-2,-2.316428E-2,7.958794E-3,-3.4352727E-2,-1.8920165E-3,4.832805E-3,-3.370652E-2,-1.15793105E-2,4.2264167E-2,-3.500513E-2,5.8702014E-2,1.446203E-2,-7.295733E-4,2.6204376E-2,9.26947E-3,-5.5514455E-2,2.710009E-1,-1.0394587E-1,1.2639762E-1,1.7231385E-1,-1.3365912E-1,4.759151E-1,2.32408E-2,2.9269856E-1,-5.7478596E-2,9.221983E-2,-1.6155455E-1,8.63203E-2,-1.0243193E-1,3.3705586E-1,-1.2856466E-1,-1.2620111E-1,3.42311E-1,7.8282684E-2,3.585195E-2,-1.09079005E-2,1.6303349E-1,-5.613177E-2,2.2165309E-1,3.6938393E-1,7.06284E-3,-9.788448E-2,2.0481001E-1,1.0115878E-1,5.344339E-1,-6.5419726E-2,1.7156221E-1,-9.6404836E-2,1.7469405E-1,-1.2712817E-1,9.707677E-3],"split_indices":[84,24,44,64,22,78,70,88,0,0,24,124,94,36,39,93,38,87,63,35,77,96,25,15,19,0,0,0,0,14,8,1,57,87,13,72,72,35,44,53,4,19,38,24,47,48,62,0,0,0,0,0,0,0,0,0,0,0,0,0,0,0,0,0,0,0,0,0,0,0,0,0,0,0,0,0,0,0,0,0,0,0,0],"split_type":[0,0,0,0,0,0,0,0,0,0,0,0,0,0,0,0,0,0,0,0,0,0,0,0,0,0,0,0,0,0,0,0,0,0,0,0,0,0,0,0,0,0,0,0,0,0,0,0,0,0,0,0,0,0,0,0,0,0,0,0,0,0,0,0,0,0,0,0,0,0,0,0,0,0,0,0,0,0,0,0,0,0,0],"sum_hessian":[8.432623E3,1.7989778E2,8.252726E3,1.3426508E2,4.563271E1,7.6492573E3,6.0346814E2,1.3250996E2,1.7551084E0,5.2377276E0,4.039498E1,7.396146E3,2.5311136E2,5.997764E2,3.6917257E0,3.0718859E1,1.0179111E2,9.287559E0,3.1107422E1,7.532526E1,7.320821E3,1.9993953E2,5.3171825E1,1.02838234E2,4.9693817E2,1.4146693E0,2.2770565E0,2.9622465E1,1.096394E0,2.1306318E1,8.0484795E1,4.131489E0,5.1560698E0,1.1501596E1,1.9605825E1,6.946669E1,5.8585715E0,1.4766305E1,7.3060547E3,1.6930933E2,3.0630194E1,1.2722642E1,4.0449184E1,5.7399857E1,4.543838E1,9.5568756E1,4.0136942E2,1.5231122E1,6.0751963E0,7.607586E1,4.4089327E0,1.1875334E0,2.9439557E0,3.7922127E0,1.3638572E0,6.245421E0,5.2561755E0,9.415244E0,1.0190581E1,6.460485E0,6.3006203E1,3.3617642E0,2.4968076E0,2.4025745E0,1.236373E1,3.5321454E2,6.9528403E3,2.292762E1,1.4638171E2,2.6749979E1,3.880215E0,4.7829127E0,7.9397287E0,3.7092243E1,3.3569415E0,5.56355E1,1.7643523E0,3.6614407E1,8.8239765E0,9.015948E1,5.4092765E0,1.8903687E1,3.8246573E2],"tree_param":{"num_deleted":"0","num_feature":"128","num_nodes":"83","size_leaf_vector":"1"}},{"base_weights":[2.367344E-1,1.966969E-1,5.2846855E-1,1.4320295E-1,2.7851793E-1,6.6464245E-1,4.074968E-1,3.4813306E-1,1.3422199E-1,2.5773284E-1,4.2050895E-1,7.80744E-1,4.9414867E-1,4.7808838E-1,2.4236427E-1,2.6567096E-1,7.549596E-1,1.2581527E-1,3.1752315E-1,2.0387559E-1,3.1869406E-1,3.9000833E-1,1.0255345E0,1.3617893E0,7.2125113E-1,1.5944516E-2,5.5559886E-1,5.17234E-4,5.1363325E-1,1.1544828E0,1.9512653E-1,3.510528E-1,-3.359731E-1,1.0546708E0,2.1156225E-1,1.04179606E-1,1.9738428E-1,3.915684E-1,-2.1649846E-1,8.1610435E-1,1.965048E-1,-2.8188467E-1,3.301875E-1,1.2634143E-1,4.4802046E-1,1.3303835E0,-2.4253802E-1,1.4971242E0,2.556251E-1,8.688594E-1,4.73249E-1,-3.440393E-1,6.600658E-1,8.702075E-1,4.4221583E-1,-2.3620139E-1,1.3288316E0,1.4541586E-1,5.756465E-1,-3.7014842E-2,1.6554768E0,2.302211E-2,4.20081E-1,4.2684793E-2,1.8577331E-1,1.2515248E-1,-1.5333909E-1,4.2031813E-1,-5.901267E-3,-1.6275468E-1,3.5299602E-1,1.7235875E-1,2.9789902E-2,-7.3638834E-2,6.3612446E-2,1.6379856E-1,-8.069836E-3,2.0320964E-1,-1.1700308E-1,3.1694007E-1,-6.2056296E-2,5.627906E-2,1.828337E-1,1.3507985E-1,-1.4002521E-1,9.073278E-2,1.6490355E-1,1.3064468E-1,-6.216373E-2,2.0392816E-1,1.09294534E-1,4.5066693E-1,-9.9976465E-2,-1.2669304E-1,3.9020002E-2,1.3548744E-1,4.9268883E-1,-1.156947E-1,2.4788947E-1,3.1170198E-1,1.9027169E-1,1.13345206E-1,3.3247268E-1,-1.7252567E-1,1.0031749E-1,3.2040575E-1,-1.2770775E-1,2.0853403E-1,4.5716333E-1,9.6883245E-2,2.64878E-1,1.3590957E-1,-1.19624026E-1,5.277446E-1,3.329049E-2,-7.7095553E-3,1.7124861E-1,1.9021307E-1,1.0237429E-2,5.649235E-1,1.4834721E-1,-8.970943E-3,3.2682472E-1,6.444732E-2,2.5060877E-1],"categories":[],"categories_nodes":[],"categories_segments":[],"categories_sizes":[],"default_left":[0,0,0,0,0,0,0,0,0,0,0,0,0,0,0,0,0,0,0,0,0,0,0,0,0,0,0,0,0,0,0,0,0,0,0,0,0,0,0,0,0,0,0,0,0,0,0,0,0,0,0,0,0,0,0,0,0,0,0,0,0,0,0,0,0,0,0,0,0,0,0,0,0,0,0,0,0,0,0,0,0,0,0,0,0,0,0,0,0,0,0,0,0,0,0,0,0,0,0,0,0,0,0,0,0,0,0,0,0,0,0,0,0,0,0,0,0,0,0,0,0,0,0,0,0],"id":11,"left_children":[1,3,5,7,9,11,13,15,17,19,21,23,25,27,29,31,33,35,37,39,41,43,45,47,49,51,53,55,57,59,61,63,65,67,69,71,73,75,77,79,81,83,85,87,89,91,93,95,97,99,101,103,105,107,109,111,113,115,117,-1,119,121,123,-1,-1,-1,-1,-1,-1,-1,-1,-1,-1,-1,-1,-1,-1,-1,-1,-1,-1,-1,-1,-1,-1,-1,-1,-1,-1,-1,-1,-1,-1,-1,-1,-1,-1,-1,-1,-1,-1,-1,-1,-1,-1,-1,-1,-1,-1,-1,-1,-1,-1,-1,-1,-1,-1,-1,-1,-1,-1,-1,-1,-1,-1],"loss_changes":[1.0237491E2,3.3734467E1,1.716095E1,8.54454E0,8.891556E0,9.436905E0,6.446533E0,6.353163E0,6.8537216E0,8.677109E0,6.756508E0,9.162872E0,5.978508E0,6.6768265E0,7.125969E0,8.541209E0,5.050543E0,6.605377E0,7.815956E0,6.2316513E0,8.702072E0,5.6152687E0,7.2802887E0,3.5293808E0,9.412308E0,5.8455033E0,6.0545654E0,9.196382E0,8.275833E0,5.452367E0,6.3171864E0,7.9792595E0,2.968927E0,7.7008247E0,9.925877E0,7.489601E0,6.49226E0,1.11341E1,4.0566864E0,4.2837763E0,5.0389977E0,3.4530187E0,7.2890015E0,7.129419E0,5.640484E0,4.6928196E0,3.4524146E-1,2.7609787E0,1.802463E0,6.008751E0,5.7817974E0,2.7317886E0,4.454197E0,4.2960167E0,6.7968636E0,2.9618583E0,2.1231122E0,3.9533315E0,9.876083E0,0E0,6.4323807E-1,5.3177133E0,5.8533964E0,0E0,0E0,0E0,0E0,0E0,0E0,0E0,0E0,0E0,0E0,0E0,0E0,0E0,0E0,0E0,0E0,0E0,0E0,0E0,0E0,0E0,0E0,0E0,0E0,0E0,0E0,0E0,0E0,0E0,0E0,0E0,0E0,0E0,0E0,0E0,0E0,0E0,0E0,0E0,0E0,0E0,0E0,0E0,0E0,0E0,0E0,0E0,0E0,0E0,0E0,0E0,0E0,0E0,0E0,0E0,0E0,0E0,0E0,0E0,0E0,0E0,0E0],"parents":[2147483647,0,0,1,1,2,2,3,3,4,4,5,5,6,6,7,7,8,8,9,9,10,10,11,11,12,12,13,13,14,14,15,15,16,16,17,17,18,18,19,19,20,20,21,21,22,22,23,23,24,24,25,25,26,26,27,27,28,28,29,29,30,30,31,31,32,32,33,33,34,34,35,35,36,36,37,37,38,38,39,39,40,40,41,41,42,42,43,43,44,44,45,45,46,46,47,47,48,48,49,49,50,50,51,51,52,52,53,53,54,54,55,55,56,56,57,57,58,58,60,60,61,61,62,62],"right_children":[2,4,6,8,10,12,14,16,18,20,22,24,26,28,30,32,34,36,38,40,42,44,46,48,50,52,54,56,58,60,62,64,66,68,70,72,74,76,78,80,82,84,86,88,90,92,94,96,98,100,102,104,106,108,110,112,114,116,118,-1,120,122,124,-1,-1,-1,-1,-1,-1,-1,-1,-1,-1,-1,-1,-1,-1,-1,-1,-1,-1,-1,-1,-1,-1,-1,-1,-1,-1,-1,-1,-1,-1,-1,-1,-1,-1,-1,-1,-1,-1,-1,-1,-1,-1,-1,-1,-1,-1,-1,-1,-1,-1,-1,-1,-1,-1,-1,-1,-1,-1,-1,-1,-1,-1],"split_conditions":[3.141115E-2,-3.8732481E-3,-4.038475E-2,-8.7665446E-4,3.9203566E-2,-3.0668963E-2,-1.4873472E-2,5.0472636E-3,9.4316825E-3,9.191031E-3,5.3619933E-3,-1.076436E-2,2.6802156E-2,-5.7508912E-2,-3.9708335E-2,1.6767344E-2,1.8244336E-3,3.899157E-2,9.481929E-3,-3.227349E-2,-3.8485248E-2,-2.8567597E-2,2.2810647E-2,-4.2260345E-2,-3.2627542E-4,1.5935332E-3,1.732063E-2,2.2115102E-2,-3.274722E-2,3.8622215E-2,8.660326E-3,-4.0646372E-3,-1.5055819E-2,4.668869E-2,-3.3836851E-3,-4.7033384E-2,-1.4400286E-2,3.621298E-2,9.929296E-3,1.246766E-2,2.5897678E-2,-1.6740365E-2,1.2399478E-2,4.3538115E-3,2.3972976E-3,2.39959E-2,3.0651188E-2,1.7053962E-2,-3.9592134E-3,-3.5583455E-2,7.2099874E-4,1.0577613E-2,-9.644645E-3,1.3743479E-2,5.040526E-3,-2.8871952E-2,-4.9003353E-3,1.6630117E-2,7.9872E-3,-3.7014842E-2,-1.4909192E-2,-3.361143E-5,1.29329655E-2,4.2684793E-2,1.8577331E-1,1.2515248E-1,-1.5333909E-1,4.2031813E-1,-5.901267E-3,-1.6275468E-1,3.5299602E-1,1.7235875E-1,2.9789902E-2,-7.3638834E-2,6.3612446E-2,1.6379856E-1,-8.069836E-3,2.0320964E-1,-1.1700308E-1,3.1694007E-1,-6.2056296E-2,5.627906E-2,1.828337E-1,1.3507985E-1,-1.4002521E-1,9.073278E-2,1.6490355E-1,1.3064468E-1,-6.216373E-2,2.0392816E-1,1.09294534E-1,4.5066693E-1,-9.9976465E-2,-1.2669304E-1,3.9020002E-2,1.3548744E-1,4.9268883E-1,-1.156947E-1,2.4788947E-1,3.1170198E-1,1.9027169E-1,1.13345206E-1,3.3247268E-1,-1.7252567E-1,1.0031749E-1,3.2040575E-1,-1.2770775E-1,2.0853403E-1,4.5716333E-1,9.6883245E-2,2.64878E-1,1.3590957E-1,-1.19624026E-1,5.277446E-1,3.329049E-2,-7.7095553E-3,1.7124861E-1,1.9021307E-1,1.0237429E-2,5.649235E-1,1.4834721E-1,-8.970943E-3,3.2682472E-1,6.444732E-2,2.5060877E-1],"split_indices":[33,82,15,61,90,7,11,26,17,91,65,100,53,45,92,6,96,90,64,10,83,53,104,13,8,76,82,61,26,62,2,103,93,94,58,19,9,60,90,116,85,74,89,9,82,64,104,78,31,20,92,41,61,82,102,119,82,40,76,0,103,1,23,0,0,0,0,0,0,0,0,0,0,0,0,0,0,0,0,0,0,0,0,0,0,0,0,0,0,0,0,0,0,0,0,0,0,0,0,0,0,0,0,0,0,0,0,0,0,0,0,0,0,0,0,0,0,0,0,0,0,0,0,0,0],"split_type":[0,0,0,0,0,0,0,0,0,0,0,0,0,0,0,0,0,0,0,0,0,0,0,0,0,0,0,0,0,0,0,0,0,0,0,0,0,0,0,0,0,0,0,0,0,0,0,0,0,0,0,0,0,0,0,0,0,0,0,0,0,0,0,0,0,0,0,0,0,0,0,0,0,0,0,0,0,0,0,0,0,0,0,0,0,0,0,0,0,0,0,0,0,0,0,0,0,0,0,0,0,0,0,0,0,0,0,0,0,0,0,0,0,0,0,0,0,0,0,0,0,0,0,0,0],"sum_hessian":[8.772645E3,7.7154526E3,1.0571919E3,4.6669727E3,3.0484802E3,4.952317E2,5.619602E2,1.9435526E2,4.472617E3,2.6616716E3,3.8680853E2,2.92481E2,2.0275069E2,3.9234406E2,1.6961615E2,1.6297409E2,3.1381166E1,4.2780977E3,1.9451942E2,1.4154825E3,1.2461892E3,3.6981024E2,1.699831E1,2.5132372E1,2.6734863E2,2.3230545E1,1.7952014E2,2.7248955E1,3.650951E2,7.1975718E0,1.6241858E2,1.4308482E2,1.9889263E1,1.9619263E1,1.1761904E1,3.286906E3,9.911919E2,1.7106677E2,2.3452654E1,1.5533377E1,1.3999491E3,2.2959076E1,1.2232301E3,6.726527E1,3.0254495E2,1.366424E1,3.334069E0,2.20778E1,3.0545707E0,1.6602739E2,1.01321236E2,1.520097E1,8.029575E0,4.5789948E1,1.337302E2,2.3825243E1,3.423712E0,5.3106777E1,3.119883E2,2.239385E0,4.958187E0,9.264308E1,6.97755E1,8.1315994E1,6.176883E1,3.4920938E0,1.639717E1,1.4605911E1,5.0133514E0,6.848591E0,4.9133134E0,3.2553204E1,3.2543528E3,3.1250591E1,9.599413E2,1.24732216E2,4.6334557E1,3.340397E0,2.0112257E1,1.2551436E1,2.981941E0,1.3718108E3,2.8138361E1,4.3390193E0,1.8620056E1,1.08807E3,1.351602E2,3.475159E1,3.251368E1,7.839256E1,2.2415239E2,1.247292E1,1.19132E0,2.1590052E0,1.1750638E0,3.19305E0,1.8884752E1,1.5909814E0,1.4635892E0,9.4249245E1,7.1778145E1,8.946999E1,1.1851241E1,1.1452901E1,3.748068E0,5.848463E0,2.1811123E0,3.7743313E1,8.046635E0,1.0661047E2,2.711972E1,4.2055473E0,1.9619696E1,2.2014146E0,1.2222973E0,3.8543118E1,1.4563661E1,2.8146466E2,3.0523642E1,3.6254783E0,1.3327088E0,8.91886E1,3.4544833E0,4.7711143E1,2.2064358E1],"tree_param":{"num_deleted":"0","num_feature":"128","num_nodes":"125","size_leaf_vector":"1"}},{"base_weights":[2.131511E-2,4.0126815E-2,-4.102819E-2,7.1241015E-1,3.837484E-2,-4.7252614E-2,2.9640228E-1,1.2793312E0,-1.2986368E-1,8.704527E-2,2.255438E-2,-2.5207337E-2,-1.610937E-1,7.320733E-1,-4.102525E-2,-1.0334212E-1,1.6579098E0,-1.4707664E-1,1.836456E-1,5.451896E-2,2.2773968E-1,1.9459253E-2,6.821345E-1,-3.454568E-2,4.2390153E-1,8.49933E-2,-2.3387188E-1,1.1237959E0,-2.8273764E-1,5.6928504E-1,-4.0340102E-1,-9.155826E-2,4.673793E-2,1.9798315E0,2.3587765E-2,6.170595E-2,-4.143863E-1,1.2093092E0,1.729186E-1,-1.8703703E-2,6.1243847E-2,1.104081E0,2.0187683E-1,-1.1966662E-2,-1.6850476E-1,1.4691322E0,4.315783E-2,2.3022516E-1,-3.8239875E-1,1.1966879E0,-2.5210536E-1,1.5150071E0,2.0062847E-1,-1.330019E-1,4.5232095E-2,-2.7553824E-1,4.104632E-1,1.01914935E-1,-1.6297927E-1,1.501648E-1,6.837039E-1,3.2310262E-1,1.7529864E-2,7.569075E-2,-1.5257978E-1,4.6863183E-1,-5.9647765E-2,2.5588231E-2,1.5874113E-1,-1.1187943E-3,-4.309285E-2,1.656791E-2,1.3314772E-1,-8.1263725E-3,3.9246145E-1,2.003028E-1,-6.7479774E-2,7.238168E-2,-7.2937286E-3,-6.265373E-2,1.3369417E-1,6.4537096E-1,7.775761E-2,-8.906837E-2,1.7004484E-1,2.680459E-1,1.691896E-2,-1.4823659E-1,2.0026933E-1,4.8970172E-1,5.3916186E-2,-4.4691637E-2,-1.2758388E-1,5.2417195E-1,3.386665E-2,-1.18493095E-1,2.743414E-1,5.0316826E-2,-1.3270456E-1],"categories":[],"categories_nodes":[],"categories_segments":[],"categories_sizes":[],"default_left":[0,0,0,0,0,0,0,0,0,0,0,0,0,0,0,0,0,0,0,0,0,0,0,0,0,0,0,0,0,0,0,0,0,0,0,0,0,0,0,0,0,0,0,0,0,0,0,0,0,0,0,0,0,0,0,0,0,0,0,0,0,0,0,0,0,0,0,0,0,0,0,0,0,0,0,0,0,0,0,0,0,0,0,0,0,0,0,0,0,0,0,0,0,0,0,0,0,0,0],"id":12,"left_children":[1,3,5,7,9,11,13,15,17,19,21,23,25,27,29,31,33,-1,-1,35,37,39,41,43,45,47,49,51,53,55,57,-1,-1,59,-1,61,63,65,67,69,71,73,75,77,79,81,83,85,87,89,91,93,95,-1,-1,97,-1,-1,-1,-1,-1,-1,-1,-1,-1,-1,-1,-1,-1,-1,-1,-1,-1,-1,-1,-1,-1,-1,-1,-1,-1,-1,-1,-1,-1,-1,-1,-1,-1,-1,-1,-1,-1,-1,-1,-1,-1,-1,-1],"loss_changes":[9.637327E0,7.407202E0,4.01505E0,7.973158E0,4.8464613E0,4.692355E0,5.1225567E0,5.3348236E0,2.3018143E0,7.0548315E0,9.690766E0,6.5946274E0,5.4538345E0,6.349231E0,4.7565274E0,2.0769285E-1,3.8112679E0,0E0,0E0,4.2571535E0,1.5378178E1,7.547304E0,4.2701616E0,4.6496024E0,1.26848755E1,4.8385367E0,6.416419E0,3.7221994E0,4.1667005E-1,5.803836E0,1.5802217E0,0E0,0E0,1.7094784E0,0E0,4.0497155E0,1.3270469E0,7.8396378E0,8.554601E0,4.628184E0,5.176512E0,2.7089825E0,2.455028E0,4.123831E0,5.5870214E0,6.476425E0,4.5329447E0,6.1774435E0,2.3201137E0,1.0908341E0,4.0855207E0,2.3026218E0,2.2620146E0,0E0,0E0,4.2469147E-1,0E0,0E0,0E0,0E0,0E0,0E0,0E0,0E0,0E0,0E0,0E0,0E0,0E0,0E0,0E0,0E0,0E0,0E0,0E0,0E0,0E0,0E0,0E0,0E0,0E0,0E0,0E0,0E0,0E0,0E0,0E0,0E0,0E0,0E0,0E0,0E0,0E0,0E0,0E0,0E0,0E0,0E0,0E0],"parents":[2147483647,0,0,1,1,2,2,3,3,4,4,5,5,6,6,7,7,8,8,9,9,10,10,11,11,12,12,13,13,14,14,15,15,16,16,19,19,20,20,21,21,22,22,23,23,24,24,25,25,26,26,27,27,28,28,29,29,30,30,33,33,35,35,36,36,37,37,38,38,39,39,40,40,41,41,42,42,43,43,44,44,45,45,46,46,47,47,48,48,49,49,50,50,51,51,52,52,55,55],"right_children":[2,4,6,8,10,12,14,16,18,20,22,24,26,28,30,32,34,-1,-1,36,38,40,42,44,46,48,50,52,54,56,58,-1,-1,60,-1,62,64,66,68,70,72,74,76,78,80,82,84,86,88,90,92,94,96,-1,-1,98,-1,-1,-1,-1,-1,-1,-1,-1,-1,-1,-1,-1,-1,-1,-1,-1,-1,-1,-1,-1,-1,-1,-1,-1,-1,-1,-1,-1,-1,-1,-1,-1,-1,-1,-1,-1,-1,-1,-1,-1,-1,-1,-1],"split_conditions":[1.6289538E-2,-4.883368E-2,2.9540546E-2,8.724367E-3,-8.633015E-3,3.0755803E-2,-1.7555296E-2,-7.3804082E-3,-1.1450716E-2,2.6196344E-2,4.45065E-2,7.257956E-2,2.6262548E-2,-1.549689E-3,4.0865473E-2,-2.6686886E-2,-1.3240363E-2,-1.4707664E-1,1.836456E-1,1.9460306E-2,1.7977059E-2,3.5440386E-3,-1.7865462E-2,2.0295605E-2,2.0427747E-2,-2.6760876E-2,-2.9861107E-2,1.1309106E-2,-1.7440256E-2,6.320985E-2,4.4353823E-3,-9.155826E-2,4.673793E-2,1.4946181E-2,2.3587765E-2,-2.361284E-2,-3.0029211E-2,1.6203228E-2,1.78875E-2,1.9000331E-2,1.5539335E-2,-9.6636936E-2,-3.5226792E-2,6.7157386E-4,2.2442015E-2,-3.5819463E-2,-6.4304145E-3,-2.8693075E-3,1.1907678E-2,6.475451E-2,-6.370745E-2,-1.3647703E-2,3.367559E-2,-1.330019E-1,4.5232095E-2,-5.5136144E-2,4.104632E-1,1.01914935E-1,-1.6297927E-1,1.501648E-1,6.837039E-1,3.2310262E-1,1.7529864E-2,7.569075E-2,-1.5257978E-1,4.6863183E-1,-5.9647765E-2,2.5588231E-2,1.5874113E-1,-1.1187943E-3,-4.309285E-2,1.656791E-2,1.3314772E-1,-8.1263725E-3,3.9246145E-1,2.003028E-1,-6.7479774E-2,7.238168E-2,-7.2937286E-3,-6.265373E-2,1.3369417E-1,6.4537096E-1,7.775761E-2,-8.906837E-2,1.7004484E-1,2.680459E-1,1.691896E-2,-1.4823659E-1,2.0026933E-1,4.8970172E-1,5.3916186E-2,-4.4691637E-2,-1.2758388E-1,5.2417195E-1,3.386665E-2,-1.18493095E-1,2.743414E-1,5.0316826E-2,-1.3270456E-1],"split_indices":[24,60,81,45,73,20,11,85,41,90,2,49,86,96,59,2,67,0,0,29,23,16,20,103,102,68,11,106,119,3,120,0,0,12,0,46,84,50,39,39,41,3,100,110,81,121,39,52,93,13,62,39,76,0,0,40,0,0,0,0,0,0,0,0,0,0,0,0,0,0,0,0,0,0,0,0,0,0,0,0,0,0,0,0,0,0,0,0,0,0,0,0,0,0,0,0,0,0,0],"split_type":[0,0,0,0,0,0,0,0,0,0,0,0,0,0,0,0,0,0,0,0,0,0,0,0,0,0,0,0,0,0,0,0,0,0,0,0,0,0,0,0,0,0,0,0,0,0,0,0,0,0,0,0,0,0,0,0,0,0,0,0,0,0,0,0,0,0,0,0,0,0,0,0,0,0,0,0,0,0,0,0,0,0,0,0,0,0,0,0,0,0,0,0,0,0,0,0,0,0,0],"sum_hessian":[8.215077E3,6.3110986E3,1.9039783E3,1.5349684E1,6.2957485E3,1.870337E3,3.364127E1,8.864338E0,6.4853454E0,1.5433253E3,4.7524233E3,1.5679296E3,3.0240747E2,1.4172636E1,1.9468634E1,2.0616498E0,6.802688E0,4.593572E0,1.891773E0,1.2546562E3,2.8866907E2,4.731251E3,2.1172234E1,1.5368959E3,3.103367E1,6.898355E1,2.3342392E2,1.0148042E1,4.0245934E0,7.0403514E0,1.2428282E1,1.0590035E0,1.0026464E0,5.4401417E0,1.3625463E0,1.2365715E3,1.8084738E1,1.4155528E1,2.7451352E2,2.4730776E3,2.2581736E3,1.0578875E1,1.0593359E1,1.3161466E3,2.2074928E2,7.5229163E0,2.3510756E1,5.3017075E1,1.5966472E1,2.1243007E0,2.3129962E2,6.6773005E0,3.470742E0,2.9201138E0,1.1044796E0,3.740294E0,3.3000572E0,1.7422875E0,1.0685994E1,1.3648417E0,4.0753E0,2.9194224E0,1.2336521E3,2.0314417E0,1.6053297E1,1.1232078E1,2.9234502E0,2.2131319E2,5.3200348E1,2.2093135E3,2.6376407E2,2.2243323E3,3.3841305E1,1.7497556E0,8.829119E0,4.795471E0,5.7978883E0,6.0319405E1,1.2558271E3,2.0776222E2,1.2987059E1,4.313314E0,3.209602E0,1.4516858E1,8.9938965E0,1.0149722E1,4.2867355E1,1.4909402E1,1.0570698E0,1.0635779E0,1.060723E0,1.4613171E2,8.516791E1,5.517324E0,1.1599764E0,2.1355789E0,1.335163E0,1.0212034E0,2.7190905E0],"tree_param":{"num_deleted":"0","num_feature":"128","num_nodes":"99","size_leaf_vector":"1"}},{"base_weights":[1.2636016E-1,-3.241247E-2,1.7169565E-1,7.44684E-3,-2.3891352E-1,1.3108687E-1,2.3762025E-1,8.796167E-2,-7.237076E-2,-2.5573656E-1,3.6840677E-1,2.2313068E-2,1.4611968E-1,2.3511188E-1,9.770632E-1,7.561901E-2,7.3350936E-1,7.377406E-1,-8.292119E-2,-2.827999E-1,1.1088517E-1,-1.3905083E-1,1.0457486E0,9.631194E-3,1.0399432E0,1.9950698E-1,1.06350176E-1,6.727978E-2,2.4962829E-1,1.5738109E0,-1.2811165E-1,-2.188539E-1,9.420381E-2,-1.3559447E-1,1.0657223E0,1.3875831E0,-2.8463098E-1,5.800195E-1,-9.153149E-2,-2.9126638E-1,2.0757672E-1,-3.547752E-1,5.1794654E-1,5.3647304E-1,-7.097892E-2,4.738036E-2,-2.5662944E-1,-9.9752754E-2,1.4193767E0,2.1117178E-1,-1.7943136E-1,1.1870616E-1,-1.3302593E-1,8.2576555E-1,2.5704684E-2,2.537989E-1,-2.7538738E-1,3.5049967E-2,5.702183E-1,1.1250722E-1,-9.725106E-2,4.5073673E-2,-3.0496265E-3,-1.1366213E-1,3.9979243E-1,5.376667E-1,3.6059695E-3,4.8292894E-2,-1.3554718E-1,-8.310689E-2,3.3683538E-1,-2.9074686E-2,2.8365168E-1,-2.4554353E-2,-9.6827395E-2,1.0962719E-1,-1.5810561E-1,-9.419412E-2,3.251014E-1,6.1998397E-2,-9.1786064E-2,1.4770885E-1,5.78466E-3,-9.666119E-2,2.6372194E-1,3.4927502E-2,5.358874E-1,7.955966E-2,3.9369196E-2,-9.369396E-2,2.2025548E-1,2.9739257E-2,8.743352E-2,7.242127E-2,-7.857186E-2,5.0723284E-1,-1.39004E-2,1.13221146E-1,-9.247935E-3,7.5320944E-2,3.8272718E-1,-1.2434041E-1,2.5124937E-1],"categories":[],"categories_nodes":[],"categories_segments":[],"categories_sizes":[],"default_left":[0,0,0,0,0,0,0,0,0,0,0,0,0,0,0,0,0,0,0,0,0,0,0,0,0,0,0,0,0,0,0,0,0,0,0,0,0,0,0,0,0,0,0,0,0,0,0,0,0,0,0,0,0,0,0,0,0,0,0,0,0,0,0,0,0,0,0,0,0,0,0,0,0,0,0,0,0,0,0,0,0,0,0,0,0,0,0,0,0,0,0,0,0,0,0,0,0,0,0,0,0,0,0],"id":13,"left_children":[1,3,5,7,9,11,13,15,17,19,21,23,25,27,29,31,33,35,37,39,41,-1,43,45,47,49,51,53,55,57,-1,59,61,-1,63,65,67,69,71,73,-1,75,77,-1,79,81,83,-1,85,87,89,91,93,95,97,99,101,-1,-1,-1,-1,-1,-1,-1,-1,-1,-1,-1,-1,-1,-1,-1,-1,-1,-1,-1,-1,-1,-1,-1,-1,-1,-1,-1,-1,-1,-1,-1,-1,-1,-1,-1,-1,-1,-1,-1,-1,-1,-1,-1,-1,-1,-1],"loss_changes":[6.3693405E1,1.6184757E1,1.839502E1,1.0603488E1,3.3445587E0,6.964958E0,4.6342926E0,6.488883E0,7.143409E0,3.1086369E0,5.547414E0,6.6829143E0,7.9276505E0,6.3537903E0,7.8350973E0,4.437418E0,6.5051727E0,7.5395546E0,4.7272773E0,2.5873852E0,4.361292E0,0E0,4.487903E0,5.1707773E0,3.7913136E0,7.0976143E0,6.368099E0,6.5861773E0,5.338867E0,2.7370558E0,0E0,3.1370063E0,4.445892E0,0E0,5.226224E0,3.7327385E0,4.4590327E-1,5.258339E0,4.610002E0,1.8684483E0,0E0,1.5413846E0,6.066031E0,0E0,2.6300433E-1,5.621357E0,5.040967E0,0E0,2.2700653E0,6.6591873E0,6.085384E0,6.878702E0,5.173072E0,8.267981E0,3.9815774E0,6.3395233E0,3.356711E0,0E0,0E0,0E0,0E0,0E0,0E0,0E0,0E0,0E0,0E0,0E0,0E0,0E0,0E0,0E0,0E0,0E0,0E0,0E0,0E0,0E0,0E0,0E0,0E0,0E0,0E0,0E0,0E0,0E0,0E0,0E0,0E0,0E0,0E0,0E0,0E0,0E0,0E0,0E0,0E0,0E0,0E0,0E0,0E0,0E0,0E0],"parents":[2147483647,0,0,1,1,2,2,3,3,4,4,5,5,6,6,7,7,8,8,9,9,10,10,11,11,12,12,13,13,14,14,15,15,16,16,17,17,18,18,19,19,20,20,22,22,23,23,24,24,25,25,26,26,27,27,28,28,29,29,31,31,32,32,34,34,35,35,36,36,37,37,38,38,39,39,41,41,42,42,44,44,45,45,46,46,48,48,49,49,50,50,51,51,52,52,53,53,54,54,55,55,56,56],"right_children":[2,4,6,8,10,12,14,16,18,20,22,24,26,28,30,32,34,36,38,40,42,-1,44,46,48,50,52,54,56,58,-1,60,62,-1,64,66,68,70,72,74,-1,76,78,-1,80,82,84,-1,86,88,90,92,94,96,98,100,102,-1,-1,-1,-1,-1,-1,-1,-1,-1,-1,-1,-1,-1,-1,-1,-1,-1,-1,-1,-1,-1,-1,-1,-1,-1,-1,-1,-1,-1,-1,-1,-1,-1,-1,-1,-1,-1,-1,-1,-1,-1,-1,-1,-1,-1,-1],"split_conditions":[-2.4654437E-2,4.557172E-2,3.4582538E-3,3.0109815E-2,-1.2377967E-3,-1.7140128E-2,2.0170635E-2,5.297212E-2,-2.9102586E-2,2.032303E-2,-6.149304E-3,2.4152726E-2,2.1407297E-3,1.4337159E-2,-2.3176987E-3,-1.6741669E-2,-1.3351166E-2,-2.937609E-2,-1.1007848E-2,1.8336125E-2,-1.0508359E-2,-1.3905083E-1,-3.7338752E-2,-6.907232E-3,-5.097805E-2,9.554563E-3,1.2060654E-2,-2.0154675E-2,-9.0584694E-4,-1.1164233E-2,-1.2811165E-1,-2.410678E-2,1.588479E-2,-1.3559447E-1,-2.1963278E-2,-9.577961E-3,-2.7881062E-2,-1.5766634E-2,2.9587068E-2,-4.3820195E-2,2.0757672E-1,-2.1228123E-2,-4.9172238E-2,5.3647304E-1,5.342851E-3,-1.6595582E-2,2.4338985E-2,-9.9752754E-2,-1.4615934E-2,2.6624685E-3,3.935467E-2,1.0282713E-3,3.418972E-3,3.5604367E-3,-1.2015558E-2,1.4522284E-2,1.839673E-2,3.5049967E-2,5.702183E-1,1.1250722E-1,-9.725106E-2,4.5073673E-2,-3.0496265E-3,-1.1366213E-1,3.9979243E-1,5.376667E-1,3.6059695E-3,4.8292894E-2,-1.3554718E-1,-8.310689E-2,3.3683538E-1,-2.9074686E-2,2.8365168E-1,-2.4554353E-2,-9.6827395E-2,1.0962719E-1,-1.5810561E-1,-9.419412E-2,3.251014E-1,6.1998397E-2,-9.1786064E-2,1.4770885E-1,5.78466E-3,-9.666119E-2,2.6372194E-1,3.4927502E-2,5.358874E-1,7.955966E-2,3.9369196E-2,-9.369396E-2,2.2025548E-1,2.9739257E-2,8.743352E-2,7.242127E-2,-7.857186E-2,5.0723284E-1,-1.39004E-2,1.13221146E-1,-9.247935E-3,7.5320944E-2,3.8272718E-1,-1.2434041E-1,2.5124937E-1],"split_indices":[71,60,116,46,51,88,41,100,65,109,100,18,16,21,66,65,96,20,60,116,64,0,1,66,20,11,126,8,91,38,0,92,35,0,29,28,11,120,102,80,0,73,102,0,5,8,0,0,56,91,63,57,18,17,31,104,64,0,0,0,0,0,0,0,0,0,0,0,0,0,0,0,0,0,0,0,0,0,0,0,0,0,0,0,0,0,0,0,0,0,0,0,0,0,0,0,0,0,0,0,0,0,0],"split_type":[0,0,0,0,0,0,0,0,0,0,0,0,0,0,0,0,0,0,0,0,0,0,0,0,0,0,0,0,0,0,0,0,0,0,0,0,0,0,0,0,0,0,0,0,0,0,0,0,0,0,0,0,0,0,0,0,0,0,0,0,0,0,0,0,0,0,0,0,0,0,0,0,0,0,0,0,0,0,0,0,0,0,0,0,0,0,0,0,0,0,0,0,0,0,0,0,0,0,0,0,0,0,0],"sum_hessian":[8.84695E3,1.9651039E3,6.881846E3,1.6479723E3,3.171315E2,4.2604487E3,2.6213977E3,8.203522E2,8.276202E2,3.0914688E2,7.9846015E0,5.176125E2,3.7428362E3,2.6138489E3,7.54883E0,8.0605774E2,1.429442E1,9.753784E0,8.178664E2,2.8810794E2,2.1038961E1,3.7251205E0,4.259481E0,5.1223834E2,5.374133E0,1.5961366E3,2.1466995E3,2.085319E2,2.405317E3,5.2125945E0,2.3362358E0,4.7212227E1,7.588455E2,3.0500178E0,1.1244402E1,5.7449465E0,4.008838E0,9.635408E0,8.08231E2,2.863221E2,1.7858238E0,9.873061E0,1.1165901E1,2.197243E0,2.0622377E0,4.493532E2,6.2885113E1,1.1907456E0,4.1833878E0,1.5488998E3,4.7236774E1,2.0418105E3,1.0488893E2,9.856178E0,1.9867572E2,2.3868726E3,1.8444239E1,1.2040141E0,4.00858E0,6.725611E0,4.0486618E1,4.9344647E2,2.6539905E2,1.688206E0,9.556196E0,4.2050714E0,1.5398749E0,1.103893E0,2.904945E0,3.925901E0,5.709508E0,8.049583E2,3.2726617E0,3.7898262E1,2.4842384E2,1.6890613E0,8.184E0,4.6997194E0,6.4661818E0,1.0005306E0,1.0617071E0,2.5707531E1,4.236457E2,6.0129578E1,2.7555363E0,1.2086512E0,2.9747362E0,9.2287225E2,6.260276E2,4.1813347E1,5.4234257E0,1.8353921E3,2.0641844E2,2.6634836E1,7.82541E1,4.4769163E0,5.379262E0,2.6726316E1,1.719494E2,2.3817578E3,5.1146946E0,1.6953129E1,1.4911104E0],"tree_param":{"num_deleted":"0","num_feature":"128","num_nodes":"103","size_leaf_vector":"1"}},{"base_weights":[-4.5868623E-1,-3.7230232E-1,-4.6413606E-1,-3.8184288E-1,1.7666942E-1,-4.6492642E-1,-2.0335817E-1,-3.9905626E-1,-7.161657E-2,7.444174E-1,-2.5519544E-1,-4.4871113E-1,-4.7682315E-1,4.6045467E-1,-3.5872212E-1,2.529686E-1,-4.0799224E-1,9.389101E-1,-3.617446E-1,3.1350946E-1,3.7195824E-2,6.1208542E-2,-1.2874892E-1,-4.5194963E-1,-1.5137562E-1,-3.6517292E-1,-4.793513E-1,-9.722524E-2,2.6883262E-1,8.487326E-2,-4.6444663E-1,2.8469366E-1,-1.2496469E-1,-3.3295536E-1,-4.9794975E-1,4.6629605E-1,-1.02447405E-1,2.0731877E-1,-1.5862498E-1,-4.5263287E-1,9.9294566E-2,5.142523E-1,-3.049254E-1,2.0732297E-1,-3.9814427E-1,-1.2056531E-1,-4.8002884E-1,-1.589206E-1,5.8801252E-2,9.634717E-2,-1.0464812E-1,1.1318923E-1,-1.5300536E-1,3.1749877E-1,-1.2068828E-1,-1.3793564E-1,-1.11399285E-1,-1.0290145E-1,2.6373997E-1,-1.445332E-1,2.156058E-2,-5.9225064E-2,-1.5573943E-1,-1.3803542E-1,1.3288042E-1,-5.775552E-2,-1.4427975E-1],"categories":[],"categories_nodes":[],"categories_segments":[],"categories_sizes":[],"default_left":[0,0,0,0,0,0,0,0,0,0,0,0,0,0,0,0,0,0,0,0,0,0,0,0,0,0,0,0,0,0,0,0,0,0,0,0,0,0,0,0,0,0,0,0,0,0,0,0,0,0,0,0,0,0,0,0,0,0,0,0,0,0,0,0,0,0,0],"id":14,"left_children":[1,3,5,7,9,11,13,15,17,19,21,23,25,27,29,31,33,35,37,-1,-1,-1,-1,39,41,43,45,-1,-1,-1,47,-1,-1,49,51,-1,-1,53,-1,55,-1,57,59,-1,61,63,65,-1,-1,-1,-1,-1,-1,-1,-1,-1,-1,-1,-1,-1,-1,-1,-1,-1,-1,-1,-1],"loss_changes":[2.8063965E0,2.0607758E0,1.1314697E0,1.9707451E0,1.9516375E0,9.2993164E-1,2.2022414E0,2.168705E0,6.4674063E0,4.9699318E-1,4.7307044E-1,2.3642273E0,7.859497E-1,1.7204626E0,1.255302E0,2.9163163E0,2.1973648E0,4.4236326E0,1.7214899E0,0E0,0E0,0E0,0E0,1.4864197E0,3.0925303E0,3.0465221E0,7.505493E-1,0E0,0E0,0E0,7.3349714E-1,0E0,0E0,2.125E0,1.8528442E0,0E0,0E0,2.794794E0,0E0,1.2812805E0,0E0,2.102078E0,1.6317098E0,0E0,1.7870026E0,1.6587173E0,7.698364E-1,0E0,0E0,0E0,0E0,0E0,0E0,0E0,0E0,0E0,0E0,0E0,0E0,0E0,0E0,0E0,0E0,0E0,0E0,0E0,0E0],"parents":[2147483647,0,0,1,1,2,2,3,3,4,4,5,5,6,6,7,7,8,8,9,9,10,10,11,11,12,12,13,13,14,14,15,15,16,16,17,17,18,18,23,23,24,24,25,25,26,26,30,30,33,33,34,34,37,37,39,39,41,41,42,42,44,44,45,45,46,46],"right_children":[2,4,6,8,10,12,14,16,18,20,22,24,26,28,30,32,34,36,38,-1,-1,-1,-1,40,42,44,46,-1,-1,-1,48,-1,-1,50,52,-1,-1,54,-1,56,-1,58,60,-1,62,64,66,-1,-1,-1,-1,-1,-1,-1,-1,-1,-1,-1,-1,-1,-1,-1,-1,-1,-1,-1,-1],"split_conditions":[-3.387462E-2,4.817405E-3,3.9780382E-2,6.6972063E-3,-2.8782997E-2,-1.1208118E-2,-1.4639357E-2,-3.5781488E-2,-4.166526E-2,-2.5621733E-2,-1.5511049E-2,1.5643656E-2,-3.9171036E-2,2.3329185E-2,8.491526E-4,-1.1760871E-2,2.1816767E-3,1.6591681E-2,3.0696443E-3,3.1350946E-1,3.7195824E-2,6.1208542E-2,-1.2874892E-1,5.7520594E-2,-2.0558907E-2,-3.412648E-2,-6.708401E-2,-9.722524E-2,2.6883262E-1,8.487326E-2,-9.562084E-3,2.8469366E-1,-1.2496469E-1,-3.9171036E-2,-2.6924344E-2,4.6629605E-1,-1.02447405E-1,-2.777903E-2,-1.5862498E-1,1.4936349E-2,9.9294566E-2,2.009637E-3,1.8601486E-2,2.0732297E-1,-1.0742871E-2,-3.204767E-3,-3.566116E-2,-1.589206E-1,5.8801252E-2,9.634717E-2,-1.0464812E-1,1.1318923E-1,-1.5300536E-1,3.1749877E-1,-1.2068828E-1,-1.3793564E-1,-1.11399285E-1,-1.0290145E-1,2.6373997E-1,-1.445332E-1,2.156058E-2,-5.9225064E-2,-1.5573943E-1,-1.3803542E-1,1.3288042E-1,-5.775552E-2,-1.4427975E-1],"split_indices":[69,113,97,20,124,126,114,108,102,3,101,65,76,34,18,84,114,98,75,0,0,0,0,62,98,82,28,0,0,0,20,0,0,76,79,0,0,90,0,119,0,86,35,0,9,65,35,0,0,0,0,0,0,0,0,0,0,0,0,0,0,0,0,0,0,0,0],"split_type":[0,0,0,0,0,0,0,0,0,0,0,0,0,0,0,0,0,0,0,0,0,0,0,0,0,0,0,0,0,0,0,0,0,0,0,0,0,0,0,0,0,0,0,0,0,0,0,0,0,0,0,0,0,0,0,0,0,0,0,0,0,0,0,0,0,0,0],"sum_hessian":[6.327028E3,3.7958658E2,5.947441E3,3.734017E2,6.184888E0,5.928689E3,1.8751915E1,3.5350082E2,1.9900864E1,2.3593965E0,3.8254914E0,2.5253447E3,3.4033445E3,3.184027E0,1.5567889E1,4.410018E0,3.4909082E2,3.940336E0,1.5960528E1,1.1283301E0,1.2310663E0,1.003568E0,2.8219235E0,2.4976213E3,2.772328E1,7.857776E1,3.3247666E3,1.2282517E0,1.9557751E0,1.9652193E0,1.360267E1,1.957575E0,2.4524426E0,1.9289296E2,1.5619785E2,2.5167553E0,1.4235808E0,3.5664864E0,1.2394042E1,2.4958652E3,1.7562244E0,4.756234E0,2.2967045E1,1.7743964E0,7.680336E1,6.6039014E0,3.3181628E3,1.2559065E1,1.0436047E0,4.1139064E0,1.8877905E2,1.7127938E0,1.5448506E2,1.1813176E0,2.3851688E0,2.2897664E3,2.0609882E2,1.4379184E0,3.318316E0,1.5441028E1,7.526017E0,2.9873137E1,4.693022E1,4.235279E0,2.368622E0,1.1066884E1,3.307096E3],"tree_param":{"num_deleted":"0","num_feature":"128","num_nodes":"67","size_leaf_vector":"1"}},{"base_weights":[-1.19918115E-1,-1.1216656E-1,-2.960338E-1,-4.6423668E-1,-1.106016E-1,-1.4201221E-1,-3.6780617E-1,-1.6511714E-1,-1.3339029E-1,7.6767325E-1,-1.1125524E-1,4.6880744E-2,-3.6107793E-1,-4.1581511E-1,-4.3670237E-2,2.1278636E-1,-1.456062E-1,1.1760052E-1,3.982261E-1,-2.934178E-1,-1.08390845E-1,5.908663E-1,-9.139324E-2,4.0500227E-1,-4.1445538E-1,-4.287087E-1,1.7517525E-1,-1.5360026E-1,1.7594722E-1,1.8672201E-1,-1.062346E-1,3.377534E-1,-3.3307824E-1,-1.1816214E-1,-4.3122284E-2,-2.6157293E-1,1.0775589E0,8.0473256E-1,-1.9012454E-1,-1.0630985E-1,3.3900517E-1,1.7602764E-1,-4.5479468E-1,9.677441E-2,-4.377791E-1,-1.24916926E-1,3.0403268E-1,4.6534997E-1,-1.4716941E-1,1.5815064E-1,-1.11240186E-1,-3.654742E-2,2.2522418E-2,1.9188356E-1,-1.5214783E-2,6.0255114E-2,-1.290924E-1,4.9527732E-1,-1.14990644E-1,4.3623152E-1,-1.0598179E-1,2.4252602E-1,-8.053739E-2,-1.4810862E-1,3.172653E-2,-1.3399743E-1,2.2352166E-2,2.4704614E-1,-1.3496257E-1],"categories":[],"categories_nodes":[],"categories_segments":[],"categories_sizes":[],"default_left":[0,0,0,0,0,0,0,0,0,0,0,0,0,0,0,0,0,0,0,0,0,0,0,0,0,0,0,0,0,0,0,0,0,0,0,0,0,0,0,0,0,0,0,0,0,0,0,0,0,0,0,0,0,0,0,0,0,0,0,0,0,0,0,0,0,0,0,0,0],"id":15,"left_children":[1,3,5,7,9,11,13,-1,15,17,19,21,23,25,27,-1,-1,29,-1,31,33,35,37,39,41,43,45,-1,47,-1,-1,-1,49,51,53,55,57,59,61,-1,-1,-1,63,-1,65,-1,-1,67,-1,-1,-1,-1,-1,-1,-1,-1,-1,-1,-1,-1,-1,-1,-1,-1,-1,-1,-1,-1,-1],"loss_changes":[1.0247818E1,3.9240112E0,3.4507465E0,8.2777405E-1,4.2099E0,4.252392E0,3.3357563E0,0E0,2.673098E0,1.8341553E0,3.7146225E0,4.254829E0,2.110506E0,1.5046463E0,3.0647855E0,0E0,0E0,1.0842801E0,0E0,6.5986834E0,4.5041275E0,5.033305E0,4.1693735E0,2.3825922E0,2.0805798E0,1.3943481E0,2.7603552E0,0E0,4.169635E0,0E0,0E0,0E0,3.7109575E0,4.361191E0,4.8137856E0,4.739894E-1,6.902854E0,4.045133E0,3.478701E0,0E0,0E0,0E0,1.005806E0,0E0,8.6166E-1,0E0,0E0,5.2085023E0,0E0,0E0,0E0,0E0,0E0,0E0,0E0,0E0,0E0,0E0,0E0,0E0,0E0,0E0,0E0,0E0,0E0,0E0,0E0,0E0,0E0],"parents":[2147483647,0,0,1,1,2,2,3,3,4,4,5,5,6,6,8,8,9,9,10,10,11,11,12,12,13,13,14,14,17,17,19,19,20,20,21,21,22,22,23,23,24,24,25,25,26,26,28,28,32,32,33,33,34,34,35,35,36,36,37,37,38,38,42,42,44,44,47,47],"right_children":[2,4,6,8,10,12,14,-1,16,18,20,22,24,26,28,-1,-1,30,-1,32,34,36,38,40,42,44,46,-1,48,-1,-1,-1,50,52,54,56,58,60,62,-1,-1,-1,64,-1,66,-1,-1,68,-1,-1,-1,-1,-1,-1,-1,-1,-1,-1,-1,-1,-1,-1,-1,-1,-1,-1,-1,-1,-1],"split_conditions":[5.4332003E-2,-4.1769415E-2,4.2211134E-2,3.8113315E-2,-7.069551E-2,-4.2885885E-2,-2.519065E-3,-1.6511714E-1,-6.1315354E-2,-6.0845623E-3,-3.5731275E-2,-2.6844913E-2,-2.6327446E-2,3.0800542E-2,-2.2363735E-2,2.1278636E-1,-1.456062E-1,-2.3176987E-3,3.982261E-1,1.3787645E-2,1.2988335E-2,-2.2095446E-3,4.73764E-2,1.49668325E-2,-5.3218316E-2,-3.1065771E-2,-6.226682E-2,-1.5360026E-1,3.6685638E-2,1.8672201E-1,-1.062346E-1,3.377534E-1,-2.1701172E-2,2.2409385E-2,-4.4768725E-2,-3.0397628E-2,3.730501E-4,-2.8611442E-2,5.3619933E-3,-1.0630985E-1,3.3900517E-1,1.7602764E-1,5.7195645E-2,9.677441E-2,4.8268154E-2,-1.24916926E-1,3.0403268E-1,2.3004588E-2,-1.4716941E-1,1.5815064E-1,-1.11240186E-1,-3.654742E-2,2.2522418E-2,1.9188356E-1,-1.5214783E-2,6.0255114E-2,-1.290924E-1,4.9527732E-1,-1.14990644E-1,4.3623152E-1,-1.0598179E-1,2.4252602E-1,-8.053739E-2,-1.4810862E-1,3.172653E-2,-1.3399743E-1,2.2352166E-2,2.4704614E-1,-1.3496257E-1],"split_indices":[25,74,123,10,32,21,80,0,122,91,27,7,101,12,10,0,0,66,0,123,52,8,62,66,106,108,86,0,54,0,0,0,16,120,37,14,1,85,65,0,0,0,44,0,30,0,0,23,0,0,0,0,0,0,0,0,0,0,0,0,0,0,0,0,0,0,0,0,0],"split_type":[0,0,0,0,0,0,0,0,0,0,0,0,0,0,0,0,0,0,0,0,0,0,0,0,0,0,0,0,0,0,0,0,0,0,0,0,0,0,0,0,0,0,0,0,0,0,0,0,0,0,0,0,0,0,0,0,0,0,0,0,0,0,0,0,0,0,0,0,0],"sum_hessian":[7.5299526E3,7.21407E3,3.1588287E2,3.0616676E1,7.183453E3,1.0135544E2,2.1452744E2,2.3764673E1,6.852004E0,4.469607E0,7.1789834E3,5.4847927E1,4.650751E1,1.8660574E2,2.79217E1,1.7196221E0,5.132382E0,2.6278272E0,1.8417797E0,1.0956755E2,7.0694155E3,1.0452692E1,4.4395233E1,2.6002913E0,4.390722E1,1.8289024E2,3.7155032E0,8.48859E0,1.943311E1,1.1150768E0,1.5127503E0,2.234054E0,1.07333496E2,6.1481685E3,9.2124744E2,3.9670231E0,6.4856687E0,3.6962075E0,4.0699028E1,1.5197548E0,1.0805365E0,1.1759031E0,4.2731316E1,1.7693958E0,1.8112083E2,2.4733403E0,1.242163E0,1.3760182E1,5.6729264E0,3.963864E0,1.0336964E2,6.0341675E3,1.140009E2,9.218263E0,9.120292E2,1.009668E0,2.957355E0,4.5641904E0,1.9214783E0,2.2043693E0,1.4918382E0,2.2825315E0,3.8416496E1,4.006984E1,2.6614752E0,1.7816107E2,2.959774E0,9.962132E0,3.7980502E0],"tree_param":{"num_deleted":"0","num_feature":"128","num_nodes":"69","size_leaf_vector":"1"}},{"base_weights":[9.431287E-2,-1.3473193E-1,9.8978184E-2,-2.3172468E-1,1.2614658E-1,-7.183E-2,1.0325886E-1,-2.5602397E-1,2.4849658E-1,-4.1092437E-2,4.4804585E-1,3.545452E-1,-1.1259988E-1,2.7347615E-1,9.897585E-2,1.0404743E-1,-3.0898076E-1,5.362081E-1,-2.2755152E-1,8.9218974E-1,-1.4065114E-1,-7.582436E-2,1.536506E0,-1.968629E-1,1.4456761E-1,4.984668E-1,9.8616846E-2,9.71603E-2,5.072341E-1,1.2821281E0,-1.9642138E-1,3.921772E-1,-3.3691433E-1,-1.1751423E-1,8.7602466E-1,2.2465783E-1,-4.9624217E-1,3.200247E-2,1.3086648E0,-3.50971E-1,1.7022347E-1,-4.2888921E-1,4.803993E-1,2.8035315E-2,6.10897E-1,-4.7820762E-1,-8.419962E-2,3.7834707E-1,-3.6297107E-1,1.0650491E-1,7.280842E-1,2.1271904E-1,-5.218634E-1,1.0660908E-1,2.77436E-2,3.346238E-1,5.2988905E-1,5.6973374E-1,3.253119E-2,1.0529528E-1,-1.5627939E-1,-1.0953108E-1,2.8424457E-1,-5.6597777E-2,-1.4159822E-1,3.742832E-1,-9.8885365E-2,-2.526881E-2,3.5377258E-1,3.8247235E-2,-1.6605242E-1,2.0090574E-1,-1.1760582E-1,1.3160402E-1,4.382976E-1,-1.4466275E-1,5.6445643E-2,-1.5809359E-1,4.9754538E-2,4.2347428E-1,-1.3081615E-1,-1.5684293E-1,9.669421E-2,-1.6505337E-1,-4.7559356E-3,3.071014E-1,3.4430817E-2,1.9994508E-2,-1.4038019E-1,-1.5653158E-2,2.8468668E-1,2.4480207E-1,-1.4064242E-1,1.2128108E-1,-1.5093034E-2,-1.725169E-1,4.299276E-2,5.9245262E-2,2.9573292E-2,1.9561775E-2,-5.973875E-2,2.0745456E-2,3.6261147E-1],"categories":[],"categories_nodes":[],"categories_segments":[],"categories_sizes":[],"default_left":[0,0,0,0,0,0,0,0,0,0,0,0,0,0,0,0,0,0,0,0,0,0,0,0,0,0,0,0,0,0,0,0,0,0,0,0,0,0,0,0,0,0,0,0,0,0,0,0,0,0,0,0,0,0,0,0,0,0,0,0,0,0,0,0,0,0,0,0,0,0,0,0,0,0,0,0,0,0,0,0,0,0,0,0,0,0,0,0,0,0,0,0,0,0,0,0,0,0,0,0,0,0,0],"id":16,"left_children":[1,3,5,7,9,11,13,15,-1,17,19,21,23,25,27,29,31,33,35,37,39,41,43,45,47,49,51,53,55,57,59,61,63,-1,65,67,69,71,73,75,-1,77,79,-1,-1,81,83,85,87,89,91,93,95,97,99,101,-1,-1,-1,-1,-1,-1,-1,-1,-1,-1,-1,-1,-1,-1,-1,-1,-1,-1,-1,-1,-1,-1,-1,-1,-1,-1,-1,-1,-1,-1,-1,-1,-1,-1,-1,-1,-1,-1,-1,-1,-1,-1,-1,-1,-1,-1,-1],"loss_changes":[9.239738E0,4.4012055E0,6.195038E0,3.465518E0,2.5742533E0,3.6467433E0,5.9919662E0,2.4011803E0,0E0,3.5837958E0,4.391673E0,9.450514E0,4.148709E0,7.9007797E0,5.921219E0,6.1553183E0,2.2584143E0,2.9127917E0,3.1503863E0,3.338595E0,1.3726654E0,3.034844E0,3.3763123E0,4.512628E0,5.7735023E0,7.8536205E0,8.249344E0,5.257782E0,7.107917E0,2.344552E0,2.6974113E0,2.2893405E0,2.0125256E0,0E0,3.2219024E0,3.0509267E0,6.4207935E-1,1.3720421E0,1.9833183E-1,5.643103E-1,0E0,6.322566E-1,5.791102E0,0E0,0E0,1.6273451E0,3.2964263E0,5.4975133E0,7.2970915E-1,4.5579033E0,6.2123127E0,4.94817E0,7.2442055E-1,5.1328354E0,8.191664E0,7.4319353E0,0E0,0E0,0E0,0E0,0E0,0E0,0E0,0E0,0E0,0E0,0E0,0E0,0E0,0E0,0E0,0E0,0E0,0E0,0E0,0E0,0E0,0E0,0E0,0E0,0E0,0E0,0E0,0E0,0E0,0E0,0E0,0E0,0E0,0E0,0E0,0E0,0E0,0E0,0E0,0E0,0E0,0E0,0E0,0E0,0E0,0E0,0E0],"parents":[2147483647,0,0,1,1,2,2,3,3,4,4,5,5,6,6,7,7,9,9,10,10,11,11,12,12,13,13,14,14,15,15,16,16,17,17,18,18,19,19,20,20,21,21,22,22,23,23,24,24,25,25,26,26,27,27,28,28,29,29,30,30,31,31,32,32,34,34,35,35,36,36,37,37,38,38,39,39,41,41,42,42,45,45,46,46,47,47,48,48,49,49,50,50,51,51,52,52,53,53,54,54,55,