{"learner":{"attributes":{"scikit_learn":"{\"_estimator_type\": \"classifier\"}"},"feature_names":["dim_1","dim_2","dim_3","dim_4","dim_5","dim_6","dim_7","dim_8","dim_9","dim_10","dim_11","dim_12","dim_13","dim_14","dim_15","dim_16","dim_17","dim_18","dim_19","dim_20","dim_21","dim_22","dim_23","dim_24","dim_25","dim_26","dim_27","dim_28","dim_29","dim_30","dim_31","dim_32","dim_33","dim_34","dim_35","dim_36","dim_37","dim_38","dim_39","dim_40","dim_41","dim_42","dim_43","dim_44","dim_45","dim_46","dim_47","dim_48","dim_49","dim_50","dim_51","dim_52","dim_53","dim_54","dim_55","dim_56","dim_57","dim_58","dim_59","dim_60","dim_61","dim_62","dim_63","dim_64","dim_65","dim_66","dim_67","dim_68","dim_69","dim_70","dim_71","dim_72","dim_73","dim_74","dim_75","dim_76","dim_77","dim_78","dim_79","dim_80","dim_81","dim_82","dim_83","dim_84","dim_85","dim_86","dim_87","dim_88","dim_89","dim_90","dim_91","dim_92","dim_93","dim_94","dim_95","dim_96","dim_97","dim_98","dim_99","dim_100","dim_101","dim_102","dim_103","dim_104","dim_105","dim_106","dim_107","dim_108","dim_109","dim_110","dim_111","dim_112","dim_113","dim_114","dim_115","dim_116","dim_117","dim_118","dim_119","dim_120","dim_121","dim_122","dim_123","dim_124","dim_125","dim_126","dim_127","dim_128"],"feature_types":["float","float","float","float","float","float","float","float","float","float","float","float","float","float","float","float","float","float","float","float","float","float","float","float","float","float","float","float","float","float","float","float","float","float","float","float","float","float","float","float","float","float","float","float","float","float","float","float","float","float","float","float","float","float","float","float","float","float","float","float","float","float","float","float","float","float","float","float","float","float","float","float","float","float","float","float","float","float","float","float","float","float","float","float","float","float","float","float","float","float","float","float","float","float","float","float","float","float","float","float","float","float","float","float","float","float","float","float","float","float","float","float","float","float","float","float","float","float","float","float","float","float","float","float","float","float","float","float"],"gradient_booster":{"model":{"gbtree_model_param":{"num_parallel_tree":"1","num_trees":"600"},"iteration_indptr":[0,6,12,18,24,30,36,42,48,54,60,66,72,78,84,90,96,102,108,114,120,126,132,138,144,150,156,162,168,174,180,186,192,198,204,210,216,222,228,234,240,246,252,258,264,270,276,282,288,294,300,306,312,318,324,330,336,342,348,354,360,366,372,378,384,390,396,402,408,414,420,426,432,438,444,450,456,462,468,474,480,486,492,498,504,510,516,522,528,534,540,546,552,558,564,570,576,582,588,594,600],"tree_info":[0,1,2,3,4,5,0,1,2,3,4,5,0,1,2,3,4,5,0,1,2,3,4,5,0,1,2,3,4,5,0,1,2,3,4,5,0,1,2,3,4,5,0,1,2,3,4,5,0,1,2,3,4,5,0,1,2,3,4,5,0,1,2,3,4,5,0,1,2,3,4,5,0,1,2,3,4,5,0,1,2,3,4,5,0,1,2,3,4,5,0,1,2,3,4,5,0,1,2,3,4,5,0,1,2,3,4,5,0,1,2,3,4,5,0,1,2,3,4,5,0,1,2,3,4,5,0,1,2,3,4,5,0,1,2,3,4,5,0,1,2,3,4,5,0,1,2,3,4,5,0,1,2,3,4,5,0,1,2,3,4,5,0,1,2,3,4,5,0,1,2,3,4,5,0,1,2,3,4,5,0,1,2,3,4,5,0,1,2,3,4,5,0,1,2,3,4,5,0,1,2,3,4,5,0,1,2,3,4,5,0,1,2,3,4,5,0,1,2,3,4,5,0,1,2,3,4,5,0,1,2,3,4,5,0,1,2,3,4,5,0,1,2,3,4,5,0,1,2,3,4,5,0,1,2,3,4,5,0,1,2,3,4,5,0,1,2,3,4,5,0,1,2,3,4,5,0,1,2,3,4,5,0,1,2,3,4,5,0,1,2,3,4,5,0,1,2,3,4,5,0,1,2,3,4,5,0,1,2,3,4,5,0,1,2,3,4,5,0,1,2,3,4,5,0,1,2,3,4,5,0,1,2,3,4,5,0,1,2,3,4,5,0,1,2,3,4,5,0,1,2,3,4,5,0,1,2,3,4,5,0,1,2,3,4,5,0,1,2,3,4,5,0,1,2,3,4,5,0,1,2,3,4,5,0,1,2,3,4,5,0,1,2,3,4,5,0,1,2,3,4,5,0,1,2,3,4,5,0,1,2,3,4,5,0,1,2,3,4,5,0,1,2,3,4,5,0,1,2,3,4,5,0,1,2,3,4,5,0,1,2,3,4,5,0,1,2,3,4,5,0,1,2,3,4,5,0,1,2,3,4,5,0,1,2,3,4,5,0,1,2,3,4,5,0,1,2,3,4,5,0,1,2,3,4,5,0,1,2,3,4,5,0,1,2,3,4,5,0,1,2,3,4,5,0,1,2,3,4,5,0,1,2,3,4,5,0,1,2,3,4,5,0,1,2,3,4,5,0,1,2,3,4,5,0,1,2,3,4,5,0,1,2,3,4,5,0,1,2,3,4,5,0,1,2,3,4,5,0,1,2,3,4,5,0,1,2,3,4,5,0,1,2,3,4,5,0,1,2,3,4,5,0,1,2,3,4,5,0,1,2,3,4,5,0,1,2,3,4,5],"trees":[{"base_weights":[2.7912065E-2,-7.765911E-2,5.5504132E-2,-5.1392633E-2,-2.1844357E-1,5.1883554E-1,5.0814E-2,-8.673307E-2,4.1931357E-2,1.2857141E0,-2.3757373E-1,2.0741986E-1,8.145025E-1,3.6833484E-2,1.3195544E-1,-1.0523642E-1,2.4471295E-1,1.4313531E-1,-9.722688E-2,4.736842E-2,5.232558E-1,7.2815526E-1,-2.5798842E-1,-4.6478873E-1,5.577889E-1,2.7906972E-1,1.1643058E0,-3.5158477E-3,5.984427E-2,-2.864941E-2,1.8781239E-1,2.3711336E-1,-1.2286327E-1,-1.5328468E-1,7.062634E-1,-6.3339755E-2,2.6804522E-1,1.153846E0,-1.2990114E-1,4.924528E-1,-1.764706E-1,-1.525841E-1,-3.7048596E-1,4.736842E-2,-1.6321245E-1,1.0465115E0,-3.0379748E-1,-1.1538463E-1,1.4117646E0,1.3636363E0,-1.4285715E-1,2.6261273E-3,-4.9435666E-1,4.7471628E-2,1.93312E-1,1.0481927E0,-4.9157653E-2,-2.4789208E-1,2.0901227E-1,-9.064748E-2,1.4241435E-1,3.976744E-1,-3.7930224E-2,-1.0851065E-1,1.4475523E-1,1.2663315E-1,5.746988E-1,-4.7515538E-2,1.0750852E-1,-5.364239E-2,1.0827067E-1,2.0930227E-2,4.924528E-1,1.5882352E-1,-4.953539E-2,-1.12500004E-1,4.736842E-2,8.456375E-2,-6.3392036E-2,-1.6071437E-2,-1.3353558E-1,4.2435232E-1,-1.0843379E-2,-1.5652174E-1,1.8947369E-1,-1.5734266E-1,1.8433735E-1,5.625E-1,4.736842E-2,-3.1034486E-2,4.7686568E-1,4.736842E-2,-1.0465116E-1,4.0497836E-2,-4.521174E-3,-1.5957448E-1,4.736842E-2,1.083502E-2,7.710801E-2,4.359288E-2,2.1294641E-1,4.924528E-1,-5.029142E-9,-1.1901932E-1,4.4045597E-3,-9.8239444E-2,2.7209303E-1,4.9912427E-2,1.3642533E-1],"categories":[],"categories_nodes":[],"categories_segments":[],"categories_sizes":[],"default_left":[0,0,0,0,0,0,0,0,0,0,0,0,0,0,0,0,0,0,0,0,0,0,0,0,0,0,0,0,0,0,0,0,0,0,0,0,0,0,0,0,0,0,0,0,0,0,0,0,0,0,0,0,0,0,0,0,0,0,0,0,0,0,0,0,0,0,0,0,0,0,0,0,0,0,0,0,0,0,0,0,0,0,0,0,0,0,0,0,0,0,0,0,0,0,0,0,0,0,0,0,0,0,0,0,0,0,0,0,0],"id":0,"left_children":[1,3,5,7,9,11,13,15,17,19,21,23,25,27,29,31,33,35,37,-1,-1,39,41,43,45,47,49,51,53,55,57,59,61,63,65,67,69,71,73,-1,75,77,79,-1,-1,81,83,85,87,89,91,93,95,97,99,101,103,105,107,-1,-1,-1,-1,-1,-1,-1,-1,-1,-1,-1,-1,-1,-1,-1,-1,-1,-1,-1,-1,-1,-1,-1,-1,-1,-1,-1,-1,-1,-1,-1,-1,-1,-1,-1,-1,-1,-1,-1,-1,-1,-1,-1,-1,-1,-1,-1,-1,-1,-1],"loss_changes":[2.3833347E1,6.258376E0,1.4068279E1,4.720486E0,7.967532E0,5.8057194E0,7.2803764E0,6.3896165E0,5.555721E0,1.5343595E0,5.388253E0,8.018365E0,5.8454475E0,5.087864E0,8.469421E0,5.9641113E0,1.0242156E1,5.9030066E0,6.9469695E0,0E0,0E0,5.0176277E0,3.0152798E0,6.698687E-1,9.628403E0,6.5669785E0,5.3046227E0,6.00363E0,5.7533884E0,5.4474177E0,6.519169E0,6.357819E0,5.008691E0,4.2087893E0,8.03093E0,3.5371058E0,5.9727383E0,2.1763592E0,3.8708062E0,0E0,3.099845E-1,3.5151365E0,2.9234753E0,0E0,0E0,5.761716E0,2.1189353E0,3.7724323E0,1.8982196E0,5.835705E0,2.7190065E-1,4.6105523E0,6.868949E-1,7.592878E0,7.228904E0,2.8676968E0,5.347191E0,3.3244672E0,6.9257717E0,0E0,0E0,0E0,0E0,0E0,0E0,0E0,0E0,0E0,0E0,0E0,0E0,0E0,0E0,0E0,0E0,0E0,0E0,0E0,0E0,0E0,0E0,0E0,0E0,0E0,0E0,0E0,0E0,0E0,0E0,0E0,0E0,0E0,0E0,0E0,0E0,0E0,0E0,0E0,0E0,0E0,0E0,0E0,0E0,0E0,0E0,0E0,0E0,0E0,0E0],"parents":[2147483647,0,0,1,1,2,2,3,3,4,4,5,5,6,6,7,7,8,8,9,9,10,10,11,11,12,12,13,13,14,14,15,15,16,16,17,17,18,18,21,21,22,22,23,23,24,24,25,25,26,26,27,27,28,28,29,29,30,30,31,31,32,32,33,33,34,34,35,35,36,36,37,37,38,38,40,40,41,41,42,42,45,45,46,46,47,47,48,48,49,49,50,50,51,51,52,52,53,53,54,54,55,55,56,56,57,57,58,58],"right_children":[2,4,6,8,10,12,14,16,18,20,22,24,26,28,30,32,34,36,38,-1,-1,40,42,44,46,48,50,52,54,56,58,60,62,64,66,68,70,72,74,-1,76,78,80,-1,-1,82,84,86,88,90,92,94,96,98,100,102,104,106,108,-1,-1,-1,-1,-1,-1,-1,-1,-1,-1,-1,-1,-1,-1,-1,-1,-1,-1,-1,-1,-1,-1,-1,-1,-1,-1,-1,-1,-1,-1,-1,-1,-1,-1,-1,-1,-1,-1,-1,-1,-1,-1,-1,-1,-1,-1,-1,-1,-1,-1],"split_conditions":[-3.9513633E-2,-1.5873233E-2,-1.3215357E-1,-1.1262345E-2,-3.5865903E-2,-3.1386137E-2,6.412486E-2,-7.967856E-3,-2.0584615E-2,-5.5105453E-3,-2.6358323E-2,2.4457308E-2,1.0385544E-2,-1.1642493E-2,-3.7938548E-4,-2.2937933E-2,-9.415287E-2,1.6868614E-2,-1.1034998E-2,4.736842E-2,5.232558E-1,5.491456E-2,1.1003122E-3,-7.095758E-2,-6.256604E-2,-7.324073E-2,6.9550755E-3,2.970748E-2,1.3267362E-2,-5.4377936E-2,-4.2776443E-2,-1.7253738E-2,-1.4533878E-2,1.5188716E-2,2.6268158E-2,7.566884E-3,1.12258615E-2,1.16548985E-2,-6.873392E-3,4.924528E-1,7.3644766E-3,-1.7903788E-2,-2.5588656E-2,4.736842E-2,-1.6321245E-1,2.939597E-2,1.8070301E-2,-8.9389674E-4,3.913129E-2,-2.5320955E-2,-5.0616927E-2,-3.171641E-2,5.5621028E-2,2.4938855E-2,2.3724392E-2,9.584751E-3,1.6292023E-2,1.8878294E-2,-2.0132607E-2,-9.064748E-2,1.4241435E-1,3.976744E-1,-3.7930224E-2,-1.0851065E-1,1.4475523E-1,1.2663315E-1,5.746988E-1,-4.7515538E-2,1.0750852E-1,-5.364239E-2,1.0827067E-1,2.0930227E-2,4.924528E-1,1.5882352E-1,-4.953539E-2,-1.12500004E-1,4.736842E-2,8.456375E-2,-6.3392036E-2,-1.6071437E-2,-1.3353558E-1,4.2435232E-1,-1.0843379E-2,-1.5652174E-1,1.8947369E-1,-1.5734266E-1,1.8433735E-1,5.625E-1,4.736842E-2,-3.1034486E-2,4.7686568E-1,4.736842E-2,-1.0465116E-1,4.0497836E-2,-4.521174E-3,-1.5957448E-1,4.736842E-2,1.083502E-2,7.710801E-2,4.359288E-2,2.1294641E-1,4.924528E-1,-5.029142E-9,-1.1901932E-1,4.4045597E-3,-9.8239444E-2,2.7209303E-1,4.9912427E-2,1.3642533E-1],"split_indices":[99,9,14,11,102,122,59,81,81,35,33,103,71,111,77,48,60,18,11,0,0,8,78,7,92,42,23,52,74,52,124,51,49,65,3,118,4,7,103,0,0,125,81,0,0,77,5,93,17,33,1,61,6,44,46,40,38,95,114,0,0,0,0,0,0,0,0,0,0,0,0,0,0,0,0,0,0,0,0,0,0,0,0,0,0,0,0,0,0,0,0,0,0,0,0,0,0,0,0,0,0,0,0,0,0,0,0,0,0],"split_type":[0,0,0,0,0,0,0,0,0,0,0,0,0,0,0,0,0,0,0,0,0,0,0,0,0,0,0,0,0,0,0,0,0,0,0,0,0,0,0,0,0,0,0,0,0,0,0,0,0,0,0,0,0,0,0,0,0,0,0,0,0,0,0,0,0,0,0,0,0,0,0,0,0,0,0,0,0,0,0,0,0,0,0,0,0,0,0,0,0,0,0,0,0,0,0,0,0,0,0,0,0,0,0,0,0,0,0,0,0],"sum_hessian":[8.179445E3,1.6944446E3,6.4850005E3,1.4291667E3,2.652778E2,6.3888893E1,6.4211113E3,1.0366667E3,3.9250003E2,2.5E0,2.627778E2,3.1944447E1,3.1944447E1,5.4786113E3,9.4250006E2,9.8250006E2,5.4166668E1,2.2722223E2,1.6527779E2,1.1111112E0,1.388889E0,4.7222223E0,2.5805557E2,1.0833334E1,2.1111113E1,1.3333334E1,1.8611113E1,1.9900001E3,3.4886113E3,2.4333334E2,6.991667E2,4.7500004E1,9.3500006E2,2.9444447E1,2.4722223E1,8.5833336E1,1.413889E2,3.3333335E0,1.6194446E2,1.9444445E0,2.777778E0,1.3444446E2,1.23611115E2,1.1111112E0,9.722222E0,1.3333334E1,7.777778E0,1.0555556E1,2.777778E0,1.6111113E1,2.5E0,1.966389E3,2.3611113E1,3.1938892E3,2.9472223E2,3.6111112E0,2.3972223E2,3.1944447E1,6.672222E2,1.4444445E1,3.3055557E1,1.388889E0,9.3361115E2,2.2500002E1,6.9444447E0,2.1111113E1,3.6111112E0,7.055556E1,1.5277779E1,2.4166668E1,1.1722223E2,1.388889E0,1.9444445E0,7.5000005E0,1.5444446E2,1.6666667E0,1.1111112E0,1.5555556E1,1.1888889E2,2.388889E1,9.972223E1,9.722222E0,3.6111112E0,6.666667E0,1.1111112E0,6.9444447E0,3.6111112E0,1.6666667E0,1.1111112E0,2.2222223E0,1.3888889E1,1.1111112E0,1.388889E0,2.3111111E2,1.7352778E3,2.2500002E1,1.1111112E0,3.0308335E3,1.6305556E2,2.7083334E2,2.388889E1,1.9444445E0,1.6666667E0,3.638889E1,2.0333334E2,3.0555557E1,1.388889E0,5.7E2,9.722223E1],"tree_param":{"num_deleted":"0","num_feature":"128","num_nodes":"109","size_leaf_vector":"1"}},{"base_weights":[2.0039657E-1,6.239466E-2,3.47387E-1,1.3779311E-1,-1.4217317E-1,4.4466E-1,2.7705896E-1,5.63988E-2,1.8930364E-1,-6.6445895E-2,-3.2487902E-1,5.50327E-1,3.892081E-1,2.9346663E-1,-4.1015647E-2,4.8614067E-1,3.680354E-2,1.6703272E-1,4.5727476E-1,6.9767433E-1,-8.019367E-2,-3.422478E-1,7.2815526E-1,3.2949507E-1,6.1139566E-1,-2.972973E-1,4.0066153E-1,7.456976E-2,3.1225532E-1,-1.4974764E-1,6.4664304E-1,1.4347825E0,3.1540337E-1,9.188921E-2,-4.358183E-2,1.821654E-1,-2.6810914E-1,7.5910926E-1,2.6904172E-1,1.2377621E0,2.2556366E-2,3.9954847E-1,-9.545851E-2,-4.647239E-1,-2.4412298E-1,1.4117646E0,-1.1886793E-1,1.945392E-1,7.760617E-1,8.4294134E-1,5.218288E-1,-4.375E-1,4.285714E-1,4.1131437E-1,-3.1740615E-1,-1.09839834E-1,3.0255678E-1,6.113743E-1,2.975034E-1,3.8709673E-1,-2.3374116E-1,-4.054056E-2,1.235294E0,5.338983E-1,-9.4736844E-2,2.238805E-2,2.742489E-1,2.4444802E-2,2.7972972E-1,-6.3537635E-2,9.249735E-3,5.315827E-2,3.527027E-1,-1.14270724E-1,1.8281248E-1,3.9329758E-1,1.2369667E-1,1.2857142E-1,-7.557253E-2,4.9999997E-1,-1.6981138E-2,-1.4854369E-1,3.3749998E-1,-1.150376E-1,2.0853658E-1,1.1374399E-2,-4.3710195E-2,-1.485018E-1,6.5853655E-2,-1.2063938E-1,-1.7965237E-2,5.625E-1,4.736842E-2,-1.03162065E-1,8.450426E-2,3.7553957E-1,6.279069E-2,7.627118E-2,2.9070795E-1,1.2381929E-1,2.5333792E-1,-1.6791046E-1,1.8947369E-1,3.3157894E-1,-1.0465116E-1,1.0005331E-1,1.5662158E-1,1.192771E-1,-1.6578947E-1,7.499999E-2,-9.4991066E-2,-5.6250006E-2,1.2653777E-1,2.2648568E-1,2.623899E-3,9.479748E-2,2.039953E-2,2.5714284E-1,-1.4693879E-1,-1.2975106E-2,-1.2252476E-1,-1.5E-1,2.4827586E-1,2.6470581E-2,5.330097E-1],"categories":[],"categories_nodes":[],"categories_segments":[],"categories_sizes":[],"default_left":[0,0,0,0,0,0,0,0,0,0,0,0,0,0,0,0,0,0,0,0,0,0,0,0,0,0,0,0,0,0,0,0,0,0,0,0,0,0,0,0,0,0,0,0,0,0,0,0,0,0,0,0,0,0,0,0,0,0,0,0,0,0,0,0,0,0,0,0,0,0,0,0,0,0,0,0,0,0,0,0,0,0,0,0,0,0,0,0,0,0,0,0,0,0,0,0,0,0,0,0,0,0,0,0,0,0,0,0,0,0,0,0,0,0,0,0,0,0,0,0,0,0,0,0,0],"id":1,"left_children":[1,3,5,7,9,11,13,15,17,19,21,23,25,27,29,31,33,35,37,39,41,43,45,47,49,51,53,55,57,59,61,63,65,67,69,71,73,75,77,79,81,83,85,87,89,91,-1,93,95,97,99,101,103,105,107,109,111,113,115,117,119,121,123,-1,-1,-1,-1,-1,-1,-1,-1,-1,-1,-1,-1,-1,-1,-1,-1,-1,-1,-1,-1,-1,-1,-1,-1,-1,-1,-1,-1,-1,-1,-1,-1,-1,-1,-1,-1,-1,-1,-1,-1,-1,-1,-1,-1,-1,-1,-1,-1,-1,-1,-1,-1,-1,-1,-1,-1,-1,-1,-1,-1,-1,-1],"loss_changes":[1.6591827E2,6.5116135E1,2.697406E1,1.2920895E1,1.5711273E1,9.515137E0,1.202356E1,1.0060528E1,1.1194122E1,8.514185E0,6.3387375E0,7.4727783E0,8.708359E0,8.978683E0,8.604054E0,7.9878254E0,5.077357E0,1.1540524E1,7.9960976E0,5.1983438E0,5.8368864E0,3.831108E0,4.957695E0,7.4091616E0,8.780853E0,2.070222E0,8.352875E0,7.3627286E0,8.711395E0,4.5570393E0,6.4098973E0,5.190627E0,6.4833817E0,5.8735394E0,5.8465214E0,8.124172E0,6.077095E0,9.964399E0,7.6245275E0,4.504772E0,4.7741528E0,5.962449E0,5.1533456E0,3.1107712E0,5.3420944E0,1.8982196E0,0E0,4.679204E0,7.497299E0,8.838173E0,1.1028328E1,2.4437845E0,2.2267876E0,8.956894E0,2.9574049E0,7.305566E0,4.6497912E0,8.107426E0,8.136642E0,6.098748E0,2.8531365E0,3.6933827E0,5.12193E0,0E0,0E0,0E0,0E0,0E0,0E0,0E0,0E0,0E0,0E0,0E0,0E0,0E0,0E0,0E0,0E0,0E0,0E0,0E0,0E0,0E0,0E0,0E0,0E0,0E0,0E0,0E0,0E0,0E0,0E0,0E0,0E0,0E0,0E0,0E0,0E0,0E0,0E0,0E0,0E0,0E0,0E0,0E0,0E0,0E0,0E0,0E0,0E0,0E0,0E0,0E0,0E0,0E0,0E0,0E0,0E0,0E0,0E0,0E0,0E0,0E0,0E0],"parents":[2147483647,0,0,1,1,2,2,3,3,4,4,5,5,6,6,7,7,8,8,9,9,10,10,11,11,12,12,13,13,14,14,15,15,16,16,17,17,18,18,19,19,20,20,21,21,22,22,23,23,24,24,25,25,26,26,27,27,28,28,29,29,30,30,31,31,32,32,33,33,34,34,35,35,36,36,37,37,38,38,39,39,40,40,41,41,42,42,43,43,44,44,45,45,47,47,48,48,49,49,50,50,51,51,52,52,53,53,54,54,55,55,56,56,57,57,58,58,59,59,60,60,61,61,62,62],"right_children":[2,4,6,8,10,12,14,16,18,20,22,24,26,28,30,32,34,36,38,40,42,44,46,48,50,52,54,56,58,60,62,64,66,68,70,72,74,76,78,80,82,84,86,88,90,92,-1,94,96,98,100,102,104,106,108,110,112,114,116,118,120,122,124,-1,-1,-1,-1,-1,-1,-1,-1,-1,-1,-1,-1,-1,-1,-1,-1,-1,-1,-1,-1,-1,-1,-1,-1,-1,-1,-1,-1,-1,-1,-1,-1,-1,-1,-1,-1,-1,-1,-1,-1,-1,-1,-1,-1,-1,-1,-1,-1,-1,-1,-1,-1,-1,-1,-1,-1,-1,-1,-1,-1,-1,-1],"split_conditions":[2.1167886E-2,3.2742802E-2,-5.1637094E-2,-3.007106E-3,8.268402E-2,-4.3870397E-2,3.5740578E-4,-4.5079608E-3,4.8393406E-2,-2.7636676E-3,1.0071866E-2,1.63574E-2,-6.7839683E-3,7.5298373E-4,2.6591465E-2,-1.9285897E-2,2.3250323E-2,3.0738182E-2,4.493701E-2,-5.3978935E-2,1.4979425E-2,2.4993442E-2,4.3905802E-2,6.2289517E-3,2.1850603E-2,-8.068771E-3,3.3391517E-2,1.5883299E-2,-4.377046E-3,-2.9962609E-2,8.574221E-3,-3.7257215E-3,1.7788772E-2,2.0358022E-2,8.955592E-3,3.2626297E-2,1.3391975E-2,-1.1798151E-2,-1.1371866E-2,2.612818E-2,-5.354822E-2,3.820593E-2,-9.887932E-3,1.011087E-1,2.9184505E-2,-4.4735514E-2,-1.1886793E-1,-3.865919E-2,-2.8129091E-2,2.1676386E-2,-2.3514593E-2,4.7956932E-2,5.5977277E-2,-1.2451671E-2,-2.1758141E-2,2.332437E-2,-1.0466038E-2,7.919038E-3,4.8870437E-2,7.400571E-2,-3.8824078E-2,4.036624E-2,-1.5004484E-2,5.338983E-1,-9.4736844E-2,2.238805E-2,2.742489E-1,2.4444802E-2,2.7972972E-1,-6.3537635E-2,9.249735E-3,5.315827E-2,3.527027E-1,-1.14270724E-1,1.8281248E-1,3.9329758E-1,1.2369667E-1,1.2857142E-1,-7.557253E-2,4.9999997E-1,-1.6981138E-2,-1.4854369E-1,3.3749998E-1,-1.150376E-1,2.0853658E-1,1.1374399E-2,-4.3710195E-2,-1.485018E-1,6.5853655E-2,-1.2063938E-1,-1.7965237E-2,5.625E-1,4.736842E-2,-1.03162065E-1,8.450426E-2,3.7553957E-1,6.279069E-2,7.627118E-2,2.9070795E-1,1.2381929E-1,2.5333792E-1,-1.6791046E-1,1.8947369E-1,3.3157894E-1,-1.0465116E-1,1.0005331E-1,1.5662158E-1,1.192771E-1,-1.6578947E-1,7.499999E-2,-9.4991066E-2,-5.6250006E-2,1.2653777E-1,2.2648568E-1,2.623899E-3,9.479748E-2,2.039953E-2,2.5714284E-1,-1.4693879E-1,-1.2975106E-2,-1.2252476E-1,-1.5E-1,2.4827586E-1,2.6470581E-2,5.330097E-1],"split_indices":[73,54,67,105,117,2,104,23,32,101,61,69,113,46,103,11,32,39,70,97,94,121,115,58,18,48,69,18,105,65,53,49,86,80,48,66,2,26,122,108,19,10,103,83,85,14,0,121,81,84,121,31,14,123,118,30,112,74,109,71,55,59,42,0,0,0,0,0,0,0,0,0,0,0,0,0,0,0,0,0,0,0,0,0,0,0,0,0,0,0,0,0,0,0,0,0,0,0,0,0,0,0,0,0,0,0,0,0,0,0,0,0,0,0,0,0,0,0,0,0,0,0,0,0,0],"split_type":[0,0,0,0,0,0,0,0,0,0,0,0,0,0,0,0,0,0,0,0,0,0,0,0,0,0,0,0,0,0,0,0,0,0,0,0,0,0,0,0,0,0,0,0,0,0,0,0,0,0,0,0,0,0,0,0,0,0,0,0,0,0,0,0,0,0,0,0,0,0,0,0,0,0,0,0,0,0,0,0,0,0,0,0,0,0,0,0,0,0,0,0,0,0,0,0,0,0,0,0,0,0,0,0,0,0,0,0,0,0,0,0,0,0,0,0,0,0,0,0,0,0,0,0,0],"sum_hessian":[8.179445E3,4.219445E3,3.9600002E3,3.0833335E3,1.1361112E3,1.6594446E3,2.3005557E3,1.1958334E3,1.8875001E3,8.041667E2,3.3194446E2,5.680556E2,1.0913889E3,2.1877778E3,1.1277779E2,5.1111115E1,1.1447223E3,1.7441667E3,1.4333334E2,1.3333334E1,7.908334E2,3.2722223E2,4.7222223E0,1.2444445E2,4.4361115E2,1.75E1,1.0738889E3,1.7333334E2,2.0144446E3,9.805556E1,1.4722223E1,6.666667E0,4.4444447E1,6.791667E2,4.6555557E2,1.6861112E3,5.8055557E1,5.3888893E1,8.944445E1,6.9444447E0,6.3888893E0,2.3611113E1,7.672222E2,1.438889E2,1.8333334E2,2.777778E0,1.9444445E0,9.666667E1,2.7777779E1,1.2138889E2,3.2222223E2,1.5000001E1,2.5E0,1.0586112E3,1.5277779E1,9.6111115E1,7.722223E1,9.277778E1,1.9216667E3,1.2777779E1,8.527778E1,7.2222223E0,7.5000005E0,5.555556E0,1.1111112E0,3.25E1,1.1944445E1,6.7194446E2,7.2222223E0,1.4222223E2,3.2333334E2,1.6788889E3,7.2222223E0,5.1944447E1,6.1111116E0,1.9722223E1,3.4166668E1,6.8611115E1,2.0833334E1,5E0,1.9444445E0,4.7222223E0,1.6666667E0,6.3888893E0,1.7222223E1,2.1000002E2,5.572222E2,1.3805556E2,5.8333335E0,9.805556E1,8.527778E1,1.6666667E0,1.1111112E0,1.3055556E1,8.3611115E1,1.4444445E1,1.3333334E1,2.1944445E1,9.944445E1,2.4250002E2,7.972223E1,1.3888889E1,1.1111112E0,1.1111112E0,1.388889E0,6.241667E2,4.3444446E2,3.6111112E0,1.1666667E1,3.5E1,6.1111115E1,1.5000001E1,6.2222225E1,7.472223E1,1.8055557E1,1.7780557E3,1.4361111E2,8.333334E0,4.4444447E0,4.138889E1,4.388889E1,5E0,2.2222223E0,2.777778E0,4.7222223E0],"tree_param":{"num_deleted":"0","num_feature":"128","num_nodes":"125","size_leaf_vector":"1"}},{"base_weights":[-5.1093394E-1,-5.14999E-1,-3.835172E-1,-5.175953E-1,-4.3678162E-1,-4.0061295E-1,7.8082186E-1,-5.1793617E-1,2.912619E-2,1.125E-1,-4.4344473E-1,2.4489792E-1,-4.131016E-1,4.7368422E-1,-1.6981138E-2,1.4285712E-1,-5.1817054E-1,-1.4096385E-1,3.3157894E-1,-3.909821E-1,-5.552486E-1,8.275862E-1,-1.2413794E-1,-4.203223E-1,1.8947369E-1,1.8947369E-1,-1.0465116E-1,-5.342694E-1,-5.107347E-1,3.5294113E-1,-4.046424E-1,-5.66879E-1,-1.6981138E-2,4.7368422E-1,-9.4736844E-2,-4.2760792E-1,1.8947369E-1,-1.6050397E-1,-6.189713E-9,-1.5331897E-1,1.2328761E-2,-1.12500004E-1,3.3157894E-1,-1.2986884E-1,-3.8626683E-3,-4.2857148E-2,-1.7368421E-1,-1.6513769E-2,-1.3347459E-1],"categories":[],"categories_nodes":[],"categories_segments":[],"categories_sizes":[],"default_left":[0,0,0,0,0,0,0,0,0,0,0,0,0,0,0,0,0,0,0,0,0,0,0,0,0,0,0,0,0,0,0,0,0,0,0,0,0,0,0,0,0,0,0,0,0,0,0,0,0],"id":2,"left_children":[1,3,5,7,9,11,13,15,17,-1,19,21,23,-1,-1,25,27,-1,-1,29,31,33,-1,35,-1,-1,-1,37,39,41,43,45,-1,-1,-1,47,-1,-1,-1,-1,-1,-1,-1,-1,-1,-1,-1,-1,-1],"loss_changes":[4.039795E0,1.3833008E0,5.425144E0,1.4433594E0,1.5780411E0,2.1470108E0,2.7999887E0,1.260498E0,3.592165E0,0E0,1.3040314E0,2.43209E0,2.1462631E0,0E0,0E0,1.0613744E0,6.437988E-1,0E0,0E0,1.97089E0,4.3444633E-1,3.2667875E0,0E0,2.1723824E0,0E0,0E0,0E0,9.527588E-1,9.746094E-1,2.4833589E0,1.9548397E0,3.1899834E-1,0E0,0E0,0E0,1.5688972E0,0E0,0E0,0E0,0E0,0E0,0E0,0E0,0E0,0E0,0E0,0E0,0E0,0E0],"parents":[2147483647,0,0,1,1,2,2,3,3,4,4,5,5,6,6,7,7,8,8,10,10,11,11,12,12,15,15,16,16,19,19,20,20,21,21,23,23,27,27,28,28,29,29,30,30,31,31,35,35],"right_children":[2,4,6,8,10,12,14,16,18,-1,20,22,24,-1,-1,26,28,-1,-1,30,32,34,-1,36,-1,-1,-1,38,40,42,44,46,-1,-1,-1,48,-1,-1,-1,-1,-1,-1,-1,-1,-1,-1,-1,-1,-1],"split_conditions":[1.1145928E-1,4.9669355E-2,5.3840335E-2,9.576404E-2,-5.19711E-2,-3.765778E-2,2.5881939E-2,-4.6818063E-2,1.8181244E-3,1.125E-1,3.772905E-3,5.2959535E-2,-2.03594E-2,4.7368422E-1,-1.6981138E-2,-3.0189438E-2,7.5069005E-3,-1.4096385E-1,3.3157894E-1,-3.762687E-2,6.6446825E-3,-6.425096E-2,-1.2413794E-1,4.51556E-2,1.8947369E-1,1.8947369E-1,-1.0465116E-1,3.855858E-2,6.805004E-2,-2.452207E-2,1.244993E-3,-8.755252E-3,-1.6981138E-2,4.7368422E-1,-9.4736844E-2,-6.0942296E-2,1.8947369E-1,-1.6050397E-1,-6.189713E-9,-1.5331897E-1,1.2328761E-2,-1.12500004E-1,3.3157894E-1,-1.2986884E-1,-3.8626683E-3,-4.2857148E-2,-1.7368421E-1,-1.6513769E-2,-1.3347459E-1],"split_indices":[36,40,46,108,72,81,0,91,50,0,4,49,12,0,0,2,90,0,0,25,84,14,0,15,0,0,0,69,87,1,4,99,0,0,0,7,0,0,0,0,0,0,0,0,0,0,0,0,0],"split_type":[0,0,0,0,0,0,0,0,0,0,0,0,0,0,0,0,0,0,0,0,0,0,0,0,0,0,0,0,0,0,0,0,0,0,0,0,0,0,0,0,0,0,0,0,0,0,0,0,0],"sum_hessian":[8.179445E3,7.9236113E3,2.5583334E2,7.6636113E3,2.6E2,2.5277779E2,3.0555558E0,7.658889E3,4.7222223E0,1.6666667E0,2.5833334E2,4.4444447E0,2.4833334E2,1.1111112E0,1.9444445E0,2.5E0,7.656389E3,3.6111112E0,1.1111112E0,1.788889E2,7.944445E1,2.2222223E0,2.2222223E0,2.4722223E2,1.1111112E0,1.1111112E0,1.388889E0,2.3966667E3,5.2597227E3,2.777778E0,1.7611111E2,7.75E1,1.9444445E0,1.1111112E0,1.1111112E0,2.4611113E2,1.1111112E0,2.3933335E3,3.3333335E0,5.256667E3,3.0555558E0,1.6666667E0,1.1111112E0,1.6416667E2,1.1944445E1,2.5E0,7.5E1,1.1111112E1,2.3500002E2],"tree_param":{"num_deleted":"0","num_feature":"128","num_nodes":"49","size_leaf_vector":"1"}},{"base_weights":[-1.6400903E-1,-1.5103556E-1,-3.717459E-1,-3.225026E-1,-1.4736131E-1,-4.5033792E-1,-2.68396E-1,2.1428567E-1,-3.5326284E-1,-1.6079488E-1,-1.0818598E-1,3.5294113E-1,-4.5996276E-1,-3.2473254E-1,2.9126186E-2,4.3448275E-1,-3.75E-1,4.026843E-2,-3.9829478E-1,-1.3871965E-1,-1.9557065E-1,-1.17617354E-1,1.838975E-1,3.3157894E-1,-1.12500004E-1,2.0689653E-1,-4.6630502E-1,2.9479766E-1,-3.582534E-1,-3.2673267E-1,3.513513E-1,-1.5E-1,4.736842E-2,-4.4680852E-1,7.4999994E-1,-7.228918E-2,-4.7655067E-1,8.709677E-1,-1.4019874E-1,1.7647055E-1,-2.0187819E-1,-7.764772E-2,-1.9155432E-1,-9.065936E-2,6.971279E-1,1.8947369E-1,-9.4736844E-2,-4.9114102E-1,-2.698962E-1,3.976744E-1,-4.054056E-2,-4.0065145E-1,8.6330906E-2,4.285714E-1,-4.883721E-1,1.0975609E0,-7.894739E-2,-1.6071428E-1,4.736842E-2,-1.3561645E-1,5.30137E-1,2.9999998E-1,-6.556292E-2,6.9230765E-2,-1.5023401E-1,4.924528E-1,-3.1034486E-2,-3.289088E-2,-5.432445E-2,-2.0454554E-2,2.9999998E-1,-5.7632573E-2,-1.1755889E-1,-6.5244414E-2,-1.139642E-2,-5.9907842E-2,2.612903E-1,-6.753446E-2,2.612903E-1,-6.1016954E-2,3.0848056E-1,-9.7994275E-2,-1.5629047E-1,-1.1927711E-1,1.2857142E-1,-1.09756105E-1,2.7209303E-1,1.2857142E-1,-1.2516557E-1,5.232558E-1,-6.0474318E-2,3.3157894E-1,-1.0465116E-1,-1.6638654E-1,4.736842E-2,5.538461E-1,-4.2857148E-2,-1.3005781E-1,2.3424657E-1],"categories":[],"categories_nodes":[],"categories_segments":[],"categories_sizes":[],"default_left":[0,0,0,0,0,0,0,0,0,0,0,0,0,0,0,0,0,0,0,0,0,0,0,0,0,0,0,0,0,0,0,0,0,0,0,0,0,0,0,0,0,0,0,0,0,0,0,0,0,0,0,0,0,0,0,0,0,0,0,0,0,0,0,0,0,0,0,0,0,0,0,0,0,0,0,0,0,0,0,0,0,0,0,0,0,0,0,0,0,0,0,0,0,0,0,0,0,0,0],"id":3,"left_children":[1,3,5,7,9,11,13,15,17,19,21,23,25,27,29,-1,31,33,35,37,39,41,43,-1,-1,45,47,49,51,53,55,-1,-1,57,59,61,63,65,67,69,71,73,75,77,79,-1,-1,81,83,-1,85,87,89,91,93,95,97,-1,-1,-1,-1,-1,-1,-1,-1,-1,-1,-1,-1,-1,-1,-1,-1,-1,-1,-1,-1,-1,-1,-1,-1,-1,-1,-1,-1,-1,-1,-1,-1,-1,-1,-1,-1,-1,-1,-1,-1,-1,-1],"loss_changes":[2.1990707E1,4.8043976E0,3.779274E0,2.7295017E0,3.9514618E0,2.2597122E0,3.527485E0,7.330049E0,2.7165947E0,4.2824707E0,5.3349304E0,2.4833589E0,1.2320671E0,3.772173E0,4.0516872E0,0E0,5.5263174E-1,6.0582604E0,3.4564247E0,5.2555237E0,5.145218E0,5.508621E0,8.619625E0,0E0,0E0,9.147005E-1,1.1663513E0,3.375928E0,3.200262E0,2.264432E0,6.0268703E0,0E0,0E0,6.460967E-1,9.493149E0,4.5574083E0,2.0035915E0,4.0490904E0,4.26989E0,7.4893045E0,3.89962E0,6.7292166E0,5.839348E0,5.425375E0,6.5541296E0,0E0,0E0,9.836426E-1,3.0343938E0,0E0,2.866237E0,2.2875595E0,7.72348E0,2.2267876E0,7.012534E-1,6.6089506E0,4.200013E0,0E0,0E0,0E0,0E0,0E0,0E0,0E0,0E0,0E0,0E0,0E0,0E0,0E0,0E0,0E0,0E0,0E0,0E0,0E0,0E0,0E0,0E0,0E0,0E0,0E0,0E0,0E0,0E0,0E0,0E0,0E0,0E0,0E0,0E0,0E0,0E0,0E0,0E0,0E0,0E0,0E0,0E0],"parents":[2147483647,0,0,1,1,2,2,3,3,4,4,5,5,6,6,7,7,8,8,9,9,10,10,11,11,12,12,13,13,14,14,16,16,17,17,18,18,19,19,20,20,21,21,22,22,25,25,26,26,27,27,28,28,29,29,30,30,33,33,34,34,35,35,36,36,37,37,38,38,39,39,40,40,41,41,42,42,43,43,44,44,47,47,48,48,50,50,51,51,52,52,53,53,54,54,55,55,56,56],"right_children":[2,4,6,8,10,12,14,16,18,20,22,24,26,28,30,-1,32,34,36,38,40,42,44,-1,-1,46,48,50,52,54,56,-1,-1,58,60,62,64,66,68,70,72,74,76,78,80,-1,-1,82,84,-1,86,88,90,92,94,96,98,-1,-1,-1,-1,-1,-1,-1,-1,-1,-1,-1,-1,-1,-1,-1,-1,-1,-1,-1,-1,-1,-1,-1,-1,-1,-1,-1,-1,-1,-1,-1,-1,-1,-1,-1,-1,-1,-1,-1,-1,-1,-1],"split_conditions":[7.649417E-2,-6.99485E-2,-7.425171E-2,-5.2377176E-2,-1.6697658E-3,-4.5125674E-2,4.3720677E-2,3.8800567E-2,-3.6502972E-2,-7.2740368E-3,1.1537126E-1,-1.9089277E-3,2.3154118E-3,-1.3173849E-2,5.2672546E-2,4.3448275E-1,-2.452207E-2,-5.0428486E-3,-4.5808837E-2,-5.0434347E-2,-3.0986262E-2,1.2546797E-2,-1.1771956E-2,3.3157894E-1,-1.12500004E-1,4.334442E-2,3.0100416E-2,-2.5955955E-2,5.2587323E-2,-8.612183E-3,2.9807733E-2,-1.5E-1,4.736842E-2,-3.6273126E-2,-3.327491E-2,2.9791517E-2,-1.3376162E-2,-2.7604986E-2,1.8084376E-3,3.8159844E-3,3.9185703E-2,-2.1634676E-2,7.536257E-2,-2.1834379E-2,-6.0863816E-4,1.8947369E-1,-9.4736844E-2,-7.098674E-3,2.6944213E-2,3.976744E-1,1.575495E-2,7.92326E-3,-1.05481865E-2,-1.4257219E-2,-1.15903085E-2,1.1145928E-1,2.0162284E-2,-1.6071428E-1,4.736842E-2,-1.3561645E-1,5.30137E-1,2.9999998E-1,-6.556292E-2,6.9230765E-2,-1.5023401E-1,4.924528E-1,-3.1034486E-2,-3.289088E-2,-5.432445E-2,-2.0454554E-2,2.9999998E-1,-5.7632573E-2,-1.1755889E-1,-6.5244414E-2,-1.139642E-2,-5.9907842E-2,2.612903E-1,-6.753446E-2,2.612903E-1,-6.1016954E-2,3.0848056E-1,-9.7994275E-2,-1.5629047E-1,-1.1927711E-1,1.2857142E-1,-1.09756105E-1,2.7209303E-1,1.2857142E-1,-1.2516557E-1,5.232558E-1,-6.0474318E-2,3.3157894E-1,-1.0465116E-1,-1.6638654E-1,4.736842E-2,5.538461E-1,-4.2857148E-2,-1.3005781E-1,2.3424657E-1],"split_indices":[36,8,19,26,82,119,85,13,0,44,57,106,101,66,101,0,1,65,53,3,88,103,16,0,0,0,33,4,6,3,51,0,0,1,71,89,55,27,48,75,9,22,99,21,75,0,0,76,24,0,73,67,23,5,1,36,37,0,0,0,0,0,0,0,0,0,0,0,0,0,0,0,0,0,0,0,0,0,0,0,0,0,0,0,0,0,0,0,0,0,0,0,0,0,0,0,0,0,0],"split_type":[0,0,0,0,0,0,0,0,0,0,0,0,0,0,0,0,0,0,0,0,0,0,0,0,0,0,0,0,0,0,0,0,0,0,0,0,0,0,0,0,0,0,0,0,0,0,0,0,0,0,0,0,0,0,0,0,0,0,0,0,0,0,0,0,0,0,0,0,0,0,0,0,0,0,0,0,0,0,0,0,0,0,0,0,0,0,0,0,0,0,0,0,0,0,0,0,0,0,0],"sum_hessian":[8.179445E3,7.7002783E3,4.791667E2,1.5972223E2,7.540556E3,2.702778E2,2.088889E2,8.333334E0,1.513889E2,5.612778E3,1.9277778E3,2.777778E0,2.675E2,1.7555556E2,3.3333336E1,2.2222223E0,6.1111116E0,1.5555556E1,1.3583334E2,3.4363892E3,2.176389E3,1.8680557E3,5.9722225E1,1.1111112E0,1.6666667E0,2.2222223E0,2.652778E2,8.611112E0,1.6694446E2,1.5833334E1,1.75E1,5E0,1.1111112E0,9.444445E0,6.1111116E0,2.6666668E1,1.0916667E2,4.166667E0,3.4322224E3,3.5833336E1,2.1405557E3,1.2138889E3,6.541667E2,3.9444447E1,2.0277779E1,1.1111112E0,1.1111112E0,2.3416667E2,3.1111113E1,1.388889E0,7.2222223E0,1.525E2,1.4444445E1,2.5E0,1.3333334E1,5.8333335E0,1.1666667E1,8.333334E0,1.1111112E0,3.0555558E0,3.0555558E0,2.5E0,2.4166668E1,3.3333335E0,1.05833336E2,1.9444445E0,2.2222223E0,1.9661112E3,1.4661112E3,2.8333334E1,7.5000005E0,2.0377778E3,1.0277779E2,2.6722223E2,9.466667E2,6.5000006E2,4.166667E0,3.527778E1,4.166667E0,5.555556E0,1.4722223E1,3.777778E1,1.963889E2,2.6666668E1,4.4444447E0,5.8333335E0,1.388889E0,2.5E0,1.5E2,1.388889E0,1.3055556E1,1.1111112E0,1.388889E0,1.2222223E1,1.1111112E0,3.3333335E0,2.5E0,8.611112E0,3.0555558E0],"tree_param":{"num_deleted":"0","num_feature":"128","num_nodes":"99","size_leaf_vector":"1"}},{"base_weights":[1.3560791E-1,1.4345084E-1,-2.552532E-1,1.6436914E-1,7.284725E-2,-3.0976966E-1,9.677416E-2,1.5912962E-1,5.0719416E-1,2.1922663E-1,4.2688236E-2,-3.279743E-1,2.25E-1,6.428571E-1,-2.7272728E-1,1.3919707E-1,2.3260485E-1,-5.3286226E-3,7.560106E-1,-3.5135135E-1,2.5417992E-1,1.7812897E-1,-3.970031E-3,4.615384E-1,-3.509061E-1,1.2650602E0,2.912619E-2,-1.6229509E-1,3.4090906E-1,1.4433582E-1,-1.4677106E-1,4.5589793E-1,2.0176885E-1,7.109826E-1,-3.0882353E-1,9.3282765E-1,-5.504589E-2,-4.5047924E-1,1.8947369E-1,7.429466E-1,1.8690194E-1,6.704779E-2,3.1099275E-1,1.5206559E-1,-3.527754E-2,3.3749998E-1,-1.12500004E-1,1.578947E-1,-3.774319E-1,5.275862E-1,2.0930227E-2,2.25E-1,-1.3561645E-1,3.3749998E-1,-1.2413794E-1,1.11116566E-1,4.1626405E-2,-9.7249515E-2,5.909943E-2,-2.627738E-2,1.7466201E-1,5.725009E-2,2.4827585E-1,-1.3235295E-1,3.731707E-1,-1.5405406E-1,1.4516129E-1,1.9598852E-1,4.9999997E-1,-1.2857144E-1,2.6470587E-1,1.2328761E-2,-1.6744186E-1,-1.0000001E-1,2.7919707E-1,7.503678E-2,-6.5785386E-2,-1.0054269E-2,1.4856751E-1,-5.3804357E-2,1.11748144E-1,2.001389E-2,1.7739601E-1,3.957513E-3,-4.578726E-2,-1.4318182E-1,2.9999998E-1,-3.9579358E-2,-1.3340709E-1],"categories":[],"categories_nodes":[],"categories_segments":[],"categories_sizes":[],"default_left":[0,0,0,0,0,0,0,0,0,0,0,0,0,0,0,0,0,0,0,0,0,0,0,0,0,0,0,0,0,0,0,0,0,0,0,0,0,0,0,0,0,0,0,0,0,0,0,0,0,0,0,0,0,0,0,0,0,0,0,0,0,0,0,0,0,0,0,0,0,0,0,0,0,0,0,0,0,0,0,0,0,0,0,0,0,0,0,0,0],"id":4,"left_children":[1,3,5,7,9,11,13,15,17,19,21,23,-1,25,27,29,31,33,35,37,39,41,43,45,47,49,51,-1,53,55,57,59,61,63,65,67,69,71,-1,73,75,77,79,81,83,-1,-1,85,87,-1,-1,-1,-1,-1,-1,-1,-1,-1,-1,-1,-1,-1,-1,-1,-1,-1,-1,-1,-1,-1,-1,-1,-1,-1,-1,-1,-1,-1,-1,-1,-1,-1,-1,-1,-1,-1,-1,-1,-1],"loss_changes":[2.5113754E1,1.1833054E1,3.1251068E0,1.1031311E1,8.091049E0,2.9448147E0,4.6929197E0,8.893478E0,1.1821264E1,6.3360796E0,9.623093E0,2.664465E0,0E0,3.5272295E0,2.498137E0,7.0697937E0,8.852615E0,7.0192575E0,8.998451E0,2.0870752E0,9.585447E0,5.737488E0,5.542611E0,2.8269227E0,1.8801022E0,2.5976276E0,2.3239126E0,0E0,3.358542E0,5.8939133E0,5.2575426E0,1.08172035E1,7.6656494E0,6.4500833E0,3.9262912E0,9.429882E0,4.618765E0,9.432118E-1,0E0,7.471014E0,6.7642965E0,9.221519E0,5.4162254E0,7.069361E0,5.3762617E0,0E0,0E0,4.4294257E0,2.06312E0,0E0,0E0,0E0,0E0,0E0,0E0,0E0,0E0,0E0,0E0,0E0,0E0,0E0,0E0,0E0,0E0,0E0,0E0,0E0,0E0,0E0,0E0,0E0,0E0,0E0,0E0,0E0,0E0,0E0,0E0,0E0,0E0,0E0,0E0,0E0,0E0,0E0,0E0,0E0,0E0],"parents":[2147483647,0,0,1,1,2,2,3,3,4,4,5,5,6,6,7,7,8,8,9,9,10,10,11,11,13,13,14,14,15,15,16,16,17,17,18,18,19,19,20,20,21,21,22,22,23,23,24,24,25,25,26,26,28,28,29,29,30,30,31,31,32,32,33,33,34,34,35,35,36,36,37,37,39,39,40,40,41,41,42,42,43,43,44,44,47,47,48,48],"right_children":[2,4,6,8,10,12,14,16,18,20,22,24,-1,26,28,30,32,34,36,38,40,42,44,46,48,50,52,-1,54,56,58,60,62,64,66,68,70,72,-1,74,76,78,80,82,84,-1,-1,86,88,-1,-1,-1,-1,-1,-1,-1,-1,-1,-1,-1,-1,-1,-1,-1,-1,-1,-1,-1,-1,-1,-1,-1,-1,-1,-1,-1,-1,-1,-1,-1,-1,-1,-1,-1,-1,-1,-1,-1,-1],"split_conditions":[6.1208975E-2,2.1458799E-2,-1.7031966E-2,4.194216E-2,-2.7952341E-2,3.453574E-2,4.3020133E-2,1.5613457E-2,-2.9558254E-2,-6.302256E-2,-1.228785E-2,-3.0100856E-2,2.25E-1,-2.6246905E-2,-5.3957077E-3,4.885081E-2,-4.4239935E-2,3.3206511E-3,6.285866E-3,-2.9264478E-2,-5.222588E-2,-1.2370603E-2,-1.6794685E-2,-5.4482352E-2,-5.983656E-2,2.781361E-2,-5.3047934E-3,-1.6229509E-1,4.2287856E-2,-6.826722E-2,-9.528981E-3,1.1463483E-2,6.2902264E-2,1.5187631E-2,-1.2234675E-2,3.6758427E-2,1.9872352E-3,-4.5863908E-2,1.8947369E-1,2.9829005E-3,-1.4508341E-2,4.2089764E-2,-2.8705655E-2,-1.9257618E-2,-2.2740377E-2,3.3749998E-1,-1.12500004E-1,-6.021466E-3,2.3571424E-2,5.275862E-1,2.0930227E-2,2.25E-1,-1.3561645E-1,3.3749998E-1,-1.2413794E-1,1.11116566E-1,4.1626405E-2,-9.7249515E-2,5.909943E-2,-2.627738E-2,1.7466201E-1,5.725009E-2,2.4827585E-1,-1.3235295E-1,3.731707E-1,-1.5405406E-1,1.4516129E-1,1.9598852E-1,4.9999997E-1,-1.2857144E-1,2.6470587E-1,1.2328761E-2,-1.6744186E-1,-1.0000001E-1,2.7919707E-1,7.503678E-2,-6.5785386E-2,-1.0054269E-2,1.4856751E-1,-5.3804357E-2,1.11748144E-1,2.001389E-2,1.7739601E-1,3.957513E-3,-4.578726E-2,-1.4318182E-1,2.9999998E-1,-3.9579358E-2,-1.3340709E-1],"split_indices":[115,68,28,50,120,3,38,95,69,98,32,47,0,85,23,15,28,77,72,19,98,103,46,1,44,76,95,0,59,104,27,101,42,99,14,71,106,55,0,85,84,33,119,46,31,0,0,106,125,0,0,0,0,0,0,0,0,0,0,0,0,0,0,0,0,0,0,0,0,0,0,0,0,0,0,0,0,0,0,0,0,0,0,0,0,0,0,0,0],"split_type":[0,0,0,0,0,0,0,0,0,0,0,0,0,0,0,0,0,0,0,0,0,0,0,0,0,0,0,0,0,0,0,0,0,0,0,0,0,0,0,0,0,0,0,0,0,0,0,0,0,0,0,0,0,0,0,0,0,0,0,0,0,0,0,0,0,0,0,0,0,0,0,0,0,0,0,0,0,0,0,0,0,0,0,0,0,0,0,0,0],"sum_hessian":[8.179445E3,8.019167E3,1.6027779E2,6.185278E3,1.8338889E3,1.388889E2,2.138889E1,6.0936113E3,9.166667E1,3.1222223E2,1.5216667E3,1.3722223E2,1.6666667E0,8.333334E0,1.3055556E1,4.7955557E3,1.2980557E3,3.0277779E1,6.1388893E1,1.75E1,2.9472223E2,3.891667E2,1.1325E3,3.3333335E0,1.338889E2,3.6111112E0,4.7222223E0,9.166667E0,3.888889E0,4.711389E3,8.416667E1,1.5583334E2,1.1422223E3,8.611112E0,2.1666668E1,5.027778E1,1.1111112E1,1.638889E1,1.1111112E0,3.4444447E1,2.602778E2,2.1277779E2,1.763889E2,1.8861111E2,9.438889E2,1.6666667E0,1.6666667E0,6.3888893E0,1.2750001E2,2.2222223E0,1.388889E0,1.6666667E0,3.0555558E0,1.6666667E0,2.2222223E0,1.1194445E2,4.599445E3,5.5555557E1,2.8611113E1,2.9444447E1,1.2638889E2,1.1238889E3,1.8333334E1,2.777778E0,5.8333335E0,1.75E1,4.166667E0,3.777778E1,1.2500001E1,8.333334E0,2.777778E0,3.0555558E0,1.3333334E1,5E0,2.9444447E1,2.2555557E2,3.4722225E1,1.7305556E2,3.9722225E1,1.9444445E1,1.5694446E2,1.588889E2,2.9722223E1,6.6861115E2,2.752778E2,3.888889E0,2.5E0,2.8055557E1,9.944445E1],"tree_param":{"num_deleted":"0","num_feature":"128","num_nodes":"89","size_leaf_vector":"1"}},{"base_weights":[3.1102625E-1,2.6524866E-1,8.4930193E-1,3.5036808E-1,1.5715046E-1,7.4175817E-1,1.4538594E0,4.7557586E-1,2.968556E-1,1.4550623E-1,6.088117E-1,7.9526144E-1,1.9376388E-1,8.724727E-1,1.7704917E0,4.3814275E-1,8.037342E-1,9.649681E-1,2.8878158E-1,9.1463405E-1,1.4111441E-1,2.362202E-2,8.928571E-1,1.1269633E0,7.251949E-1,-2.647059E-1,5.55118E-1,1.0726577E0,-2.3323556E-8,-2.0632376E-8,1.8728322E0,5.086505E-1,2.9724205E-1,2.2641505E-1,8.881677E-1,1.8518515E-1,1.3920594E0,2.6391515E-1,5.1918554E-1,-1.4096385E-1,1.2889733E0,2.2662124E-2,1.5911704E-1,-2.5364432E-1,5.4098356E-1,4.0942922E-1,1.1797752E0,8.8334894E-1,1.6211178E0,1.1515892E0,6.7068386E-1,2.7209303E-1,-3.83812E-1,3.287671E-1,1.5681818E0,-2.2351742E-8,1.2956119E0,-1.5E-1,3.3749998E-1,1.8947369E-1,-1.2413794E-1,1.9825281E0,1.8072286E-1,-5.2631656E-3,1.5857272E-1,8.317314E-2,4.5E-1,2.671875E-1,-6.0576927E-2,2.9220778E-1,-3.641619E-2,-1.06779665E-1,1.8251747E-1,6.127659E-1,2.2789699E-1,8.887153E-2,2.9854545E-2,1.3552852E-1,4.173184E-1,6.260869E-1,1.06993E-1,1.3717471E-1,-3.0176106E-3,6.394485E-2,2.5303587E-2,-1.6276596E-1,2.6011553E-2,-8.1818186E-2,3.2654867E-1,3.489796E-1,4.736841E-2,6.923076E-2,4.2289153E-1,1.653061E-1,3.7423933E-1,5.263393E-1,-1.6981138E-2,3.7606725E-1,-1.2857144E-1,2.2167486E-1,1.20174155E-1,-1.4078213E-1,1.4651163E-1,-1.5365854E-1,1.8648647E-1,2.0930227E-2,6.4285713E-1,2.7209303E-1,-1.4096385E-1,-1.1886793E-1,4.3869343E-1,1.3846153E-1,6.220153E-1,-1.2857144E-1,3.3157894E-1],"categories":[],"categories_nodes":[],"categories_segments":[],"categories_sizes":[],"default_left":[0,0,0,0,0,0,0,0,0,0,0,0,0,0,0,0,0,0,0,0,0,0,0,0,0,0,0,0,0,0,0,0,0,0,0,0,0,0,0,0,0,0,0,0,0,0,0,0,0,0,0,0,0,0,0,0,0,0,0,0,0,0,0,0,0,0,0,0,0,0,0,0,0,0,0,0,0,0,0,0,0,0,0,0,0,0,0,0,0,0,0,0,0,0,0,0,0,0,0,0,0,0,0,0,0,0,0,0,0,0,0,0,0,0,0],"id":5,"left_children":[1,3,5,7,9,11,13,15,17,19,21,23,25,27,29,31,33,35,37,39,41,43,45,47,49,51,53,55,57,59,61,63,65,67,69,71,73,75,77,-1,79,81,83,85,87,89,91,93,95,97,99,-1,101,103,105,107,109,-1,-1,-1,-1,111,113,-1,-1,-1,-1,-1,-1,-1,-1,-1,-1,-1,-1,-1,-1,-1,-1,-1,-1,-1,-1,-1,-1,-1,-1,-1,-1,-1,-1,-1,-1,-1,-1,-1,-1,-1,-1,-1,-1,-1,-1,-1,-1,-1,-1,-1,-1,-1,-1,-1,-1,-1,-1],"loss_changes":[2.0134888E2,6.932904E1,4.057898E1,2.8119812E1,1.7391983E1,1.5854309E1,1.60764E1,1.5141357E1,1.5676025E1,1.0820511E1,1.38121395E1,1.0736237E1,8.412034E0,6.2390957E0,1.105278E1,1.1117935E1,6.035576E0,1.1361557E1,1.6614227E1,1.0049836E1,6.8721313E0,4.185609E0,7.284401E0,8.787186E0,8.83223E0,3.5113459E0,5.9560137E0,6.948742E0,4.8749995E0,1.3938293E0,1.0345657E1,7.921036E0,8.7416725E0,5.2061176E0,9.763626E0,3.3081048E0,7.6585655E0,1.4004669E1,1.605352E1,0E0,1.0126127E1,6.0702376E0,1.1289368E1,1.9207749E0,4.8262796E0,4.061613E0,7.224823E0,6.458702E0,6.1024094E0,7.859539E0,6.500519E0,0E0,1.815191E0,6.3111944E0,4.0603294E0,2.9831886E0,7.363762E0,0E0,0E0,0E0,0E0,6.5130615E0,3.0712018E0,0E0,0E0,0E0,0E0,0E0,0E0,0E0,0E0,0E0,0E0,0E0,0E0,0E0,0E0,0E0,0E0,0E0,0E0,0E0,0E0,0E0,0E0,0E0,0E0,0E0,0E0,0E0,0E0,0E0,0E0,0E0,0E0,0E0,0E0,0E0,0E0,0E0,0E0,0E0,0E0,0E0,0E0,0E0,0E0,0E0,0E0,0E0,0E0,0E0,0E0,0E0,0E0],"parents":[2147483647,0,0,1,1,2,2,3,3,4,4,5,5,6,6,7,7,8,8,9,9,10,10,11,11,12,12,13,13,14,14,15,15,16,16,17,17,18,18,19,19,20,20,21,21,22,22,23,23,24,24,25,25,26,26,27,27,28,28,29,29,30,30,31,31,32,32,33,33,34,34,35,35,36,36,37,37,38,38,40,40,41,41,42,42,43,43,44,44,45,45,46,46,47,47,48,48,49,49,50,50,52,52,53,53,54,54,55,55,56,56,61,61,62,62],"right_children":[2,4,6,8,10,12,14,16,18,20,22,24,26,28,30,32,34,36,38,40,42,44,46,48,50,52,54,56,58,60,62,64,66,68,70,72,74,76,78,-1,80,82,84,86,88,90,92,94,96,98,100,-1,102,104,106,108,110,-1,-1,-1,-1,112,114,-1,-1,-1,-1,-1,-1,-1,-1,-1,-1,-1,-1,-1,-1,-1,-1,-1,-1,-1,-1,-1,-1,-1,-1,-1,-1,-1,-1,-1,-1,-1,-1,-1,-1,-1,-1,-1,-1,-1,-1,-1,-1,-1,-1,-1,-1,-1,-1,-1,-1,-1,-1],"split_conditions":[6.1976798E-2,1.18930405E-2,4.875072E-2,2.5543312E-3,-8.342568E-3,2.570228E-2,-1.3215357E-1,4.643906E-2,-4.3062918E-2,-2.5557721E-2,-1.4091886E-2,-6.964774E-2,5.622079E-2,5.253756E-2,-3.152578E-2,2.9048618E-2,2.3931267E-3,4.3741826E-2,2.1389682E-2,-3.4254186E-2,-2.6782416E-2,1.467004E-2,-1.3720291E-2,2.3276925E-2,-3.9813843E-2,6.057456E-3,-4.3463673E-2,-4.2009477E-2,5.626833E-2,3.2675263E-2,-1.1642493E-2,-3.8372286E-2,5.6310255E-2,2.6364446E-2,3.775009E-2,1.6446114E-2,2.691882E-2,2.0976515E-2,-1.1034998E-2,-1.4096385E-1,-1.8693855E-2,3.8152874E-2,-2.2292797E-2,4.9720313E-3,1.7628571E-2,-2.301676E-2,-8.225191E-3,3.8625695E-2,-8.667154E-3,9.168667E-3,-6.2763887E-3,2.7209303E-1,2.563407E-2,-5.492183E-2,4.915718E-3,-2.3692533E-2,8.892652E-2,-1.5E-1,3.3749998E-1,1.8947369E-1,-1.2413794E-1,2.8527046E-2,-1.41151445E-2,-5.2631656E-3,1.5857272E-1,8.317314E-2,4.5E-1,2.671875E-1,-6.0576927E-2,2.9220778E-1,-3.641619E-2,-1.06779665E-1,1.8251747E-1,6.127659E-1,2.2789699E-1,8.887153E-2,2.9854545E-2,1.3552852E-1,4.173184E-1,6.260869E-1,1.06993E-1,1.3717471E-1,-3.0176106E-3,6.394485E-2,2.5303587E-2,-1.6276596E-1,2.6011553E-2,-8.1818186E-2,3.2654867E-1,3.489796E-1,4.736841E-2,6.923076E-2,4.2289153E-1,1.653061E-1,3.7423933E-1,5.263393E-1,-1.6981138E-2,3.7606725E-1,-1.2857144E-1,2.2167486E-1,1.20174155E-1,-1.4078213E-1,1.4651163E-1,-1.5365854E-1,1.8648647E-1,2.0930227E-2,6.4285713E-1,2.7209303E-1,-1.4096385E-1,-1.1886793E-1,4.3869343E-1,1.3846153E-1,6.220153E-1,-1.2857144E-1,3.3157894E-1],"split_indices":[36,8,81,121,83,74,14,6,74,91,103,87,67,31,102,89,61,40,124,49,81,121,66,56,95,10,84,72,53,2,111,43,112,81,48,105,75,15,11,0,19,73,89,88,42,7,110,59,113,7,28,0,25,123,80,32,60,0,0,0,0,54,1,0,0,0,0,0,0,0,0,0,0,0,0,0,0,0,0,0,0,0,0,0,0,0,0,0,0,0,0,0,0,0,0,0,0,0,0,0,0,0,0,0,0,0,0,0,0,0,0,0,0,0,0],"split_type":[0,0,0,0,0,0,0,0,0,0,0,0,0,0,0,0,0,0,0,0,0,0,0,0,0,0,0,0,0,0,0,0,0,0,0,0,0,0,0,0,0,0,0,0,0,0,0,0,0,0,0,0,0,0,0,0,0,0,0,0,0,0,0,0,0,0,0,0,0,0,0,0,0,0,0,0,0,0,0,0,0,0,0,0,0,0,0,0,0,0,0,0,0,0,0,0,0,0,0,0,0,0,0,0,0,0,0,0,0,0,0,0,0,0,0],"sum_hessian":[8.179445E3,7.5397227E3,6.397222E2,4.216945E3,3.3227778E3,5.45E2,9.472223E1,1.2602778E3,2.9566667E3,3.2405557E3,8.222223E1,4.9611115E2,4.8888893E1,3.4722225E1,6.0000004E1,1.1333334E3,1.2694445E2,3.388889E1,2.9227778E3,1.7222223E1,3.2233335E3,2.7222223E1,5.5000004E1,8.388889E1,4.1222223E2,2.1666668E1,2.7222223E1,2.8055557E1,6.666667E0,3.3333335E0,5.6666668E1,7.5361115E2,3.7972223E2,1.6666668E1,1.1027779E2,1.2500001E1,2.138889E1,2.6400002E3,2.827778E2,3.6111112E0,1.3611112E1,4.2555557E2,2.7977778E3,1.8055557E1,9.166667E0,2.138889E1,3.3611115E1,5.8055557E1,2.5833334E1,4.4444447E1,3.677778E2,1.388889E0,2.0277779E1,2.3333334E1,3.888889E0,5E0,2.3055557E1,5E0,1.6666667E0,1.1111112E0,2.2222223E0,5.3055557E1,3.6111112E0,2.7500002E1,7.2611115E2,3.7472223E2,5E0,6.1111116E0,1.0555556E1,1.0166667E2,8.611112E0,5.555556E0,6.9444447E0,9.444445E0,1.1944445E1,2.2055557E3,4.3444446E2,2.6388892E2,1.888889E1,6.666667E0,6.9444447E0,2.888889E1,3.966667E2,1.6230557E3,1.1747223E3,9.444445E0,8.611112E0,3.888889E0,5.277778E0,4.4444447E0,1.6944445E1,6.9444447E0,2.6666668E1,3.1666668E1,2.638889E1,2.388889E1,1.9444445E0,4.1944447E1,2.5E0,2.9222223E2,7.555556E1,1.888889E1,1.388889E0,5.8333335E0,1.75E1,1.388889E0,2.5E0,1.388889E0,3.6111112E0,1.9444445E0,2.1111113E1,3.3333335E0,4.9722225E1,2.5E0,1.1111112E0],"tree_param":{"num_deleted":"0","num_feature":"128","num_nodes":"115","size_leaf_vector":"1"}},{"base_weights":[2.5109684E-2,-6.2244132E-2,4.7181044E-2,-6.491736E-2,1.0938047E0,4.193641E-2,2.9442683E-1,-3.7681606E-1,-5.3637605E-2,4.6905598E-1,2.9313123E-2,5.5654183E-2,-1.786813E-2,3.9398518E-1,-2.2390506E-1,7.373354E-1,-4.396649E-1,1.4086094E-1,-6.878908E-2,-1.3479185E-1,6.1574664E-2,-2.796752E-2,1.0443882E0,5.3830856E-1,-5.402785E-2,-3.432059E-1,3.484691E-1,-1.0224479E-1,4.752774E-1,-3.2135483E-2,-5.1828223E-1,3.9930895E-2,8.7444085E-1,-7.943404E-2,1.5051661E-1,4.105042E-1,-1.8031839E-1,1.441194E-1,4.546348E-2,-3.760653E-2,4.217116E-1,-1.2041917E-1,1.3956652E0,3.252437E-1,1.022848E0,5.66818E-1,-2.2565348E-1,1.1834105E-1,-1.6662276E-1,2.5316906E-1,-1.5283549E-1,9.674238E-2,-1.6780896E-1,3.3751753E-1,-4.535743E-3,-1.2664688E-1,3.5534954E-1,-2.2039361E-2,-1.5409316E-1,1.6602078E-1,-4.263096E-2,3.685091E-1,-1.1275226E-1,1.4389091E-2,-9.987431E-2,4.1085184E-2,4.966282E-1,7.2257495E-3,4.447354E-2,1.2521808E-1,-1.3801609E-2,1.9886252E-1,-1.4925863E-1,1.0606171E-1,6.1763364E-1,1.5782972E-1,-8.992991E-3,3.587498E-1,2.8441157E-2,3.91342E-1,-6.147706E-2,1.0365771E-1,-1.3301772E-1,-6.6086315E-2,3.2987654E-1],"categories":[],"categories_nodes":[],"categories_segments":[],"categories_sizes":[],"default_left":[0,0,0,0,0,0,0,0,0,0,0,0,0,0,0,0,0,0,0,0,0,0,0,0,0,0,0,0,0,0,0,0,0,0,0,0,0,0,0,0,0,0,0,0,0,0,0,0,0,0,0,0,0,0,0,0,0,0,0,0,0,0,0,0,0,0,0,0,0,0,0,0,0,0,0,0,0,0,0,0,0,0,0,0,0],"id":6,"left_children":[1,3,5,7,9,11,13,15,17,-1,-1,19,21,23,25,27,29,31,33,35,37,39,41,43,45,47,-1,-1,-1,49,51,53,55,57,59,61,63,65,67,69,71,-1,73,75,77,79,81,83,-1,-1,-1,-1,-1,-1,-1,-1,-1,-1,-1,-1,-1,-1,-1,-1,-1,-1,-1,-1,-1,-1,-1,-1,-1,-1,-1,-1,-1,-1,-1,-1,-1,-1,-1,-1,-1],"loss_changes":[1.5822668E1,5.186953E0,8.482089E0,5.7937403E0,1.6603622E0,5.264453E0,7.1014147E0,4.3514023E0,4.7131553E0,0E0,0E0,5.892908E0,1.2879616E1,7.4239864E0,4.1234517E0,3.685224E0,1.7476664E0,8.529706E0,3.4702272E0,3.9881926E0,6.725834E0,5.1630974E0,6.3027716E0,8.607088E0,3.1939385E0,2.1734872E0,0E0,0E0,0E0,4.599436E0,1.7725191E0,6.1538825E0,6.105215E0,3.6259623E0,8.203999E0,8.471388E0,5.1092944E0,8.725121E0,9.306294E0,4.46553E0,5.8725224E0,0E0,5.7128735E0,4.4116573E0,4.057625E0,3.9770193E0,3.0457807E0,2.768349E0,0E0,0E0,0E0,0E0,0E0,0E0,0E0,0E0,0E0,0E0,0E0,0E0,0E0,0E0,0E0,0E0,0E0,0E0,0E0,0E0,0E0,0E0,0E0,0E0,0E0,0E0,0E0,0E0,0E0,0E0,0E0,0E0,0E0,0E0,0E0,0E0,0E0],"parents":[2147483647,0,0,1,1,2,2,3,3,4,4,5,5,6,6,7,7,8,8,11,11,12,12,13,13,14,14,15,15,16,16,17,17,18,18,19,19,20,20,21,21,22,22,23,23,24,24,25,25,29,29,30,30,31,31,32,32,33,33,34,34,35,35,36,36,37,37,38,38,39,39,40,40,42,42,43,43,44,44,45,45,46,46,47,47],"right_children":[2,4,6,8,10,12,14,16,18,-1,-1,20,22,24,26,28,30,32,34,36,38,40,42,44,46,48,-1,-1,-1,50,52,54,56,58,60,62,64,66,68,70,72,-1,74,76,78,80,82,84,-1,-1,-1,-1,-1,-1,-1,-1,-1,-1,-1,-1,-1,-1,-1,-1,-1,-1,-1,-1,-1,-1,-1,-1,-1,-1,-1,-1,-1,-1,-1,-1,-1,-1,-1,-1,-1],"split_conditions":[-3.9513633E-2,2.1347385E-2,6.71833E-2,3.914844E-2,-2.659971E-2,7.066209E-3,-4.3963335E-2,-2.7749935E-2,4.910403E-3,4.6905598E-1,2.9313123E-2,-1.1615263E-2,5.1784955E-2,1.1049962E-1,1.121319E-1,-7.070586E-2,-1.50430575E-2,2.013299E-3,-7.65277E-2,-1.4328011E-2,-5.6253737E-3,3.982477E-2,-3.9303806E-2,5.789989E-4,6.1864895E-3,4.2625442E-2,3.484691E-1,-1.0224479E-1,4.752774E-1,-1.2313313E-3,-1.8005615E-2,-6.982917E-2,-1.5131562E-2,-2.0307027E-2,5.2992813E-3,1.1735066E-2,-9.2735775E-3,2.9300481E-2,6.412486E-2,-3.1149017E-2,1.244993E-3,-1.2041917E-1,5.087998E-3,1.934246E-2,-5.2652974E-2,-2.6214353E-3,-1.5028008E-2,-3.7063356E-2,-1.6662276E-1,2.5316906E-1,-1.5283549E-1,9.674238E-2,-1.6780896E-1,3.3751753E-1,-4.535743E-3,-1.2664688E-1,3.5534954E-1,-2.2039361E-2,-1.5409316E-1,1.6602078E-1,-4.263096E-2,3.685091E-1,-1.1275226E-1,1.4389091E-2,-9.987431E-2,4.1085184E-2,4.966282E-1,7.2257495E-3,4.447354E-2,1.2521808E-1,-1.3801609E-2,1.9886252E-1,-1.4925863E-1,1.0606171E-1,6.1763364E-1,1.5782972E-1,-8.992991E-3,3.587498E-1,2.8441157E-2,3.91342E-1,-6.147706E-2,1.0365771E-1,-1.3301772E-1,-6.6086315E-2,3.2987654E-1],"split_indices":[99,23,115,8,114,62,84,85,72,0,0,16,113,59,67,36,75,119,10,47,89,62,97,23,118,38,0,0,0,9,46,20,107,2,0,102,26,102,59,91,4,0,108,118,111,113,121,3,0,0,0,0,0,0,0,0,0,0,0,0,0,0,0,0,0,0,0,0,0,0,0,0,0,0,0,0,0,0,0,0,0,0,0,0,0],"split_type":[0,0,0,0,0,0,0,0,0,0,0,0,0,0,0,0,0,0,0,0,0,0,0,0,0,0,0,0,0,0,0,0,0,0,0,0,0,0,0,0,0,0,0,0,0,0,0,0,0,0,0,0,0,0,0,0,0,0,0,0,0,0,0,0,0,0,0,0,0,0,0,0,0,0,0,0,0,0,0,0,0,0,0,0,0],"sum_hessian":[8.20418E3,1.6544386E3,6.549741E3,1.6515634E3,2.875208E0,6.414838E3,1.3490343E2,5.651274E1,1.5950507E3,1.5667472E0,1.3084607E0,5.2180156E3,1.1968224E3,1.1336818E2,2.1535242E1,2.4445813E0,5.406816E1,1.14675224E2,1.4803755E3,1.5666772E2,5.0613477E3,1.1865153E3,1.0307109E1,8.559347E1,2.7774714E1,2.0520529E1,1.0147135E0,1.3383785E0,1.1062026E0,8.971463E0,4.50967E1,1.01732704E2,1.2942524E1,1.4124536E3,6.792179E1,1.1454474E1,1.4521326E2,8.252552E2,4.2360923E3,1.1625128E3,2.4002447E1,1.9868705E0,8.320238E0,6.0612003E1,2.4981462E1,5.5164895E0,2.2258224E1,6.602426E0,1.3918102E1,2.8933003E0,6.0781627E0,1.7817585E0,4.3314938E1,3.9733996E0,9.77593E1,2.4279208E0,1.0514604E1,1.3944519E3,1.80017E1,2.8201748E1,3.9720043E1,5.3391886E0,6.1152854E0,5.8453335E1,8.675992E1,8.2244464E2,2.8105857E0,3.5077473E3,7.2834515E2,2.0187258E1,1.1423256E3,1.9235012E1,4.7674336E0,3.8316696E0,4.488569E0,3.841157E1,2.2200432E1,2.0813364E1,4.168098E0,2.4675899E0,3.0488997E0,5.9812226E0,1.6277002E1,5.4850397E0,1.1173863E0],"tree_param":{"num_deleted":"0","num_feature":"128","num_nodes":"85","size_leaf_vector":"1"}},{"base_weights":[1.573606E-1,1.988062E-1,-1.1247496E-1,2.8033686E-1,1.2297936E-1,-4.9922507E-2,-2.8275612E-1,3.3162165E-1,2.1421568E-1,1.5191862E-1,4.02864E-2,2.82954E-1,-6.910496E-2,-3.4690413E-1,-3.0401917E-2,2.847199E-1,4.2745858E-1,2.4495897E-1,-3.1848032E-2,-7.024427E-2,1.6187996E-1,2.0897666E-1,2.1018768E-3,5.9395146E-1,-2.3056051E-1,3.168583E-1,-8.235605E-2,-4.161756E-1,-1.711131E-1,-1.13664046E-1,1.0459908E0,2.3462123E-1,3.7818086E-1,4.20155E-1,5.484186E-1,3.0204296E-1,1.4673246E-1,-1.1533409E-1,3.428858E-1,-1.6862412E-1,4.140893E-3,4.2215005E-1,1.5325882E-1,9.8991185E-2,5.800874E-1,-8.630437E-3,6.596032E-1,9.3493485E-1,-7.3014334E-2,-3.2596824E-1,1.9756708E-1,-3.5445574E-1,5.2357274E-1,-2.2563376E-1,-4.3543156E-2,1.9989966E-1,-4.2664275E-1,-2.5808036E-1,4.174189E-1,3.4570962E-1,-1.563308E-1,-9.7139336E-2,4.9239984E-1,8.484393E-2,3.1349756E-2,1.2517025E-1,2.0760879E-2,1.3520218E-1,1.4529511E-2,3.37046E-1,8.698058E-2,2.7321464E-1,3.522358E-2,-5.724012E-2,8.8481806E-2,2.200789E-1,-6.397622E-2,2.6187906E-1,-1.3595183E-2,1.646817E-1,-1.18431345E-1,7.169638E-2,3.8446352E-2,7.5950506E-3,2.0547283E-1,5.2104276E-2,3.3771396E-1,-3.9579514E-3,3.3347946E-1,7.9320624E-2,4.274346E-1,5.2343464E-1,1.2658232E-1,2.3153332E-1,-9.335158E-2,-1.2952045E-1,1.562372E-1,-1.4596675E-1,6.210261E-2,-2.167979E-2,3.0323622E-1,-9.1990486E-2,1.5013454E-2,-2.2354262E-2,1.440058E-1,-1.3684666E-1,-2.8280526E-2,3.744571E-3,-1.4523284E-1,3.4369946E-1,-5.0066855E-2,-1.086476E-1,6.0619414E-2],"categories":[],"categories_nodes":[],"categories_segments":[],"categories_sizes":[],"default_left":[0,0,0,0,0,0,0,0,0,0,0,0,0,0,0,0,0,0,0,0,0,0,0,0,0,0,0,0,0,0,0,0,0,0,0,0,0,0,0,0,0,0,0,0,0,0,0,0,0,0,0,0,0,0,0,0,0,0,0,0,0,0,0,0,0,0,0,0,0,0,0,0,0,0,0,0,0,0,0,0,0,0,0,0,0,0,0,0,0,0,0,0,0,0,0,0,0,0,0,0,0,0,0,0,0,0,0,0,0,0,0,0,0],"id":7,"left_children":[1,3,5,7,9,11,13,15,17,19,21,23,25,27,29,31,33,35,37,39,41,43,45,47,49,51,53,55,57,59,61,63,65,67,-1,69,71,73,75,-1,77,79,81,83,85,87,89,91,93,95,-1,97,99,101,103,-1,105,107,109,-1,111,-1,-1,-1,-1,-1,-1,-1,-1,-1,-1,-1,-1,-1,-1,-1,-1,-1,-1,-1,-1,-1,-1,-1,-1,-1,-1,-1,-1,-1,-1,-1,-1,-1,-1,-1,-1,-1,-1,-1,-1,-1,-1,-1,-1,-1,-1,-1,-1,-1,-1,-1,-1],"loss_changes":[9.568471E1,4.5808685E1,1.21237755E1,1.2043304E1,9.192474E0,5.348888E0,4.941908E0,8.913757E0,1.1834213E1,6.311928E0,6.426936E0,7.430751E0,4.066202E0,2.8979912E0,5.7742643E0,6.2446823E0,5.9681168E0,7.7486725E0,5.4992967E0,4.4976974E0,6.0500336E0,7.459687E0,5.754365E0,6.6008635E0,1.7371032E0,3.852836E0,4.2416635E0,2.2582188E0,3.722359E0,3.39274E0,4.306112E0,5.5090637E0,5.647293E0,7.4246674E0,0E0,8.407219E0,1.1379388E1,4.4983153E0,7.1201315E0,0E0,4.668334E0,9.207453E0,5.649685E0,6.1672025E0,9.0950775E0,4.1168213E0,3.5838037E0,7.190302E0,2.381826E0,1.736315E0,0E0,6.064065E-1,6.0558124E0,3.6488981E0,9.810288E0,0E0,1.6554871E0,3.8066654E0,4.222688E0,0E0,4.382314E0,0E0,0E0,0E0,0E0,0E0,0E0,0E0,0E0,0E0,0E0,0E0,0E0,0E0,0E0,0E0,0E0,0E0,0E0,0E0,0E0,0E0,0E0,0E0,0E0,0E0,0E0,0E0,0E0,0E0,0E0,0E0,0E0,0E0,0E0,0E0,0E0,0E0,0E0,0E0,0E0,0E0,0E0,0E0,0E0,0E0,0E0,0E0,0E0,0E0,0E0,0E0,0E0],"parents":[2147483647,0,0,1,1,2,2,3,3,4,4,5,5,6,6,7,7,8,8,9,9,10,10,11,11,12,12,13,13,14,14,15,15,16,16,17,17,18,18,19,19,20,20,21,21,22,22,23,23,24,24,25,25,26,26,27,27,28,28,29,29,30,30,31,31,32,32,33,33,35,35,36,36,37,37,38,38,40,40,41,41,42,42,43,43,44,44,45,45,46,46,47,47,48,48,49,49,51,51,52,52,53,53,54,54,56,56,57,57,58,58,60,60],"right_children":[2,4,6,8,10,12,14,16,18,20,22,24,26,28,30,32,34,36,38,40,42,44,46,48,50,52,54,56,58,60,62,64,66,68,-1,70,72,74,76,-1,78,80,82,84,86,88,90,92,94,96,-1,98,100,102,104,-1,106,108,110,-1,112,-1,-1,-1,-1,-1,-1,-1,-1,-1,-1,-1,-1,-1,-1,-1,-1,-1,-1,-1,-1,-1,-1,-1,-1,-1,-1,-1,-1,-1,-1,-1,-1,-1,-1,-1,-1,-1,-1,-1,-1,-1,-1,-1,-1,-1,-1,-1,-1,-1,-1,-1,-1],"split_conditions":[3.2742802E-2,-1.3339649E-2,8.268402E-2,-1.3403402E-2,9.576852E-3,-3.5932213E-2,-1.7762156E-2,4.03397E-2,2.5658676E-2,-1.34893E-2,-1.2497663E-2,-1.7527284E-2,1.4979425E-2,1.8291347E-2,9.853902E-3,-2.0136876E-2,1.720541E-2,2.9115574E-2,-1.1486699E-2,-1.1907655E-2,-1.592167E-2,-1.4713158E-2,3.7190866E-2,3.1118575E-2,2.8547835E-2,3.820593E-2,-3.1962138E-2,-6.5509215E-2,-2.9644012E-3,-1.665551E-2,-2.3986919E-2,3.0083112E-2,7.6994044E-3,-1.7731857E-2,5.484186E-1,-3.6148876E-2,-2.393175E-2,2.6250431E-2,-3.921253E-3,-1.6862412E-1,-3.3536952E-2,4.51556E-2,-6.820619E-3,2.6764094E-3,3.0350573E-2,4.895814E-2,-1.1445572E-2,2.781361E-2,-2.3105E-2,4.1023735E-2,1.9756708E-1,1.1803616E-1,-2.105173E-2,-2.4259705E-2,2.8400855E-2,1.9989966E-1,1.03642225E-1,-1.7118158E-2,1.5880996E-2,3.4570962E-1,2.914021E-2,-9.7139336E-2,4.9239984E-1,8.484393E-2,3.1349756E-2,1.2517025E-1,2.0760879E-2,1.3520218E-1,1.4529511E-2,3.37046E-1,8.698058E-2,2.7321464E-1,3.522358E-2,-5.724012E-2,8.8481806E-2,2.200789E-1,-6.397622E-2,2.6187906E-1,-1.3595183E-2,1.646817E-1,-1.18431345E-1,7.169638E-2,3.8446352E-2,7.5950506E-3,2.0547283E-1,5.2104276E-2,3.3771396E-1,-3.9579514E-3,3.3347946E-1,7.9320624E-2,4.274346E-1,5.2343464E-1,1.2658232E-1,2.3153332E-1,-9.335158E-2,-1.2952045E-1,1.562372E-1,-1.4596675E-1,6.210261E-2,-2.167979E-2,3.0323622E-1,-9.1990486E-2,1.5013454E-2,-2.2354262E-2,1.440058E-1,-1.3684666E-1,-2.8280526E-2,3.744571E-3,-1.4523284E-1,3.4369946E-1,-5.0066855E-2,-1.086476E-1,6.0619414E-2],"split_indices":[54,24,117,25,91,119,111,42,113,108,9,95,94,90,53,24,77,4,51,92,63,9,80,108,51,10,106,31,98,59,78,107,48,63,0,22,58,18,119,0,106,15,115,44,112,4,27,76,29,115,0,104,74,102,30,0,25,74,11,0,100,0,0,0,0,0,0,0,0,0,0,0,0,0,0,0,0,0,0,0,0,0,0,0,0,0,0,0,0,0,0,0,0,0,0,0,0,0,0,0,0,0,0,0,0,0,0,0,0,0,0,0,0],"split_type":[0,0,0,0,0,0,0,0,0,0,0,0,0,0,0,0,0,0,0,0,0,0,0,0,0,0,0,0,0,0,0,0,0,0,0,0,0,0,0,0,0,0,0,0,0,0,0,0,0,0,0,0,0,0,0,0,0,0,0,0,0,0,0,0,0,0,0,0,0,0,0,0,0,0,0,0,0,0,0,0,0,0,0,0,0,0,0,0,0,0,0,0,0,0,0,0,0,0,0,0,0,0,0,0,0,0,0,0,0,0,0,0,0],"sum_hessian":[8.552883E3,7.4143354E3,1.1385471E3,3.5714924E3,3.8428433E3,8.3361383E2,3.049333E2,2.0091467E3,1.5623457E3,2.846014E3,9.9682935E2,4.4671455E1,7.889423E2,2.428313E2,6.2101974E1,1.3516382E3,6.575085E2,1.3888293E3,1.7351627E2,1.21873634E2,2.7241404E3,1.8316713E2,8.1366223E2,2.7724285E1,1.6947172E1,2.5426783E1,7.6351556E2,1.7320961E2,6.96217E1,5.8473297E1,3.6286778E0,8.8223596E2,4.6940225E2,6.5539087E2,2.11763E0,8.770562E2,5.117732E2,1.424683E2,3.1047953E1,1.5149368E1,1.06724266E2,8.580292E1,2.6383374E3,1.4226965E2,4.0897472E1,8.0156525E2,1.2096977E1,1.8079464E1,9.644821E0,1.5876867E1,1.0703046E0,5.817969E0,1.9608814E1,1.6171855E2,6.01797E2,1.0587136E0,1.721509E2,6.1147434E1,8.474259E0,1.0584325E0,5.7414864E1,1.2374995E0,2.3911784E0,6.4294275E2,2.392932E2,4.1641858E2,5.298366E1,6.0546875E2,4.9922104E1,1.1406302E1,8.656499E2,1.7804111E1,4.9396906E2,1.2078574E2,2.1682566E1,1.8048836E1,1.2999117E1,4.8515406E0,1.0187273E2,7.455913E1,1.1243789E1,5.95667E2,2.0426704E3,1.27305275E2,1.4964373E1,2.419458E1,1.6702892E1,7.9929785E2,2.2673483E0,8.864279E0,3.2326987E0,6.0799937E0,1.1999471E1,1.6283005E0,8.016521E0,1.454964E1,1.3272272E0,4.817852E0,1.0001168E0,9.204208E0,1.0404605E1,1.2490584E2,3.6812714E1,5.6899603E2,3.2800964E1,1.5776953E2,1.4381362E1,2.8261963E1,3.2885475E1,3.3447945E0,5.129465E0,3.6463333E1,2.0951529E1],"tree_param":{"num_deleted":"0","num_feature":"128","num_nodes":"113","size_leaf_vector":"1"}},{"base_weights":[-4.8175794E-1,-4.8619628E-1,-3.4591267E-1,-4.8904902E-1,-4.0144914E-1,2.8951418E-1,-3.7538785E-1,-4.8942405E-1,6.4908646E-2,-3.4375757E-1,-5.3047305E-1,1.1332389E0,-2.4557391E-1,-4.0277794E-1,-1.6136229E-2,1.5407614E-1,-4.8968118E-1,2.9181457E-1,-1.3325115E-1,2.0976172E-1,-3.5456002E-1,-5.4344094E-1,-1.0812453E-2,5.629037E-1,-1.0103356E-1,-1.4563406E-1,1.2511174E-1,-1.3331509E-1,-4.2788133E-1,2.8925085E-1,-1.6190763E-1,1.9192444E-1,-1.0329581E-1,-4.859466E-1,-5.299368E-1,4.216652E-2,-3.836794E-1,-5.5723214E-1,-9.2547975E-2,-1.5901703E-1,3.3487925E-1,1.0099403E-1,-4.3708915E-1,2.5510538E-1,-4.2338467E-1,-1.4591196E-1,4.5943156E-2,-1.5948537E-1,4.1554242E-2,-5.1640127E-2,3.544791E-1,-1.184736E-1,1.2877928E-1,-1.7158872E-1,-2.874093E-2,6.1675772E-2,-9.5989324E-2,3.8382754E-1,-6.1752528E-2,3.826314E-2,-1.3507614E-1,-8.317591E-2,3.7416464E-1,6.1974145E-2,-1.5541859E-1],"categories":[],"categories_nodes":[],"categories_segments":[],"categories_sizes":[],"default_left":[0,0,0,0,0,0,0,0,0,0,0,0,0,0,0,0,0,0,0,0,0,0,0,0,0,0,0,0,0,0,0,0,0,0,0,0,0,0,0,0,0,0,0,0,0,0,0,0,0,0,0,0,0,0,0,0,0,0,0,0,0,0,0,0,0],"id":8,"left_children":[1,3,5,7,9,11,13,15,17,19,21,23,25,27,29,31,33,-1,-1,-1,35,37,-1,-1,-1,-1,-1,39,41,-1,43,-1,-1,45,47,49,51,53,55,-1,57,-1,59,61,63,-1,-1,-1,-1,-1,-1,-1,-1,-1,-1,-1,-1,-1,-1,-1,-1,-1,-1,-1,-1],"loss_changes":[4.1672363E0,1.4865723E0,4.434437E0,1.4298096E0,1.5464821E0,5.1555514E0,2.1696815E0,1.1882324E0,2.9440832E0,2.0881443E0,4.2873383E-1,5.406237E0,1.3838028E0,1.3327065E0,2.543807E0,1.0546161E0,7.5305176E-1,0E0,0E0,0E0,1.8914299E0,3.716793E-1,0E0,0E0,0E0,0E0,0E0,3.699614E0,1.466999E0,0E0,1.7874401E0,0E0,0E0,1.7548828E0,7.0254517E-1,3.13375E0,1.5513325E0,3.927498E-1,2.8404522E-1,0E0,5.0184584E0,0E0,1.4377136E0,3.8103404E0,6.9405544E-1,0E0,0E0,0E0,0E0,0E0,0E0,0E0,0E0,0E0,0E0,0E0,0E0,0E0,0E0,0E0,0E0,0E0,0E0,0E0,0E0],"parents":[2147483647,0,0,1,1,2,2,3,3,4,4,5,5,6,6,7,7,8,8,9,9,10,10,11,11,12,12,13,13,14,14,15,15,16,16,20,20,21,21,27,27,28,28,30,30,33,33,34,34,35,35,36,36,37,37,38,38,40,40,42,42,43,43,44,44],"right_children":[2,4,6,8,10,12,14,16,18,20,22,24,26,28,30,32,34,-1,-1,-1,36,38,-1,-1,-1,-1,-1,40,42,-1,44,-1,-1,46,48,50,52,54,56,-1,58,-1,60,62,64,-1,-1,-1,-1,-1,-1,-1,-1,-1,-1,-1,-1,-1,-1,-1,-1,-1,-1,-1,-1],"split_conditions":[1.1145928E-1,4.9669355E-2,-1.0720915E-3,9.576404E-2,3.772905E-3,-1.1974905E-1,4.4078883E-2,-4.6818063E-2,5.367094E-2,-3.1416684E-2,6.6446825E-3,-2.9580256E-2,5.3840335E-2,-3.4284987E-2,4.565955E-2,9.722578E-3,4.723228E-2,2.9181457E-1,-1.3325115E-1,2.0976172E-1,-3.6849003E-2,3.0309975E-2,-1.0812453E-2,5.629037E-1,-1.0103356E-1,-1.4563406E-1,1.2511174E-1,3.4164146E-2,-3.8935862E-2,2.8925085E-1,-6.391488E-2,1.9192444E-1,-1.0329581E-1,4.6014093E-2,2.0076375E-2,-3.7522145E-2,1.13802785E-2,6.067695E-3,-2.0861002E-2,-1.5901703E-1,-2.7791625E-3,1.0099403E-1,-8.5207835E-2,-4.64561E-2,-3.726853E-2,-1.4591196E-1,4.5943156E-2,-1.5948537E-1,4.1554242E-2,-5.1640127E-2,3.544791E-1,-1.184736E-1,1.2877928E-1,-1.7158872E-1,-2.874093E-2,6.1675772E-2,-9.5989324E-2,3.8382754E-1,-6.1752528E-2,3.826314E-2,-1.3507614E-1,-8.317591E-2,3.7416464E-1,6.1974145E-2,-1.5541859E-1],"split_indices":[36,40,24,108,4,19,6,91,56,22,84,32,46,23,6,24,89,0,0,0,82,111,0,0,0,0,0,24,82,0,98,0,0,27,74,82,124,74,18,0,63,0,31,28,63,0,0,0,0,0,0,0,0,0,0,0,0,0,0,0,0,0,0,0,0],"split_type":[0,0,0,0,0,0,0,0,0,0,0,0,0,0,0,0,0,0,0,0,0,0,0,0,0,0,0,0,0,0,0,0,0,0,0,0,0,0,0,0,0,0,0,0,0,0,0,0,0,0,0,0,0,0,0,0,0,0,0,0,0,0,0,0,0],"sum_hessian":[7.1895244E3,6.959563E3,2.2996165E2,6.728304E3,2.3125854E2,9.803131E0,2.2015852E2,6.7238687E3,4.4355884E0,1.623361E2,6.892245E1,3.370572E0,6.432559E0,2.044497E2,1.5708829E1,2.4468722E0,6.721422E3,1.2664602E0,3.169128E0,1.0108724E0,1.6132523E2,6.706437E1,1.8580774E0,2.0552266E0,1.3153455E0,4.91915E0,1.5134089E0,1.7961332E1,1.8648837E2,1.3067489E0,1.4402081E1,1.0956135E0,1.3512588E0,6.162762E3,5.5865985E2,1.1000794E1,1.5032443E2,6.4845146E1,2.2192225E0,9.65104E0,8.310292E0,1.7961086E0,1.8469226E2,5.559676E0,8.842404E0,6.15889E3,3.8718576E0,5.574626E2,1.1972594E0,9.973872E0,1.0269222E0,1.487829E2,1.541536E0,6.260699E1,2.238153E0,1.0018418E0,1.2173809E0,2.5280612E0,5.782231E0,4.010101E0,1.8068216E2,4.087108E0,1.4725678E0,1.0008678E0,7.841536E0],"tree_param":{"num_deleted":"0","num_feature":"128","num_nodes":"65","size_leaf_vector":"1"}},{"base_weights":[-1.388172E-1,-1.2812608E-1,-3.509354E-1,-1.2060812E-1,-2.0517881E-1,-3.6953357E-1,1.4408371E-1,6.629704E-1,-1.21655E-1,-2.9507893E-1,-1.1108465E-1,-4.6178317E-1,-3.017334E-1,-1.8064852E-1,9.6371394E-1,-1.3560896E-1,1.3263191E0,-1.1541315E-1,-2.2251958E-1,-3.5212466E-1,-7.359206E-2,2.7415156E-1,-1.6621855E-1,-4.7906768E-1,2.0553756E-1,-3.1351554E-1,2.0564145E-1,4.4967943E-1,-1.5313387E-1,5.4473484E-1,-1.05345756E-1,-1.095341E-1,6.048676E-1,-1.2853958E-1,-6.9816664E-2,-3.5307834E-1,-1.01084635E-1,2.764079E-1,-3.66099E-1,5.849804E-1,-2.4602602E-1,6.8819426E-2,1.1272173E0,-2.0883071E-1,3.66374E-1,-5.2294874E-1,-2.4204668E-1,-1.262103E-1,3.6049092E-1,-1.6242051E-1,-3.8967207E-1,3.3662248E-1,-1.10484585E-1,-4.160646E-2,-5.7801874E-3,2.0969863E-1,-2.2118598E-2,-1.13822155E-1,1.6813003E-1,-4.661072E-2,6.6089526E-2,2.992965E-1,-1.3230258E-1,-7.222166E-3,-1.1638426E-1,3.6476028E-1,9.119895E-3,-1.204368E-1,3.5537336E-2,-3.2906197E-2,2.3245502E-1,-2.4386792E-2,4.747847E-1,1.0998919E-1,-6.9110356E-2,-4.4949655E-3,3.2225847E-1,5.2633945E-2,-1.5913408E-1,3.522549E-2,-1.6304798E-1,3.449867E-2,-9.90605E-2,-6.5727286E-2,-1.3398676E-1],"categories":[],"categories_nodes":[],"categories_segments":[],"categories_sizes":[],"default_left":[0,0,0,0,0,0,0,0,0,0,0,0,0,0,0,0,0,0,0,0,0,0,0,0,0,0,0,0,0,0,0,0,0,0,0,0,0,0,0,0,0,0,0,0,0,0,0,0,0,0,0,0,0,0,0,0,0,0,0,0,0,0,0,0,0,0,0,0,0,0,0,0,0,0,0,0,0,0,0,0,0,0,0,0,0],"id":9,"left_children":[1,3,5,7,9,11,13,15,17,19,21,23,25,27,29,-1,31,33,35,37,39,41,43,45,47,49,-1,51,-1,-1,-1,-1,-1,53,55,57,59,61,63,65,67,69,71,73,75,77,79,-1,-1,81,83,-1,-1,-1,-1,-1,-1,-1,-1,-1,-1,-1,-1,-1,-1,-1,-1,-1,-1,-1,-1,-1,-1,-1,-1,-1,-1,-1,-1,-1,-1,-1,-1,-1,-1],"loss_changes":[1.7720291E1,4.296364E0,3.5085602E0,5.6577835E0,5.56448E0,2.1248398E0,3.9827604E0,7.4235954E0,4.2495193E0,4.241905E0,6.946428E0,1.8455353E0,2.6753902E0,2.5351832E0,5.3638086E0,0E0,7.7831554E0,3.8196716E0,6.2213345E0,2.4580803E0,8.143616E0,7.1137495E0,6.5411673E0,1.4121399E0,3.3275347E0,2.3500366E0,0E0,2.8009865E0,0E0,0E0,0E0,0E0,0E0,5.504196E0,4.3586845E0,4.777214E0,3.625915E0,3.7546794E0,1.9554749E0,5.180874E0,3.2501438E0,4.3896503E0,4.4763336E0,3.361189E0,5.81027E0,7.4225616E-1,2.7698326E0,0E0,0E0,3.389185E0,1.2498665E0,0E0,0E0,0E0,0E0,0E0,0E0,0E0,0E0,0E0,0E0,0E0,0E0,0E0,0E0,0E0,0E0,0E0,0E0,0E0,0E0,0E0,0E0,0E0,0E0,0E0,0E0,0E0,0E0,0E0,0E0,0E0,0E0,0E0,0E0],"parents":[2147483647,0,0,1,1,2,2,3,3,4,4,5,5,6,6,7,7,8,8,9,9,10,10,11,11,12,12,13,13,14,14,16,16,17,17,18,18,19,19,20,20,21,21,22,22,23,23,24,24,25,25,27,27,33,33,34,34,35,35,36,36,37,37,38,38,39,39,40,40,41,41,42,42,43,43,44,44,45,45,46,46,49,49,50,50],"right_children":[2,4,6,8,10,12,14,16,18,20,22,24,26,28,30,-1,32,34,36,38,40,42,44,46,48,50,-1,52,-1,-1,-1,-1,-1,54,56,58,60,62,64,66,68,70,72,74,76,78,80,-1,-1,82,84,-1,-1,-1,-1,-1,-1,-1,-1,-1,-1,-1,-1,-1,-1,-1,-1,-1,-1,-1,-1,-1,-1,-1,-1,-1,-1,-1,-1,-1,-1,-1,-1,-1,-1],"split_conditions":[8.355287E-2,5.7697974E-2,9.67051E-3,-1.0581566E-1,1.1311031E-2,-4.1211214E-2,-3.043998E-3,5.1243408E-3,6.9533505E-2,1.980446E-2,-1.2347531E-2,-2.0484235E-2,3.1359646E-2,-3.7208643E-2,-5.3448275E-2,-1.3560896E-1,-3.4103163E-2,-1.6697658E-3,6.0905203E-2,-7.067363E-2,2.2968346E-2,-2.2803957E-2,6.753605E-2,1.7708736E-2,-6.996973E-3,-4.795135E-3,2.0564145E-1,3.4541514E-2,-1.5313387E-1,5.4473484E-1,-1.05345756E-1,-1.095341E-1,6.048676E-1,5.7529222E-2,-5.092232E-2,3.0913383E-2,-5.398772E-2,6.560417E-2,-5.3932454E-2,-2.3238998E-2,-3.856778E-2,-2.6866768E-2,-4.837532E-2,-2.4598194E-2,1.6725361E-2,7.521848E-3,-6.316394E-2,-1.262103E-1,3.6049092E-1,5.4826927E-3,-3.234248E-2,3.3662248E-1,-1.10484585E-1,-4.160646E-2,-5.7801874E-3,2.0969863E-1,-2.2118598E-2,-1.13822155E-1,1.6813003E-1,-4.661072E-2,6.6089526E-2,2.992965E-1,-1.3230258E-1,-7.222166E-3,-1.1638426E-1,3.6476028E-1,9.119895E-3,-1.204368E-1,3.5537336E-2,-3.2906197E-2,2.3245502E-1,-2.4386792E-2,4.747847E-1,1.0998919E-1,-6.9110356E-2,-4.4949655E-3,3.2225847E-1,5.2633945E-2,-1.5913408E-1,3.522549E-2,-1.6304798E-1,3.449867E-2,-9.90605E-2,-6.5727286E-2,-1.3398676E-1],"split_indices":[36,70,42,28,18,64,0,0,59,91,44,30,113,75,43,0,51,82,94,44,91,62,36,106,83,23,0,55,0,0,0,0,0,100,41,105,37,21,102,52,97,102,84,125,107,67,42,0,0,47,112,0,0,0,0,0,0,0,0,0,0,0,0,0,0,0,0,0,0,0,0,0,0,0,0,0,0,0,0,0,0,0,0,0,0],"split_type":[0,0,0,0,0,0,0,0,0,0,0,0,0,0,0,0,0,0,0,0,0,0,0,0,0,0,0,0,0,0,0,0,0,0,0,0,0,0,0,0,0,0,0,0,0,0,0,0,0,0,0,0,0,0,0,0,0,0,0,0,0,0,0,0,0,0,0,0,0,0,0,0,0,0,0,0,0,0,0,0,0,0,0,0,0],"sum_hessian":[7.832768E3,7.4584536E3,3.7431476E2,6.7977666E3,6.606867E2,3.6100507E2,1.3309671E1,8.226265E0,6.7895405E3,3.3678098E2,3.239057E2,1.5046709E2,2.10538E2,1.00912E1,3.218471E0,3.187339E0,5.038926E0,6.395885E3,3.9365558E2,2.673365E2,6.9444496E1,4.0055325E1,2.8385037E2,1.4694316E2,3.5239272E0,2.0872926E2,1.8087351E0,3.341409E0,6.749791E0,1.7217603E0,1.4967107E0,1.5962358E0,3.4426904E0,4.9647905E3,1.4310946E3,1.887821E2,2.0487347E2,5.4060373E0,2.6193045E2,1.3913303E1,5.5531197E1,3.31555E1,6.8998246E0,2.633851E2,2.0465265E1,1.2297057E2,2.3972588E1,2.518328E0,1.0055994E0,7.099915E1,1.377301E2,1.6298312E0,1.7115778E0,4.542627E3,4.2216364E2,6.345534E0,1.424749E3,1.8406183E2,4.7202783E0,1.7571092E2,2.9162556E1,2.501031E0,2.9050066E0,1.5853619E1,2.4607683E2,5.951037E0,7.962266E0,3.885885E1,1.6672348E1,2.713864E1,6.01686E0,2.1132684E0,4.7865562E0,8.923746E0,2.5446136E2,1.3935811E1,6.529454E0,1.0682935E0,1.21902275E2,1.1212519E1,1.2760069E1,2.6875965E1,4.412319E1,3.5686623E1,1.0204348E2],"tree_param":{"num_deleted":"0","num_feature":"128","num_nodes":"85","size_leaf_vector":"1"}},{"base_weights":[1.09744616E-1,1.1564313E-1,-2.185023E-1,1.0035627E-1,1.810983E-1,-3.456378E-1,-8.241913E-2,1.4894852E-1,7.5660914E-2,1.7266358E-1,8.6959296E-1,4.452561E-1,-3.9941388E-1,3.0845228E-1,-1.7890611E-1,1.5661664E-1,-1.8495542E-1,-1.9253245E-1,8.096575E-2,-2.3777978E-1,1.8259008E-1,-9.40261E-2,1.3373102E0,-1.2613867E-1,3.8614574E-1,-4.3429306E-1,3.190763E-1,1.1717894E0,-3.4224834E-2,-2.4602291E-1,4.235504E-1,1.5418842E-1,1.3215102E0,8.905972E-1,-2.805787E-1,1.3814764E-1,-3.3195162E-1,1.6663656E-1,6.318876E-2,-4.0820658E-1,2.8983375E-1,6.410484E-1,1.7419186E-1,-1.4526545E-1,1.7398876E-1,-1.15328446E-1,1.6459168E0,-4.679504E-1,-3.7476286E-2,-1.116118E-1,3.123266E-1,4.6520308E-1,3.3991873E-2,2.1077886E-1,-2.35937E-1,2.9038557E-1,-3.3989874E-1,-2.3883586E-1,3.9170042E-1,5.558457E-2,2.1647437E-2,4.3344717E-2,5.04776E-1,-1.05235964E-1,4.74732E-1,-1.3397002E-1,4.7735292E-2,-2.5548654E-2,2.3119499E-1,-1.1273644E-1,2.693461E-1,5.7011835E-2,-8.726623E-2,1.7329786E-2,1.3164052E-1,1.8420477E-1,-1.420496E-1,-1.3941796E-1,2.317714E-1,5.1352292E-2,4.096135E-1,5.7668258E-2,-1.5245038E-2,6.805989E-1,1.4723544E-1,-1.6431163E-1,-8.806585E-2,-1.3930105E-1,2.1191868E-1,-1.2460771E-1,1.7731723E-1,-1.3589464E-1,2.5369406E-1,5.2271746E-3,-1.3705152E-1,-1.2476477E-1,4.74982E-2],"categories":[],"categories_nodes":[],"categories_segments":[],"categories_sizes":[],"default_left":[0,0,0,0,0,0,0,0,0,0,0,0,0,0,0,0,0,0,0,0,0,0,0,0,0,0,0,0,0,0,0,0,0,0,0,0,0,0,0,0,0,0,0,0,0,0,0,0,0,0,0,0,0,0,0,0,0,0,0,0,0,0,0,0,0,0,0,0,0,0,0,0,0,0,0,0,0,0,0,0,0,0,0,0,0,0,0,0,0,0,0,0,0,0,0,0,0],"id":10,"left_children":[1,3,5,7,9,11,13,15,17,19,21,23,25,27,29,31,33,35,37,39,41,43,45,-1,-1,47,49,51,53,55,57,59,61,63,65,67,69,71,73,75,77,79,81,-1,-1,-1,83,85,87,-1,-1,-1,-1,-1,89,91,93,95,-1,-1,-1,-1,-1,-1,-1,-1,-1,-1,-1,-1,-1,-1,-1,-1,-1,-1,-1,-1,-1,-1,-1,-1,-1,-1,-1,-1,-1,-1,-1,-1,-1,-1,-1,-1,-1,-1,-1],"loss_changes":[1.6328201E1,8.259041E0,2.549086E0,8.038696E0,8.93782E0,3.4404564E0,2.8185987E0,5.8140297E0,6.346504E0,6.347286E0,8.550313E0,4.4453983E0,1.9517994E0,4.440406E0,2.50601E0,6.0453186E0,5.5137854E0,4.038695E0,6.636091E0,3.4426775E0,5.707073E0,2.132856E0,7.354086E0,0E0,0E0,9.0972996E-1,2.346527E0,1.5305786E0,1.8926594E0,2.8218305E0,4.005513E0,5.612709E0,1.653863E0,4.349803E0,3.5570104E0,3.793254E0,3.6374345E0,8.07901E0,7.3397837E0,2.1835237E0,3.8599372E0,8.891887E0,6.0380173E0,0E0,0E0,0E0,6.73934E0,7.281866E-1,2.3968418E0,0E0,0E0,0E0,0E0,0E0,1.7100909E0,3.9302394E0,1.950304E0,3.7916064E-1,0E0,0E0,0E0,0E0,0E0,0E0,0E0,0E0,0E0,0E0,0E0,0E0,0E0,0E0,0E0,0E0,0E0,0E0,0E0,0E0,0E0,0E0,0E0,0E0,0E0,0E0,0E0,0E0,0E0,0E0,0E0,0E0,0E0,0E0,0E0,0E0,0E0,0E0,0E0],"parents":[2147483647,0,0,1,1,2,2,3,3,4,4,5,5,6,6,7,7,8,8,9,9,10,10,11,11,12,12,13,13,14,14,15,15,16,16,17,17,18,18,19,19,20,20,21,21,22,22,25,25,26,26,27,27,28,28,29,29,30,30,31,31,32,32,33,33,34,34,35,35,36,36,37,37,38,38,39,39,40,40,41,41,42,42,46,46,47,47,48,48,54,54,55,55,56,56,57,57],"right_children":[2,4,6,8,10,12,14,16,18,20,22,24,26,28,30,32,34,36,38,40,42,44,46,-1,-1,48,50,52,54,56,58,60,62,64,66,68,70,72,74,76,78,80,82,-1,-1,-1,84,86,88,-1,-1,-1,-1,-1,90,92,94,96,-1,-1,-1,-1,-1,-1,-1,-1,-1,-1,-1,-1,-1,-1,-1,-1,-1,-1,-1,-1,-1,-1,-1,-1,-1,-1,-1,-1,-1,-1,-1,-1,-1,-1,-1,-1,-1,-1,-1],"split_conditions":[6.1208975E-2,6.4317754E-4,-1.4593412E-2,-9.37675E-3,3.569165E-2,-3.212158E-2,4.7948033E-2,2.721682E-2,-4.2721674E-2,-3.743017E-2,-6.7250885E-2,6.2326234E-2,7.0124194E-3,-5.619983E-3,-3.6050662E-2,7.339914E-2,6.443079E-2,8.153178E-3,-1.903112E-2,1.8433193E-2,-4.606272E-2,-3.3989318E-2,-2.5949081E-2,-1.2613867E-1,3.8614574E-1,-3.4324113E-2,2.9138174E-2,4.4693165E-2,-6.541526E-2,6.348786E-2,5.2537814E-2,-9.86298E-4,-7.1483897E-3,4.224356E-3,9.150303E-3,-4.5656133E-3,4.0568773E-2,5.922985E-2,5.1820684E-2,-5.0307624E-2,-1.4235847E-2,3.0171184E-2,1.5891183E-2,-1.4526545E-1,1.7398876E-1,-1.15328446E-1,3.2362234E-2,7.0728205E-2,-1.33494865E-2,-1.116118E-1,3.123266E-1,4.6520308E-1,3.3991873E-2,2.1077886E-1,6.288604E-5,5.368599E-2,-4.3062918E-2,-3.6750007E-2,3.9170042E-1,5.558457E-2,2.1647437E-2,4.3344717E-2,5.04776E-1,-1.05235964E-1,4.74732E-1,-1.3397002E-1,4.7735292E-2,-2.5548654E-2,2.3119499E-1,-1.1273644E-1,2.693461E-1,5.7011835E-2,-8.726623E-2,1.7329786E-2,1.3164052E-1,1.8420477E-1,-1.420496E-1,-1.3941796E-1,2.317714E-1,5.1352292E-2,4.096135E-1,5.7668258E-2,-1.5245038E-2,6.805989E-1,1.4723544E-1,-1.6431163E-1,-8.806585E-2,-1.3930105E-1,2.1191868E-1,-1.2460771E-1,1.7731723E-1,-1.3589464E-1,2.5369406E-1,5.2271746E-3,-1.3705152E-1,-1.2476477E-1,4.74982E-2],"split_indices":[115,114,11,48,91,119,67,98,88,32,111,127,106,5,97,1,19,74,30,123,76,116,86,0,0,28,23,67,92,99,24,2,112,52,39,53,80,9,50,110,16,90,112,0,0,0,103,82,74,0,0,0,0,0,45,99,74,73,0,0,0,0,0,0,0,0,0,0,0,0,0,0,0,0,0,0,0,0,0,0,0,0,0,0,0,0,0,0,0,0,0,0,0,0,0,0,0],"split_type":[0,0,0,0,0,0,0,0,0,0,0,0,0,0,0,0,0,0,0,0,0,0,0,0,0,0,0,0,0,0,0,0,0,0,0,0,0,0,0,0,0,0,0,0,0,0,0,0,0,0,0,0,0,0,0,0,0,0,0,0,0,0,0,0,0,0,0,0,0,0,0,0,0,0,0,0,0,0,0,0,0,0,0,0,0,0,0,0,0,0,0,0,0,0,0,0,0],"sum_hessian":[8.419202E3,8.271219E3,1.4798402E2,6.7072856E3,1.563933E3,7.571112E1,7.22729E1,2.2584248E3,4.448861E3,1.5462408E3,1.7692142E1,4.356693E0,7.135442E1,1.387363E1,5.8399277E1,2.2082434E3,5.0181446E1,8.560659E1,4.363254E3,3.5970474E1,1.5102704E3,6.042333E0,1.1649809E1,2.3947544E0,1.9619385E0,6.842812E1,2.9263015E0,3.2545743E0,1.0619056E1,5.307777E1,5.321507E0,2.20478E3,3.4634829E0,3.4183939E0,4.6763054E1,2.5391386E1,6.0215206E1,7.4836444E2,3.6148896E3,2.7359331E1,8.611143E0,2.5812902E1,1.4844574E3,4.005179E0,2.0371537E0,1.7333932E0,9.916415E0,6.2912712E1,5.5154133E0,1.7427998E0,1.1835017E0,2.05425E0,1.2003243E0,1.7485888E0,8.870467E0,7.593731E0,4.548404E1,3.4557874E0,1.8657197E0,1.5978562E3,6.0692377E2,1.1417567E0,2.321726E0,1.3997569E0,2.018637E0,3.393628E1,1.2826776E1,1.9405487E1,5.9859E0,5.8813175E1,1.4020329E0,7.1250366E2,3.5860752E1,3.5645808E3,5.0308914E1,1.1380293E0,2.6221302E1,3.3742344E0,5.236909E0,1.6406378E1,9.406525E0,1.3744348E3,1.1002258E2,5.816618E0,4.0997972E0,4.1701393E1,2.1211319E1,3.743209E0,1.7722045E0,7.6980677E0,1.172399E0,3.325649E0,4.268082E0,1.1424907E1,3.405913E1,2.3576608E0,1.0981265E0],"tree_param":{"num_deleted":"0","num_feature":"128","num_nodes":"97","size_leaf_vector":"1"}},{"base_weights":[2.3653278E-1,2.0530571E-1,5.79818E-1,2.7162132E-1,1.3073666E-1,7.4044544E-1,4.4256863E-1,2.5641003E-1,5.1254493E-1,1.1888827E-1,5.939922E-1,4.3017432E-1,8.2617563E-1,8.630878E-2,5.043061E-1,3.3907595E-1,2.200449E-1,9.880243E-1,4.030199E-1,1.0452509E-1,2.527567E-1,7.940206E-3,7.140248E-1,5.20845E-1,-4.1839373E-1,4.4864503E-1,9.010462E-1,6.6858494E-1,-1.6445869E-1,4.7884488E-1,1.435666E0,1.5255192E-1,3.9317623E-1,2.1771622E-1,1.4328512E0,1.1830465E0,-1.4672314E-1,7.85636E-1,2.1161832E-1,1.1768297E-1,-2.1178894E-2,-1.479312E-1,3.031229E-1,5.5069226E-1,-1.6276193E-1,3.2522264E-1,9.5278937E-1,1.0341324E-1,7.1499777E-1,5.4137602E-2,-1.6018882E-1,1.3668878E0,2.6591837E-1,9.249687E-1,-1.7347044E-1,-1.2897508E-1,8.480425E-1,-3.716894E-1,3.104072E-1,5.470666E-1,1.4112312E-1,-1.06093414E-1,1.8061603E0,3.519845E-2,1.8605849E-1,2.0302352E-1,1.09053105E-1,2.8580126E-1,6.42013E-2,5.3034115E-1,1.20636456E-1,4.2049176E-1,1.10720284E-1,1.2888938E-1,-1.4943591E-1,3.4755486E-1,1.6491307E-1,4.5100685E-2,3.0980256E-1,1.7158546E-1,3.403923E-2,-1.8034238E-2,1.5155768E-1,-1.1805079E-1,3.7340764E-2,1.406147E-1,4.330772E-2,3.5682946E-2,4.942869E-1,3.5895508E-2,2.998644E-1,5.869463E-2,3.31815E-1,3.0567813E-1,-3.7008826E-2,1.0352161E-1,3.4129864E-1,4.9123278E-1,9.6249536E-2,-1.3091269E-1,1.2919791E-1,3.964644E-1,2.5799382E-1,2.000374E-1,-1.5233766E-1,1.0542526E-1,3.8339362E-1,-1.551015E-1,5.5667065E-2,2.1937674E-1,-1.5166067E-1,1.8621776E-1,2.9457392E-2,1.7459416E-1,-4.0302422E-2,5.877915E-1,1.651403E-1],"categories":[],"categories_nodes":[],"categories_segments":[],"categories_sizes":[],"default_left":[0,0,0,0,0,0,0,0,0,0,0,0,0,0,0,0,0,0,0,0,0,0,0,0,0,0,0,0,0,0,0,0,0,0,0,0,0,0,0,0,0,0,0,0,0,0,0,0,0,0,0,0,0,0,0,0,0,0,0,0,0,0,0,0,0,0,0,0,0,0,0,0,0,0,0,0,0,0,0,0,0,0,0,0,0,0,0,0,0,0,0,0,0,0,0,0,0,0,0,0,0,0,0,0,0,0,0,0,0,0,0,0,0,0,0,0,0],"id":11,"left_children":[1,3,5,7,9,11,13,15,17,19,21,23,25,27,29,31,33,35,37,39,41,43,45,47,49,51,53,55,57,59,61,63,65,67,69,71,73,75,77,79,81,83,85,87,-1,89,91,93,95,-1,-1,97,99,101,103,-1,105,107,109,111,113,-1,115,-1,-1,-1,-1,-1,-1,-1,-1,-1,-1,-1,-1,-1,-1,-1,-1,-1,-1,-1,-1,-1,-1,-1,-1,-1,-1,-1,-1,-1,-1,-1,-1,-1,-1,-1,-1,-1,-1,-1,-1,-1,-1,-1,-1,-1,-1,-1,-1,-1,-1,-1,-1,-1,-1],"loss_changes":[9.3939606E1,3.9743988E1,1.5789215E1,1.5468811E1,2.0723381E1,8.564941E0,8.68177E0,1.1968079E1,1.2714867E1,7.0786095E0,6.6227875E0,5.9643803E0,6.99205E0,8.841512E0,7.3254166E0,1.2271515E1,7.553543E0,1.0453823E1,1.4945328E1,5.524933E0,7.2565117E0,5.3867955E0,6.949394E0,5.4309006E0,6.3373554E-1,7.2367487E0,5.7480164E0,3.9521065E0,4.3075356E0,7.5354767E0,6.2678165E0,4.4799056E0,7.7174377E0,7.3823853E0,1.0698996E0,6.5556183E0,1.7739851E0,5.3836594E0,6.8343215E0,5.7279816E0,6.5316033E0,2.7631686E0,8.286625E0,4.100181E0,0E0,4.215019E0,5.345196E0,4.845189E0,6.8295956E0,0E0,0E0,1.5339699E0,4.7024717E0,4.3479767E0,1.9050257E0,0E0,2.962739E0,2.5343657E0,5.001128E0,9.016281E0,6.9852157E0,0E0,3.0573082E-1,0E0,0E0,0E0,0E0,0E0,0E0,0E0,0E0,0E0,0E0,0E0,0E0,0E0,0E0,0E0,0E0,0E0,0E0,0E0,0E0,0E0,0E0,0E0,0E0,0E0,0E0,0E0,0E0,0E0,0E0,0E0,0E0,0E0,0E0,0E0,0E0,0E0,0E0,0E0,0E0,0E0,0E0,0E0,0E0,0E0,0E0,0E0,0E0,0E0,0E0,0E0,0E0,0E0,0E0],"parents":[2147483647,0,0,1,1,2,2,3,3,4,4,5,5,6,6,7,7,8,8,9,9,10,10,11,11,12,12,13,13,14,14,15,15,16,16,17,17,18,18,19,19,20,20,21,21,22,22,23,23,24,24,25,25,26,26,27,27,28,28,29,29,30,30,31,31,32,32,33,33,34,34,35,35,36,36,37,37,38,38,39,39,40,40,41,41,42,42,43,43,45,45,46,46,47,47,48,48,51,51,52,52,53,53,54,54,56,56,57,57,58,58,59,59,60,60,62,62],"right_children":[2,4,6,8,10,12,14,16,18,20,22,24,26,28,30,32,34,36,38,40,42,44,46,48,50,52,54,56,58,60,62,64,66,68,70,72,74,76,78,80,82,84,86,88,-1,90,92,94,96,-1,-1,98,100,102,104,-1,106,108,110,112,114,-1,116,-1,-1,-1,-1,-1,-1,-1,-1,-1,-1,-1,-1,-1,-1,-1,-1,-1,-1,-1,-1,-1,-1,-1,-1,-1,-1,-1,-1,-1,-1,-1,-1,-1,-1,-1,-1,-1,-1,-1,-1,-1,-1,-1,-1,-1,-1,-1,-1,-1,-1,-1,-1,-1,-1],"split_conditions":[6.506848E-2,2.5148345E-2,-9.5515735E-2,5.319693E-2,-1.6330166E-3,-5.796907E-2,-1.992151E-2,-9.446597E-3,-1.2617281E-2,4.6436274E-3,-2.4050862E-2,-5.354822E-2,1.7415859E-2,-1.8642928E-2,4.5657825E-2,-4.5167346E-2,7.454162E-2,-4.722086E-2,2.6425943E-2,1.5666887E-2,-2.5999708E-2,-1.1146203E-2,3.1214742E-2,-1.6043752E-2,2.6857425E-2,-7.1622874E-3,-1.5848061E-2,-1.8019233E-2,1.0669665E-2,-2.0978402E-2,-8.695827E-2,-2.32325E-2,-2.3854196E-2,-6.472204E-2,8.654065E-2,-3.1682994E-2,-3.2721005E-2,4.6738364E-2,8.746805E-3,-1.3086836E-2,-7.683905E-3,-4.104637E-2,1.6044991E-2,-3.3369217E-2,-1.6276193E-1,-2.3855528E-2,-1.3262511E-2,1.1061224E-2,3.3659488E-2,5.4137602E-2,-1.6018882E-1,3.8545232E-2,-2.2429067E-3,-3.234248E-2,-2.8651727E-2,-1.2897508E-1,-4.360972E-2,3.0145967E-2,2.690534E-4,4.8442766E-2,4.63651E-2,-1.06093414E-1,-3.8612604E-2,3.519845E-2,1.8605849E-1,2.0302352E-1,1.09053105E-1,2.8580126E-1,6.42013E-2,5.3034115E-1,1.20636456E-1,4.2049176E-1,1.10720284E-1,1.2888938E-1,-1.4943591E-1,3.4755486E-1,1.6491307E-1,4.5100685E-2,3.0980256E-1,1.7158546E-1,3.403923E-2,-1.8034238E-2,1.5155768E-1,-1.1805079E-1,3.7340764E-2,1.406147E-1,4.330772E-2,3.5682946E-2,4.942869E-1,3.5895508E-2,2.998644E-1,5.869463E-2,3.31815E-1,3.0567813E-1,-3.7008826E-2,1.0352161E-1,3.4129864E-1,4.9123278E-1,9.6249536E-2,-1.3091269E-1,1.2919791E-1,3.964644E-1,2.5799382E-1,2.000374E-1,-1.5233766E-1,1.0542526E-1,3.8339362E-1,-1.551015E-1,5.5667065E-2,2.1937674E-1,-1.5166067E-1,1.8621776E-1,2.9457392E-2,1.7459416E-1,-4.0302422E-2,5.877915E-1,1.651403E-1],"split_indices":[36,73,57,77,104,122,6,40,41,48,27,19,24,23,123,126,44,65,100,13,103,78,5,27,11,24,97,31,23,84,12,58,79,84,44,37,53,117,91,68,22,1,18,7,0,1,75,17,123,0,0,21,24,112,81,0,64,121,45,103,86,0,1,0,0,0,0,0,0,0,0,0,0,0,0,0,0,0,0,0,0,0,0,0,0,0,0,0,0,0,0,0,0,0,0,0,0,0,0,0,0,0,0,0,0,0,0,0,0,0,0,0,0,0,0,0,0],"split_type":[0,0,0,0,0,0,0,0,0,0,0,0,0,0,0,0,0,0,0,0,0,0,0,0,0,0,0,0,0,0,0,0,0,0,0,0,0,0,0,0,0,0,0,0,0,0,0,0,0,0,0,0,0,0,0,0,0,0,0,0,0,0,0,0,0,0,0,0,0,0,0,0,0,0,0,0,0,0,0,0,0,0,0,0,0,0,0,0,0,0,0,0,0,0,0,0,0,0,0,0,0,0,0,0,0,0,0,0,0,0,0,0,0,0,0,0,0],"sum_hessian":[8.773296E3,8.0432383E3,7.30058E2,4.255819E3,3.7874194E3,3.343558E2,3.9570218E2,4.0050166E3,2.5080206E2,3.6941921E3,9.322738E1,7.368738E1,2.6066843E2,5.8798664E1,3.369035E2,1.2210282E3,2.7839885E3,4.5453674E1,2.0534839E2,3.3378447E3,3.563473E2,1.6029663E1,7.7197716E1,6.69228E1,6.7645855E0,4.429678E1,2.1637164E2,1.7198347E1,4.1600315E1,3.294123E2,7.491218E0,2.7538617E2,9.45642E2,2.7798303E3,4.1579857E0,3.875118E1,6.7024918E0,6.7436554E1,1.3791183E2,3.0216245E3,3.1622028E2,3.9574627E1,3.1677267E2,8.071293E0,7.9583707E0,3.0269398E1,4.6928318E1,2.1731768E1,4.519103E1,1.0034506E0,5.7611346E0,6.2763233E0,3.8020454E1,2.1179552E2,4.576131E0,2.2190948E0,1.4979253E1,2.9112808E1,1.2487508E1,2.735365E2,5.5875813E1,1.2928495E0,6.1983685E0,2.572598E2,1.8126392E1,8.7494194E1,8.581478E2,1.2684227E1,2.7671462E3,2.598471E0,1.559515E0,2.9978533E1,8.772647E0,2.45432E0,4.248172E0,2.4617746E1,4.2818806E1,1.2943413E2,8.477709E0,2.6565916E1,2.9950586E3,2.9526553E2,2.0954748E1,2.0578423E1,1.8996204E1,1.5409615E2,1.6267651E2,6.5870714E0,1.4842219E0,2.4099884E1,6.1695137E0,8.283352E0,3.8644966E1,3.620878E0,1.811089E1,2.506765E1,2.0123377E1,4.537407E0,1.7389163E0,6.910796E0,3.1109657E1,2.7098667E1,1.8469685E2,1.0194511E0,3.55668E0,7.7938476E0,7.1854053E0,2.3148489E1,5.9643183E0,8.306801E0,4.180708E0,2.3464847E2,3.8888023E1,2.1059368E1,3.481644E1,5.0251603E0,1.1732081E0],"tree_param":{"num_deleted":"0","num_feature":"128","num_nodes":"117","size_leaf_vector":"1"}},{"base_weights":[2.2804352E-2,-6.65947E-2,3.8483523E-2,-7.166114E-2,6.999726E-1,3.4338426E-2,2.3856856E-1,-8.0556616E-2,3.0623245E-1,-1.2708686E-1,1.2535641E0,3.1950466E-2,3.9637116E-1,3.1000862E-1,-1.8965924E-1,-1.675535E-1,-3.8303193E-2,5.228108E-1,1.6713618E-1,3.8232508E-1,5.687757E-1,4.606085E-2,-2.0103035E-2,6.589828E-2,8.291041E-1,4.1003966E-1,-4.3528076E-2,-3.110528E-1,2.9819906E-1,-2.3568055E-1,-5.6247213E-3,-5.4636553E-2,2.4230811E-1,3.817939E-1,2.7995419E-2,3.4642312E-1,-1.1075852E-1,-1.2219504E-1,5.1753264E-2,-2.605319E-2,6.5373355E-1,1.0011225E0,-1.6416128E-1,1.0838392E0,-1.3302441E-1,-3.7744682E-2,4.9515304E-1,2.884162E-1,-1.5421225E-1,1.1328484E-1,-1.602786E-1,8.417357E-2,-8.110528E-2,6.715489E-2,-8.516223E-2,-6.2204864E-2,-7.3048486E-3,2.905473E-1,9.677194E-3,-4.6764538E-2,2.9621753E-1,5.470779E-2,-5.811147E-2,3.7132937E-2,1.1088986E-2,7.922229E-2,-1.0895574E-2,-3.3768944E-2,3.1638402E-1,-1.16198055E-1,5.5549866E-1,2.463498E-2,-1.5890297E-1,4.209815E-1,-6.39302E-2,-5.5442497E-2,2.6960343E-1,1.6570035E-1,-9.745752E-2,-1.1872551E-1,1.1341356E-1,-1.4270352E-1,1.8466306E-1],"categories":[],"categories_nodes":[],"categories_segments":[],"categories_sizes":[],"default_left":[0,0,0,0,0,0,0,0,0,0,0,0,0,0,0,0,0,0,0,0,0,0,0,0,0,0,0,0,0,0,0,0,0,0,0,0,0,0,0,0,0,0,0,0,0,0,0,0,0,0,0,0,0,0,0,0,0,0,0,0,0,0,0,0,0,0,0,0,0,0,0,0,0,0,0,0,0,0,0,0,0,0,0],"id":12,"left_children":[1,3,5,7,9,11,13,15,17,-1,19,21,23,25,27,29,31,-1,33,35,-1,37,39,41,43,45,47,49,-1,51,53,55,57,-1,59,-1,-1,61,63,65,67,69,71,73,-1,75,77,-1,79,81,-1,-1,-1,-1,-1,-1,-1,-1,-1,-1,-1,-1,-1,-1,-1,-1,-1,-1,-1,-1,-1,-1,-1,-1,-1,-1,-1,-1,-1,-1,-1,-1,-1],"loss_changes":[1.1528854E1,4.8169556E0,5.794674E0,4.126471E0,5.601419E0,5.914364E0,4.398E0,4.3787355E0,5.3575068E0,0E0,2.4726992E0,5.004321E0,6.3573637E0,4.330163E0,3.312237E0,4.297632E0,3.6993866E0,0E0,4.099291E0,2.560995E0,0E0,5.1396217E0,5.844566E0,5.867889E0,6.7459917E0,3.6447763E0,3.2400334E0,1.928075E0,0E0,4.9849052E0,7.497375E0,3.513963E0,6.744628E0,0E0,4.546322E0,0E0,0E0,3.8615675E0,5.518468E0,4.303354E0,4.0386105E0,7.0640383E0,2.035986E0,7.091194E0,0E0,2.3867218E0,3.9313717E0,0E0,3.479423E0,2.5473678E0,0E0,0E0,0E0,0E0,0E0,0E0,0E0,0E0,0E0,0E0,0E0,0E0,0E0,0E0,0E0,0E0,0E0,0E0,0E0,0E0,0E0,0E0,0E0,0E0,0E0,0E0,0E0,0E0,0E0,0E0,0E0,0E0,0E0],"parents":[2147483647,0,0,1,1,2,2,3,3,4,4,5,5,6,6,7,7,8,8,10,10,11,11,12,12,13,13,14,14,15,15,16,16,18,18,19,19,21,21,22,22,23,23,24,24,25,25,26,26,27,27,29,29,30,30,31,31,32,32,34,34,37,37,38,38,39,39,40,40,41,41,42,42,43,43,45,45,46,46,48,48,49,49],"right_children":[2,4,6,8,10,12,14,16,18,-1,20,22,24,26,28,30,32,-1,34,36,-1,38,40,42,44,46,48,50,-1,52,54,56,58,-1,60,-1,-1,62,64,66,68,70,72,74,-1,76,78,-1,80,82,-1,-1,-1,-1,-1,-1,-1,-1,-1,-1,-1,-1,-1,-1,-1,-1,-1,-1,-1,-1,-1,-1,-1,-1,-1,-1,-1,-1,-1,-1,-1,-1,-1],"split_conditions":[-7.76193E-2,1.3717314E-2,6.71833E-2,-2.4841944E-2,-1.16352215E-1,6.964172E-2,-4.3963335E-2,5.2215558E-2,3.508038E-2,-1.2708686E-1,2.2076217E-3,7.066209E-3,-5.7423957E-2,5.6310255E-2,1.121319E-1,-1.752289E-2,-1.5485214E-2,5.228108E-1,3.236762E-4,-3.2528676E-2,5.687757E-1,-1.1615263E-2,5.1784955E-2,-2.5278674E-2,6.682772E-2,-3.0358853E-2,-2.9740853E-2,4.2625442E-2,2.9819906E-1,6.663786E-3,-1.1601174E-2,-3.154189E-3,-1.7870882E-3,3.817939E-1,3.6598786E-3,3.4642312E-1,-1.1075852E-1,-1.6578997E-4,-1.8002648E-2,-5.094108E-2,6.5240585E-3,-1.3016802E-2,-3.477922E-2,-4.900052E-2,-1.3302441E-1,5.5184215E-2,7.027109E-2,2.884162E-1,-1.4506748E-1,-4.8382252E-2,-1.602786E-1,8.417357E-2,-8.110528E-2,6.715489E-2,-8.516223E-2,-6.2204864E-2,-7.3048486E-3,2.905473E-1,9.677194E-3,-4.6764538E-2,2.9621753E-1,5.470779E-2,-5.811147E-2,3.7132937E-2,1.1088986E-2,7.922229E-2,-1.0895574E-2,-3.3768944E-2,3.1638402E-1,-1.16198055E-1,5.5549866E-1,2.463498E-2,-1.5890297E-1,4.209815E-1,-6.39302E-2,-5.5442497E-2,2.6960343E-1,1.6570035E-1,-9.745752E-2,-1.1872551E-1,1.1341356E-1,-1.4270352E-1,1.8466306E-1],"split_indices":[36,44,115,2,60,8,84,73,73,0,118,62,101,112,67,66,127,0,68,41,0,16,113,56,14,74,50,38,0,3,25,103,47,0,47,0,0,91,88,83,108,16,17,54,0,123,24,0,57,61,0,0,0,0,0,0,0,0,0,0,0,0,0,0,0,0,0,0,0,0,0,0,0,0,0,0,0,0,0,0,0,0,0],"split_type":[0,0,0,0,0,0,0,0,0,0,0,0,0,0,0,0,0,0,0,0,0,0,0,0,0,0,0,0,0,0,0,0,0,0,0,0,0,0,0,0,0,0,0,0,0,0,0,0,0,0,0,0,0,0,0,0,0,0,0,0,0,0,0,0,0,0,0,0,0,0,0,0,0,0,0,0,0,0,0,0,0,0,0],"sum_hessian":[8.2220625E3,1.2263646E3,6.9956978E3,1.219213E3,7.151568E0,6.8548594E3,1.4083829E2,1.1919419E3,2.7271065E1,2.43802E0,4.7135477E0,6.8110225E3,4.3837124E1,1.2093852E2,1.9899773E1,3.8869022E2,8.032517E2,1.389784E0,2.588128E1,2.6773696E0,2.036178E0,5.3585664E3,1.4524563E3,2.5508717E1,1.832841E1,9.414184E1,2.679668E1,1.8717363E1,1.1824081E0,2.7326575E2,1.1542446E2,7.598301E2,4.3421646E1,1.9825928E0,2.389869E1,1.0557338E0,1.6216359E0,1.7468796E2,5.1838784E3,1.4406958E3,1.1760387E1,4.3744373E0,2.113428E1,1.5394904E1,2.9335053E0,1.5125036E1,7.90168E1,1.8960793E0,2.4900602E1,6.6216245E0,1.2095739E1,1.6750444E1,2.5651532E2,6.3363564E1,5.20609E1,1.2478662E2,6.3504346E2,8.931864E0,3.448978E1,2.0757786E1,3.1409018E0,3.2922726E1,1.4176523E2,8.818991E2,4.301979E3,4.8388294E1,1.3923076E3,4.2862573E0,7.4741306E0,1.8686314E0,2.5058062E0,1.3089882E1,8.044396E0,1.2286732E1,3.108172E0,1.3765787E1,1.3592496E0,7.41711E1,4.8457055E0,1.730433E1,7.596272E0,3.0721054E0,3.5495193E0],"tree_param":{"num_deleted":"0","num_feature":"128","num_nodes":"83","size_leaf_vector":"1"}},{"base_weights":[1.2537503E-1,1.5646033E-1,-9.317471E-2,2.4192652E-1,1.1281272E-1,-3.6196046E-2,-2.428171E-1,2.2995822E-1,4.1220418E-1,1.4982451E-1,4.991865E-2,-2.348631E-1,-6.5576704E-3,3.0300996E-1,-2.723219E-1,5.734226E-1,2.2357336E-1,1.0151451E0,2.9973793E-1,1.4601457E-1,7.927681E-1,-1.2377124E-1,7.4516974E-2,-3.968859E-2,-3.9335185E-1,1.7239515E-1,-4.1389722E-2,1.3092655E0,-1.3772462E-1,5.49412E-1,-2.9019478E-1,1.3320436E0,3.3946E-1,-1.4220884E-1,2.3087944E-1,1.1567575E0,-1.8601626E-1,3.9702895E-1,-1.5232106E-1,6.3631E-1,1.4107354E-1,9.8239046E-1,-1.2908809E-1,-2.5888216E-1,1.0550687E-2,1.1554433E-2,1.344595E-1,-3.2859632E-1,2.6314086E-1,3.476027E-1,-4.384045E-1,6.42813E-1,7.673911E-2,-1.7471291E-1,3.358949E-2,1.7338598E-2,5.266975E-1,-4.369532E-1,7.5334245E-1,-1.3176504E-1,9.600986E-1,-2.1216123E-1,-4.3507302E-1,4.653965E-1,-9.6448384E-2,2.0564574E-1,-5.1614635E-2,-9.7464494E-2,1.2571073E-1,2.1028177E-1,6.755531E-2,1.377916E-1,4.236616E-1,-1.1842768E-1,5.4864485E-2,1.9672243E-1,3.229819E-2,5.804722E-2,-1.7337808E-1,4.8937764E-2,3.4193578E-1,4.483322E-2,-3.6066547E-2,-2.8620306E-2,4.000467E-1,1.07256405E-1,-9.980181E-2,-8.311439E-3,3.8541678E-1,4.3933445E-1,1.7549682E-3,4.8299044E-2,-5.1919352E-2,-1.3203266E-1,2.6438338E-1,-1.5938425E-2,2.3355453E-1,-1.1457405E-1,3.6060745E-1,-1.5362945E-1,-4.722863E-2,3.3966744E-1,-7.5117484E-2,-1.3641131E-2,1.3894427E-1,-1.4029504E-1,-3.349244E-2,1.5713507E-1,3.36408E-3,4.3737084E-2,-1.591908E-1,3.601906E-1,1.8938921E-2,-1.0120554E-1,5.1109932E-2,3.9669904E-1,2.8421097E-2,1.2524676E-1,-6.9082454E-2,-1.54379E-1,-9.012288E-2],"categories":[],"categories_nodes":[],"categories_segments":[],"categories_sizes":[],"default_left":[0,0,0,0,0,0,0,0,0,0,0,0,0,0,0,0,0,0,0,0,0,0,0,0,0,0,0,0,0,0,0,0,0,0,0,0,0,0,0,0,0,0,0,0,0,0,0,0,0,0,0,0,0,0,0,0,0,0,0,0,0,0,0,0,0,0,0,0,0,0,0,0,0,0,0,0,0,0,0,0,0,0,0,0,0,0,0,0,0,0,0,0,0,0,0,0,0,0,0,0,0,0,0,0,0,0,0,0,0,0,0,0,0,0,0,0,0,0,0,0,0],"id":13,"left_children":[1,3,5,7,9,11,13,15,17,19,21,23,25,27,29,31,33,35,37,39,41,43,45,47,49,51,53,55,57,59,61,63,65,67,69,71,73,75,77,79,81,83,-1,85,87,89,91,93,95,97,99,101,103,105,107,-1,-1,109,111,113,115,117,119,-1,-1,-1,-1,-1,-1,-1,-1,-1,-1,-1,-1,-1,-1,-1,-1,-1,-1,-1,-1,-1,-1,-1,-1,-1,-1,-1,-1,-1,-1,-1,-1,-1,-1,-1,-1,-1,-1,-1,-1,-1,-1,-1,-1,-1,-1,-1,-1,-1,-1,-1,-1,-1,-1,-1,-1,-1,-1],"loss_changes":[6.006038E1,2.8839478E1,9.380678E0,5.2345734E0,1.1920685E1,4.7014475E0,4.9702663E0,5.23497E0,1.1255636E1,7.7849655E0,8.126228E0,3.1909008E0,4.34587E0,7.2929635E0,4.3960323E0,7.3563156E0,6.4536743E0,4.702488E0,6.44186E0,7.6807556E0,4.7768507E0,4.286773E0,6.281541E0,4.2479944E0,2.0583057E0,5.0625963E0,5.8383627E0,2.6806507E0,3.544163E0,1.9410291E0,3.106861E0,4.1347065E0,6.306807E0,5.0233197E0,6.1490936E0,3.580387E0,3.5277063E-1,8.888596E0,4.0001655E0,7.370304E0,6.966278E0,6.3932676E0,0E0,5.473487E0,5.8524566E0,6.729894E0,6.9870243E0,3.7320464E0,3.9172153E0,2.8465555E0,1.0429754E0,8.615997E0,4.5327935E0,3.8310385E0,4.099398E0,0E0,0E0,6.0469997E-1,9.733497E-1,2.6363096E-1,1.1809862E0,2.2160168E0,8.960476E-1,0E0,0E0,0E0,0E0,0E0,0E0,0E0,0E0,0E0,0E0,0E0,0E0,0E0,0E0,0E0,0E0,0E0,0E0,0E0,0E0,0E0,0E0,0E0,0E0,0E0,0E0,0E0,0E0,0E0,0E0,0E0,0E0,0E0,0E0,0E0,0E0,0E0,0E0,0E0,0E0,0E0,0E0,0E0,0E0,0E0,0E0,0E0,0E0,0E0,0E0,0E0,0E0,0E0,0E0,0E0,0E0,0E0,0E0],"parents":[2147483647,0,0,1,1,2,2,3,3,4,4,5,5,6,6,7,7,8,8,9,9,10,10,11,11,12,12,13,13,14,14,15,15,16,16,17,17,18,18,19,19,20,20,21,21,22,22,23,23,24,24,25,25,26,26,27,27,28,28,29,29,30,30,31,31,32,32,33,33,34,34,35,35,36,36,37,37,38,38,39,39,40,40,41,41,43,43,44,44,45,45,46,46,47,47,48,48,49,49,50,50,51,51,52,52,53,53,54,54,57,57,58,58,59,59,60,60,61,61,62,62],"right_children":[2,4,6,8,10,12,14,16,18,20,22,24,26,28,30,32,34,36,38,40,42,44,46,48,50,52,54,56,58,60,62,64,66,68,70,72,74,76,78,80,82,84,-1,86,88,90,92,94,96,98,100,102,104,106,108,-1,-1,110,112,114,116,118,120,-1,-1,-1,-1,-1,-1,-1,-1,-1,-1,-1,-1,-1,-1,-1,-1,-1,-1,-1,-1,-1,-1,-1,-1,-1,-1,-1,-1,-1,-1,-1,-1,-1,-1,-1,-1,-1,-1,-1,-1,-1,-1,-1,-1,-1,-1,-1,-1,-1,-1,-1,-1,-1,-1,-1,-1,-1,-1],"split_conditions":[3.2742802E-2,2.7900154E-5,9.320093E-2,4.6122912E-2,-7.930562E-3,8.649796E-5,2.6052173E-2,-1.33781E-2,-2.7818934E-3,2.554306E-2,-2.7338384E-2,-1.36606125E-2,-3.995758E-2,1.9907292E-2,2.856858E-2,1.2902526E-2,-1.4714408E-2,-1.7326336E-2,2.040682E-4,-2.036825E-2,-5.5837957E-3,1.572255E-3,2.6755616E-2,8.9006545E-4,-4.530637E-2,-3.9595064E-2,6.159225E-3,4.6942566E-2,2.2763595E-2,1.63666E-2,3.282923E-2,-3.8428232E-4,-7.013449E-3,2.6764094E-3,-3.7496887E-2,-5.0805528E-2,-9.901095E-3,-1.7554631E-2,5.4250058E-2,-8.009266E-3,1.4059923E-2,-9.034086E-3,-1.2908809E-1,-1.2222543E-2,2.8059525E-2,-3.8467463E-2,3.531193E-2,1.752407E-2,1.0617631E-2,-4.8655927E-2,3.8696226E-2,-1.605124E-2,-4.006989E-2,-3.23333E-2,-2.0937245E-2,1.7338598E-2,5.266975E-1,-2.7379015E-2,-9.240676E-2,-4.7051504E-2,1.0155185E-2,-5.088512E-2,3.5550524E-2,4.653965E-1,-9.6448384E-2,2.0564574E-1,-5.1614635E-2,-9.7464494E-2,1.2571073E-1,2.1028177E-1,6.755531E-2,1.377916E-1,4.236616E-1,-1.1842768E-1,5.4864485E-2,1.9672243E-1,3.229819E-2,5.804722E-2,-1.7337808E-1,4.8937764E-2,3.4193578E-1,4.483322E-2,-3.6066547E-2,-2.8620306E-2,4.000467E-1,1.07256405E-1,-9.980181E-2,-8.311439E-3,3.8541678E-1,4.3933445E-1,1.7549682E-3,4.8299044E-2,-5.1919352E-2,-1.3203266E-1,2.6438338E-1,-1.5938425E-2,2.3355453E-1,-1.1457405E-1,3.6060745E-1,-1.5362945E-1,-4.722863E-2,3.3966744E-1,-7.5117484E-2,-1.3641131E-2,1.3894427E-1,-1.4029504E-1,-3.349244E-2,1.5713507E-1,3.36408E-3,4.3737084E-2,-1.591908E-1,3.601906E-1,1.8938921E-2,-1.0120554E-1,5.1109932E-2,3.9669904E-1,2.8421097E-2,1.2524676E-1,-6.9082454E-2,-1.54379E-1,-9.012288E-2],"split_indices":[54,23,36,100,2,41,99,84,112,31,53,35,11,32,20,56,105,24,119,5,33,3,89,45,42,109,108,20,99,20,81,31,110,44,49,59,39,76,109,4,91,39,0,101,72,93,110,109,16,42,107,87,84,25,40,0,0,112,30,43,38,7,112,0,0,0,0,0,0,0,0,0,0,0,0,0,0,0,0,0,0,0,0,0,0,0,0,0,0,0,0,0,0,0,0,0,0,0,0,0,0,0,0,0,0,0,0,0,0,0,0,0,0,0,0,0,0,0,0,0,0],"split_type":[0,0,0,0,0,0,0,0,0,0,0,0,0,0,0,0,0,0,0,0,0,0,0,0,0,0,0,0,0,0,0,0,0,0,0,0,0,0,0,0,0,0,0,0,0,0,0,0,0,0,0,0,0,0,0,0,0,0,0,0,0,0,0,0,0,0,0,0,0,0,0,0,0,0,0,0,0,0,0,0,0,0,0,0,0,0,0,0,0,0,0,0,0,0,0,0,0,0,0,0,0,0,0,0,0,0,0,0,0,0,0,0,0,0,0,0,0,0,0,0,0],"sum_hessian":[8.837476E3,7.737256E3,1.1002198E3,2.6140842E3,5.1231714E3,7.9771814E2,3.025017E2,2.4446106E3,1.6947375E2,3.224337E3,1.8988345E3,1.02660034E2,6.950581E2,1.5037837E1,2.8746387E2,4.299423E1,2.4016165E3,2.5380512E1,1.4409323E2,3.2065627E3,1.7774311E1,2.3505669E2,1.6637778E3,4.6565872E1,5.6094166E1,1.1260262E2,5.824555E2,3.9800992E0,1.1057738E1,5.48622E0,2.8197766E2,9.027917E0,3.3966312E1,4.6668613E1,2.3549478E3,2.2736885E1,2.643627E0,1.186742E2,2.5419037E1,3.0717325E1,3.1758452E3,1.5558858E1,2.2154534E0,1.1672188E2,1.18334816E2,8.120295E2,8.517483E2,2.3787167E1,2.2778706E1,2.8303056E0,5.326386E1,1.806118E1,9.454144E1,2.0917819E2,3.732773E2,1.3433807E0,2.6367185E0,8.659445E0,2.3982928E0,2.3190062E0,3.1672137E0,1.8486894E2,9.710871E1,8.025466E0,1.0024514E0,2.0057604E1,1.3908708E1,3.552662E1,1.11419935E1,2.672884E1,2.328219E3,6.8452497E0,1.5891636E1,1.6435261E0,1.0001009E0,6.1987545E1,5.6686657E1,1.4325063E1,1.1093973E1,1.6517553E1,1.4199771E1,3.077681E3,9.816438E1,4.0019794E0,1.1556879E1,1.2067966E1,1.0465391E2,1.1583526E2,2.4995582E0,2.1757262E0,8.0985376E2,7.845253E2,6.7222946E1,2.2362299E1,1.4248679E0,1.4671922E1,8.106784E0,1.8250613E0,1.0052443E0,4.154497E1,1.1718887E1,1.1495097E1,6.566083E0,7.249557E1,2.2045877E1,3.592215E1,1.7325604E2,1.531694E1,3.579604E2,1.1222711E0,7.537174E0,1.006509E0,1.3917837E0,1.3106177E0,1.0083885E0,1.8604021E0,1.3068117E0,4.5529966E0,1.8031595E2,5.928023E1,3.7828484E1],"tree_param":{"num_deleted":"0","num_feature":"128","num_nodes":"121","size_leaf_vector":"1"}},{"base_weights":[-4.5517308E-1,-4.6001208E-1,-3.1049746E-1,-4.6188402E-1,-3.0840844E-1,2.6158223E-1,-3.4041166E-1,1.4313705E-1,-4.6215558E-1,-3.81872E-1,1.02391586E-1,9.049966E-1,-2.2206539E-1,-3.6967918E-1,2.486463E-2,1.7119668E-1,-9.970526E-2,-4.6242556E-1,1.19606145E-2,1.6566302E-1,-4.089498E-1,-1.4374587E-1,5.463126E-1,4.027686E-1,-9.065647E-2,-1.4044154E-1,1.14311285E-1,-4.9460095E-1,-3.0921727E-1,4.8433864E-1,-2.3878926E-1,-4.5402023E-1,-4.8055673E-1,-1.19998686E-1,2.027403E-1,1.2730685E-1,-4.364012E-1,9.5750934E-1,-1.1595993E-1,-5.278719E-1,2.0841707E-1,2.4666591E-1,-3.548684E-1,1.0979704E0,-1.1876762E-1,3.9330736E-1,-1.5008388E-1,-1.3641375E-1,3.412258E-1,8.601259E-2,-1.4445426E-1,-4.290771E-2,-1.5557693E-1,4.0669885E-1,-9.239067E-2,-1.6860043E-1,3.0628309E-2,-2.586323E-2,4.58869E-1,-1.1316573E-1,1.9959177E-1,4.1347688E-1,5.4279722E-2,-1.062338E-1,3.4046185E-1],"categories":[],"categories_nodes":[],"categories_segments":[],"categories_sizes":[],"default_left":[0,0,0,0,0,0,0,0,0,0,0,0,0,0,0,0,0,0,0,0,0,0,0,0,0,0,0,0,0,0,0,0,0,0,0,0,0,0,0,0,0,0,0,0,0,0,0,0,0,0,0,0,0,0,0,0,0,0,0,0,0,0,0,0,0],"id":14,"left_children":[1,3,5,7,9,11,13,15,17,19,21,23,25,27,29,-1,-1,31,33,-1,35,-1,37,-1,-1,-1,-1,39,41,43,45,47,49,-1,-1,-1,51,53,-1,55,-1,57,59,61,-1,63,-1,-1,-1,-1,-1,-1,-1,-1,-1,-1,-1,-1,-1,-1,-1,-1,-1,-1,-1],"loss_changes":[4.2939453E0,1.597168E0,3.6518402E0,1.0609131E0,2.386455E0,3.5962358E0,2.1289196E0,8.9692605E-1,7.799072E-1,1.9000473E0,3.511519E0,2.982942E0,1.2219297E0,1.2340393E0,2.0109634E0,0E0,0E0,7.034912E-1,1.4785964E0,0E0,1.6698742E0,0E0,3.2876523E0,0E0,0E0,0E0,0E0,2.6705914E0,3.2953901E0,3.6941574E0,1.9505923E0,5.0895996E0,1.5327454E0,0E0,0E0,0E0,1.4527569E0,3.222271E0,0E0,1.287344E0,0E0,4.4806104E0,2.9239073E0,7.32687E-1,0E0,2.4331794E0,0E0,0E0,0E0,0E0,0E0,0E0,0E0,0E0,0E0,0E0,0E0,0E0,0E0,0E0,0E0,0E0,0E0,0E0,0E0],"parents":[2147483647,0,0,1,1,2,2,3,3,4,4,5,5,6,6,7,7,8,8,9,9,10,10,11,11,12,12,13,13,14,14,17,17,18,18,20,20,22,22,27,27,28,28,29,29,30,30,31,31,32,32,36,36,37,37,39,39,41,41,42,42,43,43,45,45],"right_children":[2,4,6,8,10,12,14,16,18,20,22,24,26,28,30,-1,-1,32,34,-1,36,-1,38,-1,-1,-1,-1,40,42,44,46,48,50,-1,-1,-1,52,54,-1,56,-1,58,60,62,-1,64,-1,-1,-1,-1,-1,-1,-1,-1,-1,-1,-1,-1,-1,-1,-1,-1,-1,-1,-1],"split_conditions":[1.1145928E-1,3.3999607E-2,-1.0720915E-3,-4.6818063E-2,2.045996E-3,-1.1974905E-1,4.4078883E-2,3.6835324E-3,6.4091496E-2,7.690577E-3,2.1691894E-2,-2.9580256E-2,5.3840335E-2,2.995341E-2,-2.1655716E-2,1.7119668E-1,-9.970526E-2,1.43476315E-2,6.697597E-2,1.6566302E-1,-2.0179307E-2,-1.4374587E-1,7.110276E-3,4.027686E-1,-9.065647E-2,-1.4044154E-1,1.14311285E-1,5.7298113E-2,-3.4284987E-2,5.9308786E-2,-2.8055677E-2,6.0945123E-2,-5.848728E-2,-1.19998686E-1,2.027403E-1,1.2730685E-1,-6.480691E-3,2.2671305E-2,-1.1595993E-1,2.948504E-2,2.0841707E-1,5.884793E-3,-8.634098E-3,-1.9252924E-2,-1.1876762E-1,-7.799004E-2,-1.5008388E-1,-1.3641375E-1,3.412258E-1,8.601259E-2,-1.4445426E-1,-4.290771E-2,-1.5557693E-1,4.0669885E-1,-9.239067E-2,-1.6860043E-1,3.0628309E-2,-2.586323E-2,4.58869E-1,-1.1316573E-1,1.9959177E-1,4.1347688E-1,5.4279722E-2,-1.062338E-1,3.4046185E-1],"split_indices":[36,58,24,91,27,19,6,22,37,60,55,32,46,24,3,0,0,111,12,0,20,0,33,0,0,0,0,9,23,24,118,29,42,0,0,0,52,114,0,3,0,33,30,21,0,98,0,0,0,0,0,0,0,0,0,0,0,0,0,0,0,0,0,0,0],"split_type":[0,0,0,0,0,0,0,0,0,0,0,0,0,0,0,0,0,0,0,0,0,0,0,0,0,0,0,0,0,0,0,0,0,0,0,0,0,0,0,0,0,0,0,0,0,0,0,0,0,0,0,0,0,0,0,0,0,0,0,0,0,0,0,0,0],"sum_hessian":[6.336496E3,6.1293076E3,2.0718832E2,6.0525264E3,7.67815E1,9.91074E0,1.9727757E2,2.4792826E0,6.050047E3,6.519336E1,1.15881405E1,3.879074E0,6.031666E0,1.8263225E2,1.4645331E1,1.2001035E0,1.2791792E0,6.046629E3,3.4182727E0,1.2902752E0,6.3903088E1,4.982115E0,6.606025E0,2.7647858E0,1.1142881E0,4.442754E0,1.588912E0,5.72227E1,1.25409546E2,5.034537E0,9.610795E0,4.1491787E3,1.8974501E3,2.3545642E0,1.0637084E0,1.576896E0,6.232619E1,4.566625E0,2.0394E0,5.62065E1,1.0161989E0,9.183303E0,1.1622624E2,2.820751E0,2.2137856E0,2.6648927E0,6.9459023E0,4.1480884E3,1.0901574E0,1.9929335E0,1.8954572E3,1.4239153E1,4.8087036E1,3.419495E0,1.1471303E0,5.342025E1,2.7862499E0,8.032016E0,1.1512876E0,1.14351204E2,1.875043E0,1.7752239E0,1.0455272E0,1.5874199E0,1.0774728E0],"tree_param":{"num_deleted":"0","num_feature":"128","num_nodes":"65","size_leaf_vector":"1"}},{"base_weights":[-1.1682779E-1,-2.999462E-1,-1.0658491E-1,-2.3460606E-1,-4.455007E-1,-2.8721154E-1,-1.02512464E-1,-3.0387136E-1,-2.6744846E-2,-4.801546E-1,6.9329634E-2,5.5764247E-2,-3.2871297E-1,-1.0605218E-1,3.194324E-2,-3.2516265E-1,3.3374053E-1,-1.558102E-1,5.1826134E-2,2.3031758E-1,-4.9607337E-1,7.604011E-1,-3.2173768E-1,-2.5857133E-1,9.33348E-1,-1.4758311E-1,-4.5272714E-1,-2.207229E-1,-1.01479076E-1,3.5880715E-1,-4.431102E-2,1.3904035E-1,-3.332508E-1,5.0034666E-1,-3.0082998E-1,-2.1469903E-1,2.73674E-1,1.9517359E-1,-8.997704E-2,-1.3351616E-1,-5.27758E-1,3.590867E-1,2.2972165E-2,5.720881E-2,-1.3834667E-1,-1.6001727E-1,2.943864E-1,4.1904244E-1,-9.274947E-2,-2.02618E-1,2.883102E-1,-4.7328267E-1,1.9473848E-1,-2.4108115E-1,7.016649E-1,-2.071566E-1,-9.650483E-2,9.0511955E-2,1.0467383E0,-4.2874113E-1,4.785115E-2,-1.04893126E-1,2.313788E-2,-1.358443E-1,5.524529E-2,-1.3586645E-1,9.00553E-2,1.9277185E-1,-2.0315515E-2,-1.15388E-1,1.8090479E-1,1.6615946E-2,-1.6108319E-1,2.3331568E-1,-7.365441E-2,5.0545923E-2,-1.4533076E-1,1.8094009E-1,-9.4435565E-2,-9.0552665E-2,1.6265372E-2,4.208921E-1,-4.3335937E-2,-8.1726015E-2,2.02939E-2,-6.9769076E-3,-3.1170694E-2,-4.350403E-2,3.1502706E-1,4.4304273E-1,-1.16683014E-1,1.0272206E-1,-1.4787641E-1,4.465774E-1,4.4151885E-3],"categories":[],"categories_nodes":[],"categories_segments":[],"categories_sizes":[],"default_left":[0,0,0,0,0,0,0,0,0,0,0,0,0,0,0,0,0,0,0,0,0,0,0,0,0,0,0,0,0,0,0,0,0,0,0,0,0,0,0,0,0,0,0,0,0,0,0,0,0,0,0,0,0,0,0,0,0,0,0,0,0,0,0,0,0,0,0,0,0,0,0,0,0,0,0,0,0,0,0,0,0,0,0,0,0,0,0,0,0,0,0,0,0,0,0],"id":15,"left_children":[1,3,5,7,9,11,13,15,17,19,21,23,25,27,29,31,33,-1,35,37,39,41,43,45,47,49,51,53,55,57,59,-1,61,-1,63,65,67,-1,-1,69,71,-1,-1,-1,-1,-1,-1,-1,-1,73,-1,75,77,79,81,83,85,87,89,91,93,-1,-1,-1,-1,-1,-1,-1,-1,-1,-1,-1,-1,-1,-1,-1,-1,-1,-1,-1,-1,-1,-1,-1,-1,-1,-1,-1,-1,-1,-1,-1,-1,-1,-1],"loss_changes":[1.4119835E1,3.6913986E0,5.2277145E0,3.9883556E0,2.2196236E0,2.2534342E0,3.3305664E0,2.9336662E0,2.75472E0,1.4142551E0,2.5694873E0,5.1528745E0,3.0829268E0,3.549675E0,4.504593E0,1.4422016E0,6.612295E0,0E0,3.7063804E0,9.0863657E-1,1.224659E0,9.251522E-1,5.3061914E-1,5.2570353E0,3.2606974E0,3.7622025E0,1.1934853E0,5.0587177E0,3.4243546E0,6.2130527E0,5.2256603E0,0E0,1.3752422E0,0E0,5.063743E-1,3.6414478E0,4.338862E0,0E0,0E0,2.1553495E0,5.833206E-1,0E0,0E0,0E0,0E0,0E0,0E0,0E0,0E0,2.5682795E0,0E0,6.577854E-1,8.6713153E-1,4.600832E0,3.6909869E0,5.2854977E0,3.3894043E0,5.956441E0,6.4366093E0,1.5798206E0,5.6780953E0,0E0,0E0,0E0,0E0,0E0,0E0,0E0,0E0,0E0,0E0,0E0,0E0,0E0,0E0,0E0,0E0,0E0,0E0,0E0,0E0,0E0,0E0,0E0,0E0,0E0,0E0,0E0,0E0,0E0,0E0,0E0,0E0,0E0,0E0],"parents":[2147483647,0,0,1,1,2,2,3,3,4,4,5,5,6,6,7,7,8,8,9,9,10,10,11,11,12,12,13,13,14,14,15,15,16,16,18,18,19,19,20,20,21,21,22,22,23,23,24,24,25,25,26,26,27,27,28,28,29,29,30,30,32,32,34,34,35,35,36,36,39,39,40,40,49,49,51,51,52,52,53,53,54,54,55,55,56,56,57,57,58,58,59,59,60,60],"right_children":[2,4,6,8,10,12,14,16,18,20,22,24,26,28,30,32,34,-1,36,38,40,42,44,46,48,50,52,54,56,58,60,-1,62,-1,64,66,68,-1,-1,70,72,-1,-1,-1,-1,-1,-1,-1,-1,74,-1,76,78,80,82,84,86,88,90,92,94,-1,-1,-1,-1,-1,-1,-1,-1,-1,-1,-1,-1,-1,-1,-1,-1,-1,-1,-1,-1,-1,-1,-1,-1,-1,-1,-1,-1,-1,-1,-1,-1,-1,-1],"split_conditions":[-8.911534E-2,3.5281956E-2,-6.99485E-2,-3.2169886E-2,2.2518767E-2,-2.8375048E-2,4.3720677E-2,5.647176E-2,-1.2171662E-2,3.0615367E-2,-2.3799371E-2,-7.389545E-2,-1.2182405E-2,-2.9119253E-2,-4.2722072E-2,-3.3742093E-2,2.9128198E-2,-1.558102E-1,1.8213563E-2,4.969707E-2,-1.3974553E-2,-6.316394E-2,2.2066137E-2,-3.0821268E-2,-4.1470926E-2,2.2070162E-2,4.0180758E-2,-9.82567E-3,-1.771697E-2,-3.9569527E-2,1.45389745E-2,1.3904035E-1,1.597515E-2,5.0034666E-1,6.209224E-3,4.0510938E-2,2.3735655E-2,1.9517359E-1,-8.997704E-2,-9.943263E-3,-4.675619E-2,3.590867E-1,2.2972165E-2,5.720881E-2,-1.3834667E-1,-1.6001727E-1,2.943864E-1,4.1904244E-1,-9.274947E-2,1.9470517E-2,2.883102E-1,-1.1530714E-1,2.8409814E-2,3.3439875E-2,2.6915533E-2,8.974341E-3,-1.5572662E-2,-8.314246E-3,2.6344735E-2,-6.5635545E-3,4.7997674E-3,-1.04893126E-1,2.313788E-2,-1.358443E-1,5.524529E-2,-1.3586645E-1,9.00553E-2,1.9277185E-1,-2.0315515E-2,-1.15388E-1,1.8090479E-1,1.6615946E-2,-1.6108319E-1,2.3331568E-1,-7.365441E-2,5.0545923E-2,-1.4533076E-1,1.8094009E-1,-9.4435565E-2,-9.0552665E-2,1.6265372E-2,4.208921E-1,-4.3335937E-2,-8.1726015E-2,2.02939E-2,-6.9769076E-3,