{"learner":{"attributes":{"scikit_learn":"{\"_estimator_type\": \"classifier\"}"},"feature_names":["dim_1","dim_2","dim_3","dim_4","dim_5","dim_6","dim_7","dim_8","dim_9","dim_10","dim_11","dim_12","dim_13","dim_14","dim_15","dim_16","dim_17","dim_18","dim_19","dim_20","dim_21","dim_22","dim_23","dim_24","dim_25","dim_26","dim_27","dim_28","dim_29","dim_30","dim_31","dim_32","dim_33","dim_34","dim_35","dim_36","dim_37","dim_38","dim_39","dim_40","dim_41","dim_42","dim_43","dim_44","dim_45","dim_46","dim_47","dim_48","dim_49","dim_50","dim_51","dim_52","dim_53","dim_54","dim_55","dim_56","dim_57","dim_58","dim_59","dim_60","dim_61","dim_62","dim_63","dim_64","dim_65","dim_66","dim_67","dim_68","dim_69","dim_70","dim_71","dim_72","dim_73","dim_74","dim_75","dim_76","dim_77","dim_78","dim_79","dim_80","dim_81","dim_82","dim_83","dim_84","dim_85","dim_86","dim_87","dim_88","dim_89","dim_90","dim_91","dim_92","dim_93","dim_94","dim_95","dim_96","dim_97","dim_98","dim_99","dim_100","dim_101","dim_102","dim_103","dim_104","dim_105","dim_106","dim_107","dim_108","dim_109","dim_110","dim_111","dim_112","dim_113","dim_114","dim_115","dim_116","dim_117","dim_118","dim_119","dim_120","dim_121","dim_122","dim_123","dim_124","dim_125","dim_126","dim_127","dim_128"],"feature_types":["float","float","float","float","float","float","float","float","float","float","float","float","float","float","float","float","float","float","float","float","float","float","float","float","float","float","float","float","float","float","float","float","float","float","float","float","float","float","float","float","float","float","float","float","float","float","float","float","float","float","float","float","float","float","float","float","float","float","float","float","float","float","float","float","float","float","float","float","float","float","float","float","float","float","float","float","float","float","float","float","float","float","float","float","float","float","float","float","float","float","float","float","float","float","float","float","float","float","float","float","float","float","float","float","float","float","float","float","float","float","float","float","float","float","float","float","float","float","float","float","float","float","float","float","float","float","float","float"],"gradient_booster":{"model":{"gbtree_model_param":{"num_parallel_tree":"1","num_trees":"600"},"iteration_indptr":[0,6,12,18,24,30,36,42,48,54,60,66,72,78,84,90,96,102,108,114,120,126,132,138,144,150,156,162,168,174,180,186,192,198,204,210,216,222,228,234,240,246,252,258,264,270,276,282,288,294,300,306,312,318,324,330,336,342,348,354,360,366,372,378,384,390,396,402,408,414,420,426,432,438,444,450,456,462,468,474,480,486,492,498,504,510,516,522,528,534,540,546,552,558,564,570,576,582,588,594,600],"tree_info":[0,1,2,3,4,5,0,1,2,3,4,5,0,1,2,3,4,5,0,1,2,3,4,5,0,1,2,3,4,5,0,1,2,3,4,5,0,1,2,3,4,5,0,1,2,3,4,5,0,1,2,3,4,5,0,1,2,3,4,5,0,1,2,3,4,5,0,1,2,3,4,5,0,1,2,3,4,5,0,1,2,3,4,5,0,1,2,3,4,5,0,1,2,3,4,5,0,1,2,3,4,5,0,1,2,3,4,5,0,1,2,3,4,5,0,1,2,3,4,5,0,1,2,3,4,5,0,1,2,3,4,5,0,1,2,3,4,5,0,1,2,3,4,5,0,1,2,3,4,5,0,1,2,3,4,5,0,1,2,3,4,5,0,1,2,3,4,5,0,1,2,3,4,5,0,1,2,3,4,5,0,1,2,3,4,5,0,1,2,3,4,5,0,1,2,3,4,5,0,1,2,3,4,5,0,1,2,3,4,5,0,1,2,3,4,5,0,1,2,3,4,5,0,1,2,3,4,5,0,1,2,3,4,5,0,1,2,3,4,5,0,1,2,3,4,5,0,1,2,3,4,5,0,1,2,3,4,5,0,1,2,3,4,5,0,1,2,3,4,5,0,1,2,3,4,5,0,1,2,3,4,5,0,1,2,3,4,5,0,1,2,3,4,5,0,1,2,3,4,5,0,1,2,3,4,5,0,1,2,3,4,5,0,1,2,3,4,5,0,1,2,3,4,5,0,1,2,3,4,5,0,1,2,3,4,5,0,1,2,3,4,5,0,1,2,3,4,5,0,1,2,3,4,5,0,1,2,3,4,5,0,1,2,3,4,5,0,1,2,3,4,5,0,1,2,3,4,5,0,1,2,3,4,5,0,1,2,3,4,5,0,1,2,3,4,5,0,1,2,3,4,5,0,1,2,3,4,5,0,1,2,3,4,5,0,1,2,3,4,5,0,1,2,3,4,5,0,1,2,3,4,5,0,1,2,3,4,5,0,1,2,3,4,5,0,1,2,3,4,5,0,1,2,3,4,5,0,1,2,3,4,5,0,1,2,3,4,5,0,1,2,3,4,5,0,1,2,3,4,5,0,1,2,3,4,5,0,1,2,3,4,5,0,1,2,3,4,5,0,1,2,3,4,5,0,1,2,3,4,5,0,1,2,3,4,5,0,1,2,3,4,5,0,1,2,3,4,5,0,1,2,3,4,5,0,1,2,3,4,5,0,1,2,3,4,5,0,1,2,3,4,5,0,1,2,3,4,5,0,1,2,3,4,5,0,1,2,3,4,5,0,1,2,3,4,5,0,1,2,3,4,5,0,1,2,3,4,5,0,1,2,3,4,5,0,1,2,3,4,5],"trees":[{"base_weights":[2.7912065E-2,2.3886047E-2,2.7835047E-1,2.969019E-2,-1.3178594E-1,-1.4498143E-1,4.0154862E-1,1.6793376E-2,1.0201955E-1,6.0693634E-1,-1.5658365E-1,-4.1107872E-1,2.957746E-1,2.7959692E-1,1.1848738E0,7.2537055E-3,1.1733797E-1,2.1140796E-1,4.5200143E-2,1.4516128E0,-3.0612245E-1,-2.1474133E-1,1.3879E-1,8.4905654E-2,-5.064935E-1,-1.3483147E-1,4.924528E-1,4.9905476E-1,-1.5328468E-1,-1.12500004E-1,1.4423076E0,3.0729951E-2,-5.5249576E-2,6.3296825E-2,4.5010462E-1,3.7413162E-1,9.388333E-2,-7.581732E-2,9.924294E-2,8.4905654E-2,6.2068963E-1,-1.3846155E-1,4.736842E-2,-4.8175183E-1,-1.7418312E-1,8.1081074E-1,-4.2075994E-3,4.736842E-2,-1.6875E-1,-1.5132743E-1,3.975903E-1,7.699114E-1,1.507535E-2,-3.970588E-1,4.9367082E-1,1.6595744E0,-9.4736844E-2,-8.5512705E-2,1.0512224E-2,-1.7450012E-2,4.3448275E-1,1.1648804E-1,3.5211185E-3,2.9616612E-1,8.857644E-2,1.4583504E-1,-2.0063702E-2,4.8283253E-2,-1.2047244E-1,-4.7456067E-2,5.1286757E-2,2.6292133E-1,2.5340075E-2,-1.7268623E-1,-2.1951227E-2,-1.0310973E-2,-9.247881E-2,-6.164384E-2,4.3548387E-1,2.9999998E-1,-2.9640727E-2,-4.2857148E-2,3.3157894E-1,-9.1836736E-2,2.7692306E-1,1.8208091E-1,-1.2222222E-1,4.0909085E-2,-1.5443788E-1,-1.12500004E-1,2.25E-1,5.4642856E-1,4.736842E-2],"categories":[],"categories_nodes":[],"categories_segments":[],"categories_sizes":[],"default_left":[0,0,0,0,0,0,0,0,0,0,0,0,0,0,0,0,0,0,0,0,0,0,0,0,0,0,0,0,0,0,0,0,0,0,0,0,0,0,0,0,0,0,0,0,0,0,0,0,0,0,0,0,0,0,0,0,0,0,0,0,0,0,0,0,0,0,0,0,0,0,0,0,0,0,0,0,0,0,0,0,0,0,0,0,0,0,0,0,0,0,0,0,0],"id":0,"left_children":[1,3,5,7,9,11,13,15,17,19,21,23,25,27,29,31,33,35,37,39,41,43,45,-1,47,49,-1,51,53,-1,55,57,59,61,63,65,67,69,71,-1,-1,-1,-1,73,75,77,79,-1,-1,-1,81,83,85,87,89,91,-1,-1,-1,-1,-1,-1,-1,-1,-1,-1,-1,-1,-1,-1,-1,-1,-1,-1,-1,-1,-1,-1,-1,-1,-1,-1,-1,-1,-1,-1,-1,-1,-1,-1,-1,-1,-1],"loss_changes":[8.241446E0,7.279335E0,6.8034315E0,7.24022E0,5.4003124E0,3.6270747E0,9.263954E0,6.319923E0,7.2911053E0,7.8568377E0,4.8568916E0,1.4053426E0,7.078526E0,8.457543E0,5.850437E0,8.834936E0,1.0239855E1,7.6389256E0,5.0717597E0,3.1418562E0,4.655044E-1,2.4628172E0,4.503971E0,0E0,7.2552156E-1,2.1464856E0,0E0,7.6935177E0,4.997441E0,0E0,4.9380207E0,5.967867E0,7.2950377E0,8.24628E0,6.329958E0,8.326731E0,7.8505535E0,4.897522E0,6.077865E0,0E0,0E0,0E0,0E0,1.1255202E0,3.8458943E0,5.652924E0,3.8615742E0,0E0,0E0,0E0,1.92146E0,6.4904594E0,5.776178E0,1.4937108E0,2.2357595E0,2.2509575E0,0E0,0E0,0E0,0E0,0E0,0E0,0E0,0E0,0E0,0E0,0E0,0E0,0E0,0E0,0E0,0E0,0E0,0E0,0E0,0E0,0E0,0E0,0E0,0E0,0E0,0E0,0E0,0E0,0E0,0E0,0E0,0E0,0E0,0E0,0E0,0E0,0E0],"parents":[2147483647,0,0,1,1,2,2,3,3,4,4,5,5,6,6,7,7,8,8,9,9,10,10,11,11,12,12,13,13,14,14,15,15,16,16,17,17,18,18,19,19,20,20,21,21,22,22,24,24,25,25,27,27,28,28,30,30,31,31,32,32,33,33,34,34,35,35,36,36,37,37,38,38,43,43,44,44,45,45,46,46,50,50,51,51,52,52,53,53,54,54,55,55],"right_children":[2,4,6,8,10,12,14,16,18,20,22,24,26,28,30,32,34,36,38,40,42,44,46,-1,48,50,-1,52,54,-1,56,58,60,62,64,66,68,70,72,-1,-1,-1,-1,74,76,78,80,-1,-1,-1,82,84,86,88,90,92,-1,-1,-1,-1,-1,-1,-1,-1,-1,-1,-1,-1,-1,-1,-1,-1,-1,-1,-1,-1,-1,-1,-1,-1,-1,-1,-1,-1,-1,-1,-1,-1,-1,-1,-1,-1,-1],"split_conditions":[5.8668315E-1,4.1506582E-1,-3.9189604E-1,1.8184115E-1,-2.4428572E-1,2.305769E-1,2.2509906E-1,3.085168E-1,-5.0430812E-2,3.0143863E-1,3.9700705E-1,7.85582E-2,2.7802588E-2,7.8048274E-2,-6.7524153E-1,1.0713723E-1,3.0613396E-1,2.2774057E-1,-1.9481152E-2,4.7502798E-1,-2.1902461E-1,-5.900239E-1,-9.082468E-2,8.4905654E-2,-6.8642217E-1,-2.2150463E-1,4.924528E-1,6.3247544E-1,6.012275E-1,-1.12500004E-1,5.0578475E-1,-5.570169E-1,6.264373E-1,-2.4513459E-1,-3.754955E-2,2.2289485E-1,-1.3617316E-2,4.541237E-1,-4.9085024E-1,8.4905654E-2,6.2068963E-1,-1.3846155E-1,4.736842E-2,3.4675938E-1,-3.098365E-1,8.9757375E-2,-2.4091105E-1,4.736842E-2,-1.6875E-1,-1.5132743E-1,-3.300744E-1,-4.0314242E-1,-2.3695706E-1,-1.6587986E-1,-3.233553E-1,5.131337E-1,-9.4736844E-2,-8.5512705E-2,1.0512224E-2,-1.7450012E-2,4.3448275E-1,1.1648804E-1,3.5211185E-3,2.9616612E-1,8.857644E-2,1.4583504E-1,-2.0063702E-2,4.8283253E-2,-1.2047244E-1,-4.7456067E-2,5.1286757E-2,2.6292133E-1,2.5340075E-2,-1.7268623E-1,-2.1951227E-2,-1.0310973E-2,-9.247881E-2,-6.164384E-2,4.3548387E-1,2.9999998E-1,-2.9640727E-2,-4.2857148E-2,3.3157894E-1,-9.1836736E-2,2.7692306E-1,1.8208091E-1,-1.2222222E-1,4.0909085E-2,-1.5443788E-1,-1.12500004E-1,2.25E-1,5.4642856E-1,4.736842E-2],"split_indices":[85,72,45,97,109,48,118,101,4,35,123,80,12,17,104,35,90,25,64,13,1,45,34,0,8,77,0,108,10,0,109,43,81,52,23,107,6,106,56,0,0,0,0,39,102,112,105,0,0,0,88,37,103,69,105,56,0,0,0,0,0,0,0,0,0,0,0,0,0,0,0,0,0,0,0,0,0,0,0,0,0,0,0,0,0,0,0,0,0,0,0,0,0],"split_type":[0,0,0,0,0,0,0,0,0,0,0,0,0,0,0,0,0,0,0,0,0,0,0,0,0,0,0,0,0,0,0,0,0,0,0,0,0,0,0,0,0,0,0,0,0,0,0,0,0,0,0,0,0,0,0,0,0,0,0,0,0,0,0,0,0,0,0,0,0,0,0,0,0,0,0,0,0,0,0,0,0,0,0,0,0,0,0,0,0,0,0,0,0],"sum_hessian":[8.179445E3,8.0511113E3,1.2833334E2,7.7625005E3,2.886111E2,2.888889E1,9.944445E1,6.588889E3,1.1736112E3,8.611112E0,2.8E2,1.8055557E1,1.0833334E1,8.722223E1,1.2222223E1,6.018889E3,5.7E2,4.002778E2,7.733334E2,4.166667E0,4.4444447E0,2.3416667E2,4.5833336E1,1.9444445E0,1.6111113E1,8.888889E0,1.9444445E0,5.777778E1,2.9444447E1,1.6666667E0,1.0555556E1,4.3758335E3,1.6430557E3,4.9138892E2,7.8611115E1,1.6694446E2,2.3333334E2,2.3861113E2,5.347222E2,1.9444445E0,2.2222223E0,3.3333335E0,1.1111112E0,2.9444447E1,2.0472223E2,7.2222223E0,3.8611115E1,1.1111112E0,1.5000001E1,5.277778E0,3.6111112E0,3.6666668E1,2.1111113E1,2.1666668E1,7.777778E0,9.444445E0,1.1111112E0,5.8055557E1,4.317778E3,1.6408334E3,2.2222223E0,6.638889E1,4.2500003E2,1.638889E1,6.2222225E1,1.3305556E2,3.388889E1,2.0611111E2,2.7222223E1,1.7916667E2,5.9444447E1,8.888889E0,5.258334E2,2.3611113E1,5.8333335E0,1.00833336E2,1.0388889E2,3.0555558E0,4.166667E0,2.5E0,3.6111115E1,2.5E0,1.1111112E0,4.4444447E0,3.2222225E1,8.611112E0,1.2500001E1,3.888889E0,1.7777779E1,1.6666667E0,6.1111116E0,8.333334E0,1.1111112E0],"tree_param":{"num_deleted":"0","num_feature":"128","num_nodes":"93","size_leaf_vector":"1"}},{"base_weights":[2.0039657E-1,3.655471E-2,2.4631125E-1,8.096704E-2,-1.340732E-1,7.319913E-2,2.9615977E-1,1.022727E-1,-3.0832708E-1,-7.9456E-2,-4.0983605E-1,-1.00301474E-1,1.4172713E-1,-5.1020432E-2,3.1037614E-1,1.490893E-1,-5.1115427E-2,-4.059003E-1,-3.2608718E-2,-4.8387095E-1,-4.7857028E-2,5.342465E-1,-4.6883988E-1,-2.0009014E-1,5.4204278E-2,-1.0125591E-1,1.8043692E-1,6.6346145E-1,-9.526665E-2,3.4245524E-1,2.0671321E-1,2.1335007E-1,-2.1102019E-2,-2.660012E-1,4.041913E-2,-4.7826087E-1,-1.7341064E-2,8.823529E-1,-2.2641511E-1,-1.7027028E-1,-6.8181835E-2,-1.5280974E-1,9.917352E-2,3.976744E-1,-1.12500004E-1,1.8947369E-1,-5.014663E-1,-3.9344263E-1,-1.3579513E-1,6.190476E-1,-3.097699E-2,-1.3614264E-1,7.959183E-1,-2.4812031E-1,2.02799E-1,-1.4563107E-1,1.2439023E0,-2.217899E-1,1.8696065E-1,4.388295E-2,3.567279E-1,1.6564001E-1,5.012106E-1,-3.042045E-2,7.320993E-2,-4.6541307E-2,4.9212225E-2,7.3770486E-2,-9.713914E-2,-1.2580645E-1,3.4256045E-2,-1.5594059E-1,1.8947369E-1,2.4827586E-1,-1.150376E-1,-1.0465116E-1,5.232558E-1,2.25E-1,-1.12500004E-1,-1.3235295E-1,1.8947369E-1,-6.0474318E-2,1.0359711E-1,-5.4605706E-3,1.9503917E-1,-1.552343E-1,4.736842E-2,-1.3392858E-1,4.9999993E-2,-4.742614E-2,2.032258E-1,3.8181815E-1,-2.7272733E-2,2.3478259E-1,-2.3269398E-2,-7.693209E-2,3.933161E-2,5.943396E-1,-1.2857144E-1,-1.2624435E-1,1.5882352E-1,8.569555E-2,2.276963E-2,1.8947369E-1,-1.4096385E-1,5.142857E-1,-1.0465116E-1,-7.214192E-2,2.25E-1,-1.12500004E-1,1.1759378E-1,2.1428572E-1,-1.563445E-2,1.22564055E-1,9.133362E-2,5.8582466E-2,-5.141088E-2,1.9672976E-1,3.944222E-2],"categories":[],"categories_nodes":[],"categories_segments":[],"categories_sizes":[],"default_left":[0,0,0,0,0,0,0,0,0,0,0,0,0,0,0,0,0,0,0,0,0,0,0,0,0,0,0,0,0,0,0,0,0,0,0,0,0,0,0,0,0,0,0,0,0,0,0,0,0,0,0,0,0,0,0,0,0,0,0,0,0,0,0,0,0,0,0,0,0,0,0,0,0,0,0,0,0,0,0,0,0,0,0,0,0,0,0,0,0,0,0,0,0,0,0,0,0,0,0,0,0,0,0,0,0,0,0,0,0,0,0,0,0,0,0,0,0,0,0],"id":1,"left_children":[1,3,5,7,9,11,13,15,17,19,21,23,25,27,29,31,33,35,37,39,41,43,45,47,49,51,53,55,57,59,61,63,65,67,69,71,73,75,77,-1,79,81,83,-1,-1,-1,85,87,89,91,93,95,97,99,101,103,105,107,109,111,113,115,117,-1,-1,-1,-1,-1,-1,-1,-1,-1,-1,-1,-1,-1,-1,-1,-1,-1,-1,-1,-1,-1,-1,-1,-1,-1,-1,-1,-1,-1,-1,-1,-1,-1,-1,-1,-1,-1,-1,-1,-1,-1,-1,-1,-1,-1,-1,-1,-1,-1,-1,-1,-1,-1,-1,-1,-1],"loss_changes":[6.1530396E1,1.358934E1,5.511673E1,1.1829063E1,5.5468464E0,1.7015095E1,2.4500122E1,9.697334E0,1.9790592E0,3.9440432E0,3.64845E0,6.2619576E0,9.66342E0,6.2593775E0,1.5777222E1,1.1313583E1,6.231769E0,1.527173E0,3.8250973E0,7.4025154E-1,4.475645E0,3.4151402E0,2.3970766E0,3.011653E0,7.712081E0,4.5389743E0,8.530594E0,5.607991E0,6.663376E0,1.5487152E1,1.3570625E1,7.2748604E0,7.08139E0,2.8787775E0,7.5999503E0,2.4490786E0,3.2904725E0,4.6169634E0,2.8443394E0,0E0,1.554672E0,4.17675E0,7.836759E0,0E0,0E0,0E0,6.80583E-1,1.884758E0,3.489003E0,9.861472E0,5.3629193E0,4.441648E0,8.75048E0,6.1756544E0,8.826473E0,1.7388183E0,5.7175274E0,2.5134168E0,6.8229103E0,1.0792025E1,9.281586E0,9.941912E0,7.7807045E0,0E0,0E0,0E0,0E0,0E0,0E0,0E0,0E0,0E0,0E0,0E0,0E0,0E0,0E0,0E0,0E0,0E0,0E0,0E0,0E0,0E0,0E0,0E0,0E0,0E0,0E0,0E0,0E0,0E0,0E0,0E0,0E0,0E0,0E0,0E0,0E0,0E0,0E0,0E0,0E0,0E0,0E0,0E0,0E0,0E0,0E0,0E0,0E0,0E0,0E0,0E0,0E0,0E0,0E0,0E0,0E0],"parents":[2147483647,0,0,1,1,2,2,3,3,4,4,5,5,6,6,7,7,8,8,9,9,10,10,11,11,12,12,13,13,14,14,15,15,16,16,17,17,18,18,19,19,20,20,21,21,22,22,23,23,24,24,25,25,26,26,27,27,28,28,29,29,30,30,31,31,32,32,33,33,34,34,35,35,36,36,37,37,38,38,40,40,41,41,42,42,46,46,47,47,48,48,49,49,50,50,51,51,52,52,53,53,54,54,55,55,56,56,57,57,58,58,59,59,60,60,61,61,62,62],"right_children":[2,4,6,8,10,12,14,16,18,20,22,24,26,28,30,32,34,36,38,40,42,44,46,48,50,52,54,56,58,60,62,64,66,68,70,72,74,76,78,-1,80,82,84,-1,-1,-1,86,88,90,92,94,96,98,100,102,104,106,108,110,112,114,116,118,-1,-1,-1,-1,-1,-1,-1,-1,-1,-1,-1,-1,-1,-1,-1,-1,-1,-1,-1,-1,-1,-1,-1,-1,-1,-1,-1,-1,-1,-1,-1,-1,-1,-1,-1,-1,-1,-1,-1,-1,-1,-1,-1,-1,-1,-1,-1,-1,-1,-1,-1,-1,-1,-1,-1,-1],"split_conditions":[-7.543832E-2,1.8675676E-1,-5.642513E-2,3.3007753E-1,2.0527367E-1,-2.0350029E-1,-3.006657E-1,2.544346E-1,2.5556812E-1,-5.6852955E-1,-7.1972245E-1,-4.68863E-3,-3.0562046E-1,-4.2279965E-1,1.6909395E-1,2.8373948E-1,-2.1278195E-1,8.211117E-1,2.6955828E-1,1.9593614E-1,-1.4092246E-3,5.8364594E-1,-5.371417E-1,-3.1988093E-1,3.645202E-2,3.7771285E-1,-2.9112795E-1,-3.0825557E-2,-8.095124E-3,-1.5213469E-1,2.8581136E-1,-1.7649855E-1,5.4550376E-2,-3.4631047E-1,-4.2038912E-1,3.9361924E-1,3.9695713E-1,-2.8838554E-2,-3.04583E-1,-1.7027028E-1,-5.276438E-1,9.707788E-2,7.7633925E-2,3.976744E-1,-1.12500004E-1,1.8947369E-1,4.7502798E-1,1.9496925E-1,4.5277125E-1,5.1527865E-2,-1.3157947E-1,5.630777E-1,3.0159667E-1,2.081336E-1,4.1750103E-2,-5.300456E-1,1.4746074E-1,4.901638E-1,-7.874415E-2,-2.6067385E-1,-1.829355E-1,-1.6525894E-1,3.6815548E-1,-3.042045E-2,7.320993E-2,-4.6541307E-2,4.9212225E-2,7.3770486E-2,-9.713914E-2,-1.2580645E-1,3.4256045E-2,-1.5594059E-1,1.8947369E-1,2.4827586E-1,-1.150376E-1,-1.0465116E-1,5.232558E-1,2.25E-1,-1.12500004E-1,-1.3235295E-1,1.8947369E-1,-6.0474318E-2,1.0359711E-1,-5.4605706E-3,1.9503917E-1,-1.552343E-1,4.736842E-2,-1.3392858E-1,4.9999993E-2,-4.742614E-2,2.032258E-1,3.8181815E-1,-2.7272733E-2,2.3478259E-1,-2.3269398E-2,-7.693209E-2,3.933161E-2,5.943396E-1,-1.2857144E-1,-1.2624435E-1,1.5882352E-1,8.569555E-2,2.276963E-2,1.8947369E-1,-1.4096385E-1,5.142857E-1,-1.0465116E-1,-7.214192E-2,2.25E-1,-1.12500004E-1,1.1759378E-1,2.1428572E-1,-1.563445E-2,1.22564055E-1,9.133362E-2,5.8582466E-2,-5.141088E-2,1.9672976E-1,3.944222E-2],"split_indices":[37,105,48,91,30,28,41,88,121,21,98,83,52,77,110,56,127,83,121,13,62,15,61,88,83,83,66,20,18,66,125,3,66,56,113,79,50,9,107,0,2,2,125,0,0,0,13,50,59,49,12,98,110,81,39,99,73,116,66,61,108,127,59,0,0,0,0,0,0,0,0,0,0,0,0,0,0,0,0,0,0,0,0,0,0,0,0,0,0,0,0,0,0,0,0,0,0,0,0,0,0,0,0,0,0,0,0,0,0,0,0,0,0,0,0,0,0,0,0],"split_type":[0,0,0,0,0,0,0,0,0,0,0,0,0,0,0,0,0,0,0,0,0,0,0,0,0,0,0,0,0,0,0,0,0,0,0,0,0,0,0,0,0,0,0,0,0,0,0,0,0,0,0,0,0,0,0,0,0,0,0,0,0,0,0,0,0,0,0,0,0,0,0,0,0,0,0,0,0,0,0,0,0,0,0,0,0,0,0,0,0,0,0,0,0,0,0,0,0,0,0,0,0,0,0,0,0,0,0,0,0,0,0,0,0,0,0,0,0,0,0],"sum_hessian":[8.179445E3,1.7908334E3,6.3886113E3,1.4213889E3,3.6944446E2,1.4288889E3,4.9597227E3,1.3483334E3,7.305556E1,3.0944446E2,6.0000004E1,4.0444446E2,1.0244445E3,1.9500002E2,4.7647227E3,1.0330557E3,3.152778E2,5.3611115E1,1.9444445E1,2.138889E1,2.8805557E2,3.0555558E0,5.6944447E1,2.4555557E2,1.588889E2,1.4055556E2,8.838889E2,1.0555556E1,1.8444446E2,3.6369446E3,1.1277778E3,7.497222E2,2.8333334E2,9.3611115E1,2.2166667E2,4.5000004E1,8.611112E0,2.777778E0,1.6666668E1,1.75E1,3.888889E0,1.6805556E2,1.2000001E2,1.388889E0,1.6666667E0,1.1111112E0,5.5833336E1,6.0000004E1,1.8555556E2,2E1,1.388889E2,1.3611111E2,4.4444447E0,4.3333336E1,8.405556E2,4.7222223E0,5.8333335E0,1.2750001E2,5.6944447E1,1.6611111E2,3.4708335E3,9.9111115E2,1.3666667E2,6.638889E1,6.833334E2,1.6444446E2,1.1888889E2,9.166667E0,8.444445E1,3.0000002E1,1.9166667E2,4.388889E1,1.1111112E0,2.2222223E0,6.3888893E0,1.388889E0,1.388889E0,1.6666667E0,1.5000001E1,2.777778E0,1.1111112E0,1.5361111E2,1.4444445E1,9.972223E1,2.0277779E1,5.4722225E1,1.1111112E0,5.5000004E1,5E0,1.813889E2,4.166667E0,1E1,1E1,6.666667E0,1.3222223E2,9.388889E1,4.2222225E1,1.9444445E0,2.5E0,3.5833336E1,7.5000005E0,5.077778E2,3.327778E2,1.1111112E0,3.6111112E0,4.4444447E0,1.388889E0,1.25833336E2,1.6666667E0,1.5000001E1,4.1944447E1,2E1,1.4611111E2,1.7397223E3,1.7311112E3,9.113889E2,7.972223E1,9.5833336E1,4.0833336E1],"tree_param":{"num_deleted":"0","num_feature":"128","num_nodes":"119","size_leaf_vector":"1"}},{"base_weights":[-5.1093394E-1,-2.238806E-1,-5.120514E-1,4.6874994E-1,-3.9553753E-1,-5.1627845E-1,-4.7425365E-1,-1.3561645E-1,1.2739725E0,4.285714E-1,-4.955357E-1,-5.178206E-1,-3.9344263E-1,3.658536E-1,-4.8062953E-1,2.0930227E-2,5.625E-1,3.3157894E-1,-1.0465116E-1,-1.7234042E-1,1.4651163E-1,-5.2043784E-1,-4.5374784E-1,-4.4680852E-1,3.2812497E-1,1.137931E0,-2.5301206E-1,2.752291E-2,-4.8759204E-1,-3.2251522E-1,-5.211474E-1,-4.700079E-1,1.5544016E-2,-4.7674417E-1,3.5294113E-1,-1.6666669E-1,4.7368422E-1,4.7368422E-1,4.736842E-2,4.736842E-2,-1.2857144E-1,9.9999994E-1,-3.2947978E-1,-4.9183702E-1,1.6666664E-1,1.6363636E-1,-1.4680852E-1,-1.5667057E-1,-1.2298137E-1,-1.451257E-1,-2.3316069E-2,2.8867924E-1,-9.113925E-2,-1.5241936E-1,6.9230765E-2,-1.12500004E-1,3.3157894E-1,1.125E-1,-1.3846155E-1,5.232558E-1,-9.4736844E-2,1.125E-1,-1.5734266E-1,2.1951213E-2,-1.4880814E-1,3.3157894E-1,-8.1818186E-2],"categories":[],"categories_nodes":[],"categories_segments":[],"categories_sizes":[],"default_left":[0,0,0,0,0,0,0,0,0,0,0,0,0,0,0,0,0,0,0,0,0,0,0,0,0,0,0,0,0,0,0,0,0,0,0,0,0,0,0,0,0,0,0,0,0,0,0,0,0,0,0,0,0,0,0,0,0,0,0,0,0,0,0,0,0,0,0],"id":2,"left_children":[1,3,5,7,9,11,13,-1,15,17,19,21,23,25,27,-1,-1,-1,-1,-1,-1,29,31,33,35,37,39,41,43,45,47,49,51,53,55,57,-1,-1,-1,-1,-1,59,61,63,65,-1,-1,-1,-1,-1,-1,-1,-1,-1,-1,-1,-1,-1,-1,-1,-1,-1,-1,-1,-1,-1,-1],"loss_changes":[2.5097656E0,4.168385E0,1.0571289E0,5.848459E0,2.4694743E0,1.1821289E0,4.631485E0,0E0,2.8044362E0,2.2267876E0,2.213479E0,9.752197E-1,3.8005047E0,3.5529602E0,2.9358215E0,0E0,0E0,0E0,0E0,0E0,0E0,8.05542E-1,2.2299652E0,2.2936935E0,4.664199E0,1.1433754E0,4.0030798E-1,4.534178E0,2.345169E0,4.23332E0,6.2145996E-1,1.480484E0,3.5339508E0,2.0229702E0,2.4833589E0,1.1314101E0,0E0,0E0,0E0,0E0,0E0,3.9779685E0,1.5169623E0,1.953659E0,2.775917E0,0E0,0E0,0E0,0E0,0E0,0E0,0E0,0E0,0E0,0E0,0E0,0E0,0E0,0E0,0E0,0E0,0E0,0E0,0E0,0E0,0E0,0E0],"parents":[2147483647,0,0,1,1,2,2,3,3,4,4,5,5,6,6,8,8,9,9,10,10,11,11,12,12,13,13,14,14,21,21,22,22,23,23,24,24,25,25,26,26,27,27,28,28,29,29,30,30,31,31,32,32,33,33,34,34,35,35,41,41,42,42,43,43,44,44],"right_children":[2,4,6,8,10,12,14,-1,16,18,20,22,24,26,28,-1,-1,-1,-1,-1,-1,30,32,34,36,38,40,42,44,46,48,50,52,54,56,58,-1,-1,-1,-1,-1,60,62,64,66,-1,-1,-1,-1,-1,-1,-1,-1,-1,-1,-1,-1,-1,-1,-1,-1,-1,-1,-1,-1,-1,-1],"split_conditions":[-9.54702E-1,-3.3771414E-1,3.978295E-1,-2.0857687E-1,-5.2715875E-2,5.173955E-1,-4.694645E-1,-1.3561645E-1,-1.7746946E-1,-3.889727E-1,6.396257E-1,4.0353337E-1,5.6731164E-1,2.4744123E-1,-1.6988568E-1,2.0930227E-2,5.625E-1,3.3157894E-1,-1.0465116E-1,-1.7234042E-1,1.4651163E-1,-9.182154E-1,2.633152E-1,7.205179E-1,1.9760774E-1,4.7740492E-1,-6.5815794E-1,-3.6637637E-1,7.86796E-1,1.7156114E-1,6.17291E-1,5.813061E-1,9.637548E-2,3.590755E-1,3.3427736E-1,1.00267336E-1,4.7368422E-1,4.7368422E-1,4.736842E-2,4.736842E-2,-1.2857144E-1,2.767897E-1,-3.2484588E-1,-6.2443674E-1,1.1921716E-1,1.6363636E-1,-1.4680852E-1,-1.5667057E-1,-1.2298137E-1,-1.451257E-1,-2.3316069E-2,2.8867924E-1,-9.113925E-2,-1.5241936E-1,6.9230765E-2,-1.12500004E-1,3.3157894E-1,1.125E-1,-1.3846155E-1,5.232558E-1,-9.4736844E-2,1.125E-1,-1.5734266E-1,2.1951213E-2,-1.4880814E-1,3.3157894E-1,-8.1818186E-2],"split_indices":[12,63,68,34,52,107,81,0,80,7,97,72,12,78,27,0,0,0,0,0,0,113,91,92,54,21,0,64,65,111,90,11,39,79,8,2,0,0,0,0,0,119,0,44,116,0,0,0,0,0,0,0,0,0,0,0,0,0,0,0,0,0,0,0,0,0,0],"split_type":[0,0,0,0,0,0,0,0,0,0,0,0,0,0,0,0,0,0,0,0,0,0,0,0,0,0,0,0,0,0,0,0,0,0,0,0,0,0,0,0,0,0,0,0,0,0,0,0,0,0,0,0,0,0,0,0,0,0,0,0,0,0,0,0,0,0,0],"sum_hessian":[8.179445E3,3.25E1,8.146945E3,6.1111116E0,2.638889E1,7.3161113E3,8.308334E2,3.0555558E0,3.0555558E0,2.5E0,2.388889E1,7.2222227E3,9.388889E1,5.8333335E0,8.2500006E2,1.388889E0,1.6666667E0,1.1111112E0,1.388889E0,2.2500002E1,1.388889E0,6.931945E3,2.902778E2,8.777778E1,6.1111116E0,2.2222223E0,3.6111112E0,1.1111112E1,8.138889E2,2.638889E1,6.9055557E3,2.8055557E2,9.722222E0,8.500001E1,2.777778E0,5E0,1.1111112E0,1.1111112E0,1.1111112E0,1.1111112E0,2.5E0,2.5E0,8.611112E0,8.088889E2,5E0,3.888889E0,2.2500002E1,6.8350005E3,7.055556E1,2.7083334E2,9.722222E0,1.9444445E0,7.777778E0,8.166667E1,3.3333335E0,1.6666667E0,1.1111112E0,1.6666667E0,3.3333335E0,1.388889E0,1.1111112E0,1.6666667E0,6.9444447E0,5.8333335E0,8.030556E2,1.1111112E0,3.888889E0],"tree_param":{"num_deleted":"0","num_feature":"128","num_nodes":"67","size_leaf_vector":"1"}},{"base_weights":[-1.6400903E-1,-1.5564351E-1,-2.8107777E-1,-2.8635806E-1,-1.4826795E-1,-2.4222167E-1,-4.2688912E-1,6.1224484E-1,-2.9780477E-1,-2.3905559E-1,-1.38859E-1,-3.593315E-1,-1.8568997E-1,-1.1214955E-1,-5.04914E-1,1.2857141E0,-1.1886793E-1,1.9266051E-1,-3.1222492E-1,-2.5240752E-1,1.9047615E-1,-1.3185278E-1,-2.5840628E-1,-2.1212122E-1,-4.8473567E-1,-1.9892988E-1,8.823529E-1,7.8082186E-1,-2.8150135E-1,-1.6738199E-1,-5.541401E-1,4.736842E-2,5.232558E-1,1.0273972E0,-2.02454E-1,-4.8066297E-1,-2.6777124E-1,-2.7376738E-1,3.202844E-2,6.5546215E-1,-1.5949367E-1,-1.3826579E-1,2.213277E-2,-3.5704944E-1,-1.1742986E-1,6.9230765E-1,-2.712766E-1,-5.095202E-1,1.125E-1,-4.157105E-1,-1.3841672E-1,5.232558E-1,-1.0465116E-1,4.7368422E-1,-1.6981138E-2,-1.6442308E-1,4.91803E-2,2.7209303E-1,-3.75E-1,-5.7789713E-1,-2.3437501E-1,4.924528E-1,-9.4736844E-2,1.5517241E-1,-1.5365854E-1,-1.506438E-1,2.6470581E-2,6.891263E-3,-9.148253E-2,-1.330155E-1,-7.284294E-2,-6.2476553E-2,1.2621951E-1,4.359375E-1,-7.031251E-2,-4.082988E-2,-1.4309065E-1,4.9563456E-2,-7.7924654E-2,8.0898866E-2,-1.15724824E-1,-4.2663664E-2,2.6470587E-1,4.5E-1,-1.12500004E-1,-9.3442634E-2,2.25E-1,-1.604101E-1,4.2857137E-2,-1.3692023E-1,8.6301364E-2,-1.2284123E-1,-2.42247E-2,1.6601941E-1,-1.4693879E-1,8.4905654E-2,-1.6127169E-1,-8.1818186E-2,-1.7737228E-1,1.8947369E-1,-1.5E-1],"categories":[],"categories_nodes":[],"categories_segments":[],"categories_sizes":[],"default_left":[0,0,0,0,0,0,0,0,0,0,0,0,0,0,0,0,0,0,0,0,0,0,0,0,0,0,0,0,0,0,0,0,0,0,0,0,0,0,0,0,0,0,0,0,0,0,0,0,0,0,0,0,0,0,0,0,0,0,0,0,0,0,0,0,0,0,0,0,0,0,0,0,0,0,0,0,0,0,0,0,0,0,0,0,0,0,0,0,0,0,0,0,0,0,0,0,0,0,0,0,0],"id":3,"left_children":[1,3,5,7,9,11,13,15,17,19,21,23,25,27,29,31,-1,33,35,37,39,41,43,45,47,49,51,53,55,57,59,-1,-1,61,63,65,67,69,71,73,-1,75,77,79,81,83,85,87,-1,89,91,-1,-1,-1,-1,-1,93,-1,95,97,99,-1,-1,-1,-1,-1,-1,-1,-1,-1,-1,-1,-1,-1,-1,-1,-1,-1,-1,-1,-1,-1,-1,-1,-1,-1,-1,-1,-1,-1,-1,-1,-1,-1,-1,-1,-1,-1,-1,-1,-1],"loss_changes":[7.967697E0,7.3204193E0,2.98061E0,4.3670425E0,6.1438904E0,2.794033E0,2.7238293E0,4.207162E0,2.9060783E0,3.9345474E0,5.4559097E0,2.4745064E0,4.3258514E0,3.815628E0,1.4100189E0,1.5343595E0,0E0,4.202446E0,2.801056E0,4.004425E0,7.3997793E0,6.119484E0,4.9898567E0,3.718928E0,1.7808933E0,3.756176E0,4.6169634E0,2.7999887E0,1.853653E0,3.2274554E0,4.6089172E-1,0E0,0E0,3.863666E0,2.283586E0,1.0274677E0,3.376997E0,3.1050491E0,4.461807E0,9.725576E0,0E0,4.297859E0,1.0065234E1,3.9241753E0,3.8530388E0,4.2980766E0,2.8063307E0,1.2746391E0,0E0,1.9328108E0,3.5429769E0,0E0,0E0,0E0,0E0,0E0,3.0339592E0,0E0,1.3883055E0,1.3352966E-1,1.9514804E0,0E0,0E0,0E0,0E0,0E0,0E0,0E0,0E0,0E0,0E0,0E0,0E0,0E0,0E0,0E0,0E0,0E0,0E0,0E0,0E0,0E0,0E0,0E0,0E0,0E0,0E0,0E0,0E0,0E0,0E0,0E0,0E0,0E0,0E0,0E0,0E0,0E0,0E0,0E0,0E0],"parents":[2147483647,0,0,1,1,2,2,3,3,4,4,5,5,6,6,7,7,8,8,9,9,10,10,11,11,12,12,13,13,14,14,15,15,17,17,18,18,19,19,20,20,21,21,22,22,23,23,24,24,25,25,26,26,27,27,28,28,29,29,30,30,33,33,34,34,35,35,36,36,37,37,38,38,39,39,41,41,42,42,43,43,44,44,45,45,46,46,47,47,49,49,50,50,56,56,58,58,59,59,60,60],"right_children":[2,4,6,8,10,12,14,16,18,20,22,24,26,28,30,32,-1,34,36,38,40,42,44,46,48,50,52,54,56,58,60,-1,-1,62,64,66,68,70,72,74,-1,76,78,80,82,84,86,88,-1,90,92,-1,-1,-1,-1,-1,94,-1,96,98,100,-1,-1,-1,-1,-1,-1,-1,-1,-1,-1,-1,-1,-1,-1,-1,-1,-1,-1,-1,-1,-1,-1,-1,-1,-1,-1,-1,-1,-1,-1,-1,-1,-1,-1,-1,-1,-1,-1,-1,-1],"split_conditions":[3.8798833E-1,-1.6969462E-1,-2.6581597E-1,-5.265373E-1,-2.7211443E-1,-5.0764734E-1,-1.23931535E-1,1.6910051E-1,-6.76633E-1,7.7270484E-1,3.1601492E-1,5.957833E-1,6.540638E-1,-3.3759922E-1,-2.1646224E-1,-3.54671E-2,-1.1886793E-1,1.3436022E-2,-3.067846E-1,2.9094955E-1,2.6327926E-1,5.203576E-1,-3.9535195E-1,-8.4320045E-1,4.0119055E-1,-8.679955E-2,-4.7142407E-1,-5.0287843E-2,1.2364367E-1,-1.6202807E-1,5.8586013E-1,4.736842E-2,5.232558E-1,4.81515E-1,-1.8908614E-1,3.26337E-1,-1.4520693E-1,-2.1331796E-1,-3.5747352E-1,-2.2247122E-1,-1.5949367E-1,1.0318319E0,4.770671E-1,1.6231425E-2,1.6116014E-1,2.9276129E-2,5.3114486E-1,4.126902E-1,1.125E-1,-7.281162E-2,3.949532E-2,5.232558E-1,-1.0465116E-1,4.7368422E-1,-1.6981138E-2,-1.6442308E-1,-5.1396366E-2,2.7209303E-1,-7.3866814E-1,-6.373091E-1,-6.0911024E-1,4.924528E-1,-9.4736844E-2,1.5517241E-1,-1.5365854E-1,-1.506438E-1,2.6470581E-2,6.891263E-3,-9.148253E-2,-1.330155E-1,-7.284294E-2,-6.2476553E-2,1.2621951E-1,4.359375E-1,-7.031251E-2,-4.082988E-2,-1.4309065E-1,4.9563456E-2,-7.7924654E-2,8.0898866E-2,-1.15724824E-1,-4.2663664E-2,2.6470587E-1,4.5E-1,-1.12500004E-1,-9.3442634E-2,2.25E-1,-1.604101E-1,4.2857137E-2,-1.3692023E-1,8.6301364E-2,-1.2284123E-1,-2.42247E-2,1.6601941E-1,-1.4693879E-1,8.4905654E-2,-1.6127169E-1,-8.1818186E-2,-1.7737228E-1,1.8947369E-1,-1.5E-1],"split_indices":[99,66,82,26,122,106,3,62,70,104,103,99,30,112,66,0,0,62,6,99,127,87,64,52,91,77,106,33,8,16,48,0,0,107,75,24,92,53,122,50,0,6,83,92,9,22,49,58,0,57,108,0,0,0,0,0,116,0,63,15,45,0,0,0,0,0,0,0,0,0,0,0,0,0,0,0,0,0,0,0,0,0,0,0,0,0,0,0,0,0,0,0,0,0,0,0,0,0,0,0,0],"split_type":[0,0,0,0,0,0,0,0,0,0,0,0,0,0,0,0,0,0,0,0,0,0,0,0,0,0,0,0,0,0,0,0,0,0,0,0,0,0,0,0,0,0,0,0,0,0,0,0,0,0,0,0,0,0,0,0,0,0,0,0,0,0,0,0,0,0,0,0,0,0,0,0,0,0,0,0,0,0,0,0,0,0,0,0,0,0,0,0,0,0,0,0,0,0,0,0,0,0,0,0,0],"sum_hessian":[8.179445E3,7.6361113E3,5.433334E2,4.0583334E2,7.2302783E3,4.3111115E2,1.1222223E2,4.4444447E0,4.0138892E2,6.766667E2,6.5536113E3,1.3861111E2,2.925E2,2.2777779E1,8.944445E1,2.5E0,1.9444445E0,1.1111112E1,3.902778E2,6.566667E2,2E1,6.192778E3,3.6083334E2,6.5E1,7.3611115E1,2.8972223E2,2.777778E0,3.0555558E0,1.9722223E1,1.1944445E1,7.75E1,1.1111112E0,1.388889E0,3.0555558E0,8.055556E0,7.944445E1,3.1083334E2,6.108334E2,4.5833336E1,1.2222223E1,7.777778E0,5.945278E3,2.4750002E2,2.113889E2,1.4944446E2,3.3333335E0,6.1666668E1,7.194445E1,1.6666667E0,6.1944447E1,2.2777779E2,1.388889E0,1.388889E0,1.1111112E0,1.9444445E0,1.0555556E1,9.166667E0,1.388889E0,1.0555556E1,7.138889E1,6.1111116E0,1.9444445E0,1.1111112E0,2.2222223E0,5.8333335E0,7.666667E1,2.777778E0,3.527778E1,2.7555557E2,9.222223E1,5.1861115E2,2.8611113E1,1.7222223E1,6.1111116E0,6.1111116E0,5.908889E3,3.638889E1,1.6444446E2,8.305556E1,8.888889E0,2.0250002E2,1.4666667E2,2.777778E0,1.6666667E0,1.6666667E0,6.0000004E1,1.6666667E0,6.944445E1,2.5E0,5.8888893E1,3.0555558E0,3.888889E1,1.888889E2,4.7222223E0,4.4444447E0,1.9444445E0,8.611112E0,3.888889E0,6.75E1,1.1111112E0,5E0],"tree_param":{"num_deleted":"0","num_feature":"128","num_nodes":"101","size_leaf_vector":"1"}},{"base_weights":[1.3560791E-1,1.4319913E-1,-1.8633567E-2,1.4005601E-1,4.2522752E-1,-2.5925928E-1,4.5413066E-2,-3.7065637E-1,1.4195032E-1,1.134715E0,3.191489E-1,-4.2062572E-1,-2.4469845E-2,-5.6517337E-2,2.994278E-1,-5.2941173E-1,1.8749997E-1,1.2672079E-1,2.024619E-1,-3.6144596E-2,1.7343749E0,3.8801256E-1,-1.5132743E-1,-4.5907474E-1,1.8947369E-1,2.7272722E-1,-4.2537314E-1,-2.5403225E-1,6.34662E-2,5.982903E-2,7.5836426E-1,4.736842E-2,-1.7164949E-1,3.976744E-1,-3.2038835E-1,7.677447E-2,1.5209143E-1,1.950005E-1,9.280575E-1,1.8947369E-1,-1.2857144E-1,4.736842E-2,1.9999999E0,-6.250002E-2,5.11022E-1,-9.3750015E-2,-5.115962E-1,1.3846153E0,-2.9702993E-2,-1.6693549E-1,1.8947369E-1,-2.8610355E-1,3.3157894E-1,-3.6898395E-1,2.4999996E-1,-2.3875433E-1,4.0770787E-1,1.1413043E0,-6.382981E-2,4.736842E-2,-1.4096385E-1,4.7598477E-2,1.2583077E-2,4.420041E-2,1.695652E-1,7.091085E-2,3.2807283E-2,-7.964608E-3,4.278688E-1,7.0481926E-1,1.4651163E-1,-1.0531916E-1,1.2203389E-1,-7.031251E-2,1.8243241E-1,-1.5E-1,3.3157894E-1,4.736842E-2,-1.6030855E-1,5.943396E-1,2.0930227E-2,2.7692306E-1,-1.0000001E-1,3.764258E-2,-1.111202E-1,-7.4113666E-9,-1.5390335E-1,-6.617648E-2,1.1704035E-1,8.7969914E-2,-1.14686824E-1,5.2941166E-2,3.7572816E-1,5.625E-1,2.093023E-1,2.9999998E-1,-1.5734266E-1],"categories":[],"categories_nodes":[],"categories_segments":[],"categories_sizes":[],"default_left":[0,0,0,0,0,0,0,0,0,0,0,0,0,0,0,0,0,0,0,0,0,0,0,0,0,0,0,0,0,0,0,0,0,0,0,0,0,0,0,0,0,0,0,0,0,0,0,0,0,0,0,0,0,0,0,0,0,0,0,0,0,0,0,0,0,0,0,0,0,0,0,0,0,0,0,0,0,0,0,0,0,0,0,0,0,0,0,0,0,0,0,0,0,0,0,0,0],"id":4,"left_children":[1,3,5,7,9,11,13,15,17,19,21,23,25,27,29,31,33,35,37,39,41,43,-1,45,-1,47,49,51,53,55,57,-1,-1,-1,59,61,63,65,67,-1,-1,-1,69,71,73,75,77,79,81,-1,-1,83,-1,85,87,89,91,93,95,-1,-1,-1,-1,-1,-1,-1,-1,-1,-1,-1,-1,-1,-1,-1,-1,-1,-1,-1,-1,-1,-1,-1,-1,-1,-1,-1,-1,-1,-1,-1,-1,-1,-1,-1,-1,-1,-1],"loss_changes":[9.580994E0,6.851944E0,5.939119E0,7.5139923E0,6.068531E0,3.0585651E0,7.90386E0,2.6492732E0,7.056198E0,7.590946E0,4.4902573E0,2.2295923E0,4.1736383E0,5.1876707E0,9.563965E0,7.563906E-1,4.535053E0,7.7714157E0,8.175472E0,1.4789383E0,2.6620102E0,3.9357796E0,0E0,8.50647E-1,0E0,6.8225436E0,2.4142044E0,3.9200196E0,1.1107713E1,6.173786E0,9.483397E0,0E0,0E0,0E0,4.833253E-1,5.9002514E0,7.918953E0,5.391529E0,7.382594E0,0E0,0E0,0E0,2.021572E0,2.3094797E0,4.15491E0,4.016447E0,7.0503616E-1,3.260538E0,5.177456E0,0E0,0E0,2.876038E0,0E0,2.208417E0,6.4168425E0,2.5640678E0,5.1288714E0,5.3463097E0,5.642761E0,0E0,0E0,0E0,0E0,0E0,0E0,0E0,0E0,0E0,0E0,0E0,0E0,0E0,0E0,0E0,0E0,0E0,0E0,0E0,0E0,0E0,0E0,0E0,0E0,0E0,0E0,0E0,0E0,0E0,0E0,0E0,0E0,0E0,0E0,0E0,0E0,0E0,0E0],"parents":[2147483647,0,0,1,1,2,2,3,3,4,4,5,5,6,6,7,7,8,8,9,9,10,10,11,11,12,12,13,13,14,14,15,15,16,16,17,17,18,18,19,19,20,20,21,21,23,23,25,25,26,26,27,27,28,28,29,29,30,30,34,34,35,35,36,36,37,37,38,38,42,42,43,43,44,44,45,45,46,46,47,47,48,48,51,51,53,53,54,54,55,55,56,56,57,57,58,58],"right_children":[2,4,6,8,10,12,14,16,18,20,22,24,26,28,30,32,34,36,38,40,42,44,-1,46,-1,48,50,52,54,56,58,-1,-1,-1,60,62,64,66,68,-1,-1,-1,70,72,74,76,78,80,82,-1,-1,84,-1,86,88,90,92,94,96,-1,-1,-1,-1,-1,-1,-1,-1,-1,-1,-1,-1,-1,-1,-1,-1,-1,-1,-1,-1,-1,-1,-1,-1,-1,-1,-1,-1,-1,-1,-1,-1,-1,-1,-1,-1,-1,-1],"split_conditions":[2.950076E-1,7.1696115E-1,-5.3459E-1,-9.54702E-1,-1.5468879E-1,2.722843E-2,6.2318176E-2,-3.8931645E-2,2.7853218E-1,-2.5045606E-1,-1.9937595E-2,-1.3216936E-2,1.7466216E-1,-7.5681694E-2,2.6803005E-1,-3.6642128E-1,2.4614485E-3,-8.7476216E-2,8.68296E-1,-4.5470634E-1,-4.1578278E-1,-5.5808537E-2,-1.5132743E-1,-4.7528902E-1,1.8947369E-1,-9.194495E-2,2.3332687E-1,4.4679025E-1,-2.6359922E-1,-1.0318257E-1,-2.3325074E-1,4.736842E-2,-1.7164949E-1,3.976744E-1,-1.3716674E-1,-2.2492367E-1,4.1931787E-1,2.1314973E-1,2.4210173E-1,1.8947369E-1,-1.2857144E-1,4.736842E-2,7.8566974E-1,3.563019E-1,2.0583047E-1,-4.859276E-1,-1.3099176E-1,-1.3906653E-1,-1.2197342E-1,-1.6693549E-1,1.8947369E-1,-4.1192284E-1,3.3157894E-1,-2.1948484E-1,-1.2907246E-1,7.0707835E-2,-9.518534E-2,1.4867368E-1,-4.8974043E-1,4.736842E-2,-1.4096385E-1,4.7598477E-2,1.2583077E-2,4.420041E-2,1.695652E-1,7.091085E-2,3.2807283E-2,-7.964608E-3,4.278688E-1,7.0481926E-1,1.4651163E-1,-1.0531916E-1,1.2203389E-1,-7.031251E-2,1.8243241E-1,-1.5E-1,3.3157894E-1,4.736842E-2,-1.6030855E-1,5.943396E-1,2.0930227E-2,2.7692306E-1,-1.0000001E-1,3.764258E-2,-1.111202E-1,-7.4113666E-9,-1.5390335E-1,-6.617648E-2,1.1704035E-1,8.7969914E-2,-1.14686824E-1,5.2941166E-2,3.7572816E-1,5.625E-1,2.093023E-1,2.9999998E-1,-1.5734266E-1],"split_indices":[53,64,11,12,30,70,59,109,122,108,32,32,74,4,28,39,109,123,19,1,95,71,0,96,0,110,33,48,103,57,13,0,0,0,0,63,115,1,26,0,0,0,89,105,46,109,62,125,14,0,0,109,0,102,97,10,4,59,18,0,0,0,0,0,0,0,0,0,0,0,0,0,0,0,0,0,0,0,0,0,0,0,0,0,0,0,0,0,0,0,0,0,0,0,0,0,0],"split_type":[0,0,0,0,0,0,0,0,0,0,0,0,0,0,0,0,0,0,0,0,0,0,0,0,0,0,0,0,0,0,0,0,0,0,0,0,0,0,0,0,0,0,0,0,0,0,0,0,0,0,0,0,0,0,0,0,0,0,0,0,0,0,0,0,0,0,0,0,0,0,0,0,0,0,0,0,0,0,0,0,0,0,0,0,0,0,0,0,0,0,0,0,0,0,0,0,0],"sum_hessian":[8.179445E3,7.7958335E3,3.836111E2,7.711389E3,8.444445E1,8E1,3.036111E2,2.7777779E1,7.6836113E3,9.722222E0,7.472223E1,4.6944447E1,3.3055557E1,2.1722223E2,8.638889E1,2.1666668E1,6.1111116E0,6.1411113E3,1.5425001E3,3.6111112E0,6.1111116E0,6.944445E1,5.277778E0,4.5833336E1,1.1111112E0,1.9166668E1,1.3888889E1,8.166667E1,1.3555556E2,5.7500004E1,2.888889E1,1.1111112E0,2.0555557E1,1.388889E0,4.7222223E0,2.07E3,4.0711113E3,1.5280557E3,1.4444445E1,1.1111112E0,2.5E0,1.1111112E0,5E0,1.5000001E1,5.4444447E1,6.1111116E0,3.9722225E1,3.3333335E0,1.5833334E1,1.2777779E1,1.1111112E0,8.055556E1,1.1111112E0,4.0555557E1,9.500001E1,3.1111113E1,2.638889E1,1.9444445E1,9.444445E0,1.1111112E0,3.6111112E0,6.166667E2,1.4533334E3,4.0261113E3,4.5000004E1,1.0291667E3,4.9888892E2,5.277778E0,9.166667E0,3.6111112E0,1.388889E0,9.444445E0,5.555556E0,6.1111116E0,4.8333336E1,5E0,1.1111112E0,1.1111112E0,3.8611115E1,1.9444445E0,1.388889E0,3.3333335E0,1.2500001E1,1.3611112E1,6.694445E1,1.1666667E1,2.888889E1,2.1666668E1,7.3333336E1,6.3888893E0,2.4722223E1,2.1666668E1,4.7222223E0,6.1111116E0,1.3333334E1,2.5E0,6.9444447E0],"tree_param":{"num_deleted":"0","num_feature":"128","num_nodes":"97","size_leaf_vector":"1"}},{"base_weights":[3.1102625E-1,7.079546E-1,2.8271002E-1,5.853357E-1,1.0561708E0,2.3632362E-1,4.4157428E-1,2.6107845E-1,6.9528365E-1,1.2683245E0,7.190569E-1,2.0036949E-1,4.0392902E-1,3.927846E-1,6.105734E-1,1.1052631E0,1.425135E-1,9.4496477E-1,5.7784903E-1,2.028777E0,1.0835961E0,9.2557013E-1,-1.9211824E-1,1.7128506E-1,3.7638906E-1,9.795917E-1,3.8494477E-1,6.039562E-1,3.3934116E-1,5.046385E-1,1.0944624E0,1.5433525E0,-2.0547946E-1,8.741473E-2,1.4117646E0,1.755319E0,8.348504E-1,1.1921396E0,4.8938745E-1,8.4905654E-2,2.259259E0,2.2340421E-1,1.2131146E0,1.8607594E0,6.8831164E-1,-1.5949367E-1,7.142857E-1,7.1623456E-1,1.6588652E-1,1.5189872E0,3.611337E-1,3.5836172E-1,1.5047922E0,6.7552894E-1,3.5184276E-1,1.5137614E0,5.589941E-1,6.299659E-1,2.9293287E-1,1.2109532E0,4.3642607E-1,1.4940238E0,4.4421902E-1,5.470588E-1,-9.4736844E-2,4.736842E-2,-1.1886793E-1,8.637228E-3,4.2352942E-1,4.736842E-2,5.625E-1,1.8433735E-1,6.8048775E-1,-5.6962032E-2,2.8197426E-1,-1.3846155E-1,4.3869343E-1,3.9458126E-1,1.2981047E-1,1.4651163E-1,7.2660553E-1,-4.405595E-2,2.9999998E-1,4.0703043E-1,7.177913E-2,4.736842E-2,6.260869E-1,4.134275E-2,3.0700934E-1,-9.4736844E-2,3.976744E-1,1.562874E-1,6.39759E-1,4.805593E-2,1.7494988E-1,5.478261E-1,-9.4736844E-2,2.094629E-1,9.750066E-2,-3.103449E-2,3.5E-1,8.737857E-3,6.157894E-1,4.1908395E-1,1.4223433E-1,1.01901464E-1,3.8076922E-1,6.254237E-1,2.1355931E-1,3.113744E-1,1.4442793E-1,1.7238542E-1,5.5E-1,8.287951E-2,3.1173182E-1,1.836734E-2,4.292978E-1,2.3987974E-1,1.0483795E-1,1.06993E-1,5.1305735E-1,-2.686568E-2,2.9999998E-1],"categories":[],"categories_nodes":[],"categories_segments":[],"categories_sizes":[],"default_left":[0,0,0,0,0,0,0,0,0,0,0,0,0,0,0,0,0,0,0,0,0,0,0,0,0,0,0,0,0,0,0,0,0,0,0,0,0,0,0,0,0,0,0,0,0,0,0,0,0,0,0,0,0,0,0,0,0,0,0,0,0,0,0,0,0,0,0,0,0,0,0,0,0,0,0,0,0,0,0,0,0,0,0,0,0,0,0,0,0,0,0,0,0,0,0,0,0,0,0,0,0,0,0,0,0,0,0,0,0,0,0,0,0,0,0,0,0,0,0,0,0,0,0],"id":5,"left_children":[1,3,5,7,9,11,13,15,17,19,21,23,25,27,29,31,33,35,37,39,41,43,45,47,49,51,53,55,57,59,61,63,65,67,69,71,73,75,77,-1,79,81,83,85,87,-1,89,91,93,95,97,99,101,103,105,107,109,111,113,115,117,119,121,-1,-1,-1,-1,-1,-1,-1,-1,-1,-1,-1,-1,-1,-1,-1,-1,-1,-1,-1,-1,-1,-1,-1,-1,-1,-1,-1,-1,-1,-1,-1,-1,-1,-1,-1,-1,-1,-1,-1,-1,-1,-1,-1,-1,-1,-1,-1,-1,-1,-1,-1,-1,-1,-1,-1,-1,-1,-1,-1,-1],"loss_changes":[9.174408E1,2.2611816E1,5.6176636E1,1.4243439E1,9.132599E0,3.5554474E1,1.3982605E1,1.0257479E1,8.295944E0,9.7265625E0,1.0819866E1,2.4872253E1,1.102684E1,1.4932358E1,1.9163132E1,7.5906105E0,6.337732E0,7.001663E0,1.0701424E1,5.5749016E0,7.5772552E0,8.987404E0,3.8504703E0,1.21846695E1,1.147673E1,1.0118904E1,9.495071E0,1.0182732E1,1.4282944E1,1.476313E1,1.7061287E1,5.5821686E0,3.4366286E-1,6.916639E0,1.8982196E0,4.718651E0,9.3775215E0,1.2042912E1,8.008606E0,0E0,2.7082443E0,3.150052E0,8.209091E0,3.0515308E0,6.9601955E0,0E0,2.6224866E0,1.015156E1,9.759422E0,5.5225773E0,8.080551E0,6.1969123E0,1.3997875E1,1.42151985E1,9.73468E0,4.061266E0,9.103279E0,8.726192E0,1.1240067E1,6.841381E0,8.911457E0,9.6754E0,8.214737E0,0E0,0E0,0E0,0E0,0E0,0E0,0E0,0E0,0E0,0E0,0E0,0E0,0E0,0E0,0E0,0E0,0E0,0E0,0E0,0E0,0E0,0E0,0E0,0E0,0E0,0E0,0E0,0E0,0E0,0E0,0E0,0E0,0E0,0E0,0E0,0E0,0E0,0E0,0E0,0E0,0E0,0E0,0E0,0E0,0E0,0E0,0E0,0E0,0E0,0E0,0E0,0E0,0E0,0E0,0E0,0E0,0E0,0E0,0E0,0E0],"parents":[2147483647,0,0,1,1,2,2,3,3,4,4,5,5,6,6,7,7,8,8,9,9,10,10,11,11,12,12,13,13,14,14,15,15,16,16,17,17,18,18,19,19,20,20,21,21,22,22,23,23,24,24,25,25,26,26,27,27,28,28,29,29,30,30,31,31,32,32,33,33,34,34,35,35,36,36,37,37,38,38,40,40,41,41,42,42,43,43,44,44,46,46,47,47,48,48,49,49,50,50,51,51,52,52,53,53,54,54,55,55,56,56,57,57,58,58,59,59,60,60,61,61,62,62],"right_children":[2,4,6,8,10,12,14,16,18,20,22,24,26,28,30,32,34,36,38,40,42,44,46,48,50,52,54,56,58,60,62,64,66,68,70,72,74,76,78,-1,80,82,84,86,88,-1,90,92,94,96,98,100,102,104,106,108,110,112,114,116,118,120,122,-1,-1,-1,-1,-1,-1,-1,-1,-1,-1,-1,-1,-1,-1,-1,-1,-1,-1,-1,-1,-1,-1,-1,-1,-1,-1,-1,-1,-1,-1,-1,-1,-1,-1,-1,-1,-1,-1,-1,-1,-1,-1,-1,-1,-1,-1,-1,-1,-1,-1,-1,-1,-1,-1,-1,-1,-1,-1,-1,-1],"split_conditions":[-1.6969462E-1,3.1896025E-1,7.980123E-2,-3.0127296E-1,-2.7175286E-1,5.303993E-2,2.511399E-1,-3.1872648E-1,-2.3143095E-1,-4.2515317E-1,3.6283275E-1,1.1153392E-1,-5.263582E-1,-1.6677114E-1,2.7848247E-2,4.3392196E-2,3.7091005E-1,-4.248004E-1,-3.551117E-1,-3.3402508E-1,-1.4071989E-1,1.98388E-3,5.496662E-1,-3.778993E-1,-8.721589E-1,1.2237627E-1,-3.4626713E-1,-4.6788967E-1,-1.4369465E-1,-1.21713884E-1,9.986052E-2,2.5683683E-1,-2.8226382E-1,6.123106E-1,-1.0044165E-1,-2.4906008E-1,-4.9966282E-1,-3.3773914E-1,-3.3851182E-1,8.4905654E-2,1.189309E-1,8.717015E-2,8.212096E-1,1.8795876E-2,-5.450648E-2,-1.5949367E-1,1.8683231E-1,-2.5104052E-1,8.295269E-1,7.2376263E-1,-4.5919037E-1,8.619657E-2,-3.035723E-1,1.0003313E-1,7.1928227E-1,-1.9739209E-1,-3.162226E-1,6.654795E-1,6.6549945E-1,-3.079594E-1,6.506631E-2,4.7847636E-2,6.166696E-2,5.470588E-1,-9.4736844E-2,4.736842E-2,-1.1886793E-1,8.637228E-3,4.2352942E-1,4.736842E-2,5.625E-1,1.8433735E-1,6.8048775E-1,-5.6962032E-2,2.8197426E-1,-1.3846155E-1,4.3869343E-1,3.9458126E-1,1.2981047E-1,1.4651163E-1,7.2660553E-1,-4.405595E-2,2.9999998E-1,4.0703043E-1,7.177913E-2,4.736842E-2,6.260869E-1,4.134275E-2,3.0700934E-1,-9.4736844E-2,3.976744E-1,1.562874E-1,6.39759E-1,4.805593E-2,1.7494988E-1,5.478261E-1,-9.4736844E-2,2.094629E-1,9.750066E-2,-3.103449E-2,3.5E-1,8.737857E-3,6.157894E-1,4.1908395E-1,1.4223433E-1,1.01901464E-1,3.8076922E-1,6.254237E-1,2.1355931E-1,3.113744E-1,1.4442793E-1,1.7238542E-1,5.5E-1,8.287951E-2,3.1173182E-1,1.836734E-2,4.292978E-1,2.3987974E-1,1.0483795E-1,1.06993E-1,5.1305735E-1,-2.686568E-2,2.9999998E-1],"split_indices":[66,53,117,91,66,91,80,122,23,111,15,33,36,39,96,24,105,8,3,14,30,76,90,52,124,85,27,122,81,9,14,53,0,32,36,15,62,54,61,0,47,61,96,25,21,0,3,23,45,42,5,97,88,111,8,95,28,117,87,43,20,127,93,0,0,0,0,0,0,0,0,0,0,0,0,0,0,0,0,0,0,0,0,0,0,0,0,0,0,0,0,0,0,0,0,0,0,0,0,0,0,0,0,0,0,0,0,0,0,0,0,0,0,0,0,0,0,0,0,0,0,0,0],"split_type":[0,0,0,0,0,0,0,0,0,0,0,0,0,0,0,0,0,0,0,0,0,0,0,0,0,0,0,0,0,0,0,0,0,0,0,0,0,0,0,0,0,0,0,0,0,0,0,0,0,0,0,0,0,0,0,0,0,0,0,0,0,0,0,0,0,0,0,0,0,0,0,0,0,0,0,0,0,0,0,0,0,0,0,0,0,0,0,0,0,0,0,0,0,0,0,0,0,0,0,0,0,0,0,0,0,0,0,0,0,0,0,0,0,0,0,0,0,0,0,0,0,0,0],"sum_hessian":[8.179445E3,5.430556E2,7.636389E3,4.0361115E2,1.3944446E2,5.9125005E3,1.7238889E3,1.0305556E2,3.0055557E2,8.388889E1,5.5555557E1,4.87E3,1.0425E3,1.3402778E3,3.836111E2,1.1666667E1,9.138889E1,9.388889E1,2.0666667E2,1.4444445E1,6.944445E1,4.527778E1,1.0277779E1,4.1811113E3,6.888889E2,3.1666668E1,1.0108334E3,2.686111E2,1.0716667E3,3.1638892E2,6.722223E1,8.611112E0,3.0555558E0,8.8611115E1,2.777778E0,9.444445E0,8.444445E1,2.4444447E1,1.8222223E2,1.9444445E0,1.2500001E1,9.444445E0,6.0000004E1,7.777778E0,3.75E1,7.777778E0,2.5E0,3.9722225E1,4.141389E3,7.777778E0,6.8111115E2,1.5277779E1,1.638889E1,1.0138889E2,9.0944446E2,1.1111112E1,2.575E2,1.4583334E2,9.258334E2,2.638889E1,2.9E2,4.0833336E1,2.638889E1,7.5000005E0,1.1111112E0,1.1111112E0,1.9444445E0,8.5833336E1,2.777778E0,1.1111112E0,1.6666667E0,3.6111112E0,5.8333335E0,7.777778E0,7.666667E1,3.3333335E0,2.1111113E1,1.0277779E1,1.7194446E2,1.388889E0,1.1111112E1,6.9444447E0,2.5E0,5.1944447E1,8.055556E0,1.1111112E0,6.666667E0,1.4722223E1,2.2777779E1,1.1111112E0,1.388889E0,3.6111115E1,3.6111112E0,4.0869446E3,5.4444447E1,6.666667E0,1.1111112E0,6.416667E1,6.1694446E2,1.0277779E1,5E0,4.7222223E0,1.1666667E1,2.0833334E1,8.055556E1,8.988889E2,1.0555556E1,5.555556E0,5.555556E0,3.4166668E1,2.2333334E2,1.4083334E2,5E0,9.0694446E2,1.888889E1,4.4444447E0,2.1944445E1,5.4444447E1,2.3555557E2,6.9444447E0,3.388889E1,1.3888889E1,1.2500001E1],"tree_param":{"num_deleted":"0","num_feature":"128","num_nodes":"123","size_leaf_vector":"1"}},{"base_weights":[2.4911037E-2,4.2176597E-2,-1.8530862E-2,5.2138394E-1,3.9791837E-2,4.711416E-2,-5.494168E-2,1.5759234E-1,1.1262035E0,-1.7633083E-1,4.499665E-2,4.4147903E-1,1.7547566E-2,9.261847E-2,-8.131436E-2,-4.2976442E-1,6.467851E-1,1.6645111E0,2.5950956E-1,-3.0399105E-1,1.1435341E-1,2.9336238E-1,4.0918823E-2,5.696751E-1,-4.055723E-1,-1.1398253E-1,6.2051713E-2,1.0060891E0,6.0050637E-2,-1.9737138E-1,-4.634812E-2,-1.5873604E-1,5.29042E-2,-1.300301E-1,1.0504626E0,6.538304E-1,4.989133E-1,3.5118857E-1,-1.3134342E-1,-3.457301E-1,1.4816396E-1,1.1337206E0,-3.613439E-2,-3.0657747E-1,4.100743E-1,6.4607754E-2,-7.1349926E-3,8.458456E-1,3.2267738E-2,5.215257E-2,-1.5507339E-1,5.2930015E-1,-1.6510609E-1,7.9170935E-2,-4.608299E-1,-1.0886851E-1,1.3806691E0,3.1150544E-1,-6.856837E-2,8.253779E-1,-2.1293534E-1,-7.6109655E-2,1.1706217E-1,4.405181E-1,-1.1243694E-1,-9.598691E-2,3.243285E-1,-1.1622199E-1,5.4290496E-2,3.2964864E-1,-7.035252E-2,-9.6596174E-2,4.7564518E-1,-6.1757144E-2,2.1020098E-1,3.336944E-1,-1.47504E-1,2.4604811E-1,4.197087E-2,1.5042244E-1,1.8278874E-2,3.378215E-2,-1.08479485E-2,5.2499987E-2,3.3779863E-1,-1.3946432E-1,2.4358182E-1,-1.9416861E-2,3.533327E-1,-6.734143E-2,4.1263074E-2,1.8141013E-2,1.8978702E-1,1.0067149E-1,-1.6925837E-1,1.698959E-2,5.263756E-1,6.418657E-2,3.3230162E-1,-1.084035E-1,7.477533E-3,-1.0305133E-1,4.2445025E-1,1.0810739E-1,-7.23586E-2,-1.5845783E-1,-1.9063989E-2,8.2903944E-2,-5.9339643E-2],"categories":[],"categories_nodes":[],"categories_segments":[],"categories_sizes":[],"default_left":[0,0,0,0,0,0,0,0,0,0,0,0,0,0,0,0,0,0,0,0,0,0,0,0,0,0,0,0,0,0,0,0,0,0,0,0,0,0,0,0,0,0,0,0,0,0,0,0,0,0,0,0,0,0,0,0,0,0,0,0,0,0,0,0,0,0,0,0,0,0,0,0,0,0,0,0,0,0,0,0,0,0,0,0,0,0,0,0,0,0,0,0,0,0,0,0,0,0,0,0,0,0,0,0,0,0,0,0,0],"id":6,"left_children":[1,3,5,7,9,11,13,15,17,19,21,23,25,27,29,31,33,35,37,39,41,43,45,47,49,51,53,55,57,59,61,-1,-1,-1,63,-1,65,-1,-1,67,69,71,73,75,77,79,81,83,85,-1,-1,87,89,91,93,-1,95,97,99,101,103,105,107,-1,-1,-1,-1,-1,-1,-1,-1,-1,-1,-1,-1,-1,-1,-1,-1,-1,-1,-1,-1,-1,-1,-1,-1,-1,-1,-1,-1,-1,-1,-1,-1,-1,-1,-1,-1,-1,-1,-1,-1,-1,-1,-1,-1,-1,-1],"loss_changes":[6.157317E0,6.692054E0,5.5840383E0,6.204331E0,6.5839987E0,9.712727E0,5.854564E0,5.8158827E0,4.5744886E0,5.14392E0,5.77038E0,6.540162E0,4.552753E0,6.7309747E0,5.1657457E0,6.569084E-1,5.2148E0,2.7747498E0,3.877338E0,1.8618507E0,6.597479E0,6.572011E0,6.395998E0,7.5240536E0,6.202419E-1,6.555519E0,5.2361207E0,4.4984245E0,7.184712E0,4.8706264E0,4.781148E0,0E0,0E0,0E0,5.4571342E0,0E0,1.9041145E0,0E0,0E0,2.0046883E0,3.4619372E0,4.146543E0,4.922701E0,4.6350064E0,8.471532E0,6.015623E0,6.4546523E0,6.1117687E0,7.4749656E0,0E0,0E0,5.74558E0,3.3181052E0,5.792108E0,1.7173262E0,0E0,3.0338573E0,5.5983276E0,4.0425167E0,3.6734338E0,4.806575E0,4.684377E0,7.6565433E0,0E0,0E0,0E0,0E0,0E0,0E0,0E0,0E0,0E0,0E0,0E0,0E0,0E0,0E0,0E0,0E0,0E0,0E0,0E0,0E0,0E0,0E0,0E0,0E0,0E0,0E0,0E0,0E0,0E0,0E0,0E0,0E0,0E0,0E0,0E0,0E0,0E0,0E0,0E0,0E0,0E0,0E0,0E0,0E0,0E0,0E0],"parents":[2147483647,0,0,1,1,2,2,3,3,4,4,5,5,6,6,7,7,8,8,9,9,10,10,11,11,12,12,13,13,14,14,15,15,16,16,17,17,18,18,19,19,20,20,21,21,22,22,23,23,24,24,25,25,26,26,27,27,28,28,29,29,30,30,34,34,36,36,39,39,40,40,41,41,42,42,43,43,44,44,45,45,46,46,47,47,48,48,51,51,52,52,53,53,54,54,56,56,57,57,58,58,59,59,60,60,61,61,62,62],"right_children":[2,4,6,8,10,12,14,16,18,20,22,24,26,28,30,32,34,36,38,40,42,44,46,48,50,52,54,56,58,60,62,-1,-1,-1,64,-1,66,-1,-1,68,70,72,74,76,78,80,82,84,86,-1,-1,88,90,92,94,-1,96,98,100,102,104,106,108,-1,-1,-1,-1,-1,-1,-1,-1,-1,-1,-1,-1,-1,-1,-1,-1,-1,-1,-1,-1,-1,-1,-1,-1,-1,-1,-1,-1,-1,-1,-1,-1,-1,-1,-1,-1,-1,-1,-1,-1,-1,-1,-1,-1,-1,-1],"split_conditions":[2.4461776E-1,-4.734659E-1,-5.4878727E-2,-6.1965264E-2,-4.1901106E-1,-5.376837E-1,-1.1059626E-1,-2.2242884E-1,-1.7360923E-1,-2.356754E-2,-6.949652E-1,4.9782944E-1,-1.2950872E-1,-6.1396545E-1,-2.0075287E-1,2.1060807E-1,-3.9180404E-1,1.8074009E-1,-9.7328424E-2,4.764809E-1,-1.7094344E-1,3.716135E-3,1.2990244E-1,-7.8507E-3,-6.579571E-1,-4.1093233E-1,4.094716E-1,-4.1263634E-1,9.3767256E-2,-6.8325895E-1,3.1779096E-1,-1.5873604E-1,5.29042E-2,-1.300301E-1,4.0942234E-1,6.538304E-1,-4.0123272E-1,3.5118857E-1,-1.3134342E-1,7.458521E-1,2.4386305E-2,-1.0681477E-1,3.1809136E-1,-3.9854905E-1,9.045524E-2,-6.1395746E-1,-1.7847349E-1,-2.5711846E-1,-5.304766E-2,5.215257E-2,-1.5507339E-1,-3.180277E-1,2.0049606E-1,7.0199615E-1,1.4911523E-1,-1.0886851E-1,4.521085E-1,2.4460654E-1,-3.178488E-1,5.7825273E-1,-3.241479E-1,-4.4705704E-1,2.990104E-1,4.405181E-1,-1.1243694E-1,-9.598691E-2,3.243285E-1,-1.1622199E-1,5.4290496E-2,3.2964864E-1,-7.035252E-2,-9.6596174E-2,4.7564518E-1,-6.1757144E-2,2.1020098E-1,3.336944E-1,-1.47504E-1,2.4604811E-1,4.197087E-2,1.5042244E-1,1.8278874E-2,3.378215E-2,-1.08479485E-2,5.2499987E-2,3.3779863E-1,-1.3946432E-1,2.4358182E-1,-1.9416861E-2,3.533327E-1,-6.734143E-2,4.1263074E-2,1.8141013E-2,1.8978702E-1,1.0067149E-1,-1.6925837E-1,1.698959E-2,5.263756E-1,6.418657E-2,3.3230162E-1,-1.084035E-1,7.477533E-3,-1.0305133E-1,4.2445025E-1,1.0810739E-1,-7.23586E-2,-1.5845783E-1,-1.9063989E-2,8.2903944E-2,-5.9339643E-2],"split_indices":[37,67,77,71,60,35,66,4,16,4,49,25,73,127,22,96,41,121,107,120,126,63,36,107,93,30,4,89,75,87,15,0,0,0,36,0,32,0,0,94,95,109,43,123,87,12,102,124,28,0,0,42,58,34,66,0,96,42,6,35,74,63,104,0,0,0,0,0,0,0,0,0,0,0,0,0,0,0,0,0,0,0,0,0,0,0,0,0,0,0,0,0,0,0,0,0,0,0,0,0,0,0,0,0,0,0,0,0,0],"split_type":[0,0,0,0,0,0,0,0,0,0,0,0,0,0,0,0,0,0,0,0,0,0,0,0,0,0,0,0,0,0,0,0,0,0,0,0,0,0,0,0,0,0,0,0,0,0,0,0,0,0,0,0,0,0,0,0,0,0,0,0,0,0,0,0,0,0,0,0,0,0,0,0,0,0,0,0,0,0,0,0,0,0,0,0,0,0,0,0,0,0,0,0,0,0,0,0,0,0,0,0,0,0,0,0,0,0,0,0,0],"sum_hessian":[8.207182E3,5.873032E3,2.33415E3,2.8004507E1,5.8450273E3,8.3265796E2,1.501492E3,1.8273674E1,9.730832E0,1.3668044E2,5.708347E3,5.7101086E1,7.755569E2,2.2728383E2,1.2742081E3,8.358907E0,9.914767E0,5.4347534E0,4.296079E0,9.4939804E1,4.1740627E1,9.1063385E1,5.6172837E3,4.9879578E1,7.221511E0,1.9567795E2,5.798789E2,6.795307E0,2.2048851E2,2.9394055E2,9.802676E2,7.290802E0,1.068105E0,2.6771498E0,7.237617E0,3.16622E0,2.2685332E0,1.5682515E0,2.7278278E0,8.713191E1,7.807897E0,4.528956E0,3.721167E1,1.4565397E1,7.6497986E1,3.7622668E3,1.855017E3,3.2568752E1,1.7310823E1,1.0735132E0,6.1479974E0,1.37175865E1,1.8196036E2,5.6231714E2,1.7561756E1,1.4665773E0,5.32873E0,7.413331E1,1.4635521E2,3.626138E0,2.9031442E2,8.29692E2,1.505756E2,5.5731244E0,1.6644928E0,1.1298115E0,1.1387218E0,8.098797E1,6.143943E0,1.7037776E0,6.1041193E0,1.1406684E0,3.3882878E0,3.0830482E1,6.381189E0,1.1027963E0,1.3462601E1,2.9573479E1,4.6924507E1,3.0286497E1,3.7319802E3,3.613569E2,1.49366E3,1.0072898E1,2.2495853E1,1.0817143E1,6.4936814E0,7.629201E0,6.0883856E0,1.5233739E2,2.9622976E1,5.4501074E2,1.7306393E1,1.7594097E0,1.5802347E1,1.4270394E0,3.9016907E0,6.717182E1,6.961487E0,3.473064E1,1.11624565E2,1.355485E0,2.270653E0,1.308642E1,2.77228E2,2.1323353E1,8.0836865E2,1.0007249E2,5.050312E1],"tree_param":{"num_deleted":"0","num_feature":"128","num_nodes":"109","size_leaf_vector":"1"}},{"base_weights":[1.5747432E-1,3.0382818E-2,1.914029E-1,5.2442446E-2,-2.3046224E-1,5.9307553E-2,2.2756839E-1,7.142236E-2,-2.567415E-1,-1.5918589E-1,-5.313138E-1,-8.5898764E-2,1.13601826E-1,-3.303029E-2,2.3829977E-1,1.1197881E-1,-6.595589E-2,2.7387038E-1,-2.832737E-1,-6.5625176E-2,-4.908868E-1,-1.7036006E-1,5.424663E-2,-2.6671374E-1,-1.7862095E-2,1.2880564E-1,-3.2861495E-1,-1.7132533E-1,1.3473266E-1,1.748547E-2,2.480732E-1,-3.3006776E-2,1.6317166E-1,-3.7436986E-1,-1.3671548E-2,-3.675551E-1,-5.4540172E-2,1.1873394E0,-1.0910704E-1,-1.563193E-1,-1.6944112E-1,5.562342E-1,-3.1672505E-1,-8.733686E-2,3.1811357E-1,1.8791603E-1,-4.913352E-3,-4.4553414E-1,2.5612026E-1,-2.2518271E-1,5.969226E-1,9.442573E-2,4.6514222E-1,1.620779E-1,-2.0478107E-1,8.6744195E-1,2.4477556E-1,-1.4233563E-2,3.7577942E-1,5.475555E-2,-6.273382E-2,-4.709954E-2,-1.6235074E-1,4.060131E-2,-6.288286E-2,-1.2613289E-1,1.2092637E-2,6.866719E-2,-1.3676438E-1,5.4531325E-2,4.828622E-1,6.0196675E-2,-6.214888E-2,1.9426638E-1,-1.4073719E-1,3.4034926E-1,-5.2814264E-2,-1.0233085E-1,1.8913567E-1,-4.5072086E-2,6.0481872E-2,-1.3351442E-2,2.7256337E-1,4.708149E-2,2.0475566E-1,-3.7592668E-2,4.6989176E-2,-1.520339E-1,1.0629323E-1,-1.3932082E-1,3.5082716E-1,-7.4682094E-2,3.2414597E-1,2.874594E-1,-1.19110756E-1,-7.602976E-2,9.2561856E-2,1.6714999E-1,1.4079482E-2,-7.913119E-2,1.6374534E-1,3.944222E-1,9.26695E-2,4.1105196E-2,7.910928E-2],"categories":[],"categories_nodes":[],"categories_segments":[],"categories_sizes":[],"default_left":[0,0,0,0,0,0,0,0,0,0,0,0,0,0,0,0,0,0,0,0,0,0,0,0,0,0,0,0,0,0,0,0,0,0,0,0,0,0,0,0,0,0,0,0,0,0,0,0,0,0,0,0,0,0,0,0,0,0,0,0,0,0,0,0,0,0,0,0,0,0,0,0,0,0,0,0,0,0,0,0,0,0,0,0,0,0,0,0,0,0,0,0,0,0,0,0,0,0,0,0,0,0,0,0,0],"id":7,"left_children":[1,3,5,7,9,11,13,15,17,19,21,23,25,27,29,31,33,-1,35,37,39,-1,-1,41,43,45,47,49,51,53,55,57,59,61,63,65,67,69,71,73,-1,75,77,79,81,83,85,87,89,91,93,95,-1,97,99,101,103,-1,-1,-1,-1,-1,-1,-1,-1,-1,-1,-1,-1,-1,-1,-1,-1,-1,-1,-1,-1,-1,-1,-1,-1,-1,-1,-1,-1,-1,-1,-1,-1,-1,-1,-1,-1,-1,-1,-1,-1,-1,-1,-1,-1,-1,-1,-1,-1],"loss_changes":[3.6886917E1,1.0392417E1,3.224652E1,9.783884E0,2.9357786E0,1.14632635E1,1.4832611E1,8.747281E0,3.2522173E0,3.5460472E0,7.938113E-1,4.8661594E0,7.154538E0,4.907743E0,1.0983673E1,8.997315E0,5.770481E0,0E0,1.8130684E0,5.092134E0,5.3522444E-1,0E0,0E0,4.628516E0,6.7680573E0,8.089989E0,2.5371644E0,4.927602E0,5.314269E0,7.0032067E0,9.74585E0,5.943059E0,6.488146E0,1.7960777E0,9.000227E0,1.5120573E0,3.1503503E0,1.0401788E0,2.743304E0,1.7986914E0,0E0,2.9777384E0,2.5845509E0,4.393648E0,1.0680331E1,1.0766737E1,6.1400323E0,1.6443219E0,4.8472977E0,3.649548E0,3.2040203E0,7.0875735E0,0E0,5.9769382E0,3.9483385E0,5.9467335E0,9.855438E0,0E0,0E0,0E0,0E0,0E0,0E0,0E0,0E0,0E0,0E0,0E0,0E0,0E0,0E0,0E0,0E0,0E0,0E0,0E0,0E0,0E0,0E0,0E0,0E0,0E0,0E0,0E0,0E0,0E0,0E0,0E0,0E0,0E0,0E0,0E0,0E0,0E0,0E0,0E0,0E0,0E0,0E0,0E0,0E0,0E0,0E0,0E0,0E0],"parents":[2147483647,0,0,1,1,2,2,3,3,4,4,5,5,6,6,7,7,8,8,9,9,10,10,11,11,12,12,13,13,14,14,15,15,16,16,18,18,19,19,20,20,23,23,24,24,25,25,26,26,27,27,28,28,29,29,30,30,31,31,32,32,33,33,34,34,35,35,36,36,37,37,38,38,39,39,41,41,42,42,43,43,44,44,45,45,46,46,47,47,48,48,49,49,50,50,51,51,53,53,54,54,55,55,56,56],"right_children":[2,4,6,8,10,12,14,16,18,20,22,24,26,28,30,32,34,-1,36,38,40,-1,-1,42,44,46,48,50,52,54,56,58,60,62,64,66,68,70,72,74,-1,76,78,80,82,84,86,88,90,92,94,96,-1,98,100,102,104,-1,-1,-1,-1,-1,-1,-1,-1,-1,-1,-1,-1,-1,-1,-1,-1,-1,-1,-1,-1,-1,-1,-1,-1,-1,-1,-1,-1,-1,-1,-1,-1,-1,-1,-1,-1,-1,-1,-1,-1,-1,-1,-1,-1,-1,-1,-1,-1],"split_conditions":[-7.543832E-2,4.06858E-1,-5.642513E-2,3.0940938E-1,2.5609356E-1,-2.0350029E-1,-2.8934413E-1,2.591625E-1,-8.969477E-1,3.3692852E-1,4.745348E-1,-1.968742E-1,5.895254E-1,1.3889676E-1,-3.2625982E-1,-1.8160355E-1,-5.7998374E-2,2.7387038E-1,-1.09127656E-1,-5.2306986E-1,-5.6126148E-2,-1.7036006E-1,5.424663E-2,-4.1754046E-1,8.0488935E-2,-1.1333259E-1,7.6012686E-2,2.6934478E-1,4.299941E-1,1.5940824E-1,-6.3123614E-1,6.8212765E-1,4.146661E-1,-1.3922948E-1,2.0867556E-1,5.9636146E-1,1.814432E-1,-1.976474E-2,-2.9597072E-2,-8.780189E-3,-1.6944112E-1,8.589019E-2,2.4380264E-1,2.8973454E-1,-3.3569146E-2,6.631177E-1,-1.0857114E-1,1.0879807E0,-5.0750756E-1,7.2970176E-1,5.0159305E-1,-1.4209743E-1,4.6514222E-1,-1.679334E-1,6.185443E-1,-2.4528253E-1,-6.576174E-2,-1.4233563E-2,3.7577942E-1,5.475555E-2,-6.273382E-2,-4.709954E-2,-1.6235074E-1,4.060131E-2,-6.288286E-2,-1.2613289E-1,1.2092637E-2,6.866719E-2,-1.3676438E-1,5.4531325E-2,4.828622E-1,6.0196675E-2,-6.214888E-2,1.9426638E-1,-1.4073719E-1,3.4034926E-1,-5.2814264E-2,-1.0233085E-1,1.8913567E-1,-4.5072086E-2,6.0481872E-2,-1.3351442E-2,2.7256337E-1,4.708149E-2,2.0475566E-1,-3.7592668E-2,4.6989176E-2,-1.520339E-1,1.0629323E-1,-1.3932082E-1,3.5082716E-1,-7.4682094E-2,3.2414597E-1,2.874594E-1,-1.19110756E-1,-7.602976E-2,9.2561856E-2,1.6714999E-1,1.4079482E-2,-7.913119E-2,1.6374534E-1,3.944222E-1,9.26695E-2,4.1105196E-2,7.910928E-2],"split_indices":[37,44,48,91,4,28,41,88,98,90,25,55,81,111,7,88,38,0,16,120,23,0,0,92,41,13,84,94,16,105,26,110,102,123,41,87,106,24,84,67,0,16,93,68,62,98,85,8,90,62,7,25,0,36,126,113,34,0,0,0,0,0,0,0,0,0,0,0,0,0,0,0,0,0,0,0,0,0,0,0,0,0,0,0,0,0,0,0,0,0,0,0,0,0,0,0,0,0,0,0,0,0,0,0,0],"split_type":[0,0,0,0,0,0,0,0,0,0,0,0,0,0,0,0,0,0,0,0,0,0,0,0,0,0,0,0,0,0,0,0,0,0,0,0,0,0,0,0,0,0,0,0,0,0,0,0,0,0,0,0,0,0,0,0,0,0,0,0,0,0,0,0,0,0,0,0,0,0,0,0,0,0,0,0,0,0,0,0,0,0,0,0,0,0,0,0,0,0,0,0,0,0,0,0,0,0,0,0,0,0,0,0,0],"sum_hessian":[8.554761E3,1.8029744E3,6.751786E3,1.6631232E3,1.3985115E2,1.4517767E3,5.30001E3,1.5676582E3,9.546501E1,1.1430068E2,2.5550468E1,3.9494403E2,1.0568328E3,2.0953856E2,5.090471E3,1.2104865E3,3.5717175E2,1.3764935E0,9.4088524E1,9.0088E1,2.4212687E1,2.449572E1,1.0547489E0,1.0718031E2,2.877637E2,1.0223908E3,3.444198E1,1.1484505E2,9.4693504E1,2.158773E2,4.8745938E3,3.1596973E2,8.9451666E2,5.088021E1,3.0629153E2,6.831104E1,2.5777483E1,2.139183E0,8.7948814E1,4.9450197E0,1.9267668E1,5.560401E0,1.0161992E2,2.3906804E2,4.8695663E1,7.0870355E2,3.1368726E2,2.8901176E1,5.540801E0,1.0798195E2,6.863098E0,9.310933E1,1.5841768E0,1.309563E2,8.492101E1,2.4428112E1,4.8501655E3,3.1341293E2,2.5567982E0,8.508115E2,4.3705143E1,2.2934025E1,2.7946188E1,1.7415633E2,1.321352E2,6.0442593E1,7.868448E0,1.5359879E1,1.0417604E1,1.0555891E0,1.0835941E0,2.0894833E1,6.705398E1,1.0854291E0,3.8595908E0,2.800029E0,2.760372E0,9.969394E1,1.9259768E0,1.9672145E2,4.234658E1,3.0740648E1,1.7955017E1,6.681722E2,4.0531357E1,1.798631E2,1.3382416E2,2.718591E1,1.7152674E0,3.3720436E0,2.1687574E0,1.0684713E2,1.1348217E0,5.0599346E0,1.8031635E0,3.540509E1,5.770424E1,2.8687E1,1.02269295E2,7.933469E1,5.5863276E0,1.2813109E1,1.1615002E1,7.256923E2,4.124473E3],"tree_param":{"num_deleted":"0","num_feature":"128","num_nodes":"105","size_leaf_vector":"1"}},{"base_weights":[-4.8184195E-1,-1.9000654E-1,-4.830435E-1,-4.5559868E-1,2.4475452E-1,-5.0721794E-1,-4.7482178E-1,-1.6557944E-1,8.788189E-2,9.28945E-1,-3.7024203E-1,-5.13163E-1,-3.9008874E-1,-4.7515702E-1,1.1889404E-1,-3.5157872E-3,3.915534E-1,6.1628606E-2,-1.4848186E-1,-5.16789E-1,-2.7822617E-1,1.1528496E-1,-4.9571675E-1,-4.7611228E-1,-1.5604584E-1,-5.178699E-1,1.13933064E-1,-4.0094212E-1,5.7763517E-1,1.0657955E0,-2.930661E-1,-5.312798E-1,-7.4473776E-2,-4.793867E-1,-3.8357762E-1,2.645931E-1,-3.0262202E-1,-1.5606616E-1,-7.793793E-2,1.7418364E-1,-1.0473385E-1,-1.4244568E-1,1.7254004E-1,-1.03339694E-1,3.7544447E-1,-9.603903E-2,4.710975E-1,2.2626288E-1,-1.5839872E-1,-1.6349332E-1,3.9041284E-2,-1.4050786E-1,1.9065478E-1,-5.575744E-2,-1.4406948E-1,1.9204871E-1,-1.1930246E-1,-1.2250135E-1,1.2066025E-1],"categories":[],"categories_nodes":[],"categories_segments":[],"categories_sizes":[],"default_left":[0,0,0,0,0,0,0,0,0,0,0,0,0,0,0,0,0,0,0,0,0,0,0,0,0,0,0,0,0,0,0,0,0,0,0,0,0,0,0,0,0,0,0,0,0,0,0,0,0,0,0,0,0,0,0,0,0,0,0],"id":8,"left_children":[1,3,5,7,9,11,13,-1,-1,15,17,19,21,23,-1,-1,-1,-1,-1,25,27,29,31,33,35,37,39,41,43,45,47,49,51,53,55,-1,57,-1,-1,-1,-1,-1,-1,-1,-1,-1,-1,-1,-1,-1,-1,-1,-1,-1,-1,-1,-1,-1,-1],"loss_changes":[2.4301758E0,3.7071142E0,1.1826172E0,1.5807695E0,5.586486E0,1.0552673E0,1.7537842E0,0E0,0E0,2.2034554E0,6.240123E-1,1.3153076E0,4.9288263E0,1.5592041E0,0E0,0E0,0E0,0E0,0E0,1.2080688E0,3.193254E0,6.7509613E0,1.0940685E0,1.4346924E0,2.9265213E0,8.8571167E-1,1.0029589E0,2.0940514E0,2.8829021E0,4.139185E0,3.4460351E0,7.016735E-1,2.2704184E0,1.189331E0,2.9616127E0,0E0,1.3610212E0,0E0,0E0,0E0,0E0,0E0,0E0,0E0,0E0,0E0,0E0,0E0,0E0,0E0,0E0,0E0,0E0,0E0,0E0,0E0,0E0,0E0,0E0],"parents":[2147483647,0,0,1,1,2,2,3,3,4,4,5,5,6,6,9,9,10,10,11,11,12,12,13,13,19,19,20,20,21,21,22,22,23,23,24,24,25,25,26,26,27,27,28,28,29,29,30,30,31,31,32,32,33,33,34,34,36,36],"right_children":[2,4,6,8,10,12,14,-1,-1,16,18,20,22,24,-1,-1,-1,-1,-1,26,28,30,32,34,36,38,40,42,44,46,48,50,52,54,56,-1,58,-1,-1,-1,-1,-1,-1,-1,-1,-1,-1,-1,-1,-1,-1,-1,-1,-1,-1,-1,-1,-1,-1],"split_conditions":[-9.54702E-1,-4.6374416E-1,-1.3251449E-1,4.7640124E-1,-2.2242884E-1,4.942295E-1,1.0478168E0,-1.6557944E-1,8.788189E-2,-4.005987E-1,-1.0798115E0,9.5514536E-1,-3.2896453E-1,6.259172E-1,1.1889404E-1,-3.5157872E-3,3.915534E-1,6.1628606E-2,-1.4848186E-1,6.9044054E-1,2.2894211E-1,2.176995E-1,7.0243466E-1,4.126486E-1,-3.369186E-1,4.777429E-1,8.063857E-2,4.974168E-1,2.0677434E-1,-3.118856E-1,-8.882042E-2,1.45517E-1,-1.9460522E-1,-5.8459944E-1,-6.1714935E-1,2.645931E-1,5.990051E-1,-1.5606616E-1,-7.793793E-2,1.7418364E-1,-1.0473385E-1,-1.4244568E-1,1.7254004E-1,-1.03339694E-1,3.7544447E-1,-9.603903E-2,4.710975E-1,2.2626288E-1,-1.5839872E-1,-1.6349332E-1,3.9041284E-2,-1.4050786E-1,1.9065478E-1,-5.575744E-2,-1.4406948E-1,1.9204871E-1,-1.1930246E-1,-1.2250135E-1,1.2066025E-1],"split_indices":[12,68,30,78,4,39,83,0,0,9,93,45,97,107,0,0,0,0,0,18,35,85,48,110,24,68,11,124,93,47,89,68,41,20,94,0,31,0,0,0,0,0,0,0,0,0,0,0,0,0,0,0,0,0,0,0,0,0,0],"split_type":[0,0,0,0,0,0,0,0,0,0,0,0,0,0,0,0,0,0,0,0,0,0,0,0,0,0,0,0,0,0,0,0,0,0,0,0,0,0,0,0,0,0,0,0,0,0,0,0,0,0,0,0,0,0,0,0,0,0,0],"sum_hessian":[7.1911836E3,3.0139097E1,7.1610444E3,1.8679815E1,1.1459282E1,1.8019775E3,5.359067E3,1.6782637E1,1.8971779E0,5.182834E0,6.2764482E0,1.7117162E3,9.0261375E1,5.3574595E3,1.6072259E0,1.7575151E0,3.425319E0,1.0022244E0,5.274224E0,1.6845175E3,2.7198769E1,1.5588291E1,7.467309E1,5.3409795E3,1.648029E1,1.6818141E3,2.703298E0,2.4252855E1,2.9459128E0,4.2006125E0,1.1387679E1,6.861879E1,6.0542984E0,5.1544067E3,1.865727E2,1.4183847E0,1.5061904E1,1.6656277E3,1.6186405E1,1.2199144E0,1.4833837E0,2.3023783E1,1.2290721E0,1.4502194E0,1.4956934E0,1.2186123E0,2.982E0,1.6814957E0,9.706183E0,6.7399E1,1.2197877E0,4.112891E0,1.9414068E0,1.5427602E1,5.138979E3,1.9310346E0,1.8464165E2,1.3463219E1,1.5986857E0],"tree_param":{"num_deleted":"0","num_feature":"128","num_nodes":"59","size_leaf_vector":"1"}},{"base_weights":[-1.3905068E-1,-1.2546812E-1,-2.0153277E-1,-1.5882322E-1,-9.1897294E-2,-2.704241E-1,-1.5125257E-1,-1.4473392E-1,-2.856821E-1,-8.4583566E-2,-3.7425193E-1,-3.022255E-1,-1.09221436E-1,-1.296957E-1,-4.0631068E-1,-1.6166624E-1,-3.2129537E-2,-3.0069035E-1,7.275397E-1,7.846091E-2,-9.602537E-2,-4.1791033E-2,-4.58559E-1,-2.8499922E-1,-1.7098121E-1,1.5749173E-1,-2.8238127E-1,2.1967551E-1,-1.4660263E-1,-5.270286E-1,6.701829E-1,-3.777111E-1,-1.5305804E-1,-5.9773486E-2,4.538249E-1,-2.60951E-1,-5.157828E-1,-1.1425521E-1,4.4434524E-1,1.2841667E-1,-4.5161068E-1,2.577287E-2,-1.07549794E-1,9.876563E-1,-3.3959794E-1,9.343097E-2,-4.8651415E-1,-8.329025E-2,-3.0565426E-1,5.865468E-1,-3.0665395E-1,6.713015E-1,-3.3815554E-1,-2.7576706E-1,5.4518807E-1,1.3377611E-1,-1.6387625E-1,-5.4380065E-1,5.966456E-2,7.881552E-2,5.0334376E-1,9.960176E-2,-1.2095652E-1,1.5742749E-1,-4.6767388E-2,-5.5080038E-2,1.4716802E-2,2.7447262E-1,-1.973045E-2,-8.196336E-2,2.610145E-1,-1.664425E-1,1.3743465E-2,-3.188399E-2,7.470662E-2,1.8635204E-1,-1.6803749E-1,-2.6299711E-2,5.8704283E-2,-2.3693817E-2,-4.8870523E-2,-9.186135E-3,5.4039204E-1,4.3403126E-2,-1.6035995E-1,-1.5827505E-1,-4.1513562E-2,-9.614412E-2,9.121667E-2,-6.302648E-2,-1.073204E-1,3.690278E-1,9.222084E-3,-1.638459E-1,4.876702E-2,-1.08006574E-1,5.082101E-1,-1.1487963E-1,1.886299E-1,1.2012043E-1,-1.3744518E-1,2.6180273E-1,-1.690234E-2,-2.4643694E-3,2.9405707E-1,-7.682912E-2,-2.7833022E-2,3.2648258E-2,-1.6831556E-1,-1.2273684E-1,1.7474945E-1],"categories":[],"categories_nodes":[],"categories_segments":[],"categories_sizes":[],"default_left":[0,0,0,0,0,0,0,0,0,0,0,0,0,0,0,0,0,0,0,0,0,0,0,0,0,0,0,0,0,0,0,0,0,0,0,0,0,0,0,0,0,0,0,0,0,0,0,0,0,0,0,0,0,0,0,0,0,0,0,0,0,0,0,0,0,0,0,0,0,0,0,0,0,0,0,0,0,0,0,0,0,0,0,0,0,0,0,0,0,0,0,0,0,0,0,0,0,0,0,0,0,0,0,0,0,0,0,0,0,0,0],"id":9,"left_children":[1,3,5,7,9,11,13,15,17,19,21,23,25,27,29,31,33,35,37,39,41,43,45,47,-1,49,51,53,55,57,59,61,63,65,67,69,71,-1,-1,73,75,77,79,81,83,-1,85,87,89,91,93,95,97,99,101,103,105,107,-1,109,-1,-1,-1,-1,-1,-1,-1,-1,-1,-1,-1,-1,-1,-1,-1,-1,-1,-1,-1,-1,-1,-1,-1,-1,-1,-1,-1,-1,-1,-1,-1,-1,-1,-1,-1,-1,-1,-1,-1,-1,-1,-1,-1,-1,-1,-1,-1,-1,-1,-1,-1],"loss_changes":[6.6260376E0,7.1972504E0,4.8010406E0,5.730522E0,6.6018867E0,2.983921E0,4.4027653E0,5.5403214E0,5.1118927E0,5.8511963E0,2.2459373E0,2.1017456E0,4.5951414E0,4.454383E0,8.498837E0,4.6438065E0,5.151171E0,2.5817223E0,4.731489E0,5.5118027E0,4.1119633E0,5.6844983E0,1.5370064E0,1.9047318E0,0E0,8.032218E0,3.4239373E0,5.788024E0,3.4833355E0,8.011675E-1,3.8962533E0,1.8731194E0,4.7539635E0,4.884424E0,5.0066037E0,3.9850998E0,1.0890837E0,0E0,0E0,5.3761997E0,2.438689E0,4.91008E0,4.216879E0,3.5107331E0,1.4251198E0,0E0,8.2061005E-1,4.177446E0,2.0146103E0,7.41392E0,2.291047E0,4.4658875E0,2.727974E0,1.9746798E0,4.271237E0,5.0589485E0,4.393427E0,6.904545E-1,0E0,1.5432237E0,0E0,0E0,0E0,0E0,0E0,0E0,0E0,0E0,0E0,0E0,0E0,0E0,0E0,0E0,0E0,0E0,0E0,0E0,0E0,0E0,0E0,0E0,0E0,0E0,0E0,0E0,0E0,0E0,0E0,0E0,0E0,0E0,0E0,0E0,0E0,0E0,0E0,0E0,0E0,0E0,0E0,0E0,0E0,0E0,0E0,0E0,0E0,0E0,0E0,0E0,0E0],"parents":[2147483647,0,0,1,1,2,2,3,3,4,4,5,5,6,6,7,7,8,8,9,9,10,10,11,11,12,12,13,13,14,14,15,15,16,16,17,17,18,18,19,19,20,20,21,21,22,22,23,23,25,25,26,26,27,27,28,28,29,29,30,30,31,31,32,32,33,33,34,34,35,35,36,36,39,39,40,40,41,41,42,42,43,43,44,44,46,46,47,47,48,48,49,49,50,50,51,51,52,52,53,53,54,54,55,55,56,56,57,57,59,59],"right_children":[2,4,6,8,10,12,14,16,18,20,22,24,26,28,30,32,34,36,38,40,42,44,46,48,-1,50,52,54,56,58,60,62,64,66,68,70,72,-1,-1,74,76,78,80,82,84,-1,86,88,90,92,94,96,98,100,102,104,106,108,-1,110,-1,-1,-1,-1,-1,-1,-1,-1,-1,-1,-1,-1,-1,-1,-1,-1,-1,-1,-1,-1,-1,-1,-1,-1,-1,-1,-1,-1,-1,-1,-1,-1,-1,-1,-1,-1,-1,-1,-1,-1,-1,-1,-1,-1,-1,-1,-1,-1,-1,-1,-1],"split_conditions":[2.5560534E-1,5.490421E-3,1.5353492E-1,2.5729457E-1,6.1173165E-1,1.7707548E-1,6.122513E-1,2.4621497E-1,1.0848378E0,-1.0202833E-1,-1.790791E-1,3.8452712E-1,3.8487498E-2,-6.2500924E-1,-2.4220261E-1,-6.56131E-1,3.2200366E-1,3.224064E-2,4.5553824E-1,4.108023E-1,-2.716367E-1,1.5209988E-1,-1.3948254E-1,-4.9581724E-1,-1.7098121E-1,5.656667E-1,-5.3171533E-1,4.4764485E-2,-1.5783626E-1,2.80215E-1,4.5100477E-2,-1.8931127E-1,-4.5562088E-1,9.29943E-2,-2.6777717E-1,2.6970882E-2,3.5170287E-1,-1.1425521E-1,4.4434524E-1,-1.9941E-1,-3.296468E-2,-9.9930696E-2,1.3192214E-1,1.0722959E-1,-2.3615226E-1,9.343097E-2,1.7446586E-1,1.441229E-1,-3.9551243E-2,2.9050702E-1,1.3293043E-1,4.2023674E-1,6.697714E-1,-7.837642E-2,7.077485E-1,4.317681E-1,-2.171545E-2,-9.252211E-1,5.966456E-2,5.158447E-1,5.0334376E-1,9.960176E-2,-1.2095652E-1,1.5742749E-1,-4.6767388E-2,-5.5080038E-2,1.4716802E-2,2.7447262E-1,-1.973045E-2,-8.196336E-2,2.610145E-1,-1.664425E-1,1.3743465E-2,-3.188399E-2,7.470662E-2,1.8635204E-1,-1.6803749E-1,-2.6299711E-2,5.8704283E-2,-2.3693817E-2,-4.8870523E-2,-9.186135E-3,5.4039204E-1,4.3403126E-2,-1.6035995E-1,-1.5827505E-1,-4.1513562E-2,-9.614412E-2,9.121667E-2,-6.302648E-2,-1.073204E-1,3.690278E-1,9.222084E-3,-1.638459E-1,4.876702E-2,-1.08006574E-1,5.082101E-1,-1.1487963E-1,1.886299E-1,1.2012043E-1,-1.3744518E-1,2.6180273E-1,-1.690234E-2,-2.4643694E-3,2.9405707E-1,-7.682912E-2,-2.7833022E-2,3.2648258E-2,-1.6831556E-1,-1.2273684E-1,1.7474945E-1],"split_indices":[65,90,72,80,93,14,5,46,106,94,68,123,124,68,10,126,17,113,66,2,67,51,83,57,0,79,66,75,48,68,78,66,77,76,119,113,69,0,0,46,34,33,100,125,75,0,48,49,18,50,108,35,12,44,51,71,66,7,0,120,0,0,0,0,0,0,0,0,0,0,0,0,0,0,0,0,0,0,0,0,0,0,0,0,0,0,0,0,0,0,0,0,0,0,0,0,0,0,0,0,0,0,0,0,0,0,0,0,0,0,0],"split_type":[0,0,0,0,0,0,0,0,0,0,0,0,0,0,0,0,0,0,0,0,0,0,0,0,0,0,0,0,0,0,0,0,0,0,0,0,0,0,0,0,0,0,0,0,0,0,0,0,0,0,0,0,0,0,0,0,0,0,0,0,0,0,0,0,0,0,0,0,0,0,0,0,0,0,0,0,0,0,0,0,0,0,0,0,0,0,0,0,0,0,0,0,0,0,0,0,0,0,0,0,0,0,0,0,0,0,0,0,0,0,0],"sum_hessian":[7.8363906E3,6.4395493E3,1.396841E3,3.2282822E3,3.2112673E3,5.8750006E2,8.093408E2,2.9075073E3,3.20775E2,3.1314539E3,7.981329E1,4.8996664E2,9.7533424E1,7.4765906E2,6.1681797E1,2.5270752E3,3.8043216E2,3.1678586E2,3.989125E0,2.0495853E2,2.9264954E3,1.6447819E1,6.3365475E1,4.6228488E2,2.7681768E1,3.84305E1,5.9102924E1,3.3957413E1,7.137016E2,5.5921215E1,5.760583E0,9.518904E1,2.431886E3,3.6078555E2,1.9646608E1,2.6925327E2,4.7532616E1,1.8147187E0,2.174406E0,1.8799863E2,1.6959898E1,2.5285977E2,2.6736357E3,3.1707752E0,1.3277044E1,1.8646634E0,6.150081E1,4.340838E1,4.188765E2,1.983311E1,1.859739E1,2.65578E0,5.6447144E1,1.3524869E1,2.0432545E1,4.102675E1,6.7267487E2,5.490355E1,1.0176655E0,4.309563E0,1.4510195E0,2.8817298E0,9.230731E1,9.356074E0,2.42253E3,1.6844319E2,1.9234238E2,1.0006278E1,9.640329E0,2.6711612E2,2.137134E0,4.445546E1,3.0771527E0,6.3855453E1,1.2414317E2,1.1239591E0,1.5835938E1,1.5191695E2,1.0094282E2,1.7650273E3,9.0860834E2,1.8357348E0,1.3350403E0,3.8845432E0,9.392501E0,5.4550117E1,6.950694E0,2.7029537E1,1.637884E1,1.49529E2,2.693475E2,8.628895E0,1.1204216E1,1.22040825E1,6.3933063E0,1.6449711E0,1.0108088E0,5.4526096E1,1.921046E0,2.619172E0,1.0905697E1,1.2938006E1,7.494539E0,3.5981026E1,5.0457225E0,2.9170813E2,3.8096674E2,1.2772055E0,5.3626343E1,2.2843528E0,2.0252104E0],"tree_param":{"num_deleted":"0","num_feature":"128","num_nodes":"111","size_leaf_vector":"1"}},{"base_weights":[1.0974134E-1,-9.714871E-2,1.13771096E-1,-1.8843989E-1,2.6334676E-1,2.2215481E-1,1.04478315E-1,-2.195645E-1,9.802849E-1,7.282002E-1,-2.1174441E-1,2.5248975E-1,-2.0291579E-1,5.8307417E-2,1.2226373E-1,-2.399652E-1,3.2547277E-1,2.1390602E-2,4.5926312E-1,-3.6267973E-2,1.284389E0,-4.048939E-1,4.3338904E-1,1.8063793E-1,4.9570182E-1,4.8301342E-1,-3.2394275E-1,-9.45739E-2,7.563655E-2,3.704558E-1,1.17299974E-1,-4.9201652E-1,-1.4483793E-1,-1.4898191E-1,6.966384E-1,-1.6554154E-2,1.6147099E0,-1.6186571E-1,1.413829E-1,-1.0238178E-1,2.633655E-1,1.4375226E-1,6.3467556E-1,1.7863622E-1,6.6956705E-1,4.539824E-1,1.5587607E-2,-5.0609726E-1,1.0858869E-1,-1.4962791E-1,2.8719148E-1,5.5853307E-2,3.0926532E-1,1.333273E0,2.7304417E-1,1.19164094E-1,-5.031512E-1,1.4877084E-1,-1.646235E-1,2.4619624E-2,-1.0039948E-1,3.8795552E-1,-9.508036E-2,5.674128E-1,3.1768423E-2,2.0257743E-1,-1.0825996E-1,2.9541831E-2,1.6445561E-1,1.3279831E-1,5.0667113E-1,-5.953611E-3,1.9941038E-1,-1.5328704E-1,2.2576378E-1,2.18221E-1,-1.3700315E-1,-1.7370133E-1,1.090859E-1,1.8969376E-1,-1.5160275E-1,-5.496844E-2,2.1344803E-1,3.7780818E-1,4.141455E-2,3.665062E-2,-2.475162E-3,3.0284423E-1,6.715275E-2,5.877048E-1,5.74004E-2,1.9567089E-1,3.003169E-2,3.8323857E-2,-4.077413E-3,5.5340145E-2,-1.6874331E-1],"categories":[],"categories_nodes":[],"categories_segments":[],"categories_sizes":[],"default_left":[0,0,0,0,0,0,0,0,0,0,0,0,0,0,0,0,0,0,0,0,0,0,0,0,0,0,0,0,0,0,0,0,0,0,0,0,0,0,0,0,0,0,0,0,0,0,0,0,0,0,0,0,0,0,0,0,0,0,0,0,0,0,0,0,0,0,0,0,0,0,0,0,0,0,0,0,0,0,0,0,0,0,0,0,0,0,0,0,0,0,0,0,0,0,0,0,0],"id":10,"left_children":[1,3,5,7,9,11,13,15,17,19,21,23,25,27,29,31,-1,-1,-1,33,35,37,39,41,43,45,47,49,51,53,55,57,59,-1,61,-1,63,-1,65,-1,-1,67,69,71,73,-1,75,77,79,81,83,85,87,89,91,93,95,-1,-1,-1,-1,-1,-1,-1,-1,-1,-1,-1,-1,-1,-1,-1,-1,-1,-1,-1,-1,-1,-1,-1,-1,-1,-1,-1,-1,-1,-1,-1,-1,-1,-1,-1,-1,-1,-1,-1,-1],"loss_changes":[7.0317154E0,5.3621745E0,8.2966385E0,4.921949E0,7.450126E0,8.45113E0,6.242012E0,3.636118E0,1.6622555E0,7.242135E0,2.3078585E0,1.0543896E1,3.8047633E0,5.618818E0,6.723587E0,2.9430351E0,0E0,0E0,0E0,3.0786614E0,4.435894E0,1.0830984E0,1.8236151E0,7.801711E0,7.498619E0,3.343833E0,3.0452862E0,4.584798E0,8.778604E0,9.693815E0,6.290146E0,2.1792278E0,4.019722E0,0E0,2.5508542E0,0E0,3.1030598E0,0E0,1.1818979E0,0E0,0E0,7.9517756E0,6.361187E0,4.8664784E0,9.091915E0,0E0,2.288878E0,1.915194E0,4.200611E0,5.6138325E0,3.8247182E0,7.4647264E0,8.647361E0,6.4816E0,6.403425E0,6.1213837E0,7.698035E-1,0E0,0E0,0E0,0E0,0E0,0E0,0E0,0E0,0E0,0E0,0E0,0E0,0E0,0E0,0E0,0E0,0E0,0E0,0E0,0E0,0E0,0E0,0E0,0E0,0E0,0E0,0E0,0E0,0E0,0E0,0E0,0E0,0E0,0E0,0E0,0E0,0E0,0E0,0E0,0E0],"parents":[2147483647,0,0,1,1,2,2,3,3,4,4,5,5,6,6,7,7,8,8,9,9,10,10,11,11,12,12,13,13,14,14,15,15,19,19,20,20,21,21,22,22,23,23,24,24,25,25,26,26,27,27,28,28,29,29,30,30,31,31,32,32,34,34,36,36,38,38,41,41,42,42,43,43,44,44,46,46,47,47,48,48,49,49,50,50,51,51,52,52,53,53,54,54,55,55,56,56],"right_children":[2,4,6,8,10,12,14,16,18,20,22,24,26,28,30,32,-1,-1,-1,34,36,38,40,42,44,46,48,50,52,54,56,58,60,-1,62,-1,64,-1,66,-1,-1,68,70,72,74,-1,76,78,80,82,84,86,88,90,92,94,96,-1,-1,-1,-1,-1,-1,-1,-1,-1,-1,-1,-1,-1,-1,-1,-1,-1,-1,-1,-1,-1,-1,-1,-1,-1,-1,-1,-1,-1,-1,-1,-1,-1,-1,-1,-1,-1,-1,-1,-1],"split_conditions":[-6.11232E-1,4.3607005E-1,-4.5940137E-1,3.109617E-1,-2.4670994E-1,6.09079E-1,-1.6259713E-1,4.2923215E-1,-4.2165226E-1,-5.8393604E-3,6.4333198E-3,3.64314E-1,-9.0298146E-2,-4.0862632E-1,-6.887802E-1,-4.7504008E-1,3.2547277E-1,2.1390602E-2,4.5926312E-1,6.007656E-1,-2.948677E-1,3.898034E-1,-1.574571E-1,2.6629314E-1,2.754771E-1,-3.4038156E-1,3.1373018E-1,3.581788E-1,1.7466216E-1,-4.7021455E-1,7.353474E-1,-2.516082E-1,-2.3356426E-1,-1.4898191E-1,1.7211029E-1,-1.6554154E-2,8.261941E-1,-1.6186571E-1,-1.989066E-2,-1.0238178E-1,2.633655E-1,2.9869366E-1,1.822637E-1,9.566431E-2,-5.648912E-1,4.539824E-1,1.5896408E-1,7.287499E-1,-8.537948E-2,-4.9990326E-2,-4.653648E-1,-4.5808144E-2,-3.9343247E-1,-4.2975897E-1,-3.9834502E-1,4.907982E-1,-3.8108194E-1,1.4877084E-1,-1.646235E-1,2.4619624E-2,-1.0039948E-1,3.8795552E-1,-9.508036E-2,5.674128E-1,3.1768423E-2,2.0257743E-1,-1.0825996E-1,2.9541831E-2,1.6445561E-1,1.3279831E-1,5.0667113E-1,-5.953611E-3,1.9941038E-1,-1.5328704E-1,2.2576378E-1,2.18221E-1,-1.3700315E-1,-1.7370133E-1,1.090859E-1,1.8969376E-1,-1.5160275E-1,-5.496844E-2,2.1344803E-1,3.7780818E-1,4.141455E-2,3.665062E-2,-2.475162E-3,3.0284423E-1,6.715275E-2,5.877048E-1,5.74004E-2,1.9567089E-1,3.003169E-2,3.8323857E-2,-4.077413E-3,5.5340145E-2,-1.6874331E-1],"split_indices":[51,94,57,7,74,104,125,39,0,77,24,35,65,9,99,125,0,0,0,79,46,87,92,115,79,67,127,50,74,59,84,77,103,0,106,0,18,0,48,0,0,14,18,51,3,0,92,108,77,108,39,126,13,104,27,55,110,0,0,0,0,0,0,0,0,0,0,0,0,0,0,0,0,0,0,0,0,0,0,0,0,0,0,0,0,0,0,0,0,0,0,0,0,0,0,0,0],"split_type":[0,0,0,0,0,0,0,0,0,0,0,0,0,0,0,0,0,0,0,0,0,0,0,0,0,0,0,0,0,0,0,0,0,0,0,0,0,0,0,0,0,0,0,0,0,0,0,0,0,0,0,0,0,0,0,0,0,0,0,0,0,0,0,0,0,0,0,0,0,0,0,0,0,0,0,0,0,0,0,0,0,0,0,0,0,0,0,0,0,0,0,0,0,0,0,0,0],"sum_hessian":[8.419912E3,1.604263E2,8.259485E3,1.2839027E2,3.203603E1,6.504335E2,7.6090522E3,1.25850845E2,2.539432E0,1.5923201E1,1.6112831E1,6.074865E2,4.2946915E1,2.1171682E3,5.491884E3,1.24716446E2,1.1343997E0,1.3840228E0,1.1554092E0,7.099669E0,8.823532E0,1.2686845E1,3.4259858E0,4.7029166E2,1.3719489E2,5.9925795E0,3.6954334E1,2.1509515E2,1.902073E3,1.0623852E2,5.3856455E3,3.3029243E1,9.1687195E1,4.55874E0,2.5409288E0,1.9101473E0,6.9133844E0,1.0187832E1,2.4990127E0,1.3337572E0,2.0922287E0,4.3617383E2,3.4117817E1,4.9306183E1,8.78887E1,1.1719654E0,4.820614E0,2.58837E1,1.1070637E1,1.8851732E2,2.6577835E1,1.7547252E3,1.4734776E2,8.59532E0,9.76432E1,5.3703184E3,1.5327008E1,1.3732123E0,3.1656033E1,4.20235E1,4.96637E1,1.4258599E0,1.115069E0,5.6278715E0,1.285513E0,1.044391E0,1.4546218E0,3.9337576E2,4.279806E1,3.0062243E1,4.055572E0,3.5691113E1,1.3615069E1,5.4332457E0,8.245546E1,1.7072048E0,3.1134093E0,2.4190136E1,1.6935627E0,5.9580693E0,5.1125674E0,1.8219542E2,6.3218856E0,2.5449467E0,2.4032888E1,8.6203955E2,8.926856E2,1.4845002E1,1.3250276E2,5.090425E0,3.5048952E0,2.971575E1,6.792745E1,5.044265E3,3.2605304E2,1.0498201E0,1.4277188E1],"tree_param":{"num_deleted":"0","num_feature":"128","num_nodes":"97","size_leaf_vector":"1"}},{"base_weights":[2.3707134E-1,4.933675E-1,2.1714094E-1,1.9801049E-1,5.472382E-1,3.383751E-1,1.8424019E-1,7.774786E-1,6.08324E-2,8.3094203E-1,4.965261E-1,2.9560128E-1,5.2853346E-1,1.6821668E-1,3.9968973E-1,-1.3841529E-1,1.019171E0,-2.5996469E-2,1.1890557E0,1.0344324E0,3.6079025E-1,6.1983883E-1,3.5368526E-1,6.349845E-1,2.7517366E-1,1.4844235E0,5.0138366E-1,3.6801684E-1,1.5718973E-1,3.5263142E-1,9.024006E-1,1.3532039E0,1.7755896E-1,5.008026E-1,-1.5124355E-1,9.533065E-3,4.7407803E-1,1.3115876E0,4.4149595E-1,1.0510645E0,1.307711E-1,1.2364359E0,5.604786E-1,3.8548845E-1,-4.304209E-1,1.1622313E-1,8.243793E-1,1.4979576E0,2.6954952E-1,2.068128E-2,5.2275264E-1,5.3390014E-1,-2.6817742E-1,3.092705E-1,8.238498E-1,8.184026E-1,1.5383701E-1,2.389399E-1,5.880428E-1,1.0631518E0,4.9493205E-2,4.9479485E-2,4.9014145E-1,-1.3939564E-1,3.1911346E-1,1.0789458E-2,3.7784687E-1,3.141507E-2,-1.4252019E-1,4.4594777E-1,7.2490044E-2,2.622331E-1,-9.019136E-2,1.3289204E-3,4.212534E-1,1.4608574E-1,-8.407766E-2,4.9915235E-3,4.336622E-1,1.5457077E-1,3.885062E-1,1.5310755E-1,4.733923E-2,-1.5973724E-1,5.453922E-2,4.0076718E-1,-7.381342E-3,2.7715856E-1,-2.4960797E-2,1.03175625E-1,5.6180966E-1,7.8316055E-2,2.9543E-1,2.2150396E-1,1.2535094E-1,2.3860803E-1,-1.4337131E-1,-6.6639766E-2,1.1139591E-1,4.073499E-1,1.6781127E-1,3.3211163E-1,-1.3247962E-2,4.498726E-2,1.7235279E-1,5.6816544E-2,2.3029293E-1,2.8370278E-2,2.0418964E-1,-1.1099809E-1,3.445362E-1,1.9370195E-1,-1.4112277E-1],"categories":[],"categories_nodes":[],"categories_segments":[],"categories_sizes":[],"default_left":[0,0,0,0,0,0,0,0,0,0,0,0,0,0,0,0,0,0,0,0,0,0,0,0,0,0,0,0,0,0,0,0,0,0,0,0,0,0,0,0,0,0,0,0,0,0,0,0,0,0,0,0,0,0,0,0,0,0,0,0,0,0,0,0,0,0,0,0,0,0,0,0,0,0,0,0,0,0,0,0,0,0,0,0,0,0,0,0,0,0,0,0,0,0,0,0,0,0,0,0,0,0,0,0,0,0,0,0,0,0,0,0,0],"id":11,"left_children":[1,3,5,7,9,11,13,15,17,19,21,23,25,27,29,-1,31,33,35,37,39,41,43,45,47,49,51,53,55,57,59,61,63,65,67,-1,-1,69,71,73,75,77,79,81,83,85,87,89,91,-1,-1,93,95,97,99,101,103,105,107,109,111,-1,-1,-1,-1,-1,-1,-1,-1,-1,-1,-1,-1,-1,-1,-1,-1,-1,-1,-1,-1,-1,-1,-1,-1,-1,-1,-1,-1,-1,-1,-1,-1,-1,-1,-1,-1,-1,-1,-1,-1,-1,-1,-1,-1,-1,-1,-1,-1,-1,-1,-1,-1],"loss_changes":[4.4696472E1,9.948563E0,3.2405853E1,7.8276567E0,7.270218E0,1.3966736E1,2.2043503E1,6.1228733E0,7.984443E0,7.232029E0,7.8041534E0,9.668137E0,7.4975586E0,1.3079926E1,1.0153046E1,0E0,4.288172E0,5.1144004E0,2.5861769E0,8.450325E0,3.9190543E0,8.206139E0,5.48682E0,7.748455E0,8.817841E0,2.8977032E0,7.908348E0,8.077171E0,1.2405853E1,1.0736164E1,5.0540943E0,3.5251083E0,3.7539427E0,5.209659E0,5.2272863E0,0E0,0E0,6.5529404E0,6.3658733E0,2.301271E0,3.109151E0,5.2104645E0,6.764061E0,5.764572E0,6.458669E-1,3.9004471E0,5.342705E0,1.9160595E0,7.8611145E0,0E0,0E0,6.764351E0,3.3346496E0,9.223391E0,4.172167E0,7.0915127E0,9.094833E0,7.0780516E0,5.951378E0,4.250244E0,2.4596465E0,0E0,0E0,0E0,0E0,0E0,0E0,0E0,0E0,0E0,0E0,0E0,0E0,0E0,0E0,0E0,0E0,0E0,0E0,0E0,0E0,0E0,0E0,0E0,0E0,0E0,0E0,0E0,0E0,0E0,0E0,0E0,0E0,0E0,0E0,0E0,0E0,0E0,0E0,0E0,0E0,0E0,0E0,0E0,0E0,0E0,0E0,0E0,0E0,0E0,0E0,0E0,0E0],"parents":[2147483647,0,0,1,1,2,2,3,3,4,4,5,5,6,6,7,7,8,8,9,9,10,10,11,11,12,12,13,13,14,14,16,16,17,17,18,18,19,19,20,20,21,21,22,22,23,23,24,24,25,25,26,26,27,27,28,28,29,29,30,30,31,31,32,32,33,33,34,34,37,37,38,38,39,39,40,40,41,41,42,42,43,43,44,44,45,45,46,46,47,47,48,48,51,51,52,52,53,53,54,54,55,55,56,56,57,57,58,58,59,59,60,60],"right_children":[2,4,6,8,10,12,14,16,18,20,22,24,26,28,30,-1,32,34,36,38,40,42,44,46,48,50,52,54,56,58,60,62,64,66,68,-1,-1,70,72,74,76,78,80,82,84,86,88,90,92,-1,-1,94,96,98,100,102,104,106,108,110,112,-1,-1,-1,-1,-1,-1,-1,-1,-1,-1,-1,-1,-1,-1,-1,-1,-1,-1,-1,-1,-1,-1,-1,-1,-1,-1,-1,-1,-1,-1,-1,-1,-1,-1,-1,-1,-1,-1,-1,-1,-1,-1,-1,-1,-1,-1,-1,-1,-1,-1,-1,-1],"split_conditions":[-1.6969462E-1,-3.4054786E-1,-7.8784026E-2,-5.124565E-1,-5.5133456E-1,2.0289569E-1,3.9804134E-1,-2.812744E-2,6.7758703E-1,2.5779393E-1,-1.19433455E-1,-8.1787664E-1,-8.17299E-2,-3.4460947E-1,8.6313444E-1,-1.3841529E-1,-3.240813E-1,-2.9823253E-1,3.0665273E-2,-1.3097969E-1,3.6577683E-2,-3.988138E-1,9.6211976E-1,-3.522343E-1,-8.498346E-1,2.6511994E-1,2.2098935E-1,-4.924117E-2,-6.6937053E-1,2.6628202E-1,5.3159352E-2,-6.131796E-1,1.6696379E-1,4.623073E-2,-1.500338E-1,9.533065E-3,4.7407803E-1,3.4508464E-1,2.3598677E-2,-3.4750488E-2,-1.3565558E-1,-3.283118E-1,4.0205112E-1,-1.4168075E-1,4.2281494E-1,-6.744929E-1,2.19819E-2,-6.08103E-1,7.976308E-1,2.068128E-2,5.2275264E-1,-1.2553655E-1,-2.8539738E-1,-4.2819425E-1,-7.641173E-2,-2.3606688E-1,5.790445E-1,4.3104944E-1,-4.7681612E-1,-1.7052498E-1,4.1542116E-1,4.9479485E-2,4.9014145E-1,-1.3939564E-1,3.1911346E-1,1.0789458E-2,3.7784687E-1,3.141507E-2,-1.4252019E-1,4.4594777E-1,7.2490044E-2,2.622331E-1,-9.019136E-2,1.3289204E-3,4.212534E-1,1.4608574E-1,-8.407766E-2,4.9915235E-3,4.336622E-1,1.5457077E-1,3.885062E-1,1.5310755E-1,4.733923E-2,-1.5973724E-1,5.453922E-2,4.0076718E-1,-7.381342E-3,2.7715856E-1,-2.4960797E-2,1.03175625E-1,5.6180966E-1,7.8316055E-2,2.9543E-1,2.2150396E-1,1.2535094E-1,2.3860803E-1,-1.4337131E-1,-6.6639766E-2,1.1139591E-1,4.073499E-1,1.6781127E-1,3.3211163E-1,-1.3247962E-2,4.498726E-2,1.7235279E-1,5.6816544E-2,2.3029293E-1,2.8370278E-2,2.0418964E-1,-1.1099809E-1,3.445362E-1,1.9370195E-1,-1.4112277E-1],"split_indices":[66,91,37,10,32,44,120,86,79,112,4,18,20,106,2,0,108,80,42,51,73,59,6,116,59,84,102,83,122,11,67,21,61,105,83,0,0,84,1,103,115,127,48,62,117,42,97,92,85,0,0,21,99,125,84,12,57,85,53,68,112,0,0,0,0,0,0,0,0,0,0,0,0,0,0,0,0,0,0,0,0,0,0,0,0,0,0,0,0,0,0,0,0,0,0,0,0,0,0,0,0,0,0,0,0,0,0,0,0,0,0,0,0],"split_type":[0,0,0,0,0,0,0,0,0,0,0,0,0,0,0,0,0,0,0,0,0,0,0,0,0,0,0,0,0,0,0,0,0,0,0,0,0,0,0,0,0,0,0,0,0,0,0,0,0,0,0,0,0,0,0,0,0,0,0,0,0,0,0,0,0,0,0,0,0,0,0,0,0,0,0,0,0,0,0,0,0,0,0,0,0,0,0,0,0,0,0,0,0,0,0,0,0,0,0,0,0,0,0,0,0,0,0,0,0,0,0,0,0],"sum_hessian":[8.770119E3,6.3107086E2,8.1390483E3,9.806807E1,5.330028E2,1.7353324E3,6.403716E3,1.7878405E1,8.018967E1,7.849339E1,4.545094E2,1.4187552E3,3.165772E2,5.9620815E3,4.4163397E2,2.770165E0,1.5108239E1,7.536638E1,4.8232923E0,5.394485E1,2.4548546E1,2.4213652E2,2.1237288E2,7.88393E1,1.3399159E3,7.2608743E0,3.0931635E2,3.1014337E2,5.6519385E3,4.0538748E2,3.6246487E1,1.0380416E1,4.727823E0,1.3900646E1,6.146573E1,1.4917011E0,3.3315911E0,3.5935547E1,1.8009302E1,5.2435346E0,1.9305012E1,1.952225E1,2.2261426E2,2.0458339E2,7.789491E0,2.151697E1,5.7322334E1,4.9198093E0,1.3349961E3,1.3151202E0,5.945754E0,2.9707037E2,1.2245956E1,2.7622305E2,3.39203E1,2.7287416E1,5.624651E3,2.7472464E2,1.3066284E2,3.0290918E1,5.955568E0,2.2863016E0,8.094114E0,3.017E0,1.710823E0,9.269033E0,4.6316133E0,3.470803E1,2.6757696E1,3.0551933E1,5.3836155E0,1.1264828E1,6.7444744E0,1.5782169E0,3.6653175E0,1.0243612E1,9.0613985E0,3.0148582E0,1.6507391E1,2.1130101E2,1.131325E1,1.313223E2,7.3261086E1,6.7883754E0,1.001116E0,1.348862E0,2.0168108E1,5.16436E1,5.6787343E0,1.6760523E0,3.243757E0,1.3206729E3,1.4323195E1,1.0563413E2,1.9143625E2,1.557158E0,1.0688798E1,2.8611116E1,2.4761194E2,9.86628E0,2.4054022E1,2.0233368E1,7.0540485E0,5.574598E3,5.0052944E1,2.5242494E2,2.22997E1,2.0962105E1,1.09700745E2,1.5141693E0,2.8776749E1,2.661581E0,3.2939868E0],"tree_param":{"num_deleted":"0","num_feature":"128","num_nodes":"113","size_leaf_vector":"1"}},{"base_weights":[2.2515602E-2,2.736283E-2,-1.1485545E-1,2.945812E-2,-3.1646955E-1,1.0706252E-1,-1.7229475E-1,2.77692E-2,4.1154227E-1,-4.0853557E-1,8.5252815E-1,-1.7753245E-1,3.8596863E-1,-2.7280667E-1,-4.1616354E-2,1.7192485E-2,8.6999364E-2,1.1799765E0,1.3126792E-1,4.2312797E-2,-4.9972123E-1,4.436366E-1,-9.771079E-2,6.896052E-1,-2.8464192E-1,8.045283E-1,-8.6274356E-2,1.1888417E-1,-3.1128377E-1,3.403991E-1,-1.4911182E-1,1.2296081E-2,1.6066587E-1,-2.5889188E-1,1.0052973E-1,-1.0419704E-1,1.4950895E0,-1.1000556E-1,9.6075904E-1,-2.5985643E-1,3.4043318E-1,1.097811E-1,-5.499529E-1,-9.7040325E-2,4.114258E-1,3.6050072E-1,-4.038627E-1,1.0562901E0,-2.0181273E-1,-1.5912406E-1,5.324332E-1,-1.6035955E-1,3.8277683E-1,-3.5804954E-1,-9.235747E-3,6.4280075E-1,-2.723793E-1,5.0931257E-1,-2.1932925E-1,1.12688085E-2,-6.392565E-3,1.9515061E-1,2.9163687E-2,3.5087967E-1,-9.5421724E-2,2.1185425E-1,2.5630448E-2,5.1538553E-3,5.5529773E-1,1.3303103E-1,-9.53449E-2,-1.1007939E-1,4.5501426E-1,-1.50469E-1,1.4716488E-1,-1.7311619E-1,-1.8105626E-2,2.6746073E-1,-1.1367145E-1,-1.4407209E-1,1.2666115E-1,5.218496E-2,4.1496584E-1,-1.2009441E-1,5.573708E-2,1.280161E-2,4.763123E-1,2.836731E-1,-1.2687407E-1,-3.8286153E-2,-1.3397649E-1,1.3184702E-1,-1.0046714E-1,-1.3718963E-1,3.0174792E-1,-1.5380314E-1,1.9257154E-1,3.1762654E-1,-1.2767105E-1,-7.656667E-2,2.965758E-1],"categories":[],"categories_nodes":[],"categories_segments":[],"categories_sizes":[],"default_left":[0,0,0,0,0,0,0,0,0,0,0,0,0,0,0,0,0,0,0,0,0,0,0,0,0,0,0,0,0,0,0,0,0,0,0,0,0,0,0,0,0,0,0,0,0,0,0,0,0,0,0,0,0,0,0,0,0,0,0,0,0,0,0,0,0,0,0,0,0,0,0,0,0,0,0,0,0,0,0,0,0,0,0,0,0,0,0,0,0,0,0,0,0,0,0,0,0,0,0,0,0],"id":12,"left_children":[1,3,5,7,9,11,13,15,17,19,21,23,25,27,29,31,33,35,37,39,41,-1,-1,43,45,47,49,51,53,55,57,59,61,63,65,-1,67,69,71,73,-1,-1,75,-1,-1,77,79,81,83,-1,85,87,-1,89,91,93,95,97,99,-1,-1,-1,-1,-1,-1,-1,-1,-1,-1,-1,-1,-1,-1,-1,-1,-1,-1,-1,-1,-1,-1,-1,-1,-1,-1,-1,-1,-1,-1,-1,-1,-1,-1,-1,-1,-1,-1,-1,-1,-1,-1],"loss_changes":[5.4822745E0,5.7359424E0,3.595789E0,5.0875993E0,5.5392356E0,4.6977706E0,2.9219623E0,4.9274774E0,7.318868E0,1.8870301E0,3.3189416E0,2.9409552E0,5.953797E0,1.9367619E0,4.0863075E0,4.688717E0,5.6039743E0,4.9224644E0,5.419756E0,3.1197119E0,1.8462E0,0E0,0E0,2.8894994E0,2.2230542E0,4.2362137E0,4.3743696E0,4.08131E0,1.6218872E0,4.2304916E0,3.6895487E0,5.4839892E0,6.7831874E0,4.1886983E0,1.04323435E1,0E0,4.0566254E0,2.6098497E0,5.048655E0,1.6094403E0,0E0,0E0,4.4489193E-1,0E0,0E0,2.1994514E0,1.6708572E0,3.4695168E0,3.8345355E-1,0E0,3.4062417E0,3.4644957E0,0E0,1.9750786E0,2.5512867E0,6.4309397E0,2.0721526E0,4.435914E0,3.3144646E0,0E0,0E0,0E0,0E0,0E0,0E0,0E0,0E0,0E0,0E0,0E0,0E0,0E0,0E0,0E0,0E0,0E0,0E0,0E0,0E0,0E0,0E0,0E0,0E0,0E0,0E0,0E0,0E0,0E0,0E0,0E0,0E0,0E0,0E0,0E0,0E0,0E0,0E0,0E0,0E0,0E0,0E0],"parents":[2147483647,0,0,1,1,2,2,3,3,4,4,5,5,6,6,7,7,8,8,9,9,10,10,11,11,12,12,13,13,14,14,15,15,16,16,17,17,18,18,19,19,20,20,23,23,24,24,25,25,26,26,27,27,28,28,29,29,30,30,31,31,32,32,33,33,34,34,36,36,37,37,38,38,39,39,42,42,45,45,46,46,47,47,48,48,50,50,51,51,53,53,54,54,55,55,56,56,57,57,58,58],"right_children":[2,4,6,8,10,12,14,16,18,20,22,24,26,28,30,32,34,36,38,40,42,-1,-1,44,46,48,50,52,54,56,58,60,62,64,66,-1,68,70,72,74,-1,-1,76,-1,-1,78,80,82,84,-1,86,88,-1,90,92,94,96,98,100,-1,-1,-1,-1,-1,-1,-1,-1,-1,-1,-1,-1,-1,-1,-1,-1,-1,-1,-1,-1,-1,-1,-1,-1,-1,-1,-1,-1,-1,-1,-1,-1,-1,-1,-1,-1,-1,-1,-1,-1,-1,-1],"split_conditions":[4.1506582E-1,1.1988627E0,-5.1041347E-1,5.214441E-1,4.1008893E-1,3.7167656E-1,-3.083062E-1,1.8184115E-1,-1.598821E-1,-2.98004E-1,7.149635E-1,-3.895165E-1,3.9346796E-2,-2.3355311E-1,-8.091376E-2,5.420631E-1,-7.3108196E-1,-3.5283202E-1,9.274018E-1,2.355025E-1,-4.7697568E-1,4.436366E-1,-9.771079E-2,-6.6648865E-1,-3.798603E-1,8.548469E-1,8.4702915E-1,5.0088197E-1,-1.6965929E-1,-7.6608E-3,-2.4091105E-1,4.078692E-2,-7.977696E-2,-4.6018773E-1,-9.168662E-1,-1.0419704E-1,-3.9535928E-1,-3.5927546E-1,-4.364998E-1,2.3046696E-1,3.4043318E-1,1.097811E-1,1.2412441E-1,-9.7040325E-2,4.114258E-1,4.1278163E-1,1.7722486E-1,4.6728067E-3,-7.204401E-2,-1.5912406E-1,2.9513025E-1,2.6290825E-1,3.8277683E-1,-3.1201723E-1,-4.5227978E-1,-7.022794E-1,3.1644502E-1,2.7063358E-1,6.2708646E-1,1.12688085E-2,-6.392565E-3,1.9515061E-1,2.9163687E-2,3.5087967E-1,-9.5421724E-2,2.1185425E-1,2.5630448E-2,5.1538553E-3,5.5529773E-1,1.3303103E-1,-9.53449E-2,-1.1007939E-1,4.5501426E-1,-1.50469E-1,1.4716488E-1,-1.7311619E-1,-1.8105626E-2,2.6746073E-1,-1.1367145E-1,-1.4407209E-1,1.2666115E-1,5.218496E-2,4.1496584E-1,-1.2009441E-1,5.573708E-2,1.280161E-2,4.763123E-1,2.836731E-1,-1.2687407E-1,-3.8286153E-2,-1.3397649E-1,1.3184702E-1,-1.0046714E-1,-1.3718963E-1,3.0174792E-1,-1.5380314E-1,1.9257154E-1,3.1762654E-1,-1.2767105E-1,-7.656667E-2,2.965758E-1],"split_indices":[72,18,21,91,90,44,117,97,74,92,52,121,98,124,89,35,11,109,120,90,97,0,0,67,42,28,18,34,93,121,105,44,67,127,6,0,111,111,53,66,0,0,108,0,0,87,36,59,4,0,58,30,0,76,67,38,88,103,9,0,0,0,0,0,0,0,0,0,0,0,0,0,0,0,0,0,0,0,0,0,0,0,0,0,0,0,0,0,0,0,0,0,0,0,0,0,0,0,0,0,0],"split_type":[0,0,0,0,0,0,0,0,0,0,0,0,0,0,0,0,0,0,0,0,0,0,0,0,0,0,0,0,0,0,0,0,0,0,0,0,0,0,0,0,0,0,0,0,0,0,0,0,0,0,0,0,0,0,0,0,0,0,0,0,0,0,0,0,0,0,0,0,0,0,0,0,0,0,0,0,0,0,0,0,0,0,0,0,0,0,0,0,0,0,0,0,0,0,0,0,0,0,0,0,0],"sum_hessian":[8.227548E3,7.947902E3,2.7964606E2,7.90067E3,4.7231827E1,5.732104E1,2.2232501E2,7.8669688E3,3.3701576E1,4.4386623E1,2.8452034E0,2.8551077E1,2.8769964E1,1.2505259E2,9.7272415E1,6.676108E3,1.1908605E3,8.149056E0,2.555252E1,7.55727E0,3.6829353E1,1.691196E0,1.1540074E0,2.5410342E0,2.6010042E1,1.487886E1,1.3891104E1,1.0998621E1,1.1405397E2,2.0885012E1,7.6387405E1,6.4568374E3,2.1927075E2,4.4147083E1,1.1467134E3,1.3762727E0,6.7727833E0,2.0466753E1,5.0857677E0,6.516877E0,1.0403926E0,1.6751959E0,3.5154156E1,1.2336276E0,1.3074068E0,3.7412274E0,2.2268814E1,1.1861715E1,3.017145E0,8.169404E0,5.7216988E0,9.554185E0,1.4444354E0,9.860211E1,1.5451862E1,1.3951201E1,6.93381E0,6.7586465E0,6.962875E1,3.685597E3,2.7712402E3,2.4085873E1,1.9518488E2,1.0097857E0,4.31373E1,2.6771734E1,1.1199417E3,1.5178951E0,5.254888E0,5.277595E0,1.51891575E1,1.6014066E0,3.484361E0,5.1800017E0,1.3368754E0,3.3141068E1,2.013089E0,2.0576754E0,1.683552E0,2.0767324E1,1.501491E0,3.621046E0,8.240669E0,1.9736102E0,1.0435348E0,4.618605E0,1.1030939E0,1.333927E0,8.220259E0,2.8047558E1,7.055455E1,6.351059E0,9.100803E0,3.397092E0,1.0554109E1,5.838546E0,1.0952642E0,4.173391E0,2.5852554E0,6.838541E1,1.2433496E0],"tree_param":{"num_deleted":"0","num_feature":"128","num_nodes":"101","size_leaf_vector":"1"}},{"base_weights":[1.2554874E-1,1.5345499E-1,1.9958608E-2,-2.9008217E-2,1.7079079E-1,5.1176175E-2,-1.1367899E-1,-2.0037512E-1,6.648282E-2,-3.24179E-2,1.8404904E-1,7.81692E-2,-1.10795684E-1,-2.3615536E-1,2.3213709E-3,-8.80644E-2,-3.5970733E-1,1.8623772E-1,-9.4875515E-2,6.175656E-1,-5.257738E-2,2.1656853E-1,1.0450396E-1,1.3918117E-1,-2.3474986E-2,-3.3877328E-2,-5.2334726E-1,-1.3766538E-1,-4.8139518E-1,-1.512232E-1,2.6234588E-1,3.8871754E-2,-3.6568153E-1,4.5666614E-1,-3.8752925E-1,4.1073853E-1,1.6500273E-1,4.1651618E-1,-1.4550994E-1,4.408861E-1,1.4587066E-1,-3.4181967E-1,-9.105161E-3,3.9460373E-1,2.0598616E-1,-3.2131076E-2,1.307954E-1,1.0205717E-1,3.911997E-1,1.150658E-2,-3.662835E-1,-9.024455E-2,5.478281E-1,1.9208455E-1,-1.7465113E-1,-9.6988195E-4,-3.7940896E-1,-5.193956E-1,1.3098639E-1,-1.8600002E-1,1.0163119E0,1.5825404E-1,1.0747261E0,1.3416311E-1,-2.2216676E-2,-1.3459404E-1,1.0863486E-1,3.3827734E-1,-1.0181964E-1,-5.4190572E-2,-1.4281653E-1,-8.884967E-3,8.543178E-2,2.3642005E-1,-1.4301908E-1,-3.0009989E-3,-1.05725065E-1,-3.9094493E-2,3.0821526E-1,-1.2486006E-1,3.46652E-1,3.542497E-2,-4.4386484E-2,1.479281E-1,1.8019637E-2,-2.8701415E-2,6.355433E-2,1.3405131E-1,-2.077103E-2,8.6357154E-2,3.178869E-2,5.817254E-2,-2.9040861E-3,1.9849591E-1,4.282191E-2,1.0450576E-2,-1.5194461E-1,-1.7426026E-1,-1.8265327E-2,-1.0311259E-1,1.1974582E-3,3.3026886E-1,2.3664583E-3,2.6590446E-1,-2.346731E-2,-1.4940365E-1,5.1895376E-2,-1.6174963E-1,4.9178142E-2,-1.3295355E-1,-2.0049958E-2,4.7739282E-1,2.300138E-2,1.1699712E-1,-6.2332656E-2,5.527588E-1,5.5251773E-2],"categories":[],"categories_nodes":[],"categories_segments":[],"categories_sizes":[],"default_left":[0,0,0,0,0,0,0,0,0,0,0,0,0,0,0,0,0,0,0,0,0,0,0,0,0,0,0,0,0,0,0,0,0,0,0,0,0,0,0,0,0,0,0,0,0,0,0,0,0,0,0,0,0,0,0,0,0,0,0,0,0,0,0,0,0,0,0,0,0,0,0,0,0,0,0,0,0,0,0,0,0,0,0,0,0,0,0,0,0,0,0,0,0,0,0,0,0,0,0,0,0,0,0,0,0,0,0,0,0,0,0,0,0,0,0,0,0],"id":13,"left_children":[1,3,5,7,9,11,13,15,17,19,21,23,25,27,29,31,33,35,37,39,41,43,45,47,49,51,53,55,57,59,61,63,65,67,69,-1,71,73,75,-1,77,79,81,83,85,87,89,91,93,95,97,99,101,-1,-1,103,105,107,-1,109,111,113,115,-1,-1,-1,-1,-1,-1,-1,-1,-1,-1,-1,-1,-1,-1,-1,-1,-1,-1,-1,-1,-1,-1,-1,-1,-1,-1,-1,-1,-1,-1,-1,-1,-1,-1,-1,-1,-1,-1,-1,-1,-1,-1,-1,-1,-1,-1,-1,-1,-1,-1,-1,-1,-1,-1],"loss_changes":[2.605925E1,2.2133469E1,7.7240515E0,9.960146E0,1.7218857E1,6.56871E0,4.9823112E0,3.8650427E0,7.5748715E0,5.171061E0,1.5492065E1,7.9826646E0,6.7967405E0,4.053684E0,7.269169E0,4.561903E0,2.2145157E0,5.4213185E0,4.391839E0,4.5585194E0,4.7911496E0,7.937805E0,6.263424E0,7.4840918E0,5.8022017E0,6.019292E0,2.6779022E0,4.067453E0,1.9178028E0,4.8373804E0,5.5457263E0,4.158456E0,2.613246E0,2.2069383E0,1.5128059E0,0E0,5.183014E0,5.4630103E0,4.284468E0,0E0,2.265166E0,6.0262246E0,5.8893194E0,7.802597E0,7.1278076E0,5.04226E0,5.6694927E0,7.209705E0,6.8201504E0,5.3308454E0,2.9004955E0,3.9864907E0,4.836573E0,0E0,0E0,5.52838E0,2.999083E0,7.2337055E-1,0E0,3.4033597E0,1.750695E0,5.262702E0,4.791974E0,0E0,0E0,0E0,0E0,0E0,0E0,0E0,0E0,0E0,0E0,0E0,0E0,0E0,0E0,0E0,0E0,0E0,0E0,0E0,0E0,0E0,0E0,0E0,0E0,0E0,0E0,0E0,0E0,0E0,0E0,0E0,0E0,0E0,0E0,0E0,0E0,0E0,0E0,0E0,0E0,0E0,0E0,0E0,0E0,0E0,0E0,0E0,0E0,0E0,0E0,0E0,0E0,0E0,0E0],"parents":[2147483647,0,0,1,1,2,2,3,3,4,4,5,5,6,6,7,7,8,8,9,9,10,10,11,11,12,12,13,13,14,14,15,15,16,16,17,17,18,18,19,19,20,20,21,21,22,22,23,23,24,24,25,25,26,26,27,27,28,28,29,29,30,30,31,31,32,32,33,33,34,34,36,36,37,37,38,38,40,40,41,41,42,42,43,43,44,44,45,45,46,46,47,47,48,48,49,49,50,50,51,51,52,52,55,55,56,56,57,57,59,59,60,60,61,61,62,62],"right_children":[2,4,6,8,10,12,14,16,18,20,22,24,26,28,30,32,34,36,38,40,42,44,46,48,50,52,54,56,58,60,62,64,66,68,70,-1,72,74,76,-1,78,80,82,84,86,88,90,92,94,96,98,100,102,-1,-1,104,106,108,-1,110,112,114,116,-1,-1,-1,-1,-1,-1,-1,-1,-1,-1,-1,-1,-1,-1,-1,-1,-1,-1,-1,-1,-1,-1,-1,-1,-1,-1,-1,-1,-1,-1,-1,-1,-1,-1,-1,-1,-1,-1,-1,-1,-1,-1,-1,-1,-1,-1,-1,-1,-1,-1,-1,-1,-1,-1],"split_conditions":[5.82135E-2,-4.9550354E-1,7.666096E-2,1.2131544E-1,-1.5213469E-1,1.5940824E-1,-4.436427E-2,2.2040994E-1,2.2838883E-1,-5.186368E-1,1.5480989E-2,5.5978876E-2,4.790164E-1,5.418258E-2,9.65522E-2,9.5432065E-2,-5.336111E-1,-4.9405947E-1,-1.1696836E-1,-4.874244E-1,-5.369667E-1,-5.016435E-1,-1.2225828E-1,7.1292305E-1,9.70884E-2,4.0284142E-1,-3.6679858E-1,2.4018934E-1,1.0726365E0,4.873027E-1,1.7733182E-1,-2.8994733E-1,-1.5564057E-1,-5.916233E-1,6.0798153E-2,4.1073853E-1,-9.182024E-2,-2.3767348E-2,1.284189E-1,4.408861E-1,1.8134704E-1,7.126632E-1,3.59004E-1,7.478335E-1,-2.3884916E-1,-4.0203592E-1,-1.5170237E-1,2.702672E-2,-8.8028125E-2,2.950076E-1,-6.7746505E-2,-2.116286E-1,9.047457E-2,1.9208455E-1,-1.7465113E-1,-1.1002831E-1,2.0487249E-1,5.778829E-1,1.3098639E-1,-1.6552286E-1,-3.2922512E-1,-8.419881E-3,2.3980115E-1,1.3416311E-1,-2.2216676E-2,-1.3459404E-1,1.0863486E-1,3.3827734E-1,-1.0181964E-1,-5.4190572E-2,-1.4281653E-1,-8.884967E-3,8.543178E-2,2.3642005E-1,-1.4301908E-1,-3.0009989E-3,-1.05725065E-1,-3.9094493E-2,3.0821526E-1,-1.2486006E-1,3.46652E-1,3.542497E-2,-4.4386484E-2,1.479281E-1,1.8019637E-2,-2.8701415E-2,6.355433E-2,1.3405131E-1,-2.077103E-2,8.6357154E-2,3.178869E-2,5.817254E-2,-2.9040861E-3,1.9849591E-1,4.282191E-2,1.0450576E-2,-1.5194461E-1,-1.7426026E-1,-1.8265327E-2,-1.0311259E-1,1.1974582E-3,3.3026886E-1,2.3664583E-3,2.6590446E-1,-2.346731E-2,-1.4940365E-1,5.1895376E-2,-1.6174963E-1,4.9178142E-2,-1.3295355E-1,-2.0049958E-2,4.7739282E-1,2.300138E-2,1.1699712E-1,-6.2332656E-2,5.527588E-1,5.5251773E-2],"split_indices":[91,82,127,86,66,105,101,84,44,57,102,0,28,75,46,74,41,35,4,67,32,67,57,82,97,84,103,39,82,122,32,62,24,7,58,0,123,34,75,0,71,5,113,100,72,0,93,78,0,53,127,69,111,0,0,99,119,98,0,1,43,42,32,0,0,0,0,0,0,0,0,0,0,0,0,0,0,0,0,0,0,0,0,0,0,0,0,0,0,0,0,0,0,0,0,0,0,0,0,0,0,0,0,0,0,0,0,0,0,0,0,0,0,0,0,0,0],"split_type":[0,0,0,0,0,0,0,0,0,0,0,0,0,0,0,0,0,0,0,0,0,0,0,0,0,0,0,0,0,0,0,0,0,0,0,0,0,0,0,0,0,0,0,0,0,0,0,0,0,0,0,0,0,0,0,0,0,0,0,0,0,0,0,0,0,0,0,0,0,0,0,0,0,0,0,0,0,0,0,0,0,0,0,0,0,0,0,0,0,0,0,0,0,0,0,0,0,0,0,0,0,0,0,0,0,0,0,0,0,0,0,0,0,0,0,0,0],"sum_hessian":[8.84381E3,6.9947305E3,1.8490791E3,6.0684784E2,6.387883E3,1.499431E3,3.4964804E2,2.167582E2,3.9008963E2,3.9115915E2,5.9967236E3,1.2856857E3,2.1374538E2,1.695727E2,1.8007535E2,1.2805031E2,8.870789E1,2.2382204E2,1.6626761E2,1.087553E1,3.8028363E2,4.25534E3,1.7413835E3,8.031969E2,4.8248874E2,1.8106816E2,3.267721E1,1.22098465E2,4.747423E1,1.1348238E2,6.659296E1,8.846227E1,3.958803E1,2.4155324E0,8.629236E1,2.8277485E0,2.2099428E2,1.4328486E1,1.5193912E2,3.1214411E0,7.754089E0,4.8790855E1,3.3149277E2,2.3670964E2,4.0186304E3,2.8097116E2,1.4604124E3,7.0129626E2,1.0190065E2,4.386895E2,4.3799213E1,1.6584286E2,1.5225301E1,1.0967444E0,3.158047E1,7.863679E1,4.3461678E1,4.6004154E1,1.4700769E0,1.1101628E2,2.4661002E0,6.008851E1,6.5044518E0,1.8523226E1,6.993905E1,3.58813E1,3.7067304E0,1.0848025E0,1.3307298E0,2.6769566E1,5.9522797E1,8.4476845E1,1.3651744E2,1.0202466E1,4.126021E0,9.244426E1,5.949486E1,6.5531125E0,1.2009764E0,4.7169712E1,1.6211436E0,1.7308969E2,1.5840308E2,1.8250516E2,5.4204483E1,7.630708E1,3.9423232E3,1.940785E1,2.615633E2,1.9793608E2,1.2624763E3,3.8449518E2,3.1680112E2,4.7994617E1,5.390603E1,4.2067624E2,1.8013262E1,2.519461E1,1.8604603E1,4.4230373E1,1.21612495E2,7.007992E0,8.217309E0,5.459362E0,7.317743E1,3.586058E1,7.6010976E0,4.4915623E1,1.0885319E0,3.4291504E1,7.672478E1,1.0996548E0,1.3664454E0,3.675387E1,2.3334639E1,2.918906E0,3.585546E0],"tree_param":{"num_deleted":"0","num_feature":"128","num_nodes":"117","size_leaf_vector":"1"}},{"base_weights":[-4.5531207E-1,-1.592675E-1,-4.5659128E-1,-4.72222E-1,1.8886213E-1,-4.6177918E-1,-4.1078538E-1,1.0956271E-2,-1.5872025E-1,5.005446E-1,-3.2276344E-1,-4.6366897E-1,-3.1597394E-1,4.5106745E-1,-4.185663E-1,7.280784E-1,-1.0748825E-1,-1.3728936E-1,4.733942E-2,-4.6685278E-1,-3.8767114E-1,-3.785077E-1,3.840121E-1,1.0589756E0,-1.7780319E-1,1.280264E-1,-4.270078E-1,1.1885332E0,-1.57055E-1,-2.34205E-1,-4.6773234E-1,-4.0708998E-1,1.0624414E-1,-4.142176E-1,3.7790242E-1,-2.2219346E-1,1.0602854E0,4.2389847E-2,4.3974614E-1,5.4858137E-2,-1.1320876E-1,-3.4769323E-1,7.8982204E-1,-4.3225846E-1,2.797845E-1,4.182513E-1,5.6034893E-2,-1.0805612E-1,4.7170613E-2,1.6885021E-1,-1.290028E-1,-1.4073206E-1,-9.916871E-2,-1.2707031E-1,2.4452587E-3,-1.3920386E-1,1.805013E-1,-1.3561065E-1,8.018524E-2,3.0749953E-1,-1.0533588E-1,5.8333762E-2,-1.2203359E-1,4.1827184E-1,5.1218465E-2,5.9776794E-2,-1.4258261E-1,-1.747637E-2,4.2577896E-1,9.246918E-2,-1.3090347E-1,2.7343488E-1,-1.1980859E-1],"categories":[],"categories_nodes":[],"categories_segments":[],"categories_sizes":[],"default_left":[0,0,0,0,0,0,0,0,0,0,0,0,0,0,0,0,0,0,0,0,0,0,0,0,0,0,0,0,0,0,0,0,0,0,0,0,0,0,0,0,0,0,0,0,0,0,0,0,0,0,0,0,0,0,0,0,0,0,0,0,0,0,0,0,0,0,0,0,0,0,0,0,0],"id":14,"left_children":[1,3,5,7,9,11,13,-1,-1,15,17,19,21,23,25,27,-1,-1,-1,29,31,33,35,37,39,41,43,45,47,49,51,53,55,57,59,61,63,-1,-1,-1,-1,65,67,69,71,-1,-1,-1,-1,-1,-1,-1,-1,-1,-1,-1,-1,-1,-1,-1,-1,-1,-1,-1,-1,-1,-1,-1,-1,-1,-1,-1,-1],"loss_changes":[2.3284912E0,3.228541E0,1.3105469E0,4.6641493E-1,2.450707E0,1.4138184E0,4.556328E0,0E0,0E0,2.0807147E0,4.638391E-1,1.1708984E0,3.4542294E0,2.6000423E0,3.0352707E0,3.3216696E0,0E0,0E0,0E0,9.869385E-1,2.2547913E0,2.0445309E0,2.9805446E0,1.0441804E0,3.5381067E-1,3.609929E0,2.4826431E0,8.0595636E-1,2.810704E-1,3.7041292E0,8.511963E-1,1.5228577E0,2.967526E0,1.8533468E0,2.0930758E0,4.142105E-1,7.536392E-1,0E0,0E0,0E0,0E0,5.73249E-1,2.6109238E0,2.0471573E0,2.637582E0,0E0,0E0,0E0,0E0,0E0,0E0,0E0,0E0,0E0,0E0,0E0,0E0,0E0,0E0,0E0,0E0,0E0,0E0,0E0,0E0,0E0,0E0,0E0,0E0,0E0,0E0,0E0,0E0],"parents":[2147483647,0,0,1,1,2,2,3,3,4,4,5,5,6,6,9,9,10,10,11,11,12,12,13,13,14,14,15,15,19,19,20,20,21,21,22,22,23,23,24,24,25,25,26,26,27,27,28,28,29,29,30,30,31,31,32,32,33,33,34,34,35,35,36,36,41,41,42,42,43,43,44,44],"right_children":[2,4,6,8,10,12,14,-1,-1,16,18,20,22,24,26,28,-1,-1,-1,30,32,34,36,38,40,42,44,46,48,50,52,54,56,58,60,62,64,-1,-1,-1,-1,66,68,70,72,-1,-1,-1,-1,-1,-1,-1,-1,-1,-1,-1,-1,-1,-1,-1,-1,-1,-1,-1,-1,-1,-1,-1,-1,-1,-1,-1,-1],"split_conditions":[-9.54702E-1,-2.6120104E-2,3.978295E-1,-5.2715875E-2,-1.3165572E-1,5.173955E-1,-4.694645E-1,1.0956271E-2,-1.5872025E-1,1.1255558E-2,-1.8298148E-1,4.0353337E-1,5.6731164E-1,2.4744123E-1,-1.6988568E-1,-1.7650166E-1,-1.0748825E-1,-1.3728936E-1,4.733942E-2,-9.182154E-1,2.633152E-1,7.205179E-1,-3.4517273E-1,-9.014266E-2,6.650071E-1,3.0592403E-1,7.86796E-1,1.7920595E-1,-7.109792E-1,1.7156114E-1,6.17291E-1,5.813061E-1,2.5993738E-1,3.590755E-1,-1.6389127E-1,2.0687488E-1,-7.674886E-2,4.2389847E-2,4.3974614E-1,5.4858137E-2,-1.1320876E-1,-5.41107E-1,-5.2543724E-1,-6.7801946E-1,-4.35332E-1,4.182513E-1,5.6034893E-2,-1.0805612E-1,4.7170613E-2,1.6885021E-1,-1.290028E-1,-1.4073206E-1,-9.916871E-2,-1.2707031E-1,2.4452587E-3,-1.3920386E-1,1.805013E-1,-1.3561065E-1,8.018524E-2,3.0749953E-1,-1.0533588E-1,5.8333762E-2,-1.2203359E-1,4.1827184E-1,5.1218465E-2,5.9776794E-2,-1.4258261E-1,-1.747637E-2,4.2577896E-1,9.246918E-2,-1.3090347E-1,2.7343488E-1,-1.1980859E-1],"split_indices":[12,53,68,52,14,107,81,0,0,74,85,72,12,78,27,50,0,0,0,113,91,92,36,101,18,75,65,58,15,111,90,11,109,79,91,11,112,0,0,0,0,99,56,89,57,0,0,0,0,0,0,0,0,0,0,0,0,0,0,0,0,0,0,0,0,0,0,0,0,0,0,0,0],"split_type":[0,0,0,0,0,0,0,0,0,0,0,0,0,0,0,0,0,0,0,0,0,0,0,0,0,0,0,0,0,0,0,0,0,0,0,0,0,0,0,0,0,0,0,0,0,0,0,0,0,0,0,0,0,0,0,0,0,0,0,0,0,0,0,0,0,0,0,0,0,0,0,0,0],"sum_hessian":[6.3395576E3,2.7814983E1,6.3117427E3,1.4459775E1,1.3355209E1,5.661455E3,6.5028735E2,1.4892421E0,1.2970532E1,8.312742E0,5.042467E0,5.586863E3,7.459217E1,5.308609E0,6.4497876E2,6.6920557E0,1.6206869E0,3.974699E0,1.0677681E0,5.357284E3,2.2957886E2,6.8896515E1,5.695658E0,2.3515308E0,2.957078E0,9.594041E0,6.353847E2,4.1765842E0,2.5154712E0,2.1183931E1,5.3361E3,2.210633E2,8.515563E0,6.622256E1,2.6739564E0,3.3574831E0,2.338175E0,1.1361486E0,1.2153822E0,1.0831605E0,1.8739175E0,5.8578525E0,3.7361882E0,6.310849E2,4.299814E0,3.1402276E0,1.0363567E0,1.4392335E0,1.0762377E0,3.8081288E0,1.7375803E1,5.2807646E3,5.5335434E1,2.1260654E2,8.4567585E0,3.9882867E0,4.5272765E0,6.3059944E1,3.1626165E0,1.2014934E0,1.472463E0,1.0143977E0,2.3430855E0,1.2874899E0,1.0506852E0,1.001708E0,4.8561444E0,1.9782484E0,1.7579399E0,3.0550714E0,6.280298E2,2.0505621E0,2.2492518E0],"tree_param":{"num_deleted":"0","num_feature":"128","num_nodes":"73","size_leaf_vector":"1"}},{"base_weights":[-1.17164806E-1,-1.1000457E-1,-2.2265036E-1,-1.6945603E-1,-9.7597376E-2,-1.8285975E-1,-3.7865406E-1,-1.891592E-1,1.1793649E-2,-9.494627E-2,-4.5105636E-1,-2.9061514E-1,-1.1939192E-1,-5.6548756E-2,-4.6554285E-1,-3.7832388E-1,-1.6536722E-1,-2.9611643E-2,5.2853763E-1,-1.5605204E-1,-8.185454E-2,-4.9386644E-1,1.1551251E-1,-3.5307518E-1,4.257936E-2,-1.5203533E-1,6.343921E-1,7.288183E-1,