{"learner":{"attributes":{"scikit_learn":"{\"_estimator_type\": \"classifier\"}"},"feature_names":["dim_1","dim_2","dim_3","dim_4","dim_5","dim_6","dim_7","dim_8","dim_9","dim_10","dim_11","dim_12","dim_13","dim_14","dim_15","dim_16","dim_17","dim_18","dim_19","dim_20","dim_21","dim_22","dim_23","dim_24","dim_25","dim_26","dim_27","dim_28","dim_29","dim_30","dim_31","dim_32","dim_33","dim_34","dim_35","dim_36","dim_37","dim_38","dim_39","dim_40","dim_41","dim_42","dim_43","dim_44","dim_45","dim_46","dim_47","dim_48","dim_49","dim_50","dim_51","dim_52","dim_53","dim_54","dim_55","dim_56","dim_57","dim_58","dim_59","dim_60","dim_61","dim_62","dim_63","dim_64","dim_65","dim_66","dim_67","dim_68","dim_69","dim_70","dim_71","dim_72","dim_73","dim_74","dim_75","dim_76","dim_77","dim_78","dim_79","dim_80","dim_81","dim_82","dim_83","dim_84","dim_85","dim_86","dim_87","dim_88","dim_89","dim_90","dim_91","dim_92","dim_93","dim_94","dim_95","dim_96","dim_97","dim_98","dim_99","dim_100","dim_101","dim_102","dim_103","dim_104","dim_105","dim_106","dim_107","dim_108","dim_109","dim_110","dim_111","dim_112","dim_113","dim_114","dim_115","dim_116","dim_117","dim_118","dim_119","dim_120","dim_121","dim_122","dim_123","dim_124","dim_125","dim_126","dim_127","dim_128"],"feature_types":["float","float","float","float","float","float","float","float","float","float","float","float","float","float","float","float","float","float","float","float","float","float","float","float","float","float","float","float","float","float","float","float","float","float","float","float","float","float","float","float","float","float","float","float","float","float","float","float","float","float","float","float","float","float","float","float","float","float","float","float","float","float","float","float","float","float","float","float","float","float","float","float","float","float","float","float","float","float","float","float","float","float","float","float","float","float","float","float","float","float","float","float","float","float","float","float","float","float","float","float","float","float","float","float","float","float","float","float","float","float","float","float","float","float","float","float","float","float","float","float","float","float","float","float","float","float","float","float"],"gradient_booster":{"model":{"gbtree_model_param":{"num_parallel_tree":"1","num_trees":"600"},"iteration_indptr":[0,6,12,18,24,30,36,42,48,54,60,66,72,78,84,90,96,102,108,114,120,126,132,138,144,150,156,162,168,174,180,186,192,198,204,210,216,222,228,234,240,246,252,258,264,270,276,282,288,294,300,306,312,318,324,330,336,342,348,354,360,366,372,378,384,390,396,402,408,414,420,426,432,438,444,450,456,462,468,474,480,486,492,498,504,510,516,522,528,534,540,546,552,558,564,570,576,582,588,594,600],"tree_info":[0,1,2,3,4,5,0,1,2,3,4,5,0,1,2,3,4,5,0,1,2,3,4,5,0,1,2,3,4,5,0,1,2,3,4,5,0,1,2,3,4,5,0,1,2,3,4,5,0,1,2,3,4,5,0,1,2,3,4,5,0,1,2,3,4,5,0,1,2,3,4,5,0,1,2,3,4,5,0,1,2,3,4,5,0,1,2,3,4,5,0,1,2,3,4,5,0,1,2,3,4,5,0,1,2,3,4,5,0,1,2,3,4,5,0,1,2,3,4,5,0,1,2,3,4,5,0,1,2,3,4,5,0,1,2,3,4,5,0,1,2,3,4,5,0,1,2,3,4,5,0,1,2,3,4,5,0,1,2,3,4,5,0,1,2,3,4,5,0,1,2,3,4,5,0,1,2,3,4,5,0,1,2,3,4,5,0,1,2,3,4,5,0,1,2,3,4,5,0,1,2,3,4,5,0,1,2,3,4,5,0,1,2,3,4,5,0,1,2,3,4,5,0,1,2,3,4,5,0,1,2,3,4,5,0,1,2,3,4,5,0,1,2,3,4,5,0,1,2,3,4,5,0,1,2,3,4,5,0,1,2,3,4,5,0,1,2,3,4,5,0,1,2,3,4,5,0,1,2,3,4,5,0,1,2,3,4,5,0,1,2,3,4,5,0,1,2,3,4,5,0,1,2,3,4,5,0,1,2,3,4,5,0,1,2,3,4,5,0,1,2,3,4,5,0,1,2,3,4,5,0,1,2,3,4,5,0,1,2,3,4,5,0,1,2,3,4,5,0,1,2,3,4,5,0,1,2,3,4,5,0,1,2,3,4,5,0,1,2,3,4,5,0,1,2,3,4,5,0,1,2,3,4,5,0,1,2,3,4,5,0,1,2,3,4,5,0,1,2,3,4,5,0,1,2,3,4,5,0,1,2,3,4,5,0,1,2,3,4,5,0,1,2,3,4,5,0,1,2,3,4,5,0,1,2,3,4,5,0,1,2,3,4,5,0,1,2,3,4,5,0,1,2,3,4,5,0,1,2,3,4,5,0,1,2,3,4,5,0,1,2,3,4,5,0,1,2,3,4,5,0,1,2,3,4,5,0,1,2,3,4,5,0,1,2,3,4,5,0,1,2,3,4,5,0,1,2,3,4,5,0,1,2,3,4,5,0,1,2,3,4,5,0,1,2,3,4,5,0,1,2,3,4,5,0,1,2,3,4,5,0,1,2,3,4,5,0,1,2,3,4,5,0,1,2,3,4,5,0,1,2,3,4,5,0,1,2,3,4,5,0,1,2,3,4,5,0,1,2,3,4,5,0,1,2,3,4,5,0,1,2,3,4,5,0,1,2,3,4,5],"trees":[{"base_weights":[2.7912065E-2,2.382286E-2,5.3030294E-1,-2.5375368E-2,5.5065557E-2,3.641618E-1,1.4999999E0,-5.1399883E-2,6.6041455E-2,5.2641008E-2,6.724137E-1,9.2307687E-1,9.192197E-2,2.0930227E-2,1.7412586E0,-5.3855594E-2,1.2650602E0,4.3428168E-2,6.8397284E-1,6.2636256E-2,-8.5032344E-2,2.6235738E-1,1.6019416E0,5.3225803E-1,1.6666665E0,-1.1418687E-1,8.3544296E-1,5.1724136E-1,2.1262136E0,-3.332647E-2,-2.000737E-1,-5.029142E-9,5.943396E-1,-9.020047E-2,1.4938122E-1,2.6501763E-1,1.2808988E0,4.2857137E-1,5.9542287E-2,2.1668358E-1,-1.4325179E-1,-1.7098448E-1,1.1590909E0,2.0930227E-2,6.230769E-1,9.344261E-1,-1.4096385E-1,4.736842E-2,1.9772726E0,-2.1189593E-1,8.275862E-1,-1.22448996E-1,5.538461E-1,-9.4736844E-2,3.3157894E-1,1.8947369E-1,7.0481926E-1,4.3448275E-1,-1.0659985E-2,-7.12154E-2,1.0453256E-1,1.3095975E-1,-3.700571E-2,1.8367346E-1,3.1553548E-2,3.1935483E-1,-3.461539E-2,1.3539822E-1,6.39759E-1,5.2554738E-2,3.6993864E-1,-7.612979E-2,1.885423E-2,1.9053541E-2,2.4545453E-1,-6.804703E-2,2.7475793E-2,2.7209303E-1,-1.2857144E-1,4.7142854E-1,2.0930227E-2,4.1707316E-1,-6.189713E-9,6.6176474E-1,1.8947369E-1,1.0490797E-1,-1.3053435E-1,4.736842E-2,3.3157894E-1,-1.3846155E-1,1.8947369E-1],"categories":[],"categories_nodes":[],"categories_segments":[],"categories_sizes":[],"default_left":[0,0,0,0,0,0,0,0,0,0,0,0,0,0,0,0,0,0,0,0,0,0,0,0,0,0,0,0,0,0,0,0,0,0,0,0,0,0,0,0,0,0,0,0,0,0,0,0,0,0,0,0,0,0,0,0,0,0,0,0,0,0,0,0,0,0,0,0,0,0,0,0,0,0,0,0,0,0,0,0,0,0,0,0,0,0,0,0,0,0,0],"id":0,"left_children":[1,3,5,7,9,11,13,15,17,19,21,23,25,-1,27,29,31,33,35,37,39,41,43,45,47,49,51,53,55,57,59,-1,-1,61,63,65,67,69,71,73,75,77,79,-1,-1,81,-1,-1,83,85,87,89,-1,-1,-1,-1,-1,-1,-1,-1,-1,-1,-1,-1,-1,-1,-1,-1,-1,-1,-1,-1,-1,-1,-1,-1,-1,-1,-1,-1,-1,-1,-1,-1,-1,-1,-1,-1,-1,-1,-1],"loss_changes":[1.6793102E1,1.2475531E1,1.0086788E1,7.503835E0,7.394334E0,8.689649E0,3.099041E0,8.003506E0,9.738522E0,6.810651E0,6.9487896E0,4.569893E0,6.2082195E0,0E0,2.643589E0,7.350572E0,4.177084E0,9.576662E0,5.8154144E0,5.195341E0,5.9184885E0,5.87595E0,4.0194674E0,5.9918957E0,2.4995995E0,3.1302187E0,8.72428E0,1.9274044E0,4.2498016E-1,7.0825973E0,6.25424E0,0E0,0E0,5.2808657E0,7.6512384E0,4.904444E0,6.023924E0,7.632815E0,4.7522297E0,4.979497E0,5.5465198E0,3.3659306E0,2.0863037E0,0E0,0E0,4.330267E0,0E0,0E0,1.1082268E-1,3.898942E0,4.2468238E-1,1.6835495E0,0E0,0E0,0E0,0E0,0E0,0E0,0E0,0E0,0E0,0E0,0E0,0E0,0E0,0E0,0E0,0E0,0E0,0E0,0E0,0E0,0E0,0E0,0E0,0E0,0E0,0E0,0E0,0E0,0E0,0E0,0E0,0E0,0E0,0E0,0E0,0E0,0E0,0E0,0E0],"parents":[2147483647,0,0,1,1,2,2,3,3,4,4,5,5,6,6,7,7,8,8,9,9,10,10,11,11,12,12,14,14,15,15,16,16,17,17,18,18,19,19,20,20,21,21,22,22,23,23,24,24,25,25,26,26,27,27,28,28,29,29,30,30,33,33,34,34,35,35,36,36,37,37,38,38,39,39,40,40,41,41,42,42,45,45,48,48,49,49,50,50,51,51],"right_children":[2,4,6,8,10,12,14,16,18,20,22,24,26,-1,28,30,32,34,36,38,40,42,44,46,48,50,52,54,56,58,60,-1,-1,62,64,66,68,70,72,74,76,78,80,-1,-1,82,-1,-1,84,86,88,90,-1,-1,-1,-1,-1,-1,-1,-1,-1,-1,-1,-1,-1,-1,-1,-1,-1,-1,-1,-1,-1,-1,-1,-1,-1,-1,-1,-1,-1,-1,-1,-1,-1,-1,-1,-1,-1,-1,-1],"split_conditions":[4.8711455E-1,-1.0792623E-2,-2.5085278E-2,9.716041E-2,4.1709203E-1,-1.624683E-1,-6.889264E-2,3.7552223E-1,-7.1240203E-3,2.0724931E-1,1.04080595E-1,1.3170624E-3,1.8457502E-1,2.0930227E-2,-3.8285926E-1,2.333419E-1,-6.0864463E-2,-2.3092633E-2,-4.56068E-2,-2.5428712E-1,3.0133307E-2,-1.9906192E-1,1.4633575E-1,6.3468285E-2,-3.2902834E-1,9.894885E-2,-8.265177E-2,3.9782085E-2,-4.1981673E-1,-4.2480358E-1,5.3592958E-3,-5.029142E-9,5.943396E-1,-3.9225882E-1,-2.3932813E-2,-5.6537524E-2,3.7680123E-2,1.18418306E-1,-2.5958073E-1,1.09686315E-1,4.852614E-2,2.3855535E-2,-2.498556E-1,2.0930227E-2,6.230769E-1,3.5609532E-2,-1.4096385E-1,4.736842E-2,1.4870046E-1,-3.4888086E-1,-1.7871416E-1,-1.7272025E-2,5.538461E-1,-9.4736844E-2,3.3157894E-1,1.8947369E-1,7.0481926E-1,4.3448275E-1,-1.0659985E-2,-7.12154E-2,1.0453256E-1,1.3095975E-1,-3.700571E-2,1.8367346E-1,3.1553548E-2,3.1935483E-1,-3.461539E-2,1.3539822E-1,6.39759E-1,5.2554738E-2,3.6993864E-1,-7.612979E-2,1.885423E-2,1.9053541E-2,2.4545453E-1,-6.804703E-2,2.7475793E-2,2.7209303E-1,-1.2857144E-1,4.7142854E-1,2.0930227E-2,4.1707316E-1,-6.189713E-9,6.6176474E-1,1.8947369E-1,1.0490797E-1,-1.3053435E-1,4.736842E-2,3.3157894E-1,-1.3846155E-1,1.8947369E-1],"split_indices":[2,77,79,21,60,94,22,100,119,89,127,72,47,0,119,84,11,98,19,73,31,98,50,119,7,35,123,11,126,72,59,0,0,98,47,42,59,99,109,101,45,4,7,0,0,69,0,0,3,13,5,88,0,0,0,0,0,0,0,0,0,0,0,0,0,0,0,0,0,0,0,0,0,0,0,0,0,0,0,0,0,0,0,0,0,0,0,0,0,0,0],"split_type":[0,0,0,0,0,0,0,0,0,0,0,0,0,0,0,0,0,0,0,0,0,0,0,0,0,0,0,0,0,0,0,0,0,0,0,0,0,0,0,0,0,0,0,0,0,0,0,0,0,0,0,0,0,0,0,0,0,0,0,0,0,0,0,0,0,0,0,0,0,0,0,0,0,0,0,0,0,0,0,0,0,0,0,0,0,0,0,0,0,0,0],"sum_hessian":[8.179445E3,8.114445E3,6.5E1,3.1516667E3,4.962778E3,5.6666668E1,8.333334E0,2.4536113E3,6.980556E2,4.944445E3,1.8333334E1,1.7777779E1,3.888889E1,1.388889E0,6.9444447E0,2.45E3,3.6111112E0,6.7444446E2,2.3611113E1,4.610278E3,3.341667E2,1.3611112E1,4.7222223E0,1.2777779E1,5E0,3.1111113E1,7.777778E0,2.2222223E0,4.7222223E0,2.1494446E3,3.0055557E2,1.6666667E0,1.9444445E0,2.9833334E2,3.761111E2,1.4722223E1,8.888889E0,3.75E1,4.572778E3,5.3611115E1,2.8055557E2,9.722222E0,3.888889E0,1.388889E0,3.3333335E0,9.166667E0,3.6111112E0,1.1111112E0,3.888889E0,2.888889E1,2.2222223E0,4.4444447E0,3.3333335E0,1.1111112E0,1.1111112E0,1.1111112E0,3.6111112E0,2.2222223E0,2.1472224E3,2.8194446E2,1.8611113E1,1.6944445E1,2.8138892E2,3.1666668E1,3.4444446E2,4.166667E0,1.0555556E1,5.277778E0,3.6111112E0,2.9444447E1,8.055556E0,4.6944447E1,4.5258335E3,4.3611115E1,1E1,2.0694446E2,7.3611115E1,1.388889E0,8.333334E0,2.5E0,1.388889E0,5.8333335E0,3.3333335E0,2.777778E0,1.1111112E0,8.055556E0,2.0833334E1,1.1111112E0,1.1111112E0,3.3333335E0,1.1111112E0],"tree_param":{"num_deleted":"0","num_feature":"128","num_nodes":"91","size_leaf_vector":"1"}},{"base_weights":[2.0039657E-1,-4.070882E-2,2.7266464E-1,-2.3779194E-1,2.4810852E-2,1.7688808E-1,3.434467E-1,-2.4940106E-1,4.459459E-1,4.3876104E-2,-4.1880342E-1,3.8734356E-1,1.3345674E-1,2.7091226E-2,3.651908E-1,-4.4157815E-1,-2.1282634E-1,1.1470587E0,-1.22448996E-1,4.1459623E-1,2.3267811E-2,-4.501452E-1,1.8947369E-1,7.266433E-2,4.8843926E-1,1.5079898E-1,-8.09191E-2,7.0370364E-1,-1.4310847E-2,3.7052894E-1,-3.167702E-1,-5.1744765E-1,-1.8918921E-1,-2.8336382E-1,-4.8996758E-2,5.625E-1,-9.4736844E-2,1.8947369E-1,-1.3846155E-1,5.884244E-1,-4.02145E-2,6.097236E-2,-1.4359096E-1,-4.9586776E-1,1.8072286E-1,2.1192478E-1,-3.6144578E-1,2.768532E-1,5.8479935E-1,-5.6915566E-2,1.7084157E-1,-1.605232E-1,3.2530117E-1,-1.4096385E-1,1.1797752E0,-1.8644069E-1,9.966774E-2,5.5894005E-1,3.541958E-1,8.275862E-1,-4.537246E-1,-1.6503198E-1,-1.0843379E-2,-9.80198E-2,2.25E-1,-1.09615386E-1,-5.189874E-2,-1.4381444E-1,1.3705576E-2,2.0996481E-1,-1.4693879E-1,-1.17040366E-1,1.2857142E-1,2.1839693E-2,-1.257642E-1,1.2526758E-2,-8.545007E-2,-1.6837147E-1,-7.777779E-2,3.3157894E-1,-1.2857144E-1,9.8945774E-2,-1.4291845E-1,1.8947369E-1,-1.2803349E-1,4.736841E-2,2.4827585E-1,1.9635914E-1,4.8726108E-2,-3.3901088E-2,2.0472102E-1,2.2122903E-1,4.940256E-2,-9.853138E-2,2.5023961E-2,2.9325843E-1,-1.0650895E-2,-1.0465116E-1,4.4117644E-1,-1.16960354E-1,2.4324315E-2,3.8219178E-1,1.8742023E-2,1.0369641E-1,2.3809524E-1,1.23659246E-1,8.826871E-2,-9.4736844E-2,4.7368422E-1,2.903225E-2,-1.7119566E-1],"categories":[],"categories_nodes":[],"categories_segments":[],"categories_sizes":[],"default_left":[0,0,0,0,0,0,0,0,0,0,0,0,0,0,0,0,0,0,0,0,0,0,0,0,0,0,0,0,0,0,0,0,0,0,0,0,0,0,0,0,0,0,0,0,0,0,0,0,0,0,0,0,0,0,0,0,0,0,0,0,0,0,0,0,0,0,0,0,0,0,0,0,0,0,0,0,0,0,0,0,0,0,0,0,0,0,0,0,0,0,0,0,0,0,0,0,0,0,0,0,0,0,0,0,0,0,0,0,0,0,0],"id":1,"left_children":[1,3,5,7,9,11,13,15,17,19,21,23,25,27,29,31,33,35,37,39,41,43,-1,45,47,49,51,53,55,57,59,61,63,65,67,-1,-1,-1,-1,69,71,73,75,77,79,81,83,85,87,89,91,93,95,-1,97,99,101,103,105,107,109,-1,-1,-1,-1,-1,-1,-1,-1,-1,-1,-1,-1,-1,-1,-1,-1,-1,-1,-1,-1,-1,-1,-1,-1,-1,-1,-1,-1,-1,-1,-1,-1,-1,-1,-1,-1,-1,-1,-1,-1,-1,-1,-1,-1,-1,-1,-1,-1,-1,-1],"loss_changes":[1.4254898E2,2.4377419E1,4.2608307E1,3.8498287E0,1.2006109E1,2.441555E1,2.4879395E1,3.1658325E0,3.4170854E0,1.0379782E1,2.2101717E0,1.4515282E1,8.267277E0,6.558924E0,1.2441742E1,1.3042097E0,4.5109825E0,4.614938E0,1.6835495E0,5.680766E0,8.120383E0,1.7449923E0,0E0,6.870999E0,6.8925095E0,8.5633545E0,5.447075E0,8.096931E0,4.3598566E0,1.0140717E1,4.580941E0,8.560066E-1,2.6348674E0,2.4126415E0,4.873377E0,0E0,0E0,0E0,0E0,6.5719566E0,3.5664234E0,6.0070114E0,6.2410097E0,6.86286E-1,3.0712018E0,7.1134033E0,2.0644677E0,7.0868273E0,6.8691254E0,7.605672E0,6.42614E0,5.768695E0,6.5453954E0,0E0,4.909005E0,4.847887E0,5.7634873E0,1.3055634E1,1.0641357E1,3.2667875E0,1.6394043E0,0E0,0E0,0E0,0E0,0E0,0E0,0E0,0E0,0E0,0E0,0E0,0E0,0E0,0E0,0E0,0E0,0E0,0E0,0E0,0E0,0E0,0E0,0E0,0E0,0E0,0E0,0E0,0E0,0E0,0E0,0E0,0E0,0E0,0E0,0E0,0E0,0E0,0E0,0E0,0E0,0E0,0E0,0E0,0E0,0E0,0E0,0E0,0E0,0E0,0E0],"parents":[2147483647,0,0,1,1,2,2,3,3,4,4,5,5,6,6,7,7,8,8,9,9,10,10,11,11,12,12,13,13,14,14,15,15,16,16,17,17,18,18,19,19,20,20,21,21,23,23,24,24,25,25,26,26,27,27,28,28,29,29,30,30,31,31,32,32,33,33,34,34,39,39,40,40,41,41,42,42,43,43,44,44,45,45,46,46,47,47,48,48,49,49,50,50,51,51,52,52,54,54,55,55,56,56,57,57,58,58,59,59,60,60],"right_children":[2,4,6,8,10,12,14,16,18,20,22,24,26,28,30,32,34,36,38,40,42,44,-1,46,48,50,52,54,56,58,60,62,64,66,68,-1,-1,-1,-1,70,72,74,76,78,80,82,84,86,88,90,92,94,96,-1,98,100,102,104,106,108,110,-1,-1,-1,-1,-1,-1,-1,-1,-1,-1,-1,-1,-1,-1,-1,-1,-1,-1,-1,-1,-1,-1,-1,-1,-1,-1,-1,-1,-1,-1,-1,-1,-1,-1,-1,-1,-1,-1,-1,-1,-1,-1,-1,-1,-1,-1,-1,-1,-1,-1],"split_conditions":[-1.1329832E-1,-2.3332806E-1,-3.0353546E-2,2.7725914E-1,3.4953976E-1,-1.1489376E-1,-1.6630617E-1,-3.0880904E-1,2.5690582E-2,-7.106628E-2,3.4236228E-1,-6.511772E-2,1.7456497E-1,-1.2922223E-1,2.979776E-1,-1.8646114E-1,-1.0888612E-1,3.34403E-1,4.7048113E-1,2.4286604E-1,2.6019555E-1,-1.2902687E-1,1.8947369E-1,1.5099335E-1,6.519333E-2,-2.2654815E-1,-4.4806693E-2,5.9174687E-2,6.0882736E-2,-2.7170146E-1,1.21179365E-1,-2.1790938E-1,2.5145972E-1,-4.3902692E-4,-2.559122E-1,5.625E-1,-9.4736844E-2,1.8947369E-1,-1.3846155E-1,-4.5417324E-2,9.436901E-2,1.1831146E-1,-6.406605E-2,5.465515E-1,1.983482E-1,-9.183235E-2,-2.7336052E-1,1.0086562E-1,3.35674E-2,1.2140946E-3,-2.1403995E-1,2.534539E-2,2.8054646E-1,-1.4096385E-1,-2.978642E-1,3.4931283E-2,-9.491243E-2,-8.8657305E-2,5.230484E-2,-4.1720304E-3,-6.857661E-2,-1.6503198E-1,-1.0843379E-2,-9.80198E-2,2.25E-1,-1.09615386E-1,-5.189874E-2,-1.4381444E-1,1.3705576E-2,2.0996481E-1,-1.4693879E-1,-1.17040366E-1,1.2857142E-1,2.1839693E-2,-1.257642E-1,1.2526758E-2,-8.545007E-2,-1.6837147E-1,-7.777779E-2,3.3157894E-1,-1.2857144E-1,9.8945774E-2,-1.4291845E-1,1.8947369E-1,-1.2803349E-1,4.736841E-2,2.4827585E-1,1.9635914E-1,4.8726108E-2,-3.3901088E-2,2.0472102E-1,2.2122903E-1,4.940256E-2,-9.853138E-2,2.5023961E-2,2.9325843E-1,-1.0650895E-2,-1.0465116E-1,4.4117644E-1,-1.16960354E-1,2.4324315E-2,3.8219178E-1,1.8742023E-2,1.0369641E-1,2.3809524E-1,1.23659246E-1,8.826871E-2,-9.4736844E-2,4.7368422E-1,2.903225E-2,-1.7119566E-1],"split_indices":[80,83,65,84,46,79,7,52,89,113,26,54,108,38,73,111,85,42,8,53,94,80,0,127,40,120,97,4,58,43,30,106,17,118,7,0,0,0,0,1,78,120,29,38,4,18,60,88,23,95,73,67,5,0,113,21,70,8,38,11,116,0,0,0,0,0,0,0,0,0,0,0,0,0,0,0,0,0,0,0,0,0,0,0,0,0,0,0,0,0,0,0,0,0,0,0,0,0,0,0,0,0,0,0,0,0,0,0,0,0,0],"split_type":[0,0,0,0,0,0,0,0,0,0,0,0,0,0,0,0,0,0,0,0,0,0,0,0,0,0,0,0,0,0,0,0,0,0,0,0,0,0,0,0,0,0,0,0,0,0,0,0,0,0,0,0,0,0,0,0,0,0,0,0,0,0,0,0,0,0,0,0,0,0,0,0,0,0,0,0,0,0,0,0,0,0,0,0,0,0,0,0,0,0,0,0,0,0,0,0,0,0,0,0,0,0,0,0,0,0,0,0,0,0,0],"sum_hessian":[8.179445E3,1.886389E3,6.2930557E3,4.7000003E2,1.4163889E3,2.6758335E3,3.6172224E3,4.627778E2,7.2222223E0,1.3588889E3,5.7500004E1,4.5638892E2,2.2194446E3,2.3277779E2,3.3844446E3,7.222223E1,3.9055557E2,2.777778E0,4.4444447E0,7.055556E1,1.2883334E3,5.6388893E1,1.1111112E0,1.1138889E2,3.4500003E2,2.0536113E3,1.6583334E2,1.2500001E1,2.2027779E2,3.3586113E3,2.5833334E1,5.4722225E1,1.75E1,2.725E2,1.18055565E2,1.6666667E0,1.1111112E0,1.1111112E0,3.3333335E0,5.0833336E1,1.9722223E1,1.0513889E3,2.3694446E2,5.277778E1,3.6111112E0,8.472223E1,2.6666668E1,1.0916667E2,2.3583334E2,1.8055556E2,1.8730557E3,1.3916667E2,2.6666668E1,3.6111112E0,8.888889E0,8.750001E1,1.3277779E2,2.652778E2,3.0933335E3,2.2222223E0,2.3611113E1,5.1111115E1,3.6111112E0,1.5833334E1,1.6666667E0,1.55E2,1.1750001E2,2.0555557E1,9.750001E1,4.638889E1,4.4444447E0,1.1388889E1,8.333334E0,1.0269445E3,2.4444447E1,1.0277779E2,1.3416667E2,4.027778E1,1.2500001E1,1.1111112E0,2.5E0,7.277778E1,1.1944445E1,1.1111112E0,2.5555557E1,9.0833336E1,1.8333334E1,2.0194446E2,3.388889E1,1.6861111E2,1.1944445E1,1.888889E1,1.8541667E3,8.222223E1,5.6944447E1,8.888889E0,1.7777779E1,1.388889E0,7.5000005E0,4.9444447E1,3.8055557E1,3.0555558E0,1.2972223E2,1.4027779E2,1.2500001E2,1.5694446E3,1.5238889E3,1.1111112E0,1.1111112E0,4.166667E0,1.9444445E1],"tree_param":{"num_deleted":"0","num_feature":"128","num_nodes":"111","size_leaf_vector":"1"}},{"base_weights":[-5.1093394E-1,-3.8833994E-1,-5.143348E-1,4.6012264E-1,-4.219831E-1,-5.1477504E-1,7.317071E-2,-1.2857144E-1,8.644067E-1,2.7209303E-1,-4.3476018E-1,-5.1570886E-1,-2.6408452E-1,6.17647E-1,-1.3561645E-1,-1.4285715E-1,1.5205479E0,-4.4323483E-1,1.8947369E-1,-2.631579E-1,-5.165554E-1,-3.457249E-1,2.25E-1,-9.4736844E-2,3.3749998E-1,-1.0465116E-1,4.736842E-2,5.943396E-1,4.736842E-2,3.5294113E-1,-4.5535713E-1,7.142857E-1,-3.846154E-1,-5.563654E-1,-5.1260203E-1,5.1724136E-1,-4.3373495E-1,-1.12500004E-1,3.3157894E-1,-8.311346E-2,-1.4902218E-1,4.7368422E-1,-1.0465116E-1,6.1165042E-2,-1.5744126E-1,-1.6730724E-1,-5.029142E-9,-4.42623E-2,-1.5391423E-1,3.3157894E-1,-9.4736844E-2,-1.5031713E-1,1.4651163E-1],"categories":[],"categories_nodes":[],"categories_segments":[],"categories_sizes":[],"default_left":[0,0,0,0,0,0,0,0,0,0,0,0,0,0,0,0,0,0,0,0,0,0,0,0,0,0,0,0,0,0,0,0,0,0,0,0,0,0,0,0,0,0,0,0,0,0,0,0,0,0,0,0,0],"id":2,"left_children":[1,3,5,7,9,11,13,-1,15,-1,17,19,21,23,-1,25,27,29,-1,31,33,35,-1,-1,-1,-1,-1,-1,-1,37,39,41,43,45,47,49,51,-1,-1,-1,-1,-1,-1,-1,-1,-1,-1,-1,-1,-1,-1,-1,-1],"loss_changes":[3.2109375E0,6.613613E0,2.0957031E0,3.6239839E0,4.0761986E0,1.7250977E0,2.233358E0,0E0,4.5498347E0,0E0,2.2268791E0,1.557373E0,2.8717866E0,2.1443496E0,0E0,2.7190065E-1,2.232522E0,2.229351E0,0E0,3.658184E0,9.5703125E-1,2.4943972E0,0E0,0E0,0E0,0E0,0E0,0E0,0E0,2.4833589E0,1.423481E0,3.7681408E0,2.2520235E0,5.171356E-1,1.0935059E0,1.9274044E0,1.9621997E0,0E0,0E0,0E0,0E0,0E0,0E0,0E0,0E0,0E0,0E0,0E0,0E0,0E0,0E0,0E0,0E0],"parents":[2147483647,0,0,1,1,2,2,3,3,4,4,5,5,6,6,8,8,10,10,11,11,12,12,13,13,15,15,16,16,17,17,19,19,20,20,21,21,29,29,30,30,31,31,32,32,33,33,34,34,35,35,36,36],"right_children":[2,4,6,8,10,12,14,-1,16,-1,18,20,22,24,-1,26,28,30,-1,32,34,36,-1,-1,-1,-1,-1,-1,-1,38,40,42,44,46,48,50,52,-1,-1,-1,-1,-1,-1,-1,-1,-1,-1,-1,-1,-1,-1,-1,-1],"split_conditions":[-2.6155385E-1,2.4723616E-1,5.00478E-1,2.1010914E-1,-3.3163902E-1,5.30074E-1,-4.623548E-1,-1.2857144E-1,-1.1838674E-1,2.7209303E-1,-7.802082E-4,-4.000239E-1,-1.3990234E-2,-2.9722282E-1,-1.3561645E-1,1.9022103E-1,9.60006E-2,-3.9706522E-1,1.8947369E-1,-2.6076978E-2,-1.3793023E-1,-3.1118917E-1,2.25E-1,-9.4736844E-2,3.3749998E-1,-1.0465116E-1,4.736842E-2,5.943396E-1,4.736842E-2,-5.0988907E-1,-1.491034E-1,1.5223799E-2,-5.785123E-2,3.3653784E-1,-3.1444144E-1,-3.7991825E-1,1.8017436E-3,-1.12500004E-1,3.3157894E-1,-8.311346E-2,-1.4902218E-1,4.7368422E-1,-1.0465116E-1,6.1165042E-2,-1.5744126E-1,-1.6730724E-1,-5.029142E-9,-4.42623E-2,-1.5391423E-1,3.3157894E-1,-9.4736844E-2,-1.5031713E-1,1.4651163E-1],"split_indices":[121,76,76,76,22,112,32,0,94,0,111,34,49,6,0,0,18,87,0,117,30,40,0,0,0,0,0,0,0,83,15,3,4,27,69,7,48,0,0,0,0,0,0,0,0,0,0,0,0,0,0,0,0],"split_type":[0,0,0,0,0,0,0,0,0,0,0,0,0,0,0,0,0,0,0,0,0,0,0,0,0,0,0,0,0,0,0,0,0,0,0,0,0,0,0,0,0,0,0,0,0,0,0,0,0,0,0,0,0],"sum_hessian":[8.179445E3,2.238889E2,7.955556E3,8.055556E0,2.1583334E2,7.9497227E3,5.8333335E0,2.5E0,5.555556E0,1.388889E0,2.1444446E2,7.919167E3,3.0555557E1,2.777778E0,3.0555558E0,2.5E0,3.0555558E0,2.1333334E2,1.1111112E0,2.7500002E1,7.891667E3,2.888889E1,1.6666667E0,1.1111112E0,1.6666667E0,1.388889E0,1.1111112E0,1.9444445E0,1.1111112E0,2.777778E0,2.1055557E2,2.5E0,2.5000002E1,7.0027783E2,7.191389E3,2.2222223E0,2.6666668E1,1.6666667E0,1.1111112E0,4.1111115E1,1.6944446E2,1.1111112E0,1.388889E0,4.7222223E0,2.0277779E1,6.9861115E2,1.6666667E0,9.166667E0,7.1822227E3,1.1111112E0,1.1111112E0,2.5277779E1,1.388889E0],"tree_param":{"num_deleted":"0","num_feature":"128","num_nodes":"53","size_leaf_vector":"1"}},{"base_weights":[-1.6400903E-1,-1.566218E-1,-3.9130434E-1,-3.2302883E-1,-1.496023E-1,-4.459225E-1,-2.256974E-1,-3.3878714E-1,2.941176E-1,-3.1166837E-1,-1.4482045E-1,-8.910893E-2,-4.774661E-1,-2.844365E-1,6.144578E-1,-2.9009923E-1,-4.9541283E-1,-1.3235295E-1,7.2815526E-1,-1.75705E-1,-3.8340542E-1,-2.3756546E-1,-1.3793467E-1,7.142857E-1,-2.7906978E-1,-5.078864E-1,-1.9526629E-1,-4.6919432E-1,-4.1749526E-2,4.5E-1,-1.1886793E-1,-3.0501392E-1,3.976744E-1,-2.6548693E-2,-5.317395E-1,1.153846E0,-1.0465116E-1,2.4626862E-1,-2.7272728E-1,-4.528302E-1,-1.699847E-1,-3.0577576E-1,-1.4351854E-1,-1.4030519E-1,1.3828783E-1,4.7368422E-1,-1.0465116E-1,1.8947369E-1,-4.0336135E-1,4.736842E-2,-5.135898E-1,6.17647E-1,-3.75E-1,-1.7419355E-1,2.9032254E-1,2.6732668E-1,-4.678899E-1,-9.447048E-2,1.5517241E-1,-1.4096385E-1,2.25E-1,-1.6370495E-1,4.736842E-2,5.275862E-1,-9.4736844E-2,2.8636363E-1,-2.7272733E-2,2.7209303E-1,-9.4223835E-2,-1.4835165E-1,-5.6250006E-2,5.463258E-2,-1.4078213E-1,-1.7130315E-2,-1.0237428E-1,2.8426957E-3,-7.3999144E-2,-4.090227E-2,-8.858268E-2,4.1538462E-1,1.1664997E-2,4.2857137E-2,-1.6321245E-1,4.736842E-2,-1.558123E-1,-1.0465116E-1,3.976744E-1,1.8947369E-1,-1.477612E-1,-1.2857144E-1,3.3749998E-1,1.7354259E-1,-1.4693879E-1,4.736842E-2,-1.6363637E-1],"categories":[],"categories_nodes":[],"categories_segments":[],"categories_sizes":[],"default_left":[0,0,0,0,0,0,0,0,0,0,0,0,0,0,0,0,0,0,0,0,0,0,0,0,0,0,0,0,0,0,0,0,0,0,0,0,0,0,0,0,0,0,0,0,0,0,0,0,0,0,0,0,0,0,0,0,0,0,0,0,0,0,0,0,0,0,0,0,0,0,0,0,0,0,0,0,0,0,0,0,0,0,0,0,0,0,0,0,0,0,0,0,0,0,0],"id":3,"left_children":[1,3,5,7,9,11,13,15,17,19,21,23,25,27,29,31,33,-1,35,37,39,41,43,45,47,49,51,53,55,-1,-1,57,-1,59,61,63,-1,65,67,69,71,73,75,77,79,-1,-1,-1,81,-1,83,85,87,-1,89,91,93,-1,-1,-1,-1,-1,-1,-1,-1,-1,-1,-1,-1,-1,-1,-1,-1,-1,-1,-1,-1,-1,-1,-1,-1,-1,-1,-1,-1,-1,-1,-1,-1,-1,-1,-1,-1,-1,-1],"loss_changes":[1.3674393E1,9.208359E0,2.2224503E0,3.2106209E0,5.849121E0,2.1197014E0,3.4181638E0,2.238491E0,3.0339804E0,2.050251E0,4.686386E0,2.7683299E0,1.4141045E0,2.76537E0,4.7213E0,6.2050934E0,1.2235584E0,0E0,3.0259473E0,3.2127857E0,2.0162926E0,3.2234726E0,4.525177E0,3.7681408E0,1.8770864E0,6.8294907E-1,2.9752E0,3.1453905E0,3.8056386E0,0E0,0E0,2.1087017E0,0E0,2.5136473E0,7.341747E-1,4.4068136E0,0E0,3.6424692E0,3.3555002E0,1.0793972E0,3.9083266E0,2.576809E0,3.4109535E0,4.151581E0,7.2625885E0,0E0,0E0,0E0,1.0937433E0,0E0,6.933365E-1,3.0471957E0,2.2040455E0,0E0,3.582373E0,4.2488923E0,6.739831E-1,0E0,0E0,0E0,0E0,0E0,0E0,0E0,0E0,0E0,0E0,0E0,0E0,0E0,0E0,0E0,0E0,0E0,0E0,0E0,0E0,0E0,0E0,0E0,0E0,0E0,0E0,0E0,0E0,0E0,0E0,0E0,0E0,0E0,0E0,0E0,0E0,0E0,0E0],"parents":[2147483647,0,0,1,1,2,2,3,3,4,4,5,5,6,6,7,7,8,8,9,9,10,10,11,11,12,12,13,13,14,14,15,15,16,16,18,18,19,19,20,20,21,21,22,22,23,23,24,24,25,25,26,26,27,27,28,28,31,31,33,33,34,34,35,35,37,37,38,38,39,39,40,40,41,41,42,42,43,43,44,44,48,48,50,50,51,51,52,52,54,54,55,55,56,56],"right_children":[2,4,6,8,10,12,14,16,18,20,22,24,26,28,30,32,34,-1,36,38,40,42,44,46,48,50,52,54,56,-1,-1,58,-1,60,62,64,-1,66,68,70,72,74,76,78,80,-1,-1,-1,82,-1,84,86,88,-1,90,92,94,-1,-1,-1,-1,-1,-1,-1,-1,-1,-1,-1,-1,-1,-1,-1,-1,-1,-1,-1,-1,-1,-1,-1,-1,-1,-1,-1,-1,-1,-1,-1,-1,-1,-1,-1,-1,-1,-1],"split_conditions":[3.1441212E-1,-2.6592323E-1,-9.50255E-2,3.6669272E-1,-2.6817906E-1,-2.1844546E-1,4.3672097E-1,-3.6647618E-3,-4.5381975E-1,-6.260627E-2,-1.4053608E-1,-1.8146762E-1,1.3160264E-1,1.3328225E-3,2.8993452E-1,1.6906682E-1,-5.162363E-2,-1.3235295E-1,-8.425647E-2,1.136115E-1,3.5980865E-1,1.1693166E-1,2.4270779E-1,2.4300566E-1,-1.5765938E-1,-7.694429E-2,-3.2432804E-1,-1.7266313E-2,1.5392242E-1,4.5E-1,-1.1886793E-1,-2.0296304E-2,3.976744E-1,-1.3164657E-1,2.1982454E-1,-8.16112E-2,-1.0465116E-1,8.8173606E-2,-5.547546E-1,6.426431E-2,2.0052084E-1,-3.518053E-2,4.6282195E-2,4.3169892E-1,-1.4621426E-1,4.7368422E-1,-1.0465116E-1,1.8947369E-1,1.7186819E-1,4.736842E-2,-3.0666593E-1,1.7694546E-1,-6.861539E-2,-1.7419355E-1,-1.7761408E-1,1.1252737E-1,-2.7275473E-1,-9.447048E-2,1.5517241E-1,-1.4096385E-1,2.25E-1,-1.6370495E-1,4.736842E-2,5.275862E-1,-9.4736844E-2,2.8636363E-1,-2.7272733E-2,2.7209303E-1,-9.4223835E-2,-1.4835165E-1,-5.6250006E-2,5.463258E-2,-1.4078213E-1,-1.7130315E-2,-1.0237428E-1,2.8426957E-3,-7.3999144E-2,-4.090227E-2,-8.858268E-2,4.1538462E-1,1.1664997E-2,4.2857137E-2,-1.6321245E-1,4.736842E-2,-1.558123E-1,-1.0465116E-1,3.976744E-1,1.8947369E-1,-1.477612E-1,-1.2857144E-1,3.3749998E-1,1.7354259E-1,-1.4693879E-1,4.736842E-2,-1.6363637E-1],"split_indices":[46,9,55,34,34,100,33,50,40,93,64,10,51,126,29,17,97,0,108,77,26,49,75,42,68,4,35,101,42,0,0,11,0,4,5,28,0,38,35,19,61,89,74,19,39,0,0,0,29,0,64,81,107,0,12,73,1,0,0,0,0,0,0,0,0,0,0,0,0,0,0,0,0,0,0,0,0,0,0,0,0,0,0,0,0,0,0,0,0,0,0,0,0,0,0],"split_type":[0,0,0,0,0,0,0,0,0,0,0,0,0,0,0,0,0,0,0,0,0,0,0,0,0,0,0,0,0,0,0,0,0,0,0,0,0,0,0,0,0,0,0,0,0,0,0,0,0,0,0,0,0,0,0,0,0,0,0,0,0,0,0,0,0,0,0,0,0,0,0,0,0,0,0,0,0,0,0,0,0,0,0,0,0,0,0,0,0,0,0,0,0,0,0],"sum_hessian":[8.179445E3,7.9236113E3,2.5583334E2,3.1888892E2,7.6047227E3,1.9111111E2,6.472223E1,3.1138892E2,7.5000005E0,2.1611111E2,7.3886113E3,1.5833334E1,1.7527779E2,6.1111115E1,3.6111112E0,2.3972223E2,7.166667E1,2.777778E0,4.7222223E0,7.5833336E1,1.4027779E2,5.0833334E2,6.8802783E3,2.5E0,1.3333334E1,1.575E2,1.7777779E1,3.4166668E1,2.6944447E1,1.6666667E0,1.9444445E0,2.3833334E2,1.388889E0,5.277778E0,6.638889E1,3.3333335E0,1.388889E0,1.3888889E1,6.1944447E1,1.0500001E2,3.527778E1,2.9333334E2,2.1500002E2,6.8222227E3,5.8055557E1,1.1111112E0,1.388889E0,1.1111112E0,1.2222223E1,1.1111112E0,1.563889E2,2.777778E0,1.5000001E1,3.0000002E1,4.166667E0,1.5833334E1,1.1111112E1,2.3611113E2,2.2222223E0,3.6111112E0,1.6666667E0,6.527778E1,1.1111112E0,2.2222223E0,1.1111112E0,3.888889E0,1E1,1.388889E0,6.0555557E1,9.000001E1,1.5000001E1,1.638889E1,1.888889E1,3.6944447E1,2.5638892E2,8.694445E1,1.2805556E2,6.653889E3,1.6833334E2,3.3333335E0,5.4722225E1,2.5E0,9.722222E0,1.1111112E0,1.5527779E2,1.388889E0,1.388889E0,1.1111112E0,1.3888889E1,2.5E0,1.6666667E0,1.1388889E1,4.4444447E0,1.1111112E0,1E1],"tree_param":{"num_deleted":"0","num_feature":"128","num_nodes":"95","size_leaf_vector":"1"}},{"base_weights":[1.3560791E-1,5.6313986E-1,1.3042578E-1,7.081899E-1,-1.2074305E-1,1.376582E-1,-1.2885298E-1,-1.3846155E-1,7.645369E-1,8.709677E-1,-4.8387095E-1,2.036095E-1,1.22694515E-1,4.8186523E-1,-1.5939732E-1,-9.3750015E-2,8.3943874E-1,-1.0344829E-1,4.924528E-1,-1.6578947E-1,4.736842E-2,2.3119119E-1,4.6830825E-3,6.9346726E-1,1.2070086E-1,-1.1278197E-1,1.3846153E0,-4.054054E-1,-8.3419174E-2,-1.4854369E-1,2.7209303E-1,1.6943004E0,6.7689526E-1,-9.4736844E-2,4.736842E-2,2.131772E-1,6.4556956E-1,1.0481927E0,-2.2944575E-2,9.4594586E-1,-1.4096385E-1,1.2750638E-1,-2.790424E-2,-1.4516129E-1,5.1724136E-1,5.275862E-1,4.736842E-2,1.8947369E-1,-4.423963E-1,-2.6724717E-1,1.0848397E-1,6.2658226E-1,-1.6981138E-2,1.4231625E-1,4.2631578E-1,-3.747055E-2,7.011017E-2,2.676985E-1,-6.860987E-2,4.7142854E-1,-9.4736844E-2,1.8251747E-1,-1.5831405E-2,5.6249995E-2,3.914798E-1,4.4056084E-2,1.9895695E-2,1.0564635E-1,-2.5784453E-2,3.3157894E-1,-9.4736844E-2,1.125E-1,-1.4391409E-1,2.1428572E-1,-9.198895E-2,-2.0224726E-2,1.7628863E-1],"categories":[],"categories_nodes":[],"categories_segments":[],"categories_sizes":[],"default_left":[0,0,0,0,0,0,0,0,0,0,0,0,0,0,0,0,0,0,0,0,0,0,0,0,0,0,0,0,0,0,0,0,0,0,0,0,0,0,0,0,0,0,0,0,0,0,0,0,0,0,0,0,0,0,0,0,0,0,0,0,0,0,0,0,0,0,0,0,0,0,0,0,0,0,0,0,0],"id":4,"left_children":[1,3,5,7,9,11,13,-1,15,17,19,21,23,25,27,29,31,33,-1,-1,-1,35,37,39,41,43,45,47,49,-1,-1,51,53,-1,-1,55,57,59,61,63,-1,65,67,-1,69,-1,-1,-1,71,73,75,-1,-1,-1,-1,-1,-1,-1,-1,-1,-1,-1,-1,-1,-1,-1,-1,-1,-1,-1,-1,-1,-1,-1,-1,-1,-1],"loss_changes":[1.8050552E1,9.773769E0,1.5176529E1,5.673321E0,6.8835506E0,7.736664E0,4.1786137E0,0E0,5.0538216E0,4.0490904E0,6.9524646E-1,7.970833E0,7.213745E0,5.9120393E0,3.8944569E0,3.305529E0,8.7573395E0,2.2867513E-1,0E0,0E0,0E0,9.387215E0,5.1541405E0,6.938961E0,6.467842E0,1.9777614E0,1.7104568E0,2.1717844E0,5.738014E0,0E0,0E0,7.5207767E0,8.602146E0,0E0,0E0,8.524254E0,1.1566048E1,3.7871184E0,3.3149278E0,4.7923565E0,0E0,7.225807E0,6.2230296E0,0E0,1.9274044E0,0E0,0E0,0E0,1.6508169E0,3.4252715E0,6.772766E0,0E0,0E0,0E0,0E0,0E0,0E0,0E0,0E0,0E0,0E0,0E0,0E0,0E0,0E0,0E0,0E0,0E0,0E0,0E0,0E0,0E0,0E0,0E0,0E0,0E0,0E0],"parents":[2147483647,0,0,1,1,2,2,3,3,4,4,5,5,6,6,8,8,9,9,10,10,11,11,12,12,13,13,14,14,15,15,16,16,17,17,21,21,22,22,23,23,24,24,25,25,26,26,27,27,28,28,31,31,32,32,35,35,36,36,37,37,38,38,39,39,41,41,42,42,44,44,48,48,49,49,50,50],"right_children":[2,4,6,8,10,12,14,-1,16,18,20,22,24,26,28,30,32,34,-1,-1,-1,36,38,40,42,44,46,48,50,-1,-1,52,54,-1,-1,56,58,60,62,64,-1,66,68,-1,70,-1,-1,-1,72,74,76,-1,-1,-1,-1,-1,-1,-1,-1,-1,-1,-1,-1,-1,-1,-1,-1,-1,-1,-1,-1,-1,-1,-1,-1,-1,-1],"split_conditions":[-5.276003E-1,-1.6062902E-1,2.3739871E-1,1.0526967E-1,-2.1268299E-2,-1.2572771E-1,-3.2300156E-1,-1.3846155E-1,-2.1663721E-1,4.2674102E-2,-2.7809915E-1,4.612172E-2,-4.5450863E-1,3.9357998E-4,-2.1423988E-1,2.0305151E-1,1.23549625E-2,4.459683E-3,4.924528E-1,-1.6578947E-1,4.736842E-2,9.874551E-2,-9.057249E-2,2.7304977E-1,1.2394411E-1,-3.4888086E-1,1.01928465E-1,-1.7134267E-1,-4.6946876E-2,-1.4854369E-1,2.7209303E-1,3.0610728E-1,1.21834345E-1,-9.4736844E-2,4.736842E-2,-1.03540994E-1,7.153174E-2,1.4451315E-1,-8.515219E-2,-1.0769809E-1,-1.4096385E-1,6.800284E-2,-1.3140137E-1,-1.4516129E-1,2.782083E-1,5.275862E-1,4.736842E-2,1.8947369E-1,-1.0225757E-1,1.9169758E-1,-7.260628E-2,6.2658226E-1,-1.6981138E-2,1.4231625E-1,4.2631578E-1,-3.747055E-2,7.011017E-2,2.676985E-1,-6.860987E-2,4.7142854E-1,-9.4736844E-2,1.8251747E-1,-1.5831405E-2,5.6249995E-2,3.914798E-1,4.4056084E-2,1.9895695E-2,1.0564635E-1,-2.5784453E-2,3.3157894E-1,-9.4736844E-2,1.125E-1,-1.4391409E-1,2.1428572E-1,-9.198895E-2,-2.0224726E-2,1.7628863E-1],"split_indices":[40,28,33,90,92,22,5,0,22,73,9,37,98,66,111,68,7,0,0,0,0,25,97,23,111,13,4,47,113,0,0,103,54,0,0,71,36,40,62,55,0,46,74,0,8,0,0,0,77,46,120,0,0,0,0,0,0,0,0,0,0,0,0,0,0,0,0,0,0,0,0,0,0,0,0,0,0],"split_type":[0,0,0,0,0,0,0,0,0,0,0,0,0,0,0,0,0,0,0,0,0,0,0,0,0,0,0,0,0,0,0,0,0,0,0,0,0,0,0,0,0,0,0,0,0,0,0,0,0,0,0,0,0,0,0,0,0,0,0,0,0,0,0,0,0,0,0,0,0,0,0,0,0,0,0,0,0],"sum_hessian":[8.179445E3,9.666667E1,8.0827783E3,7.972223E1,1.6944445E1,7.863889E3,2.188889E2,3.3333335E0,7.638889E1,4.166667E0,1.2777779E1,1.4519445E3,6.411945E3,9.722222E0,2.0916667E2,6.1111116E0,7.027778E1,2.2222223E0,1.9444445E0,1.1666667E1,1.1111112E0,1.275E3,1.7694446E2,2.1111113E1,6.3908335E3,6.3888893E0,3.3333335E0,4.8333336E1,1.6083334E2,4.7222223E0,1.388889E0,9.722222E0,6.0555557E1,1.1111112E0,1.1111112E0,1.2233334E3,5.1666668E1,3.6111112E0,1.7333334E2,1.75E1,3.6111112E0,6.1111113E3,2.7972223E2,4.166667E0,2.2222223E0,2.2222223E0,1.1111112E0,1.1111112E0,4.7222225E1,8.194445E1,7.888889E1,7.777778E0,1.9444445E0,4.8888893E1,1.1666667E1,6.972223E1,1.1536112E3,4.027778E1,1.1388889E1,2.5E0,1.1111112E0,6.9444447E0,1.663889E2,6.1111116E0,1.1388889E1,4.641945E3,1.4691667E3,3.638889E1,2.4333334E2,1.1111112E0,1.1111112E0,1.6666667E0,4.5555557E1,2.5E0,7.944445E1,5.8333336E1,2.0555557E1],"tree_param":{"num_deleted":"0","num_feature":"128","num_nodes":"77","size_leaf_vector":"1"}},{"base_weights":[3.1102625E-1,5.4629827E-1,2.3246206E-1,9.356462E-1,4.767913E-1,3.9181608E-1,1.9409621E-1,7.0760226E-1,1.2093487E0,9.3887204E-1,4.3947852E-1,7.0103455E-1,3.4489605E-1,1.1074766E0,1.8964541E-1,1.2650602E0,5.958429E-1,4.6214095E-1,1.3330214E0,1.2958579E0,5.5958545E-1,4.2504305E-1,1.1180438E0,2.9883566E-1,8.466796E-1,3.120646E-1,7.008985E-1,3.9884388E-1,1.4835163E0,2.5657797E-1,1.3043475E-1,3.2432428E-1,1.5815216E0,8.6023045E-1,2.8827357E-1,6.7924523E-1,-1.4096385E-1,1.4343797E0,2.957746E-1,1.4007251E0,-1.22448996E-1,3.6448592E-1,1.3943661E0,3.7774226E-1,6.053079E-1,1.5430808E0,3.1578943E-1,8.6561257E-1,2.2304805E-2,6.9767433E-1,1.2625482E0,2.9533112E-1,8.317399E-1,2.603129E-1,1.041237E0,-1.8584073E-1,1.153846E0,1.8169013E0,2.307692E-1,2.3927228E-1,5.0634795E-1,3.9672387E-1,1.1542859E-1,-2.8125005E-2,4.7368422E-1,6.225296E-1,1.2857142E-1,1.07674934E-1,3.224299E-1,3.5E-1,6.010544E-2,3.6993864E-1,2.6011553E-2,-6.923078E-2,4.4689324E-1,-3.641619E-2,4.3448275E-1,6.157894E-1,3.3157894E-1,-1.3846155E-1,1.8947369E-1,1.5608855E-1,-1.2857144E-1,-1.0465116E-1,4.9787232E-1,2.339207E-1,1.0817606E-1,1.9385354E-1,-7.314488E-2,-1.0465116E-1,5.078212E-1,-7.315115E-9,4.5E-1,3.1468526E-2,4.7812498E-1,5.74468E-2,-1.556391E-1,2.5269508E-1,3.0650146E-2,9.999999E-2,4.3317756E-1,1.19351156E-1,6.584447E-2,3.64723E-1,2.727272E-2,4.1666657E-2,3.8219178E-1,4E-1,5.555555E-2,-1.4516129E-1,1.8947369E-1,5.625E-1,-5.029142E-9,5.9222794E-1,4.736842E-2,-1.2413794E-1,3.3157894E-1,6.335124E-2,1.3030922E-1,-4.9450558E-2,1.7346263E-1,-2.1070242E-2,1.6146645E-1,6.399499E-2,2.5685703E-2],"categories":[],"categories_nodes":[],"categories_segments":[],"categories_sizes":[],"default_left":[0,0,0,0,0,0,0,0,0,0,0,0,0,0,0,0,0,0,0,0,0,0,0,0,0,0,0,0,0,0,0,0,0,0,0,0,0,0,0,0,0,0,0,0,0,0,0,0,0,0,0,0,0,0,0,0,0,0,0,0,0,0,0,0,0,0,0,0,0,0,0,0,0,0,0,0,0,0,0,0,0,0,0,0,0,0,0,0,0,0,0,0,0,0,0,0,0,0,0,0,0,0,0,0,0,0,0,0,0,0,0,0,0,0,0,0,0,0,0,0,0,0,0,0,0],"id":5,"left_children":[1,3,5,7,9,11,13,15,17,19,21,23,25,27,29,31,33,35,37,39,41,43,45,47,49,51,53,55,57,59,61,63,65,67,69,71,-1,73,75,77,79,81,83,85,87,89,91,93,95,97,99,101,103,105,107,109,111,113,115,117,119,121,123,-1,-1,-1,-1,-1,-1,-1,-1,-1,-1,-1,-1,-1,-1,-1,-1,-1,-1,-1,-1,-1,-1,-1,-1,-1,-1,-1,-1,-1,-1,-1,-1,-1,-1,-1,-1,-1,-1,-1,-1,-1,-1,-1,-1,-1,-1,-1,-1,-1,-1,-1,-1,-1,-1,-1,-1,-1,-1,-1,-1,-1,-1],"loss_changes":[1.5107996E2,5.4953613E1,3.7427734E1,1.8434357E1,2.957135E1,1.7013702E1,1.989679E1,9.899727E0,1.2233978E1,1.6748978E1,1.5305176E1,8.868927E0,1.1873894E1,5.7444725E0,1.947786E1,7.723625E0,1.148885E1,4.6246285E0,1.2063278E1,9.946648E0,9.969439E0,1.3235443E1,1.0746368E1,6.7114315E0,6.169571E0,8.007317E0,1.2707806E1,4.457143E0,5.9150276E0,9.863205E0,1.0401028E1,4.4607925E0,1.07449875E1,7.907528E0,5.035071E0,5.691249E0,0E0,1.0277176E1,5.865028E0,9.534233E0,1.6835495E0,6.8337464E0,6.049614E0,8.363403E0,1.149041E1,6.615032E0,4.736842E0,7.618291E0,2.8355536E0,7.321617E0,4.368847E0,7.073494E0,8.155251E0,4.630121E0,1.1880486E1,1.8349684E0,3.6057692E0,2.7742233E0,2.899902E0,1.1761765E1,7.271122E0,9.225679E0,7.2075157E0,0E0,0E0,0E0,0E0,0E0,0E0,0E0,0E0,0E0,0E0,0E0,0E0,0E0,0E0,0E0,0E0,0E0,0E0,0E0,0E0,0E0,0E0,0E0,0E0,0E0,0E0,0E0,0E0,0E0,0E0,0E0,0E0,0E0,0E0,0E0,0E0,0E0,0E0,0E0,0E0,0E0,0E0,0E0,0E0,0E0,0E0,0E0,0E0,0E0,0E0,0E0,0E0,0E0,0E0,0E0,0E0,0E0,0E0,0E0,0E0,0E0,0E0],"parents":[2147483647,0,0,1,1,2,2,3,3,4,4,5,5,6,6,7,7,8,8,9,9,10,10,11,11,12,12,13,13,14,14,15,15,16,16,17,17,18,18,19,19,20,20,21,21,22,22,23,23,24,24,25,25,26,26,27,27,28,28,29,29,30,30,31,31,32,32,33,33,34,34,35,35,37,37,38,38,39,39,40,40,41,41,42,42,43,43,44,44,45,45,46,46,47,47,48,48,49,49,50,50,51,51,52,52,53,53,54,54,55,55,56,56,57,57,58,58,59,59,60,60,61,61,62,62],"right_children":[2,4,6,8,10,12,14,16,18,20,22,24,26,28,30,32,34,36,38,40,42,44,46,48,50,52,54,56,58,60,62,64,66,68,70,72,-1,74,76,78,80,82,84,86,88,90,92,94,96,98,100,102,104,106,108,110,112,114,116,118,120,122,124,-1,-1,-1,-1,-1,-1,-1,-1,-1,-1,-1,-1,-1,-1,-1,-1,-1,-1,-1,-1,-1,-1,-1,-1,-1,-1,-1,-1,-1,-1,-1,-1,-1,-1,-1,-1,-1,-1,-1,-1,-1,-1,-1,-1,-1,-1,-1,-1,-1,-1,-1,-1,-1,-1,-1,-1,-1,-1,-1,-1,-1,-1],"split_conditions":[-9.8676E-2,-3.160431E-1,-8.2608856E-2,4.9995948E-3,-2.1860898E-1,-1.2921275E-1,-3.0699438E-1,-1.898133E-1,-3.941664E-1,-7.4612804E-2,4.803089E-1,-1.212193E-1,1.4056984E-1,6.1698113E-2,4.1837122E-2,-1.4277466E-1,-1.9490302E-1,2.879837E-1,4.1709203E-1,1.710881E-1,2.7218604E-1,1.0267289E-1,-6.1295178E-2,-1.7318532E-1,1.2025622E-1,3.3266032E-1,2.5791999E-2,1.0403045E-1,9.7651646E-2,1.2293385E-1,-2.3741955E-2,-2.3195784E-1,1.851976E-1,7.156058E-3,-1.1034418E-1,-5.0048288E-2,-1.4096385E-1,-3.8725653E-1,-2.282592E-1,-2.7921605E-1,1.921151E-1,1.17583714E-1,-2.3240088E-3,-1.81284E-1,2.3267736E-1,-3.0187827E-1,1.381994E-1,-1.1175916E-1,1.5873249E-1,1.6301046E-1,8.748977E-2,-7.432996E-2,-4.4387087E-2,4.0506948E-2,-4.9952492E-2,1.3275084E-1,1.086772E-1,-6.8484694E-3,4.6182692E-2,1.5159827E-1,-1.9584575E-1,-2.8718659E-3,-1.0944616E-1,-2.8125005E-2,4.7368422E-1,6.225296E-1,1.2857142E-1,1.07674934E-1,3.224299E-1,3.5E-1,6.010544E-2,3.6993864E-1,2.6011553E-2,-6.923078E-2,4.4689324E-1,-3.641619E-2,4.3448275E-1,6.157894E-1,3.3157894E-1,-1.3846155E-1,1.8947369E-1,1.5608855E-1,-1.2857144E-1,-1.0465116E-1,4.9787232E-1,2.339207E-1,1.0817606E-1,1.9385354E-1,-7.314488E-2,-1.0465116E-1,5.078212E-1,-7.315115E-9,4.5E-1,3.1468526E-2,4.7812498E-1,5.74468E-2,-1.556391E-1,2.5269508E-1,3.0650146E-2,9.999999E-2,4.3317756E-1,1.19351156E-1,6.584447E-2,3.64723E-1,2.727272E-2,4.1666657E-2,3.8219178E-1,4E-1,5.555555E-2,-1.4516129E-1,1.8947369E-1,5.625E-1,-5.029142E-9,5.9222794E-1,4.736842E-2,-1.2413794E-1,3.3157894E-1,6.335124E-2,1.3030922E-1,-4.9450558E-2,1.7346263E-1,-2.1070242E-2,1.6146645E-1,6.399499E-2,2.5685703E-2],"split_indices":[80,32,116,109,116,107,124,12,23,55,113,8,115,41,36,29,63,18,60,74,89,65,65,31,83,107,23,56,33,41,127,9,31,77,88,103,0,11,124,58,4,85,0,0,101,23,74,84,56,50,68,97,1,58,55,1,51,0,3,64,60,48,97,0,0,0,0,0,0,0,0,0,0,0,0,0,0,0,0,0,0,0,0,0,0,0,0,0,0,0,0,0,0,0,0,0,0,0,0,0,0,0,0,0,0,0,0,0,0,0,0,0,0,0,0,0,0,0,0,0,0,0,0,0,0],"split_type":[0,0,0,0,0,0,0,0,0,0,0,0,0,0,0,0,0,0,0,0,0,0,0,0,0,0,0,0,0,0,0,0,0,0,0,0,0,0,0,0,0,0,0,0,0,0,0,0,0,0,0,0,0,0,0,0,0,0,0,0,0,0,0,0,0,0,0,0,0,0,0,0,0,0,0,0,0,0,0,0,0,0,0,0,0,0,0,0,0,0,0,0,0,0,0,0,0,0,0,0,0,0,0,0,0,0,0,0,0,0,0,0,0,0,0,0,0,0,0,0,0,0,0,0,0],"sum_hessian":[8.179445E3,2.0461112E3,6.1333335E3,3.0805557E2,1.7380557E3,1.1883334E3,4.945E3,1.7000002E2,1.3805556E2,1.2805556E2,1.6100001E3,1.5472223E2,1.0336112E3,2.2777779E1,4.9222227E3,2.6666668E1,1.4333334E2,2.0277779E1,1.1777779E2,6.472223E1,6.3333336E1,1.5780557E3,3.1944447E1,4.1944447E1,1.1277779E2,9.480556E2,8.555556E1,8.611112E0,1.4166667E1,2.308889E3,2.6133335E3,7.2222223E0,1.9444445E1,7.6111115E1,6.722223E1,1.6666668E1,3.6111112E0,1.0694445E2,1.0833334E1,6.0277782E1,4.4444447E0,5.2500004E1,1.0833334E1,1.2525E3,3.2555557E2,2.0277779E1,1.1666667E1,1.3055556E1,2.888889E1,8.500001E1,2.7777779E1,9.2000006E2,2.8055557E1,3.8055557E1,4.7500004E1,5.277778E0,3.3333335E0,1.0833334E1,3.3333335E0,2.1611113E3,1.4777779E2,1.3805556E2,2.4752778E3,6.1111116E0,1.1111112E0,1.3055556E1,6.3888893E0,2.3611113E1,5.2500004E1,5E0,6.2222225E1,8.055556E0,8.611112E0,3.3333335E0,1.03611115E2,8.611112E0,2.2222223E0,1.6944445E1,4.3333336E1,3.3333335E0,1.1111112E0,4.4166668E1,8.333334E0,1.388889E0,9.444445E0,4.9444447E1,1.2030557E3,3.1083334E2,1.4722223E1,1.388889E0,1.888889E1,1E1,1.6666667E0,6.9444447E0,6.1111116E0,2.2500002E1,6.3888893E0,6.805556E1,1.6944445E1,5E0,2.2777779E1,3.8944446E2,5.305556E2,1.8055557E1,1E1,3.5E1,3.0555558E0,3.5E1,1.2500001E1,4.166667E0,1.1111112E0,1.6666667E0,1.6666667E0,9.722222E0,1.1111112E0,2.2222223E0,1.1111112E0,1.8908334E3,2.702778E2,1.4166667E1,1.3361111E2,3.2222225E1,1.05833336E2,5.763889E2,1.898889E3],"tree_param":{"num_deleted":"0","num_feature":"128","num_nodes":"125","size_leaf_vector":"1"}},{"base_weights":[2.5291469E-2,2.0951636E-2,3.6960426E-1,4.0131643E-2,-4.1369207E-2,1.0936376E-1,6.816776E-1,-4.3000355E-1,4.2210586E-2,3.083409E-1,-5.245857E-2,-7.164867E-2,1.2550054E0,-1.3016462E-1,8.2153237E-1,3.606213E-1,-5.309865E-1,2.9583668E-2,1.25568E-1,9.681636E-1,1.7159301E-1,-5.5485465E-2,9.882892E-1,-2.0988739E-1,5.952771E-1,-1.0574787E-1,1.6629646E0,3.1594265E-1,-1.5193364E-1,9.210064E-1,-1.3205226E-1,-1.0696088E-1,2.8922573E-1,3.1440895E-2,-1.7063555E-1,3.257009E-2,-2.6851857E-1,6.461727E-2,3.0094025E-1,1.4951626E0,-1.7367443E-2,-4.297981E-3,7.6539034E-1,-3.1764838E-1,-4.4586495E-2,5.051791E-1,-1.1187511E-1,-2.8382042E-1,6.153376E-1,-2.2089176E-3,1.3752425E0,5.638919E-1,1.4547826E-1,6.957425E-1,1.8290608E0,6.383092E-2,7.8584E-3,2.8027597E-1,-9.533634E-2,-3.324421E-2,3.6403015E-2,2.693335E-2,1.6022524E-1,9.715307E-2,5.622207E-1,-1.2720303E-1,1.874171E-1,-3.566459E-2,3.0741084E-1,6.230991E-3,5.142165E-1,7.2424084E-2,-1.104106E-1,9.875315E-3,-2.3193138E-2,-1.3961537E-1,2.7594462E-2,3.9691103E-1,-1.0482823E-1,3.2342675E-1,-1.431207E-1,3.887834E-2,5.6299514E-1,-2.5334775E-2,2.6530445E-1,2.1744527E-1,6.135903E-1],"categories":[],"categories_nodes":[],"categories_segments":[],"categories_sizes":[],"default_left":[0,0,0,0,0,0,0,0,0,0,0,0,0,0,0,0,0,0,0,0,0,0,0,0,0,0,0,0,0,0,0,0,0,0,0,0,0,0,0,0,0,0,0,0,0,0,0,0,0,0,0,0,0,0,0,0,0,0,0,0,0,0,0,0,0,0,0,0,0,0,0,0,0,0,0,0,0,0,0,0,0,0,0,0,0,0,0],"id":6,"left_children":[1,3,5,7,9,11,13,15,17,19,21,23,25,27,29,31,33,35,37,39,41,43,45,47,49,-1,51,-1,-1,53,-1,-1,-1,-1,-1,55,57,59,61,63,65,67,69,71,73,-1,-1,75,77,79,81,-1,-1,83,85,-1,-1,-1,-1,-1,-1,-1,-1,-1,-1,-1,-1,-1,-1,-1,-1,-1,-1,-1,-1,-1,-1,-1,-1,-1,-1,-1,-1,-1,-1,-1,-1],"loss_changes":[1.225082E1,9.68695E0,8.213822E0,6.0743885E0,7.4129777E0,1.187723E1,5.354227E0,2.3766313E0,6.4905024E0,5.136529E0,5.881441E0,4.7375445E0,5.70759E0,3.941667E0,5.37055E0,1.9430048E0,6.525712E-1,4.7802067E0,8.65331E0,5.1539783E0,5.214525E0,5.2580237E0,5.757235E0,2.7481358E0,4.1275315E0,0E0,7.2304535E-1,0E0,0E0,6.294424E0,0E0,0E0,0E0,0E0,0E0,6.091787E0,3.453596E0,6.0179877E0,1.0240812E1,2.2534266E0,1.4212155E0,4.777666E0,8.022779E0,2.1588597E0,4.498484E0,0E0,0E0,2.730918E0,3.045834E0,3.5973363E0,2.1555572E0,0E0,0E0,4.6736565E0,1.2668037E-1,0E0,0E0,0E0,0E0,0E0,0E0,0E0,0E0,0E0,0E0,0E0,0E0,0E0,0E0,0E0,0E0,0E0,0E0,0E0,0E0,0E0,0E0,0E0,0E0,0E0,0E0,0E0,0E0,0E0,0E0,0E0,0E0],"parents":[2147483647,0,0,1,1,2,2,3,3,4,4,5,5,6,6,7,7,8,8,9,9,10,10,11,11,12,12,13,13,14,14,15,15,16,16,17,17,18,18,19,19,20,20,21,21,22,22,23,23,24,24,26,26,29,29,35,35,36,36,37,37,38,38,39,39,40,40,41,41,42,42,43,43,44,44,47,47,48,48,49,49,50,50,53,53,54,54],"right_children":[2,4,6,8,10,12,14,16,18,20,22,24,26,28,30,32,34,36,38,40,42,44,46,48,50,-1,52,-1,-1,54,-1,-1,-1,-1,-1,56,58,60,62,64,66,68,70,72,74,-1,-1,76,78,80,82,-1,-1,84,86,-1,-1,-1,-1,-1,-1,-1,-1,-1,-1,-1,-1,-1,-1,-1,-1,-1,-1,-1,-1,-1,-1,-1,-1,-1,-1,-1,-1,-1,-1,-1,-1],"split_conditions":[3.1055844E-1,-3.9600655E-3,6.1187856E-2,-5.228852E-1,-2.3144372E-1,-1.0263175E-1,-5.3078327E-3,-3.9117586E-2,1.6606562E-1,2.9891161E-2,2.6616645E-1,2.8714296E-1,-3.8264927E-1,-3.222435E-1,9.7671665E-2,-4.0470135E-1,-6.523024E-1,2.896527E-1,2.2583986E-2,1.340122E-1,-2.1809706E-1,-1.2107001E-1,-9.2650466E-2,-2.832009E-2,1.4650597E-1,-1.0574787E-1,4.463223E-2,3.1594265E-1,-1.5193364E-1,-1.6628802E-1,-1.3205226E-1,-1.0696088E-1,2.8922573E-1,3.1440895E-2,-1.7063555E-1,-2.6520845E-1,-1.4511968E-1,-6.0972326E-2,-7.3436916E-2,-2.3062941E-1,8.695326E-3,2.6278043E-1,7.6066054E-2,-1.7781313E-1,5.645956E-3,5.051791E-1,-1.1187511E-1,4.2035568E-1,2.661592E-1,-3.7223488E-1,-1.8320535E-1,5.638919E-1,1.4547826E-1,2.8912392E-2,-5.9459734E-1,6.383092E-2,7.8584E-3,2.8027597E-1,-9.533634E-2,-3.324421E-2,3.6403015E-2,2.693335E-2,1.6022524E-1,9.715307E-2,5.622207E-1,-1.2720303E-1,1.874171E-1,-3.566459E-2,3.0741084E-1,6.230991E-3,5.142165E-1,7.2424084E-2,-1.104106E-1,9.875315E-3,-2.3193138E-2,-1.3961537E-1,2.7594462E-2,3.9691103E-1,-1.0482823E-1,3.2342675E-1,-1.431207E-1,3.887834E-2,5.6299514E-1,-2.5334775E-2,2.6530445E-1,2.1744527E-1,6.135903E-1],"split_indices":[33,55,36,42,116,51,37,44,50,4,64,93,101,31,101,116,14,13,30,29,7,108,10,58,9,0,17,0,0,26,0,0,0,0,0,1,123,22,48,88,74,33,40,26,118,0,0,2,29,17,96,0,0,21,83,0,0,0,0,0,0,0,0,0,0,0,0,0,0,0,0,0,0,0,0,0,0,0,0,0,0,0,0,0,0,0,0],"split_type":[0,0,0,0,0,0,0,0,0,0,0,0,0,0,0,0,0,0,0,0,0,0,0,0,0,0,0,0,0,0,0,0,0,0,0,0,0,0,0,0,0,0,0,0,0,0,0,0,0,0,0,0,0,0,0,0,0,0,0,0,0,0,0,0,0,0,0,0,0,0,0,0,0,0,0,0,0,0,0,0,0,0,0,0,0,0,0],"sum_hessian":[8.2027705E3,8.101715E3,1.0105583E2,6.1953696E3,1.9063452E3,5.5840458E1,4.5215378E1,2.6369194E1,6.1690005E3,5.7768658E1,1.8485765E3,4.9030975E1,6.80948E0,6.6547203E0,3.8560658E1,2.6953568E0,2.3673838E1,5.3586333E3,8.1036694E2,8.873446E0,4.889521E1,1.8441598E3,4.416845E0,4.118048E1,7.850497E0,1.4058628E0,5.4036174E0,1.1715807E0,5.48314E0,3.599297E1,2.5676858E0,1.4186349E0,1.2767221E0,1.2289908E0,2.2444847E1,5.3063643E3,5.226901E1,6.023784E2,2.0798853E2,5.444801E0,3.4286454E0,3.8487453E1,1.0407755E1,7.24843E1,1.7716754E3,2.7661328E0,1.6507121E0,3.839655E1,2.7839308E0,5.009885E0,2.840612E0,4.061095E0,1.342522E0,3.0253965E1,5.739005E0,1.8021663E2,5.1261475E3,1.3500111E0,5.0918995E1,1.4695416E2,4.5542426E2,1.0986605E2,9.812248E1,1.78414E0,3.6606607E0,2.307148E0,1.1214975E0,3.5426968E1,3.0604875E0,6.403472E0,4.004283E0,5.6792865E0,6.680501E1,5.25964E2,1.2457114E3,2.5728003E1,1.2668546E1,1.3916997E0,1.3922312E0,1.1418552E0,3.8680296E0,1.1764407E0,1.6641712E0,5.9973574E0,2.4256609E1,1.652471E0,4.086534E0],"tree_param":{"num_deleted":"0","num_feature":"128","num_nodes":"87","size_leaf_vector":"1"}},{"base_weights":[1.5723701E-1,-3.1645756E-2,2.0971414E-1,-2.0522082E-1,2.2293033E-2,3.9066896E-2,2.3204334E-1,-1.8328139E-1,-5.296699E-1,3.678449E-2,-4.1841146E-1,-2.869509E-1,7.0729755E-2,1.67283E-1,2.8890568E-1,-1.9482923E-1,3.879756E-1,-1.6959696E-1,6.0871195E-2,3.1101814E-1,2.0210288E-2,-4.7567666E-1,2.7533242E-1,-4.5208636E-1,-7.8700386E-2,2.4896882E-1,2.674764E-2,2.7095914E-1,1.3044193E-1,2.9614803E-1,-8.712539E-2,-2.71905E-1,-1.023094E-1,-1.16435334E-1,9.3655866E-1,4.6319166E-1,-3.0942362E-2,5.0340626E-2,-1.1631162E-1,-1.6863671E-1,-2.321062E-1,2.9632843E-1,-1.1568887E-1,-5.017826E-1,1.9709581E-1,1.0187362E0,-2.3225783E-1,-4.3946537E-1,2.9840615E-1,-2.9919332E-1,6.1633777E-2,2.9356557E-1,-7.0401765E-2,-1.5886086E-1,1.4177758E-1,-1.72852E-2,3.0398947E-1,1.1965705E-1,-3.3480582E-1,-8.840713E-2,5.719346E-2,-5.018134E-2,8.8877484E-2,2.0205691E-1,-1.3628995E-1,3.932897E-1,2.443959E-2,4.1145334E-1,9.4420604E-2,-1.3497926E-1,6.996841E-2,6.364784E-2,4.796082E-3,4.588577E-2,-6.859647E-2,-1.5775162E-1,1.1478139E-1,-1.7372382E-1,-2.7818492E-2,-9.432161E-2,4.8589426E-1,-1.1473179E-1,2.377913E-1,-1.6029502E-1,4.8243444E-2,4.1322265E-2,1.5928598E-1,1.10301636E-1,-1.10898085E-1,5.4996978E-3,1.168459E-1,-1.7568907E-3,9.568809E-2,-1.455986E-1,2.8251616E-2,-9.468394E-2,1.1757229E-1,1.4930838E-1,3.9717067E-2,2.1001565E-1,-4.7026146E-2,1.18239716E-1,8.077788E-2,-3.0772354E-2,3.4833258E-1,-1.2959003E-1,2.1131107E-1],"categories":[],"categories_nodes":[],"categories_segments":[],"categories_sizes":[],"default_left":[0,0,0,0,0,0,0,0,0,0,0,0,0,0,0,0,0,0,0,0,0,0,0,0,0,0,0,0,0,0,0,0,0,0,0,0,0,0,0,0,0,0,0,0,0,0,0,0,0,0,0,0,0,0,0,0,0,0,0,0,0,0,0,0,0,0,0,0,0,0,0,0,0,0,0,0,0,0,0,0,0,0,0,0,0,0,0,0,0,0,0,0,0,0,0,0,0,0,0,0,0,0,0,0,0,0,0],"id":7,"left_children":[1,3,5,7,9,11,13,15,17,19,21,23,25,27,29,31,33,-1,-1,35,37,39,41,43,45,47,49,51,53,55,57,59,61,63,65,67,69,71,73,-1,75,-1,-1,77,-1,79,81,83,85,87,89,91,93,95,97,99,101,103,105,-1,-1,-1,-1,-1,-1,-1,-1,-1,-1,-1,-1,-1,-1,-1,-1,-1,-1,-1,-1,-1,-1,-1,-1,-1,-1,-1,-1,-1,-1,-1,-1,-1,-1,-1,-1,-1,-1,-1,-1,-1,-1,-1,-1,-1,-1,-1,-1],"loss_changes":[8.482144E1,1.7430891E1,2.5507202E1,3.0447235E0,9.090079E0,8.031147E0,2.1756866E1,2.8129082E0,8.3104897E-1,6.250694E0,1.9312935E0,2.333702E0,5.5447655E0,1.0547897E1,8.608673E0,2.877307E0,2.4766383E0,0E0,0E0,4.093467E0,5.3501463E0,7.586689E-1,2.306301E0,2.4359274E0,5.5754423E0,4.8972073E0,6.4897246E0,5.6195564E0,6.7331886E0,7.6052856E0,3.1296754E0,2.3921509E0,4.8848095E0,1.7330823E0,1.2407892E0,6.891903E0,2.880672E0,5.917157E0,7.1497345E0,0E0,2.5059924E0,0E0,0E0,1.1207018E0,0E0,3.7732458E0,4.706236E0,6.431607E-1,4.8306665E0,2.7296276E0,7.3028927E0,5.177414E0,3.1779933E0,6.825589E0,6.5149803E0,7.755256E0,9.338562E0,7.8987703E0,3.1022215E0,0E0,0E0,0E0,0E0,0E0,0E0,0E0,0E0,0E0,0E0,0E0,0E0,0E0,0E0,0E0,0E0,0E0,0E0,0E0,0E0,0E0,0E0,0E0,0E0,0E0,0E0,0E0,0E0,0E0,0E0,0E0,0E0,0E0,0E0,0E0,0E0,0E0,0E0,0E0,0E0,0E0,0E0,0E0,0E0,0E0,0E0,0E0,0E0],"parents":[2147483647,0,0,1,1,2,2,3,3,4,4,5,5,6,6,7,7,8,8,9,9,10,10,11,11,12,12,13,13,14,14,15,15,16,16,19,19,20,20,21,21,22,22,23,23,24,24,25,25,26,26,27,27,28,28,29,29,30,30,31,31,32,32,33,33,34,34,35,35,36,36,37,37,38,38,40,40,43,43,45,45,46,46,47,47,48,48,49,49,50,50,51,51,52,52,53,53,54,54,55,55,56,56,57,57,58,58],"right_children":[2,4,6,8,10,12,14,16,18,20,22,24,26,28,30,32,34,-1,-1,36,38,40,42,44,46,48,50,52,54,56,58,60,62,64,66,68,70,72,74,-1,76,-1,-1,78,-1,80,82,84,86,88,90,92,94,96,98,100,102,104,106,-1,-1,-1,-1,-1,-1,-1,-1,-1,-1,-1,-1,-1,-1,-1,-1,-1,-1,-1,-1,-1,-1,-1,-1,-1,-1,-1,-1,-1,-1,-1,-1,-1,-1,-1,-1,-1,-1,-1,-1,-1,-1,-1,-1,-1,-1,-1,-1],"split_conditions":[-1.1329832E-1,-2.3332806E-1,-1.6006076E-1,2.4358347E-1,3.7459707E-1,-1.8993773E-1,3.9066195E-2,2.7725914E-1,3.2053223E-1,-7.106628E-2,-1.2902687E-1,-2.345429E-1,-2.1676607E-1,-2.8557223E-3,1.8473521E-1,-1.4301614E-1,-1.6625895E-1,-1.6959696E-1,6.0871195E-2,-8.4939554E-2,1.5092093E-2,5.465515E-1,3.1706202E-1,5.1130876E-2,-6.987644E-2,-7.282445E-2,-1.1925864E-1,8.245707E-2,-1.4883138E-1,-2.5104275E-1,-8.6437024E-2,2.8860958E-2,1.20726466E-1,7.8031793E-3,4.7810444E-1,6.8532385E-2,-7.534905E-2,-1.9344777E-2,-2.5994714E-2,-1.6863671E-1,4.7517687E-2,2.9632843E-1,-1.1568887E-1,1.17531046E-1,1.9709581E-1,-1.565119E-1,1.044542E-2,1.3827421E-1,-4.0720347E-2,-1.9581476E-1,5.3406265E-2,-1.5729664E-1,-1.02173604E-1,1.02302425E-1,-1.4417566E-1,-1.6628802E-1,-6.719938E-3,-1.7203605E-1,3.9924993E-3,-8.840713E-2,5.719346E-2,-5.018134E-2,8.8877484E-2,2.0205691E-1,-1.3628995E-1,3.932897E-1,2.443959E-2,4.1145334E-1,9.4420604E-2,-1.3497926E-1,6.996841E-2,6.364784E-2,4.796082E-3,4.588577E-2,-6.859647E-2,-1.5775162E-1,1.1478139E-1,-1.7372382E-1,-2.7818492E-2,-9.432161E-2,4.8589426E-1,-1.1473179E-1,2.377913E-1,-1.6029502E-1,4.8243444E-2,4.1322265E-2,1.5928598E-1,1.10301636E-1,-1.10898085E-1,5.4996978E-3,1.168459E-1,-1.7568907E-3,9.568809E-2,-1.455986E-1,2.8251616E-2,-9.468394E-2,1.1757229E-1,1.4930838E-1,3.9717067E-2,2.1001565E-1,-4.7026146E-2,1.18239716E-1,8.077788E-2,-3.0772354E-2,3.4833258E-1,-1.2959003E-1,2.1131107E-1],"split_indices":[80,83,7,56,46,101,120,84,96,113,80,95,86,27,110,39,100,0,0,29,16,38,38,55,92,60,29,108,115,10,29,14,28,99,31,65,39,43,33,0,0,0,0,37,0,92,53,21,15,47,67,56,17,116,85,26,9,42,117,0,0,0,0,0,0,0,0,0,0,0,0,0,0,0,0,0,0,0,0,0,0,0,0,0,0,0,0,0,0,0,0,0,0,0,0,0,0,0,0,0,0,0,0,0,0,0,0],"split_type":[0,0,0,0,0,0,0,0,0,0,0,0,0,0,0,0,0,0,0,0,0,0,0,0,0,0,0,0,0,0,0,0,0,0,0,0,0,0,0,0,0,0,0,0,0,0,0,0,0,0,0,0,0,0,0,0,0,0,0,0,0,0,0,0,0,0,0,0,0,0,0,0,0,0,0,0,0,0,0,0,0,0,0,0,0,0,0,0,0,0,0,0,0,0,0,0,0,0,0,0,0,0,0,0,0,0,0],"sum_hessian":[8.555758E3,1.8603026E3,6.6954556E3,4.40374E2,1.4199286E3,7.750456E2,5.92041E3,4.139475E2,2.6426476E1,1.3756116E3,4.4316982E1,6.789541E1,7.071502E2,2.769817E3,3.150593E3,4.0639136E2,7.556173E0,2.5417738E1,1.0087388E0,7.738862E1,1.298223E3,4.1228134E1,3.0888476E0,3.721462E1,3.0680788E1,1.3903703E2,5.6811316E2,7.245297E2,2.0452871E3,3.0912678E3,5.932521E1,2.2064177E2,1.8574957E2,4.3469725E0,3.2092001E0,5.3310677E1,2.4077936E1,1.0640244E3,2.3419858E2,2.9463419E1,1.1764714E1,1.2485968E0,1.8402508E0,3.6142673E1,1.0719447E0,3.0744228E0,2.7606365E1,8.786883E0,1.3025015E2,5.4194836E1,5.1391833E2,6.796596E2,4.4870075E1,7.662739E1,1.9686598E3,7.542001E1,3.015848E3,3.26137E1,2.6711508E1,2.10629E2,1.0012781E1,1.6021652E2,2.5533043E1,1.0046163E0,3.3423564E0,1.8611573E0,1.3480427E0,6.3317614E0,4.6978916E1,9.038772E0,1.5039165E1,1.8542535E2,8.7859906E2,6.884044E1,1.6535814E2,8.058586E0,3.7061284E0,3.0048847E1,6.0938253E0,1.1033626E0,1.9710604E0,2.4624851E1,2.981514E0,7.682788E0,1.1040952E0,7.797207E1,5.227808E1,4.7763247E0,4.941851E1,4.548937E2,5.9024624E1,5.3197067E1,6.264625E2,1.218926E1,3.2680817E1,5.998284E1,1.6644545E1,4.925266E1,1.9194071E3,1.1622399E1,6.3797615E1,8.3589526E2,2.1799526E3,2.7621218E1,4.9924827E0,2.4961933E1,1.7495742E0],"tree_param":{"num_deleted":"0","num_feature":"128","num_nodes":"107","size_leaf_vector":"1"}},{"base_weights":[-4.8179868E-1,-3.5052934E-1,-4.8551577E-1,4.0021536E-1,-3.853543E-1,-1.8786038E-1,-4.865741E-1,-2.3875813E-1,8.079414E-1,2.2458902E-1,-3.9893085E-1,1.8085764E-1,-4.7734046E-1,-4.8813486E-1,-2.7468878E-1,-1.24192454E-1,4.535968E-2,3.5619393E-1,-9.526421E-3,-4.1561612E-1,2.2905622E-1,-1.4624417E-1,6.749757E-1,4.3002803E-2,-1.6219611E-1,-2.6390868E-1,-4.889411E-1,2.5822204E-1,-3.238058E-1,4.046762E-1,-4.2919114E-1,-2.4145822E-1,3.5099322E-1,1.1781888E0,-1.18925065E-1,-4.1969058E-1,3.6344475E-1,-4.8918477E-1,1.10715516E-1,8.7451994E-2,-4.2661223E-1,-1.01404786E-1,2.9581797E-1,-6.953616E-2,-1.4324588E-1,5.9021536E-2,-1.2691952E-1,4.6631646E-1,1.911963E-2,-1.5181665E-1,1.7218703E-1,-1.2744002E-1,3.4592944E-1,-1.4481716E-1,-1.5461732E-1,-1.0317362E-1,1.6035466E-1,-1.4751613E-1,2.1178994E-1,-1.609559E-1,1.5835533E-2],"categories":[],"categories_nodes":[],"categories_segments":[],"categories_sizes":[],"default_left":[0,0,0,0,0,0,0,0,0,0,0,0,0,0,0,0,0,0,0,0,0,0,0,0,0,0,0,0,0,0,0,0,0,0,0,0,0,0,0,0,0,0,0,0,0,0,0,0,0,0,0,0,0,0,0,0,0,0,0,0,0],"id":8,"left_children":[1,3,5,7,9,11,13,15,17,-1,19,21,23,25,27,-1,-1,-1,-1,29,31,-1,33,-1,-1,35,37,-1,39,41,43,45,-1,47,-1,49,51,53,55,57,59,-1,-1,-1,-1,-1,-1,-1,-1,-1,-1,-1,-1,-1,-1,-1,-1,-1,-1,-1,-1],"loss_changes":[3.3388672E0,5.4257545E0,2.1108398E0,2.6493878E0,3.2730865E0,2.9039307E0,2.1694336E0,3.6629206E-1,1.9439938E0,0E0,2.1024647E0,4.402562E0,6.6942096E-1,1.1207275E0,3.2467222E0,0E0,0E0,0E0,0E0,2.2556152E0,2.7629483E0,0E0,4.5166655E0,0E0,0E0,2.7854817E0,1.0605469E0,0E0,2.2248592E0,1.8697834E0,1.6473885E0,4.4643208E-1,0E0,2.1492333E0,0E0,2.1823523E0,4.1591372E0,9.168701E-1,8.799396E-1,4.3510976E0,2.2182212E0,0E0,0E0,0E0,0E0,0E0,0E0,0E0,0E0,0E0,0E0,0E0,0E0,0E0,0E0,0E0,0E0,0E0,0E0,0E0,0E0],"parents":[2147483647,0,0,1,1,2,2,3,3,4,4,5,5,6,6,7,7,8,8,10,10,11,11,12,12,13,13,14,14,19,19,20,20,22,22,25,25,26,26,28,28,29,29,30,30,31,31,33,33,35,35,36,36,37,37,38,38,39,39,40,40],"right_children":[2,4,6,8,10,12,14,16,18,-1,20,22,24,26,28,-1,-1,-1,-1,30,32,-1,34,-1,-1,36,38,-1,40,42,44,46,-1,48,-1,50,52,54,56,58,60,-1,-1,-1,-1,-1,-1,-1,-1,-1,-1,-1,-1,-1,-1,-1,-1,-1,-1,-1,-1],"split_conditions":[-2.6155385E-1,2.4723616E-1,-4.000239E-1,-8.686513E-2,-3.3163902E-1,-1.0443003E-3,4.2461887E-1,9.889135E-2,2.4859016E-1,2.2458902E-1,-5.515194E-2,-2.297041E-1,-3.878008E-1,-4.1483793E-1,-3.7524524E-1,-1.24192454E-1,4.535968E-2,3.5619393E-1,-9.526421E-3,-3.9706522E-1,1.839244E-1,-1.4624417E-1,3.129466E-1,4.3002803E-2,-1.6219611E-1,1.1201711E-2,5.734487E-1,2.5822204E-1,1.983482E-1,2.7284747E-1,-1.491034E-1,-1.9692333E-1,3.5099322E-1,4.611461E-2,-1.18925065E-1,-7.621997E-2,-3.3025816E-1,7.817144E-2,-2.137239E-1,-2.6185378E-1,2.7724335E-1,-1.01404786E-1,2.9581797E-1,-6.953616E-2,-1.4324588E-1,5.9021536E-2,-1.2691952E-1,4.6631646E-1,1.911963E-2,-1.5181665E-1,1.7218703E-1,-1.2744002E-1,3.4592944E-1,-1.4481716E-1,-1.5461732E-1,-1.0317362E-1,1.6035466E-1,-1.4751613E-1,2.1178994E-1,-1.609559E-1,1.5835533E-2],"split_indices":[121,76,34,18,22,125,123,92,97,0,111,0,63,17,76,0,0,0,0,87,61,0,117,0,0,21,76,0,4,122,15,24,0,49,0,101,84,22,26,73,36,0,0,0,0,0,0,0,0,0,0,0,0,0,0,0,0,0,0,0,0],"split_type":[0,0,0,0,0,0,0,0,0,0,0,0,0,0,0,0,0,0,0,0,0,0,0,0,0,0,0,0,0,0,0,0,0,0,0,0,0,0,0,0,0,0,0,0,0,0,0,0,0,0,0,0,0,0,0,0,0,0,0,0,0],"sum_hessian":[7.190556E3,2.0062932E2,6.989927E3,8.42894E0,1.9220038E2,2.539771E1,6.9645293E3,3.4447956E0,4.984144E0,1.6333467E0,1.9056703E2,1.1335118E1,1.4062592E1,6.9123096E3,5.22198E1,2.3343346E0,1.1104612E0,3.1479378E0,1.8362066E0,1.8596425E2,4.6027846E0,4.8238583E0,6.51126E0,1.1846837E0,1.2877908E1,2.594095E1,6.8863687E3,1.4801103E0,5.073969E1,2.5584018E0,1.8340585E2,3.5639744E0,1.0388104E0,4.362565E0,2.148695E0,2.1045925E1,4.8950257E0,6.8837554E3,2.61296E0,1.0177172E1,4.056252E1,1.3071615E0,1.2512404E0,3.719058E1,1.4621527E2,1.0198563E0,2.544118E0,2.9664512E0,1.396114E0,1.9814423E1,1.2315018E0,2.680925E0,2.2141006E0,5.5378677E3,1.3458878E3,1.3515747E0,1.2613856E0,5.3616033E0,4.815569E0,3.2900536E1,7.661984E0],"tree_param":{"num_deleted":"0","num_feature":"128","num_nodes":"61","size_leaf_vector":"1"}},{"base_weights":[-1.3891444E-1,-1.2668788E-1,-2.6005217E-1,-1.2232545E-1,-3.575607E-1,-2.3613597E-1,-5.378281E-1,-1.1853474E-1,-2.9380062E-1,-4.2902228E-1,-1.5334524E-1,-1.9775404E-1,-3.8130316E-1,4.911483E-2,-5.5473614E-1,-1.3331519E-1,-6.658362E-2,4.946241E-1,-3.195501E-1,-1.5064505E-1,-5.2514136E-1,-4.9834523E-1,1.7747132E-1,-9.653262E-2,-2.6446822E-1,-4.2777738E-1,-1.9967753E-2,-1.7159788E-1,4.000127E-2,-1.3624868E-1,2.277167E-1,-6.8860985E-2,4.9645412E-1,1.0841275E0,-1.1415175E-1,3.3131412E-1,-3.4529862E-1,-2.7574542E-1,8.4656197E-1,-5.384284E-1,6.1155494E-2,-1.6553688E-1,4.8332576E-2,-2.2987443E-1,8.6913216E-1,1.1130751E0,-1.22058764E-1,-2.7568725E-1,4.186122E-1,1.3636798E-1,-4.4246662E-1,-1.5459922E-1,3.554079E-1,-4.142364E-2,1.5551685E-1,1.23357445E-1,-1.0682489E-1,-2.3404226E-2,9.936653E-2,5.0097024E-1,2.9514087E-2,-1.18149534E-1,2.3760808E-1,-3.5042524E-2,-1.2867914E-1,1.2947974E-1,-1.1297494E-1,-8.86534E-2,4.5554104E-1,5.9188772E-2,-1.6562024E-1,1.1786584E-1,-1.5764451E-1,3.94472E-1,-3.032524E-2,2.53692E-2,4.5958585E-1,-9.515024E-2,-8.355038E-3,-8.841972E-2,3.8005166E-2,-1.2330616E-1,3.4337673E-1,-9.567309E-2,-1.6051668E-1,3.565005E-1,-3.2600332E-2],"categories":[],"categories_nodes":[],"categories_segments":[],"categories_sizes":[],"default_left":[0,0,0,0,0,0,0,0,0,0,0,0,0,0,0,0,0,0,0,0,0,0,0,0,0,0,0,0,0,0,0,0,0,0,0,0,0,0,0,0,0,0,0,0,0,0,0,0,0,0,0,0,0,0,0,0,0,0,0,0,0,0,0,0,0,0,0,0,0,0,0,0,0,0,0,0,0,0,0,0,0,0,0,0,0,0,0],"id":9,"left_children":[1,3,5,7,9,11,13,15,17,19,21,23,25,-1,27,29,31,33,35,37,39,41,43,45,47,49,51,-1,-1,53,55,57,-1,59,-1,61,63,65,67,69,-1,-1,-1,71,73,75,77,79,81,-1,83,-1,85,-1,-1,-1,-1,-1,-1,-1,-1,-1,-1,-1,-1,-1,-1,-1,-1,-1,-1,-1,-1,-1,-1,-1,-1,-1,-1,-1,-1,-1,-1,-1,-1,-1,-1],"loss_changes":[1.1573013E1,7.1268845E0,4.6392365E0,4.508194E0,1.8534527E0,3.6150894E0,7.5616264E-1,5.242981E0,3.2131662E0,2.5127583E0,4.1569285E0,3.5259933E0,2.29924E0,0E0,7.2933006E-1,5.669281E0,6.060743E0,3.070315E0,2.5667944E0,3.5098958E0,8.033047E-1,7.1314764E-1,5.534666E0,6.6355205E0,2.5402927E0,1.7786827E0,3.2903743E0,0E0,0E0,6.3991013E0,4.782498E0,5.5769444E0,0E0,1.7631955E0,0E0,2.342856E0,2.6491585E0,1.8808537E0,2.8837907E0,8.173027E-1,0E0,0E0,0E0,2.5458407E0,3.258769E0,1.7872796E0,3.7970297E0,2.4275837E0,3.789113E0,0E0,1.2047958E0,0E0,4.0325356E0,0E0,0E0,0E0,0E0,0E0,0E0,0E0,0E0,0E0,0E0,0E0,0E0,0E0,0E0,0E0,0E0,0E0,0E0,0E0,0E0,0E0,0E0,0E0,0E0,0E0,0E0,0E0,0E0,0E0,0E0,0E0,0E0,0E0,0E0],"parents":[2147483647,0,0,1,1,2,2,3,3,4,4,5,5,6,6,7,7,8,8,9,9,10,10,11,11,12,12,14,14,15,15,16,16,17,17,18,18,19,19,20,20,21,21,22,22,23,23,24,24,25,25,26,26,29,29,30,30,31,31,33,33,35,35,36,36,37,37,38,38,39,39,43,43,44,44,45,45,46,46,47,47,48,48,50,50,52,52],"right_children":[2,4,6,8,10,12,14,16,18,20,22,24,26,-1,28,30,32,34,36,38,40,42,44,46,48,50,52,-1,-1,54,56,58,-1,60,-1,62,64,66,68,70,-1,-1,-1,72,74,76,78,80,82,-1,84,-1,86,-1,-1,-1,-1,-1,-1,-1,-1,-1,-1,-1,-1,-1,-1,-1,-1,-1,-1,-1,-1,-1,-1,-1,-1,-1,-1,-1,-1,-1,-1,-1,-1,-1,-1],"split_conditions":[2.0042652E-1,2.5624683E-1,2.6278043E-1,4.3169892E-1,9.282708E-2,1.4867719E-1,-2.0835842E-1,1.078293E-1,-1.6941503E-1,2.3584092E-2,-1.2713158E-1,1.8714095E-2,2.1543007E-1,4.911483E-2,3.791581E-1,2.5681618E-1,1.5331285E-1,9.587559E-2,-1.8056059E-1,-2.0473024E-2,2.0330401E-1,-9.668324E-3,-3.601743E-1,-3.772074E-1,1.12767756E-1,-2.0003426E-1,-3.421965E-1,-1.7159788E-1,4.000127E-2,5.071889E-1,4.124589E-2,2.0474589E-1,4.9645412E-1,1.5860353E-2,-1.1415175E-1,-1.2803488E-2,-1.9896223E-1,-2.3341882E-1,-2.7902676E-2,-2.6951873E-1,6.1155494E-2,-1.6553688E-1,4.8332576E-2,-6.0893655E-2,-4.5503225E-2,8.251881E-2,-5.8296554E-2,1.8580209E-1,-4.235861E-2,1.3636798E-1,-1.344444E-1,-1.5459922E-1,-2.8940472E-1,-4.142364E-2,1.5551685E-1,1.23357445E-1,-1.0682489E-1,-2.3404226E-2,9.936653E-2,5.0097024E-1,2.9514087E-2,-1.18149534E-1,2.3760808E-1,-3.5042524E-2,-1.2867914E-1,1.2947974E-1,-1.1297494E-1,-8.86534E-2,4.5554104E-1,5.9188772E-2,-1.6562024E-1,1.1786584E-1,-1.5764451E-1,3.94472E-1,-3.032524E-2,2.53692E-2,4.5958585E-1,-9.515024E-2,-8.355038E-3,-8.841972E-2,3.8005166E-2,-1.2330616E-1,3.4337673E-1,-9.567309E-2,-1.6051668E-1,3.565005E-1,-3.2600332E-2],"split_indices":[76,4,33,19,45,43,8,58,11,125,70,86,102,0,1,116,21,53,97,47,113,55,104,100,78,68,120,0,0,44,2,4,0,84,0,58,10,57,93,70,0,0,0,70,34,20,92,109,73,0,117,0,120,0,0,0,0,0,0,0,0,0,0,0,0,0,0,0,0,0,0,0,0,0,0,0,0,0,0,0,0,0,0,0,0,0,0],"split_type":[0,0,0,0,0,0,0,0,0,0,0,0,0,0,0,0,0,0,0,0,0,0,0,0,0,0,0,0,0,0,0,0,0,0,0,0,0,0,0,0,0,0,0,0,0,0,0,0,0,0,0,0,0,0,0,0,0,0,0,0,0,0,0,0,0,0,0,0,0,0,0,0,0,0,0,0,0,0,0,0,0,0,0,0,0,0,0],"sum_hessian":[7.8350625E3,7.118618E3,7.1644415E2,6.9881055E3,1.3051288E2,6.613525E2,5.5091656E1,6.8386187E3,1.494866E2,9.586559E1,3.4647293E1,5.249254E2,1.3642705E2,1.0921838E0,5.399947E1,5.3227065E3,1.5159124E3,4.1518493E0,1.4533475E2,2.526401E1,7.0601585E1,1.6712185E1,1.793511E1,2.0950426E2,3.1542117E2,1.2071681E2,1.57102375E1,5.284288E1,1.1565914E0,5.280424E3,4.228234E1,1.5148683E3,1.0440947E0,2.3380666E0,1.8137829E0,5.0791035E0,1.4025565E2,2.309074E1,2.1732683E0,6.959452E1,1.0070587E0,1.56103325E1,1.1018519E0,1.17076645E1,6.2274466E0,3.4492512E0,2.0605501E2,3.1091113E2,4.510037E0,1.4864298E0,1.19230385E2,6.611956E0,9.098281E0,5.2664897E3,1.39340925E1,3.2396526E1,9.885817E0,1.4817733E3,3.3095028E1,1.0312238E0,1.3068427E0,2.029659E0,3.0494444E0,3.822313E1,1.0203252E2,2.4717894E0,2.061895E1,1.0124875E0,1.1607809E0,1.021595E0,6.857293E1,3.662576E0,8.045089E0,4.023529E0,2.2039175E0,1.3460486E0,2.1032023E0,6.63258E1,1.3972922E2,2.9711548E2,1.3795658E1,2.3072233E0,2.2028136E0,5.2977867E1,6.625252E1,2.6970117E0,6.4012694E0],"tree_param":{"num_deleted":"0","num_feature":"128","num_nodes":"87","size_leaf_vector":"1"}},{"base_weights":[1.0980928E-1,1.0568475E-1,4.3168744E-1,1.11272626E-1,-1.0807085E-1,5.560268E-1,-7.522318E-2,-1.10994786E-1,1.1434718E-1,-3.249032E-2,-3.6982077E-1,6.5051246E-1,-1.6865797E-1,-2.536145E-1,7.432814E-1,9.8873144E-1,-1.4565289E-1,1.0853435E-1,2.4754149E-1,4.638989E-2,-3.3868894E-1,-4.078483E-1,2.0139287E-1,9.2041427E-1,3.886346E-1,-1.5556039E-1,5.5493104E-1,2.465864E-1,-3.967314E-1,-1.06693566E-1,4.3414885E-1,4.6661064E-1,2.074913E-2,-3.197454E-2,-5.030802E-1,8.100459E-2,1.4605848E-1,2.9594868E-1,-1.656287E-1,2.8453934E-1,-1.0897005E-1,-4.1377848E-1,4.99748E-1,-4.4735137E-1,1.9303678E-1,1.0468485E0,-9.350546E-2,7.098916E-1,2.0266196E-2,-1.0706047E-1,3.6493146E-1,1.1668201E-1,-1.685674E-1,7.405158E-2,-7.165055E-2,-5.3792477E-2,-1.7209549E-1,2.7108196E-2,-3.214095E-2,4.7311116E-2,-4.1249595E-3,9.708544E-2,-1.1572494E-1,2.0424078E-1,-1.047989E-1,5.6654427E-2,3.6515957E-1,-4.202098E-2,3.4615898E-1,-2.3955896E-2,-1.5666166E-1,-9.132022E-2,3.071013E-1,-1.455499E-1,3.614404E-2,3.4180316E-1,-1.15306266E-1,1.9630776E-1,-1.3658397E-1,7.9221636E-2,3.7846678E-1,2.4744293E-1,-5.0387148E-2,1.7814654E-1,-1.20612584E-1],"categories":[],"categories_nodes":[],"categories_segments":[],"categories_sizes":[],"default_left":[0,0,0,0,0,0,0,0,0,0,0,0,0,0,0,0,0,0,0,0,0,0,0,0,0,0,0,0,0,0,0,0,0,0,0,0,0,0,0,0,0,0,0,0,0,0,0,0,0,0,0,0,0,0,0,0,0,0,0,0,0,0,0,0,0,0,0,0,0,0,0,0,0,0,0,0,0,0,0,0,0,0,0,0,0],"id":10,"left_children":[1,3,5,7,9,11,13,15,17,19,21,23,25,27,29,31,33,35,37,39,41,43,-1,45,47,-1,49,-1,51,-1,-1,-1,-1,53,55,57,59,61,63,65,67,69,71,73,-1,75,77,79,81,-1,-1,83,-1,-1,-1,-1,-1,-1,-1,-1,-1,-1,-1,-1,-1,-1,-1,-1,-1,-1,-1,-1,-1,-1,-1,-1,-1,-1,-1,-1,-1,-1,-1,-1,-1],"loss_changes":[1.1133194E1,9.943947E0,6.736038E0,5.550598E0,4.1887293E0,5.957758E0,3.371771E0,4.377572E0,6.1621475E0,4.0217247E0,2.1535735E0,4.997265E0,2.9827788E0,3.196227E0,3.7291188E0,1.7276032E0,4.3946123E0,7.902443E0,6.7189636E0,4.9431367E0,2.353362E0,2.2160048E0,0E0,4.787058E0,4.740965E0,0E0,2.8182116E0,0E0,1.5181284E0,0E0,0E0,0E0,0E0,4.8706384E0,4.940958E-1,7.7924232E0,6.0334244E0,5.7622776E0,5.77568E0,4.4728518E0,3.3456087E0,1.1111155E0,1.6831906E0,1.0319471E0,0E0,4.754158E0,1.6435609E0,4.9386187E0,3.1291366E0,0E0,0E0,1.4756248E0,0E0,0E0,0E0,0E0,0E0,0E0,0E0,0E0,0E0,0E0,0E0,0E0,0E0,0E0,0E0,0E0,0E0,0E0,0E0,0E0,0E0,0E0,0E0,0E0,0E0,0E0,0E0,0E0,0E0,0E0,0E0,0E0,0E0],"parents":[2147483647,0,0,1,1,2,2,3,3,4,4,5,5,6,6,7,7,8,8,9,9,10,10,11,11,12,12,13,13,14,14,15,15,16,16,17,17,18,18,19,19,20,20,21,21,23,23,24,24,26,26,28,28,33,33,34,34,35,35,36,36,37,37,38,38,39,39,40,40,41,41,42,42,43,43,45,45,46,46,47,47,48,48,51,51],"right_children":[2,4,6,8,10,12,14,16,18,20,22,24,26,28,30,32,34,36,38,40,42,44,-1,46,48,-1,50,-1,52,-1,-1,-1,-1,54,56,58,60,62,64,66,68,70,72,74,-1,76,78,80,82,-1,-1,84,-1,-1,-1,-1,-1,-1,-1,-1,-1,-1,-1,-1,-1,-1,-1,-1,-1,-1,-1,-1,-1,-1,-1,-1,-1,-1,-1,-1,-1,-1,-1,-1,-1],"split_conditions":[2.7879792E-1,2.3739871E-1,-1.3302585E-1,-2.8618357E-1,3.3551684E-1,1.2850657E-1,-3.6115618E-3,-3.4342808E-1,2.0329541E-1,3.5949117E-1,1.3430032E-1,6.1602746E-3,2.393413E-2,-4.734866E-3,-3.7735465E-1,2.2290673E-2,-5.7891443E-2,3.4622032E-2,5.1689437E-3,-1.4967147E-1,1.5339619E-1,3.8618684E-1,2.0139287E-1,-1.0077007E-1,1.5041973E-1,-1.5556039E-1,2.760265E-1,2.465864E-1,8.7715946E-2,-1.06693566E-1,4.3414885E-1,4.6661064E-1,2.074913E-2,-1.1299271E-1,-6.818702E-2,2.4657655E-1,1.7432898E-1,1.8937801E-1,-2.3946366E-1,-1.5608776E-1,3.2663378E-1,-2.0172876E-1,2.1265493E-1,3.66585E-2,1.9303678E-1,-3.981342E-2,1.1264349E-1,-1.507594E-2,1.4651145E-1,-1.0706047E-1,3.6493146E-1,3.397156E-2,-1.685674E-1,7.405158E-2,-7.165055E-2,-5.3792477E-2,-1.7209549E-1,2.7108196E-2,-3.214095E-2,4.7311116E-2,-4.1249595E-3,9.708544E-2,-1.1572494E-1,2.0424078E-1,-1.047989E-1,5.6654427E-2,3.6515957E-1,-4.202098E-2,3.4615898E-1,-2.3955896E-2,-1.5666166E-1,-9.132022E-2,3.071013E-1,-1.455499E-1,3.614404E-2,3.4180316E-1,-1.15306266E-1,1.9630776E-1,-1.3658397E-1,7.9221636E-2,3.7846678E-1,2.4744293E-1,-5.0387148E-2,1.7814654E-1,-1.20612584E-1],"split_indices":[47,33,121,26,25,31,109,72,64,59,92,30,51,115,58,76,44,77,60,88,53,114,0,55,26,0,103,0,64,0,0,0,0,109,53,94,97,28,40,88,88,61,62,78,0,37,115,49,94,0,0,48,0,0,0,0,0,0,0,0,0,0,0,0,0,0,0,0,0,0,0,0,0,0,0,0,0,0,0,0,0,0,0,0,0],"split_type":[0,0,0,0,0,0,0,0,0,0,0,0,0,0,0,0,0,0,0,0,0,0,0,0,0,0,0,0,0,0,0,0,0,0,0,0,0,0,0,0,0,0,0,0,0,0,0,0,0,0,0,0,0,0,0,0,0,0,0,0,0,0,0,0,0,0,0,0,0,0,0,0,0,0,0,0,0,0,0,0,0,0,0,0,0],"sum_hessian":[8.419332E3,8.314123E3,1.052085E2,8.1027847E3,2.1133904E2,8.440743E1,2.0801071E1,1.10075E2,7.9927095E3,1.6485976E2,4.647928E1,7.476217E1,9.645263E0,1.7645435E1,3.1556356E0,2.5220003E0,1.0755299E2,7.660219E3,3.3249042E2,1.317643E2,3.3095467E1,4.5428265E1,1.0510136E0,3.557868E1,3.918349E1,6.692586E0,2.9526772E0,1.5151753E0,1.613026E1,1.4252373E0,1.7303983E0,1.1326492E0,1.3893511E0,8.24269E1,2.5126095E1,4.42036E3,3.2398594E3,2.9787497E2,3.461546E1,5.1693085E1,8.0071205E1,3.083996E1,2.2555072E0,4.4336777E1,1.0914882E0,3.1605095E1,3.9735842E0,2.0434914E1,1.8748577E1,1.4351025E0,1.5175748E0,3.9974318E0,1.2132829E1,3.5025368E1,4.7401535E1,5.130207E0,1.9995888E1,4.211448E3,2.0891127E2,3.0198184E3,2.2004092E2,2.867609E2,1.1114047E1,5.6903286E0,2.8925129E1,4.797347E1,3.7196162E0,7.90144E1,1.0568101E0,7.984958E0,2.2855003E1,1.0550894E0,1.2004178E0,4.1705E1,2.6317754E0,2.9878073E1,1.7270238E0,1.0318277E0,2.9417565E0,1.2119444E1,8.31547E0,2.9134068E0,1.5835171E1,2.0067663E0,1.9906653E0],"tree_param":{"num_deleted":"0","num_feature":"128","num_nodes":"85","size_leaf_vector":"1"}},{"base_weights":[2.365838E-1,3.7887436E-1,1.7598929E-1,6.95052E-1,3.4698212E-1,1.2842998E-1,2.4153557E-1,2.5144908E-1,7.578252E-1,3.3809748E-1,1.0346481E0,7.4869937E-1,1.23049445E-1,3.9692178E-1,2.0749883E-1,4.301721E-1,4.6522185E-2,1.5820445E0,7.219131E-1,4.1533294E-1,2.774661E-1,-1.1576743E-1,1.1277378E0,1.4921938E0,4.4839713E-1,5.290549E-1,1.145493E-1,6.421985E-1,3.2697326E-1,1.7704928E-1,3.4845075E-1,6.2635684E-1,-3.5849923E-1,5.2866375E-1,1.3345224E-1,7.635749E-1,-1.05058394E-1,4.482692E-1,1.21028826E-1,5.3028923E-1,2.523744E-1,1.2425215E0,4.9510952E-2,1.7229102E0,3.0124107E-2,1.2680463E0,7.0894845E-2,-6.730127E-2,7.098339E-1,2.7290025E-1,9.989997E-2,1.5455121E0,5.433347E-1,2.4123421E-1,5.5470824E-1,2.3651871E-1,9.399102E-2,3.198794E-1,1.385505E0,4.478304E-1,2.025005E-2,-1.4002688E-1,1.7327997E-1,-1.3842148E-1,2.3487951E-1,-1.2501831E-1,1.4807397E-1,1.4467572E-1,3.1382713E-2,1.5619844E-1,-1.8226907E-2,2.020951E-1,-2.4002602E-2,-3.7391085E-2,8.137696E-2,3.9436445E-1,1.2127598E-2,-1.2467765E-1,1.9206837E-1,6.030532E-1,1.8518049E-1,5.6007814E-1,-1.1613076E-1,-4.899221E-2,3.4921736E-1,-9.2962936E-2,3.2157594E-1,1.7389838E-1,4.7294825E-1,7.559578E-2,3.9759097E-1,2.9342255E-2,3.069514E-1,-1.0576566E-1,5.652175E-1,-6.0700547E-2,2.0678975E-1,6.232902E-2,3.0279574E-1,3.4715077E-1,1.2949981E-1,2.1564178E-2,8.645718E-2,2.2642872E-1,2.335521E-2,1.2301781E-1,1.9136634E-2,2.12858E-1,6.248627E-1],"categories":[],"categories_nodes":[],"categories_segments":[],"categories_sizes":[],"default_left":[0,0,0,0,0,0,0,0,0,0,0,0,0,0,0,0,0,0,0,0,0,0,0,0,0,0,0,0,0,0,0,0,0,0,0,0,0,0,0,0,0,0,0,0,0,0,0,0,0,0,0,0,0,0,0,0,0,0,0,0,0,0,0,0,0,0,0,0,0,0,0,0,0,0,0,0,0,0,0,0,0,0,0,0,0,0,0,0,0,0,0,0,0,0,0,0,0,0,0,0,0,0,0,0,0,0,0,0,0],"id":11,"left_children":[1,3,5,7,9,11,13,15,17,19,21,23,25,27,29,-1,31,33,35,37,39,-1,41,43,45,47,49,51,53,55,57,59,61,-1,-1,63,65,67,69,71,73,75,77,79,-1,81,83,85,87,89,91,93,95,97,99,101,103,105,107,-1,-1,-1,-1,-1,-1,-1,-1,-1,-1,-1,-1,-1,-1,-1,-1,-1,-1,-1,-1,-1,-1,-1,-1,-1,-1,-1,-1,-1,-1,-1,-1,-1,-1,-1,-1,-1,-1,-1,-1,-1,-1,-1,-1,-1,-1,-1,-1,-1,-1],"loss_changes":[7.558603E1,2.6175018E1,1.9158157E1,6.465767E0,1.4201447E1,1.1820347E1,1.3601028E1,7.4763727E0,5.0414734E0,1.0902618E1,4.3882217E0,6.1407127E0,1.2156017E1,7.7472076E0,9.0561905E0,0E0,6.6979446E0,8.3122635E-1,7.040619E0,9.955978E0,8.246811E0,0E0,3.442196E0,2.5067253E0,7.0745916E0,7.8440247E0,8.018955E0,8.25853E0,6.9523773E0,8.6171E0,1.0708748E1,5.564322E0,1.9786451E0,0E0,0E0,4.924713E0,2.177563E0,1.0791931E1,7.6820984E0,1.0410156E1,8.602798E0,2.1585884E0,1.3005664E0,1.0132065E0,0E0,7.9014378E0,4.5200334E0,5.2333446E0,5.356449E0,6.118059E0,6.036543E0,6.773945E0,1.0302036E1,6.613901E0,6.801529E0,8.644726E0,7.7422E0,8.462864E0,3.13772E0,0E0,0E0,0E0,0E0,0E0,0E0,0E0,0E0,0E0,0E0,0E0,0E0,0E0,0E0,0E0,0E0,0E0,0E0,0E0,0E0,0E0,0E0,0E0,0E0,0E0,0E0,0E0,0E0,0E0,0E0,0E0,0E0,0E0,0E0,0E0,0E0,0E0,0E0,0E0,0E0,0E0,0E0,0E0,0E0,0E0,0E0,0E0,0E0,0E0,0E0],"parents":[2147483647,0,0,1,1,2,2,3,3,4,4,5,5,6,6,7,7,8,8,9,9,10,10,11,11,12,12,13,13,14,14,16,16,17,17,18,18,19,19,20,20,22,22,23,23,24,24,25,25,26,26,27,27,28,28,29,29,30,30,31,31,32,32,35,35,36,36,37,37,38,38,39,39,40,40,41,41,42,42,43,43,45,45,46,46,47,47,48,48,49,49,50,50,51,51,52,52,53,53,54,54,55,55,56,56,57,57,58,58],"right_children":[2,4,6,8,10,12,14,16,18,20,22,24,26,28,30,-1,32,34,36,38,40,-1,42,44,46,48,50,52,54,56,58,60,62,-1,-1,64,66,68,70,72,74,76,78,80,-1,82,84,86,88,90,92,94,96,98,100,102,104,106,108,-1,-1,-1,-1,-1,-1,-1,-1,-1,-1,-1,-1,-1,-1,-1,-1,-1,-1,-1,-1,-1,-1,-1,-1,-1,-1,-1,-1,-1,-1,-1,-1,-1,-1,-1,-1,-1,-1,-1,-1,-1,-1,-1,-1,-1,-1,-1,-1,-1,-1],"split_conditions":[-7.61368E-2,-2.7061787E-1,-4.3853413E-2,-1.20938405E-1,3.5469773E-1,-1.761843E-1,-4.539401E-2,-1.8864155E-2,-9.911608E-2,-1.7120913E-2,-3.2132217E-1,2.6306424E-2,-1.7764643E-1,-5.731916E-2,2.1234299E-1,4.301721E-1,-2.5315863E-1,2.6879123E-1,3.8720763E-1,-1.9116377E-2,-2.2495238E-1,-1.1576743E-1,1.1934944E-1,9.564753E-2,3.8244817E-2,-1.5021761E-1,-3.1776186E-2,-1.7277037E-1,1.329701E-1,-4.741654E-3,1.40455E-1,-3.1901477E-3,2.1295576E-1,5.2866375E-1,1.3345224E-1,-2.6436904E-1,1.9571812E-1,2.2002637E-1,1.4559619E-2,9.1365136E-2,-1.926201E-1,-3.660868E-1,2.5298795E-1,-1.6470224E-1,3.0124107E-2,1.8377606E-2,9.300574E-2,9.148636E-2,-5.2936506E-2,1.4232641E-1,3.4683982E-1,-5.4801613E-2,-8.231963E-2,2.3352614E-1,-9.301018E-2,-1.0515969E-2,-1.3140137E-1,8.438807E-2,-1.687501E-1,4.478304E-1,2.025005E-2,-1.4002688E-1,1.7327997E-1,-1.3842148E-1,2.3487951E-1,-1.2501831E-1,1.4807397E-1,1.4467572E-1,3.1382713E-2,1.5619844E-1,-1.8226907E-2,2.020951E-1,-2.4002602E-2,-3.7391085E-2,8.137696E-2,3.9436445E-1,1.2127598E-2,-1.2467765E-1,1.9206837E-1,6.030532E-1,1.8518049E-1,5.6007814E-1,-1.1613076E-1,-4.899221E-2,3.4921736E-1,-9.2962936E-2,3.2157594E-1,1.7389838E-1,4.7294825E-1,7.559578E-2,3.9759097E-1,2.9342255E-2,3.069514E-1,-1.0576566E-1,5.652175E-1,-6.0700547E-2,2.0678975E-1,6.232902E-2,3.0279574E-1,3.4715077E-1,1.2949981E-1,2.1564178E-2,8.645718E-2,2.2642872E-1,2.335521E-2,1.2301781E-1,1.9136634E-2,2.12858E-1,6.248627E-1],"split_indices":[80,48,29,109,89,115,11,29,4,11,93,30,40,92,40,0,9,3,98,55,34,0,64,10,83,39,127,25,76,119,32,94,39,0,0,27,22,27,60,5,34,19,2,96,0,93,41,9,29,80,43,72,25,30,26,80,74,62,25,0,0,0,0,0,0,0,0,0,0,0,0,0,0,0,0,0,0,0,0,0,0,0,0,0,0,0,0,0,0,0,0,0,0,0,0,0,0,0,0,0,0,0,0,0,0,0,0,0,0],"split_type":[0,0,0,0,0,0,0,0,0,0,0,0,0,0,0,0,0,0,0,0,0,0,0,0,0,0,0,0,0,0,0,0,0,0,0,0,0,0,0,0,0,0,0,0,0,0,0,0,0,0,0,0,0,0,0,0,0,0,0,0,0,0,0,0,0,0,0,0,0,0,0,0,0,0,0,0,0,0,0,0,0,0,0,0,0,0,0,0,0,0,0,0,0,0,0,0,0,0,0,0,0,0,0,0,0,0,0,0,0],"sum_hessian":[8.773351E3,2.6187173E3,6.1546333E3,2.3803714E2,2.3806802E3,3.5684116E3,2.586222E3,3.0128931E1,2.079082E2,2.3517866E3,2.8893421E1,2.949992E1,3.5389116E3,4.6279333E2,2.1234285E3,3.564439E0,2.6564491E1,6.8830075E0,2.0102519E2,1.0317013E3,1.3200853E3,1.5835323E0,2.7309889E1,7.3453007E0,2.215462E1,7.131561E1,3.467596E3,1.0087855E2,3.6191476E2,1.7480557E3,3.7537283E2,1.0699891E1,1.5864601E1,5.4672294E0,1.4157782E0,1.9145651E2,9.568681E0,9.2739166E2,1.0430971E2,1.1736671E2,1.2027186E3,2.4544596E1,2.765293E0,6.096724E0,1.2485764E0,6.2422137E0,1.5912405E1,1.6735626E1,5.4579987E1,2.9213663E2,3.1754595E3,8.508061E0,9.237049E1,2.644226E2,9.749216E1,1.0176057E3,7.3044995E2,3.6658176E2,8.791057E0,3.5402431E0,7.1596475E0,1.4669499E1,1.1951017E0,2.623028E0,1.8883348E2,6.4924088E0,3.0762718E0,8.4357104E2,8.382062E1,3.203046E1,7.227924E1,9.495714E1,2.240957E1,5.7096416E1,1.1456222E3,2.306882E1,1.4757739E0,1.7130098E0,1.0522832E0,4.1899776E0,1.9067463E0,4.4897437E0,1.7524703E0,1.3805325E1,2.1070797E0,1.4397869E1,2.3377562E0,4.8903507E1,5.6764793E0,2.8765942E2,4.4771895E0,3.1693823E3,6.0769887E0,1.2815669E0,7.2264943E0,1.50582285E1,7.731226E1,2.5459848E2,9.8241415E0,1.5108853E1,8.23833E1,2.4365556E2,7.7395013E2,1.6325727E1,7.141242E2,2.7066748E2,9.59143E1,5.488425E0,3.3026323E0],"tree_param":{"num_deleted":"0","num_feature":"128","num_nodes":"109","size_leaf_vector":"1"}},{"base_weights":[2.3039257E-2,1.9895602E-2,3.7057507E-1,2.9775346E-2,-7.0813715E-2,4.99858E-1,-9.608551E-2,4.991457E-3,5.9728928E-2,-3.900509E-1,-5.5474E-2,5.604454E-1,-1.3302273E-1,5.2529144E-1,-3.2384536E-1,7.714221E-1,2.8229707E-3,1.09627225E-1,1.4858728E-2,2.979642E-1,-4.667734E-1,-1.05738714E-1,5.5818055E-2,1.7141764E-1,7.8705716E-1,-1.3899677E-1,3.7782732E-1,1.8267748E-1,-4.618243E-1,1.4033011E0,-1.1068491E-2,2.4654725E-1,-3.5088505E-3,2.1824808E-1,7.563562E-2,6.533066E-1,9.120157E-3,-5.1784164E-1,1.20537646E-1,-6.9128685E-2,-3.7726232E-1,9.361305E-2,-3.3604112E-1,-3.3378017E-1,5.089764E-1,1.1218688E0,4.4522455E-1,5.2999325E-2,-1.0571317E-1,5.7517238E-2,-1.6258843E-1,4.850816E-3,5.6293625E-1,-1.4026523E-1,2.4676624E-1,1.0318603E-1,-1.22487485E-1,-1.7207452E-3,1.8497884E-1,5.4681495E-2,2.9073462E-1,1.9673062E-2,1.979441E-1,3.714163E-1,-6.941695E-2,1.5137146E-3,1.978182E-1,-2.9633482E-4,-1.7326647E-1,2.0355012E-1,-1.0945635E-1,-2.9510656E-2,1.1924088E-1,-1.2151771E-1,1.4984739E-1,-1.5615473E-2,6.44676E-2,-1.3940898E-1,1.8377508E-1,1.4013994E-1,-1.5964514E-1,1.9749747E-1,-1.1981554E-1,1.2540323E-1,4.2316E-1,2.3283163E-1,-6.719172E-2],"categories":[],"categories_nodes":[],"categories_segments":[],"categories_sizes":[],"default_left":[0,0,0,0,0,0,0,0,0,0,0,0,0,0,0,0,0,0,0,0,0,0,0,0,0,0,0,0,0,0,0,0,0,0,0,0,0,0,0,0,0,0,0,0,0,0,0,0,0,0,0,0,0,0,0,0,0,0,0,0,0,0,0,0,0,0,0,0,0,0,0,0,0,0,0,0,0,0,0,0,0,0,0,0,0,0,0],"id":12,"left_children":[1,3,5,7,9,11,13,15,17,19,21,23,-1,25,27,29,31,33,35,-1,37,39,41,43,45,47,-1,-1,49,51,53,55,57,59,61,63,65,67,69,71,73,75,77,79,81,83,85,-1,-1,-1,-1,-1,-1,-1,-1,-1,-1,-1,-1,-1,-1,-1,-1,-1,-1,-1,-1,-1,-1,-1,-1,-1,-1,-1,-1,-1,-1,-1,-1,-1,-1,-1,-1,-1,-1,-1,-1],"loss_changes":[8.97532E0,7.3053427E0,4.4913177E0,5.4557548E0,3.8994255E0,3.5536318E0,2.549976E0,6.683904E0,7.4487257E0,4.342044E0,4.286262E0,4.69471E0,0E0,2.56068E0,1.9445766E0,5.6256437E0,6.1931562E0,5.800091E0,6.417528E0,0E0,1.1213174E0,5.2169724E0,3.566931E0,3.8267853E0,3.4306889E0,2.9588854E-1,0E0,0E0,7.233455E-1,4.094763E0,2.6911E0,6.622237E0,5.405773E0,9.952339E0,7.016368E0,8.358871E0,4.603197E0,1.0077076E0,1.2321472E0,6.3969517E0,1.7240992E0,3.87122E0,2.8740952E0,1.709157E0,2.0605526E0,2.801447E0,4.3033285E0,0E0,0E0,0E0,0E0,0E0,0E0,0E0,0E0,0E0,0E0,0E0,0E0,0E0,0E0,0E0,0E0,0E0,0E0,0E0,0E0,0E0,0E0,0E0,0E0,0E0,0E0,0E0,0E0,0E0,0E0,0E0,0E0,0E0,0E0,0E0,0E0,0E0,0E0,0E0,0E0],"parents":[2147483647,0,0,1,1,2,2,3,3,4,4,5,5,6,6,7,7,8,8,9,9,10,10,11,11,13,13,14,14,15,15,16,16,17,17,18,18,20,20,21,21,22,22,23,23,24,24,25,25,28,28,29,29,30,30,31,31,32,32,33,33,34,34,35,35,36,36,37,37,38,38,39,39,40,40,41,41,42,42,43,43,44,44,45,45,46,46],"right_children":[2,4,6,8,10,12,14,16,18,20,22,24,-1,26,28,30,32,34,36,-1,38,40,42,44,46,48,-1,-1,50,52,54,56,58,60,62,64,66,68,70,72,74,76,78,80,82,84,86,-1,-1,-1,-1,-1,-1,-1,-1,-1,-1,-1,-1,-1,-1,-1,-1,-1,-1,-1,-1,-1,-1,-1,-1,-1,-1,-1,-1,-1,-1,-1,-1,-1,-1,-1,-1,-1,-1,-1,-1],"split_conditions":[4.8711455E-1,1.540373E-1,3.8972367E-3,-3.2921016E-2,-1.0060667E-1,3.6669272E-1,-4.8900744E-1,-3.182298E-1,-3.3559564E-3,-4.8245724E-2,5.572473E-4,-1.622624E-1,-1.3302273E-1,6.203849E-2,-3.9535916E-1,1.0891985E-1,-2.1287811E-1,6.419385E-3,-1.5895812E-1,2.979642E-1,3.3526087E-1,1.12617336E-1,2.4859016E-1,-2.5958958E-1,2.1924166E-1,3.7644513E-2,3.7782732E-1,1.8267748E-1,-1.1519685E-1,-2.0483056E-1,-4.6516895E-2,1.3833418E-1,5.056412E-1,2.7979654E-1,1.669676E-1,-1.33909155E-2,2.3546389E-1,1.20160446E-1,1.2846076E-1,5.5396095E-2,3.374534E-1,-1.5927812E-1,-1.7251028E-1,-2.9128808E-1,1.1552784E-1,2.4883375E-2,-1.04167596E-1,5.2999325E-2,-1.0571317E-1,5.7517238E-2,-1.6258843E-1,4.850816E-3,5.6293625E-1,-1.4026523E-1,2.4676624E-1,1.0318603E-1,-1.22487485E-1,-1.7207452E-3,1.8497884E-1,5.4681495E-2,2.9073462E-1,1.9673062E-2,1.979441E-1,3.714163E-1,-6.941695E-2,1.5137146E-3,1.978182E-1,-2.9633482E-4,-1.7326647E-1,2.0355012E-1,-1.0945635E-1,-2.9510656E-2,1.1924088E-1,-1.2151771E-1,1.4984739E-1,-1.5615473E-2,6.44676E-2,-1.3940898E-1,1.8377508E-1,1.4013994E-1,-1.5964514E-1,1.9749747E-1,-1.1981554E-1,1.2540323E-1,4.2316E-1,2.3283163E-1,-6.719172E-2],"split_indices":[2,1,7,12,115,34,40,89,106,116,15,75,0,30,93,33,25,12,33,0,106,99,97,111,60,0,0,0,77,50,115,119,46,28,14,117,58,12,87,125,49,77,10,100,40,124,124,0,0,0,0,0,0,0,0,0,0,0,0,0,0,0,0,0,0,0,0,0,0,0,0,0,0,0,0,0,0,0,0,0,0,0,0,0,0,0,0],"split_type":[0,0,0,0,0,0,0,0,0,0,0,0,0,0,0,0,0,0,0,0,0,0,0,0,0,0,0,0,0,0,0,0,0,0,0,0,0,0,0,0,0,0,0,0,0,0,0,0,0,0,0,0,0,0,0,0,0,0,0,0,0,0,0,0,0,0,0,0,0,0,0,0,0,0,0,0,0,0,0,0,0,0,0,0,0,0,0],"sum_hessian":[8.220898E3,8.14825E3,7.264822E1,7.348544E3,7.997062E2,5.6832336E1,1.581588E1,4.0219277E3,3.3266162E3,3.554505E1,7.6416113E2,5.3783585E1,3.0487514E0,3.8918238E0,1.1924056E1,1.0346408E1,4.0115813E3,1.5743752E3,1.752241E3,1.2401581E0,3.4304893E1,5.2644415E2,2.3771698E2,2.0443817E1,3.3339767E1,2.4686785E0,1.4231454E0,1.0967298E0,1.0827327E1,5.2851505E0,5.061258E0,1.00619026E2,3.9109624E3,3.7395953E2,1.2004156E3,1.4604141E1,1.7376367E3,3.166944E1,2.6354563E0,4.6500168E2,6.1442444E1,2.175001E2,2.0216877E1,8.193075E0,1.2250741E1,1.5690051E1,1.7649715E1,1.0651028E0,1.4035757E0,1.0305291E0,9.796798E0,1.6072843E0,3.677866E0,3.554169E0,1.5070887E0,8.800342E1,1.2615608E1,3.8979546E3,1.3007872E1,3.580471E2,1.5912426E1,1.1811895E3,1.9226212E1,8.552128E0,6.052013E0,1.7278185E3,9.818292E0,3.385186E0,2.8284252E1,1.0409896E0,1.5944667E0,4.3832263E2,2.6679054E1,6.0075798E1,1.366649E0,9.907492E1,1.18425186E2,1.8251665E1,1.9652115E0,1.3574727E0,6.8356028E0,1.0757333E1,1.4934082E0,5.2752805E0,1.041477E1,1.1703318E1,5.9463987E0],"tree_param":{"num_deleted":"0","num_feature":"128","num_nodes":"87","size_leaf_vector":"1"}},{"base_weights":[1.2516803E-1,5.9121996E-3,1.757298E-1,2.135119E-2,-3.7846547E-1,6.8328515E-2,1.9635406E-1,-1.7818257E-1,4.3845654E-2,-4.0424243E-1,1.7916267E-1,5.9996676E-1,5.6051534E-2,1.3377847E-1,2.244548E-1,-2.1439593E-1,2.9586402E-1,-4.294216E-1,5.1054608E-2,-4.2206097E-1,1.6080534E-1,1.4715562E0,1.9777575E-1,-1.01084664E-1,1.0161297E-1,1.4011286E-1,-5.1338905E-1,2.3728308E-1,4.989205E-2,1.545919E-1,-2.5088584E-1,1.2269576E0,2.5962207E-2,-1.951361E-1,-1.6938278E-1,5.1025563E-1,4.4985674E-2,-5.147082E-1,-2.8097937E-1,5.2775127E-1,1.0541183E-1,1.0938866E0,-2.3655997E-1,-3.4866288E-1,-9.807163E-3,7.670408E-2,4.137056E-1,3.3744183E-1,1.2101684E-1,5.4534934E-2,-1.7172271E-1,2.2362496E-1,4.315053E-1,1.7922945E-1,-1.5482238E-1,4.4825925E-3,3.7286538E-1,-3.1112984E-2,-9.68107E-2,-8.825699E-2,5.4088765E-1,2.720974E-1,-5.3133544E-2,-1.3151911E-1,1.24101825E-1,9.507567E-2,4.3837848E-1,1.5846146E-2,-8.732334E-2,-2.5303407E-2,-1.5895507E-1,2.2245351E-2,-1.4550193E-1,4.781124E-1,-1.0412896E-1,1.8046159E-1,-1.6665064E-1,-1.302694E-1,1.4916308E-1,-2.026314E-2,2.276881E-1,-9.034654E-3,4.3706313E-2,1.8914515E-1,1.7148833E-3,8.677527E-2,4.292093E-1,6.4128585E-2,2.1334892E-2,2.8256512E-1,6.615653E-2,1.0612646E-1,2.3320085E-1,9.5307104E-2,-2.215591E-2,-1.085493E-1,3.6081787E-2],"categories":[],"categories_nodes":[],"categories_segments":[],"categories_sizes":[],"default_left":[0,0,0,0,0,0,0,0,0,0,0,0,0,0,0,0,0,0,0,0,0,0,0,0,0,0,0,0,0,0,0,0,0,0,0,0,0,0,0,0,0,0,0,0,0,0,0,0,0,0,0,0,0,0,0,0,0,0,0,0,0,0,0,0,0,0,0,0,0,0,0,0,0,0,0,0,0,0,0,0,0,0,0,0,0,0,0,0,0,0,0,0,0,0,0,0,0],"id":13,"left_children":[1,3,5,7,9,11,13,15,17,19,-1,21,23,25,27,29,31,33,35,37,-1,39,41,43,45,47,49,51,53,55,57,59,61,63,-1,65,67,69,71,-1,-1,73,75,77,79,81,83,85,87,-1,-1,89,91,93,95,-1,-1,-1,-1,-1,-1,-1,-1,-1,-1,-1,-1,-1,-1,-1,-1,-1,-1,-1,-1,-1,-1,-1,-1,-1,-1,-1,-1,-1,-1,-1,-1,-1,-1,-1,-1,-1,-1,-1,-1,-1,-1],"loss_changes":[5.3327484E1,1.5641168E1,1.374408E1,1.1379351E1,2.8011265E0,6.506808E0,9.130966E0,4.4732275E0,7.7927504E0,1.8975239E0,0E0,7.601568E0,7.0304213E0,6.700674E0,8.035889E0,3.2598305E0,4.6552076E0,9.755492E-1,6.2318125E0,1.1423149E0,0E0,1.6222658E0,6.70468E0,4.9886923E0,5.881473E0,5.9962273E0,7.559223E-1,8.783478E0,6.575238E0,3.3473969E0,2.2715693E0,4.1839647E0,2.9304318E0,2.2652373E0,0E0,4.9018292E0,5.8506145E0,3.347597E-1,3.0233357E0,0E0,0E0,4.575256E0,3.535662E0,4.520818E0,7.260878E0,5.2042255E0,4.948735E0,7.00428E0,6.7524033E0,0E0,0E0,6.767929E0,5.609871E0,5.350087E0,5.52642E0,0E0,0E0,0E0,0E0,0E0,0E0,0E0,0E0,0E0,0E0,0E0,0E0,0E0,0E0,0E0,0E0,0E0,0E0,0E0,0E0,0E0,0E0,0E0,0E0,0E0,0E0,0E0,0E0,0E0,0E0,0E0,0E0,0E0,0E0,0E0,0E0,0E0,0E0,0E0,0E0,0E0,0E0],"parents":[2147483647,0,0,1,1,2,2,3,3,4,4,5,5,6,6,7,7,8,8,9,9,11,11,12,12,13,13,14,14,15,15,16,16,17,17,18,18,19,19,21,21,22,22,23,23,24,24,25,25,26,26,27,27,28,28,29,29,30,30,31,31,32,32,33,33,35,35,36,36,37,37,38,38,41,41,42,42,43,43,44,44,45,45,46,46,47,47,48,48,51,51,52,52,53,53,54,54],"right_children":[2,4,6,8,10,12,14,16,18,20,-1,22,24,26,28,30,32,34,36,38,-1,40,42,44,46,48,50,52,54,56,58,60,62,64,-1,66,68,70,72,-1,-1,74,76,78,80,82,84,86,88,-1,-1,90,92,94,96,-1,-1,-1,-1,-1,-1,-1,-1,-1,-1,-1,-1,-1,-1,-1,-1,-1,-1,-1,-1,-1,-1,-1,-1,-1,-1,-1,-1,-1,-1,-1,-1,-1,-1,-1,-1,-1,-1,-1,-1,-1,-1],"split_conditions":[-5.044585E-2,3.7459707E-1,-6.783043E-2,-2.3443092E-1,4.1443473E-1,-2.820143E-1,-6.8085134E-2,1.21242434E-1,-3.888311E-1,3.62151E-1,1.7916267E-1,-2.8934443E-1,6.0932245E-2,1.1670431E-1,1.5621716E-1,-3.2637876E-1,3.1453524E-2,1.8027428E-1,-1.7068963E-1,8.052199E-2,1.6080534E-1,1.8421757E-1,3.7780028E-2,1.23996794E-1,-5.294822E-2,-2.9661728E-2,-2.0436233E-1,1.851254E-1,3.580844E-2,2.2268404E-1,-7.622055E-2,1.4925681E-1,-2.8565866E-1,-2.5458688E-1,-1.6938278E-1,-1.1486767E-1,1.5685543E-1,-5.3733116E-1,2.3897599E-1,5.2775127E-1,1.0541183E-1,8.430063E-2,-3.1378275E-1,-7.3111122E-3,9.990597E-2,-3.79511E-2,3.438127E-2,1.7297906E-1,-1.0008646E-1,5.4534934E-2,-1.7172271E-1,-3.315033E-1,3.1302807E-1,-5.2878674E-2,2.9815102E-1,4.4825925E-3,3.7286538E-1,-3.1112984E-2,-9.68107E-2,-8.825699E-2,5.4088765E-1,2.720974E-1,-5.3133544E-2,-1.3151911E-1,1.24101825E-1,9.507567E-2,4.3837848E-1,1.5846146E-2,-8.732334E-2,-2.5303407E-2,-1.5895507E-1,2.2245351E-2,-1.4550193E-1,4.781124E-1,-1.0412896E-1,1.8046159E-1,-1.6665064E-1,-1.302694E-1,1.4916308E-1,-2.026314E-2,2.276881E-1,-9.034654E-3,4.3706313E-2,1.8914515E-1,1.7148833E-3,8.677527E-2,4.292093E-1,6.4128585E-2,2.1334892E-2,2.8256512E-1,6.615653E-2,1.0612646E-1,2.3320085E-1,9.5307104E-2,-2.215591E-2,-1.085493E-1,3.6081787E-2],"split_indices":[51,46,78,66,96,123,34,87,52,52,0,50,9,115,108,100,27,27,18,90,0,114,10,127,53,51,18,81,7,97,37,53,111,19,0,73,7,1,90,0,0,92,18,121,93,24,13,98,12,0,0,46,7,90,59,0,0,0,0,0,0,0,0,0,0,0,0,0,0,0,0,0,0,0,0,0,0,0,0,0,0,0,0,0,0,0,0,0,0,0,0,0,0,0,0,0,0],"split_type":[0,0,0,0,0,0,0,0,0,0,0,0,0,0,0,0,0,0,0,0,0,0,0,0,0,0,0,0,0,0,0,0,0,0,0,0,0,0,0,0,0,0,0,0,0,0,0,0,0,0,0,0,0,0,0,0,0,0,0,0,0,0,0,0,0,0,0,0,0,0,0,0,0,0,0,0,0,0,0,0,0,0,0,0,0,0,0,0,0,0,0,0,0,0,0,0,0],"sum_hessian":[8.843177E3,2.6333147E3,6.2098623E3,2.5325369E3,1.0077793E2,1.0010719E3,5.2087905E3,2.5587903E2,2.276658E3,9.875455E1,2.0233817E0,2.1515219E1,9.795567E2,1.6159973E3,3.5927932E3,2.3822804E2,1.765098E1,3.327971E1,2.2433782E3,9.745877E1,1.2957813E0,5.953822E0,1.5561396E1,2.1990631E2,7.596504E2,1.6011093E3,1.48879595E1,3.3465056E3,2.4628749E2,2.114744E1,2.1708061E2,3.1698506E0,1.448113E1,1.307085E1,2.0208858E1,2.817874E1,2.2151995E3,5.722875E1,4.023002E1,4.2835584E0,1.6702638E0,4.584415E0,1.0976981E1,5.8476547E1,1.6142976E2,7.046558E2,5.499458E1,1.3980122E2,1.4613081E3,1.002297E0,1.3885662E1,3.128644E3,2.1786157E2,1.5100676E2,9.528072E1,1.9640852E1,1.5065882E0,7.1991066E1,1.4508954E2,1.0050071E0,2.1648436E0,2.0632942E0,1.2417835E1,9.539197E0,3.5316534E0,2.4525934E1,3.6528053E0,2.1655557E3,4.9643826E1,2.1684175E0,5.5060333E1,1.4911518E1,2.53185E1,3.3250852E0,1.2593298E0,2.7816005E0,8.19538E0,5.3546444E1,4.9301033E0,1.5100128E2,1.0428487E1,2.767218E2,4.2793402E2,3.5556755E1,1.9437826E1,1.3511012E2,4.691101E0,5.1004846E2,9.5125964E2,1.2157524E1,3.1164866E3,1.795236E2,3.833797E1,9.744146E1,5.3565304E1,5.418859E1,4.1092133E1],"tree_param":{"num_deleted":"0","num_feature":"128","num_nodes":"97","size_leaf_vector":"1"}},{"base_weights":[-4.5528078E-1,-3.1629258E-1,-4.5931295E-1,3.5773683E-1,-3.519084E-1,-2.700058E-1,-4.6121967E-1,-1.187414E-1,6.232583E-1,-3.663993E-1,1.9050302E-1,-4.2879272E-1,1.2772138E-1,-4.623438E-1,-1.8772054E-1,-1.0682003E-1,9.621313E-1,-4.1117683E-1,-1.1047513E-1,-4.8639944E-1,2.2058839E-1,-1.4680648E-1,9.4292456E-1,-4.6422175E-1,-3.5760713E-1,1.08260155E-1,-1.5815091E-1,5.8525834E-2,-9.850821E-2,3.5346147E-1,3.714973E-2,-5.269477E-2,-4.4141713E-1,-3.9584762E-1,2.00421E-1,-5.084611E-1,5.789151E-2,-1.1214255E-1,2.471193E-1,5.190872E-1,-4.2882776E-1,-8.608666E-2,1.3419923E0,-2.3488626E-1,-4.6548155E-1,-3.937941E-1,2.683494E-1,6.868755E-1,-2.3985527E-1,9.796452E-2,-1.4416221E-1,-9.5557265E-2,-1.5469138E-1,-1.5843572E-1,1.1738635E-1,-2.312234E-2,3.2072127E-1,-1.5947671E-1,5.4476883E-2,2.6773986E-1,-9.511271E-2,6.498815E-2,-1.5425889E-1,1.3191302E-1,5.1336294E-1,1.965119E-1,-9.213956E-2,-1.3745691E-1,-1.4862637E-1,1.4391491E-1,-1.2555604E-1,4.3336713E-1,-8.249037E-2,4.1830385E-1,-4.3107044E-2,2.0241964E-1,-1.2434633E-1],"categories":[],"categories_nodes":[],"categories_segments":[],"categories_sizes":[],"default_left":[0,0,0,0,0,0,0,0,0,0,0,0,0,0,0,0,0,0,0,0,0,0,0,0,0,0,0,0,0,0,0,0,0,0,0,0,0,0,0,0,0,0,0,0,0,0,0,0,0,0,0,0,0,0,0,0,0,0,0,0,0,0,0,0,0,0,0,0,0,0,0,0,0,0,0,0,0],"id":14,"left_children":[1,3,5,7,9,11,13,-1,15,17,-1,19,21,23,25,27,29,31,33,35,37,39,41,43,45,47,-1,-1,-1,-1,-1,49,51,53,55,57,-1,-1,-1,59,61,-1,63,65,67,69,71,73,75,-1,-1,-1,-1,-1,-1,-1,-1,-1,-1,-1,-1,-1,-1,-1,-1,-1,-1,-1,-1,-1,-1,-1,-1,-1,-1,-1,-1],"loss_changes":[3.4072266E0,4.493326E0,2.0985107E0,2.1728003E0,2.7111416E0,4.085227E0,1.7871094E0,0E0,1.9599805E0,1.9191017E0,0E0,1.8221054E0,4.38603E0,1.027832E0,2.7329953E0,2.834281E-1,8.00879E-1,1.5544243E0,2.465498E0,7.3386383E-1,1.8936298E0,3.0514932E0,2.7979689E0,1.6125488E0,2.626049E0,3.197725E0,0E0,0E0,0E0,0E0,0E0,2.1782131E0,1.0587082E0,1.7016704E0,3.3451471E0,7.565775E-1,0E0,0E0,0E0,1.8233382E0,7.246442E-1,0E0,5.4278374E-1,2.4242525E0,1.0667725E0,2.4813957E0,4.6633015E0,3.676027E0,1.899605E0,0E0,0E0,0E0,0E0,0E0,0E0,0E0,0E0,0E0,0E0,0E0,0E0,0E0,0E0,0E0,0E0,0E0,0E0,0E0,0E0,0E0,0E0,0E0,0E0,0E0,0E0,0E0,0E0],"parents":[2147483647,0,0,1,1,2,2,3,3,4,4,5,5,6,6,8,8,9,9,11,11,12,12,13,13,14,14,15,15,16,16,17,17,18,18,19,19,20,20,21,21,22,22,23,23,24,24,25,25,31,31,32,32,33,33,34,34,35,35,39,39,40,40,42,42,43,43,44,44,45,45,46,46,47,47,48,48],"right_children":[2,4,6,8,10,12,14,-1,16,18,-1,20,22,24,26,28,30,32,34,36,38,40,42,44,46,48,-1,-1,-1,-1,-1,50,52,54,56,58,-1,-1,-1,60,62,-1,64,66,68,70,72,74,76,-1,-1,-1,-1,-1,-1,-1,-1,-1,-1,-1,-1,-1,-1,-1,-1,-1,-1,-1,-1,-1,-1,-1,-1,-1,-1,-1,-1],"split_conditions":[-2.6155385E-1,2.4723616E-1,-3.309481E-1,2.1010914E-1,-7.802082E-4,1.6801366E-1,5.30074E-1,-1.187414E-1,-1.1838674E-1,1.3434131E-1,1.9050302E-1,2.6897115E-1,1.3317823E-2,2.458211E-1,-1.1643752E-1,-5.739391E-3,9.60006E-2,1.747596E-1,9.507043E-2,3.633017E-2,5.071889E-1,-3.8354486E-2,-1.460364E-1,-3.7306768E-1,1.1666423E-1,1.1197553E-1,-1.5815091E-1,5.8525834E-2,-9.850821E-2,3.5346147E-1,3.714973E-2,-1.1073958E-1,-7.870818E-2,2.3530592E-1,-1.449248E-1,1.2297621E-1,5.789151E-2,-1.1214255E-1,2.471193E-1,2.210971E-2,-8.962257E-2,-8.608666E-2,-9.090015E-2,-3.102236E-1,7.817144E-2,-2.1748914E-1,-9.283991E-2,-6.8618566E-2,-1.7277041E-1,9.796452E-2,-1.4416221E-1,-9.5557265E-2,-1.5469138E-1,-1.5843572E-1,1.1738635E-1,-2.312234E-2,3.2072127E-1,-1.5947671E-1,5.4476883E-2,2.6773986E-1,-9.511271E-2,6.498815E-2,-1.5425889E-1,1.3191302E-1,5.1336294E-1,1.965119E-1,-9.213956E-2,-1.3745691E-1,-1.4862637E-1,1.4391491E-1,-1.2555604E-1,4.3336713E-1,-8.249037E-2,4.1830385E-1,-4.3107044E-2,2.0241964E-1,-1.2434633E-1],"split_indices":[121,76,39,76,111,109,112,0,94,21,0,126,48,11,12,8,18,115,25,34,44,23,53,127,34,52,0,0,0,0,0,19,16,98,51,125,0,0,0,49,81,0,55,35,22,76,8,29,99,0,0,0,0,0,0,0,0,0,0,0,0,0,0,0,0,0,0,0,0,0,0,0,0,0,0,0,0],"split_type":[0,0,0,0,0,0,0,0,0,0,0,0,0,0,0,0,0,0,0,0,0,0,0,0,0,0,0,0,0,0,0,0,0,0,0,0,0,0,0,0,0,0,0,0,0,0,0,0,0,0,0,0,0,0,0,0,0,0,0,0,0,0,0,0,0,0,0,0,0,0,0,0,0,0,0,0,0],"sum_hessian":[6.3381196E3,1.8093024E2,6.1571895E3,8.626639E0,1.7230359E2,6.28197E1,6.0943696E3,2.119864E0,6.5067754E0,1.7042992E2,1.8736768E0,4.4839897E1,1.79798E1,6.068736E3,2.5633953E1,2.2798266E0,4.2269487E0,1.4453487E2,2.5895056E1,4.1416786E1,3.4231117E0,1.4063641E1,3.9161577E0,5.9584683E3,1.10267654E2,1.4057591E1,1.1576363E1,1.01544E0,1.2643867E0,3.0383387E0,1.1886102E0,1.145731E1,1.3307756E2,1.33592825E1,1.2535772E1,4.035779E1,1.058995E0,1.9155598E0,1.5075518E0,3.9340873E0,1.0129554E1,1.0282245E0,2.8879333E0,3.3577026E1,5.924891E3,1.0459202E2,5.675641E0,4.9150248E0,9.142567E0,6.1991434E0,5.2581663E0,5.210124E1,8.097632E1,1.1719057E1,1.6402258E0,1.0191354E1,2.344419E0,3.9271206E1,1.0865862E0,2.6730442E0,1.261043E0,1.0036438E0,9.12591E0,1.4747964E0,1.4131368E0,1.9154577E0,3.166157E1,4.777605E3,1.147286E3,2.3726006E0,1.0221941E2,1.2692076E0,4.4064336E0,2.287638E0,2.6273868E0,1.0066743E0,8.135893E0],"tree_param":{"num_deleted":"0","num_feature":"128","num_nodes":"77","size_leaf_vector":"1"}},{"base_weights":[-1.1687239E-1,-2.8321663E-1,-1.0925389E-1,-3.5780343E-1,-1.4430504E-1,-2.524667E-1,-1.0403379E-1,-4.8035136E-1,-2.7017274E-1,-1.696338E-1,7.322539E-1,-4.9184507E-1,-2.0664023E-1,-1.0967142E-1,-2.0365382E-3,-1.5204141E-2,-4.9977273E-1,-3.1879434E-1,2.567367E-1,1.8960206E-2,-2.832427E-1,4.2155895E-1,-9.40262E-2,-1.2777044E-1,-5.3616124E-1,-2.5060675E-1,3.0054054E-1,-1.00937344E-1,-1.9615142E-1,2.3328224E-2,-4.5270512E-1,1.8026373E-1,-1.2275722E-1,6.1696265E-2,-5.1072645E-1,-3.5287726E-1,4.5353663E-1,6.798564E-1,-1.3770491E-1,-1.6939263E-1,4.0496132E-1,4.8430435E-2,-4.6298927E-1,2.0927921E-1,-1.3762416E-1,-1.6873208E-1,-2.0574845E-1,-1.835704E-1,-4.6540517E-1,7.5245357E-1,-2.790247E-1,-1.9541453E-1,-9.380078E-2,6.8493605E-1,-2.0462033E-1,7.297327E-1,-8.192252E-3,3.1191157E-2,-1.647956E-1,-1.5652546E-1,3.8232986E-2,-1.1759812E-1,3.3007137E-2,4.0615264E-1,-1.2353404E-1,5.180166E-1,-3.0131446E-2,-8.828101E-2,1.5669307E-1,2.2273675E-1,-8.9170866E-2,1.3498336E-1,-8.388257E-2,-1.6190419E-1,-5.1589422E-2,6.114721E-2,-1.2002276E-1,-7.177868E-2,6.2041115E-2,-1.5187085E-1,1.6354817E-1,3.1171825E-2,4.6515232E-1,2.0861179E-1,-1.5201727E-1,-2.7306367E-2,-8.959646E-2,-2.904723E-2,5.9131503E-2,-1.0848657E-1,3.5801944E-1,-2.9908719E-2,-7.732623E-2,3.308114E-1,-3.3749506E-2,1.5444519E-2,-6.722543E-2,-1.1976165E-1,2.0814744E-1],"categories":[],"categories_nodes":[],"categories_segments":[],"categories_sizes":[],"default_left":[0,0,0,0,0,0,0,0,0,0,0,0,0,0,0,0,0,0,0,0,0,0,0,0,0,0,0,0,0,0,0,0,0,0,0,0,0,0,0,0,0,0,0,0,0,0,0,0,0,0,0,0,0,0,0,0,0,0,0,0,0,0,0,0,0,0,0,0,0,0,0,0,0,0,0,0,0,0,0,0,0,0,0,0,0,0,0,0,0,0,0,0,0,0,0,0,0,0,0],"id":15,"left_children":[1,3,5,7,9,11,13,15,17,19,21,23,25,27,29,31,33,35,37,39,41,-1,-1,43,45,47,49,51,53,55,57,-1,-1,-1,59,61,63,65,-1,67,69,71,73,-1,-1,-1,75,77,79,81,83,85,87,89,91,93,95,97,-1,-1,-1,-1,-1,-1,-1,-1,-1,-1,-1,-1,-1,-1,-1,-1,-1,-1,-1,-1,-1,-1,-1,-1,-1,-1,-1,-1,-1,-1,-1,-1,-1,-1,-1,-1,-1,-1,-1,-1,-1],"loss_changes":[9.534218E0,3.3666134E0,5.370392E0,2.1681614E0,2.7203937E0,2.6756058E0,4.005745E0,7.867527E-1,3.3367853E0,2.4578183E0,2.8836408E0,5.7613754E-1,4.8521004E0,4.966629E0,4.1933374E0,1.3516535E0,7.570019E-1,3.2336416E0,3.7304244E0,3.2652252E0,4.284694E0,0E0,0E0,1.8630648E0,1.9083786E-1,2.7609062E0,4.804759E0,4.025902E0,4.6509953E0,7.740497E0,9.309325E-1,0E0,0E0,0E0,6.5309334E-1,2.0781965E0,4.7429857E0,6.29733E0,0E0,2.7669735E0,3.7076173E0,3.5546787E0,9.4416046E-1,0E0,0E0,0E0,4.140745E-1,3.3607082E0,2.189165E0,5.080735E0,2.219522E0,4.503105E0,4.9256706E0,3.6165411E0,3.31674E0,4.7884974E0,4.308291E0,1.4746006E0,0E0,0E0,0E0,0E0,0E0,0E0,0E0,0E0,0E0,0E0,0E0,0E0,0E0,0E0,0E0,0E0,0E0,0E0,0E0,0E0,0E0,0E0,0E0,0E0,0E0,0E0,0E0,0E0,0E0,0E0,0E0,0E0,0E0,0E0,0E0,0E0,0E0,0E0,0E0,0E0,0E0],"parents":[2147483647,0,0,1,1,2,2,3,3,4,4,5,5,6,6,7,7,8,8,9,9,10,10,11,11,12,12,13,13,14,14,15,15,16,16,17,17,18,18,19,19,20,20,23,23,24,24,25,25,26,26,27,27,28,28,29,29,30,30,34,34,35,35,36,36,37,37,39,39,40,40,41,41,42,42,46,46,47,47,48,48,49,49,50,50,51,51,52,52,53,53,54,54,55,55,56,56,57,57],"right_children":[2,4,6,8,10,12,14,16,18,20,22,24,26,28,30,32,34,36,38,40,42,-1,-1,44,46,48,50,52,54,56,58,-1,-1,-1,60,62,64,66,-1,68,70,72,74,-1,-1,-1,76,78,80,82,84,86,88,90,92,94,96,98,-1,-1,-1,-1,-1,-1,-1,-1,-1,-1,-1,-1,-1,-1,-1,-1,-1,-1,-1,-1,-1,-1,-1,-1,-1,-1,-1,-1,-1,-1,-1,-1,-1,-1,-1,-1,-1,-1,-1,-1,-1],"split_conditions":[-1.8815447E-1,1.0119455E-1,-2.9515815E-1,6.606401E-2,6.643402E-2,1.04016595E-1,2.381359E-1,-4.000239E-1,1.5228674E-1,5.7926685E-2,-1.3421817E-1,-6.5643616E-2,3.7122108E-3,2.0621009E-1,5.243667E-2,-1.5656084E-3,-1.7763956E-1,3.7973365E-1,1.7165095E-1,2.4670657E-2,-8.682051E-3,4.2155895E-1,-9.40262E-2,-8.149031E-2,1.2779918E-1,7.5173065E-2,-2.1189405E-2,-1.2829451E-1,-3.9306757E-1,-1.9737133E-1,-3.3948067E-1,1.8026373E-1,-1.2275722E-1,6.1696265E-2,4.116151E-1,-3.8033087E-2,2.9796243E-1,4.1484693E-1,-1.3770491E-1,2.5426608E-1,3.1215596E-1,3.4777896E-4,2.594125E-1,2.0927921E-1,-1.3762416E-1,-1.6873208E-1,2.7298015E-1,4.0756524E-2,1.2383864E-1,1.08000964E-1,-2.8055665E-1,-1.89724E-1,3.0135575E-1,-1.0313776E-1,-3.227077E-2,4.0968515E-2,3.6959052E-3,1.8551782E-1,-1.647956E-1,-1.5652546E-1,3.8232986E-2,-1.1759812E-1,3.3007137E-2,4.0615264E-1,-1.2353404E-1,5.180166E-1,-3.0131446E-2,-8.828101E-2,1.5669307E-1,2.2273675E-1,-8.9170866E-2,1.3498336E-1,-8.388257E-2,-1.6190419E-1,-5.1589422E-2,6.114721E-2,-1.2002276E-1,-7.177868E-2,6.2041115E-2,-1.5187085E-1,1.6354817E-1,3.1171825E-2,4.6515232E-1,2.0861179E-1,-1.5201727E-1,-2.7306367E-2,-8.959646E-2,-2.904723E-2,5.9131503E-2,-1.0848657E-1,3.5801944E-1,-2.9908719E-2,-7.732623E-2,3.308114E-1,-3.3749506E-2,1.5444519E-2,-6.722543E-2,-1.1976165E-1,2.0814744E-1],"split_indices":[55,49,7,37,67,23,105,34,47,77,24,8,84,18,47,17,38,15,126,77,74,0,0,71,51,6,99,64,126,84,98,0,0,0,98,61,4,76,0,62,115,22,120,0,0,0,4,6,74,80,39,46,40,46,98,33,59,78,0,0,0,0,0,0,0,0,0,0,0,0,0,0,0,0,0,0,0,0,0,0,0,0,0,0,0,0,0,0,0,0,0,0,0,0,0,0,0,0,0],"split_type":[0,0,0,0,0,0,0,0,0,0,0,0,0,0,0,0,0,0,0,0,0,0,0,0,0,0,0,0,0,0,0,0,0,0,0,0,0,0,0,0,0,0,0,0,0,0,0,0,0,0,0,0,0,0,0,0,0,0,0,0,0,0,0,0,0,0,0,0,0,0,0,0,0,0,0,0,0,0,0,0,0,0,0,0,0,0,0,0,0,0,0,0,0,0,0,0,0,0,0],"sum_hessian":[7.546706E3,3.289154E2,7.217791E3,2.1298178E2,1.15933624E2,2.5216992E2,6.965621E3,8.6930916E1,1.26050865E2,1.1346155E2,2.472072E0,3.8954594E1,2.1321533E2,6.600709E3,3.6491196E2,3.5556214E0,8.337529E1,1.15763535E2,1.028733E1,4.2967457E1,7.0494095E1,1.2949136E0,1.1771581E0,4.648503E0,3.430609E1,1.9667209E2,1.6543247E1,5.997188E3,6.035212E2,3.4636584E2,1.8546106E1,1.1820713E0,2.37355E0,1.0030512E0,8.2372246E1,1.1139096E2,4.3725743E0,6.4968486E0,3.7904809E0,2.9253902E1,1.3713554E1,2.5033035E1,4.546106E1,1.0134745E0,3.6350281E0,3.1128124E1,3.1779692E0,1.5130574E2,4.5366337E1,9.127679E0,7.4155684E0,4.19343E2,5.5778447E3,4.9852896E0,5.985359E2,1.384884E1,3.32517E2,3.1993039E0,1.5346802E1,8.1152664E1,1.2195808E0,1.0285279E2,8.538174E0,1.8662751E0,2.5062993E0,2.2565227E0,4.240326E0,2.5266886E1,3.9870162E0,9.223275E0,4.4902787E0,1.1088852E1,1.3944184E1,3.5303417E1,1.015764E1,1.0069051E0,2.1710641E0,1.3275381E2,1.8551931E1,4.4084213E1,1.2821254E0,5.659016E0,3.4686627E0,1.0155987E0,6.3999696E0,2.094428E2,2.0990018E2,5.5211323E3,5.6712646E1,1.7245251E0,3.2607644E0,2.02174E2,3.9636188E2,9.383986E0,4.4648523E0,2.61107E2,7.1409996E1,2.1805384E0,1.0187656E0],"tree_param":{"num_deleted":"0","num_feature":"128","num_nodes":"99","size_leaf_vector":"1"}},{"base_weights":[8.9859076E-2,2.017092E-1,8.112159E-2,3.197399E-1,1.1669533E-1,-8.831424E-2,8.890989E-2,7.553991E-2,4.5485425E-1,1.5453418E-1,-3.411868E-1,1.2828992E-1,-1.5287071E-1,1.1330812E-1,6.121099E-2,3.3305994E-1,-2.554476E-1,5.018721E-1,-2.848345E-1,1.1518522E-1,7.758807E-1,-4.3453223E-1,2.0449577E-1,2.2023861E-1,-4.6230677E-1,5.256742E-1,-1.7874444E-1,1.4088511E-1,5.220049E-2,2.1238407E-1,4.7303945E-2,-2.3668565E-1,5.4391295E-1,2.4792975E-1,-3.1666598E-1,9.3208665E-1,4.0379345E-1,4.8010474E-1,-1.6442056E-1,-1.7446078E-2,2.2651212E-1,9.174095E-2,1.2670228E0,-5.0495386E-1,1.6491589E-1,-1.822678E-1,4.3537247E-1,-1.6361856E-1,4.6410188E-2,1.0806619E0,-2.8046298E-1,1.2956184E-1,-2.2743554E-1,1.3875307E-1,1.035497E0,-1.3761316E-2,1.3988684E-1,2.6067385E-1,-2.6552567E-1,3.4569193E-2,2.359464E-1,-1.6496077E-1,1.2003437E-1,7.0849694E-2,3.5412514E-1,5.004813E-2,-1.23087436E-1,3.359538E-1,-1.4683926E-1,1.4189576E-1,-9.50955E-2,-1.00278795E-1,3.3508074E-1,7.6039985E-2,-4.339604E-2,-8.945497E-4,1.14080764E-1,3.0211234E-1,-1.13491975E-1,1.3833857E-2,5.06249E-1,5.5954084E-2,-1.6279432E-1,-1.280855E-1,5.3533282E-2,-1.4693297E-1,1.5948674E-1,4.3493107E-1,3.0836423E-3,5.014861E-2,-1.3478814E-1,1.5561102E-1,-8.782862E-2,-8.710435E-2,2.2987569E-2,4.3829817E-2,-1.8166248E-2,4.7477767E-1,-1.08126365E-1,5.0677802E-2,-1.8543664E-2,3.867569E-1,3.8988445E-2,9.6597135E-2,-2.0966645E-2,-1.304672E-1,5.9893534E-2,-6.734327E-3,1.852913E-2,1.7387544E-1,3.0704547E-2],"categories":[],"categories_nodes":[],"categories_segments":[],"categories_sizes":[],"default_left":[0,0,0,0,0,0,0,0,0,0,0,0,0,0,0,0,0,0,0,0,0,0,0,0,0,0,0,0,0,0,0,0,0,0,0,0,0,0,0,0,0,0,0,0,0,0,0,0,0,0,0,0,0,0,0,0,0,0,0,0,0,0,0,0,0,0,0,0,0,0,0,0,0,0,0,0,0,0,0,0,0,0,0,0,0,0,0,0,0,0,0,0,0,0,0,0,0,0,0,0,0,0,0,0,0,0,0,0,0,0,0],"id":16,"left_children":[1,3,5,7,9,11,13,15,17,19,21,23,25,27,29,31,33,35,37,39,41,43,-1,45,47,49,51,53,55,57,59,61,63,-1,65,67,69,71,-1,73,75,77,79,81,-1,83,85,-1,-1,87,89,91,93,95,97,99,101,103,105,107,109,-1,-1,-1,-1,-1,-1,-1,-1,-1,-1,-1,-1,-1,-1,-1,-1,-1,